<?xml version="1.0"?>
<MethodSetup Method="BDT::BDTG_new_sample_v9">
  <GeneralInfo>
    <Info name="TMVA Release" value="4.2.1 [262657]"/>
    <Info name="ROOT Release" value="6.10/09 [395785]"/>
    <Info name="Creator" value="arapyan"/>
    <Info name="Date" value="Wed Apr 15 21:40:43 2020"/>
    <Info name="Host" value="Linux cmsbuild76.cern.ch 2.6.32-696.30.1.el6.x86_64 #1 SMP Tue May 22 06:09:36 CEST 2018 x86_64 x86_64 x86_64 GNU/Linux"/>
    <Info name="Dir" value="/afs/cern.ch/work/a/arapyan/Run2/test/CMSSW_9_4_12/src/MitAnalysisRunII/panda/macros/9x"/>
    <Info name="Training events" value="331892"/>
    <Info name="TrainingTime" value="3.61786645e+02"/>
    <Info name="AnalysisType" value="Classification"/>
  </GeneralInfo>
  <Options>
    <Option name="V" modified="Yes">False</Option>
    <Option name="VerbosityLevel" modified="No">Default</Option>
    <Option name="VarTransform" modified="No">None</Option>
    <Option name="H" modified="Yes">False</Option>
    <Option name="CreateMVAPdfs" modified="No">False</Option>
    <Option name="IgnoreNegWeightsInTraining" modified="No">False</Option>
    <Option name="NTrees" modified="Yes">1000</Option>
    <Option name="MaxDepth" modified="Yes">2</Option>
    <Option name="MinNodeSize" modified="Yes">5%</Option>
    <Option name="nCuts" modified="Yes">10000</Option>
    <Option name="BoostType" modified="Yes">Grad</Option>
    <Option name="AdaBoostR2Loss" modified="No">quadratic</Option>
    <Option name="UseBaggedBoost" modified="Yes">True</Option>
    <Option name="Shrinkage" modified="Yes">1.000000e-01</Option>
    <Option name="AdaBoostBeta" modified="No">5.000000e-01</Option>
    <Option name="UseRandomisedTrees" modified="No">False</Option>
    <Option name="UseNvars" modified="No">4</Option>
    <Option name="UsePoissonNvars" modified="No">True</Option>
    <Option name="BaggedSampleFraction" modified="No">5.000000e-01</Option>
    <Option name="UseYesNoLeaf" modified="No">True</Option>
    <Option name="NegWeightTreatment" modified="Yes">ignorenegweightsintraining</Option>
    <Option name="Css" modified="No">1.000000e+00</Option>
    <Option name="Cts_sb" modified="No">1.000000e+00</Option>
    <Option name="Ctb_ss" modified="No">1.000000e+00</Option>
    <Option name="Cbb" modified="No">1.000000e+00</Option>
    <Option name="NodePurityLimit" modified="No">5.000000e-01</Option>
    <Option name="SeparationType" modified="No">giniindex</Option>
    <Option name="RegressionLossFunctionBDTG" modified="No">huber</Option>
    <Option name="HuberQuantile" modified="No">7.000000e-01</Option>
    <Option name="DoBoostMonitor" modified="No">False</Option>
    <Option name="UseFisherCuts" modified="No">False</Option>
    <Option name="MinLinCorrForFisher" modified="No">8.000000e-01</Option>
    <Option name="UseExclusiveVars" modified="No">False</Option>
    <Option name="DoPreselection" modified="No">False</Option>
    <Option name="SigToBkgFraction" modified="No">1.000000e+00</Option>
    <Option name="PruneMethod" modified="No">nopruning</Option>
    <Option name="PruneStrength" modified="No">0.000000e+00</Option>
    <Option name="PruningValFraction" modified="No">5.000000e-01</Option>
    <Option name="SkipNormalization" modified="No">False</Option>
    <Option name="nEventsMin" modified="No">0</Option>
    <Option name="UseBaggedGrad" modified="No">False</Option>
    <Option name="GradBaggingFraction" modified="Yes">5.000000e-01</Option>
    <Option name="UseNTrainEvents" modified="No">0</Option>
    <Option name="NNodesMax" modified="No">0</Option>
  </Options>
  <Variables NVar="15">
    <Variable VarIndex="0" Expression="mvadphijj" Label="mvadphijj" Title="mvadphijj" Unit="" Internal="mvadphijj" Type="F" Min="-3.14159036e+00" Max="3.14158964e+00"/>
    <Variable VarIndex="1" Expression="mvajetpt1" Label="mvajetpt1" Title="mvajetpt1" Unit="" Internal="mvajetpt1" Type="F" Min="5.00606613e+01" Max="1.97677283e+03"/>
    <Variable VarIndex="2" Expression="mvajetpt2" Label="mvajetpt2" Title="mvajetpt2" Unit="" Internal="mvajetpt2" Type="F" Min="5.00002632e+01" Max="1.06116089e+03"/>
    <Variable VarIndex="3" Expression="mvaWpt" Label="mvaWpt" Title="mvaMet" Unit="" Internal="mvaWpt" Type="F" Min="3.00008163e+01" Max="1.35328149e+03"/>
    <Variable VarIndex="4" Expression="mvaZpt" Label="mvaZpt" Title="mvaZpt" Unit="" Internal="mvaZpt" Type="F" Min="1.76524222e-01" Max="1.95861267e+03"/>
    <Variable VarIndex="5" Expression="mvaVVmt" Label="mvaVVmt" Title="mvaVVmt" Unit="" Internal="mvaVVmt" Type="F" Min="3.86765460e-04" Max="2.29841187e+03"/>
    <Variable VarIndex="6" Expression="mvazep1" Label="mvazep1" Title="mvazep1" Unit="" Internal="mvazep1" Type="F" Min="1.24548365e-06" Max="7.49954700e-01"/>
    <Variable VarIndex="7" Expression="mvazep2" Label="mvazep2" Title="mvazep2" Unit="" Internal="mvazep2" Type="F" Min="7.64133802e-07" Max="7.49998212e-01"/>
    <Variable VarIndex="8" Expression="mvaj1Zdr" Label="mvaj1Zdr" Title="mvaj1Zdr" Unit="" Internal="mvaj1Zdr" Type="F" Min="1.56770125e-02" Max="9.43920708e+00"/>
    <Variable VarIndex="9" Expression="mvaj2Zdr" Label="mvaj2Zdr" Title="mvaj2Zdr" Unit="" Internal="mvaj2Zdr" Type="F" Min="3.76873650e-03" Max="1.08461075e+01"/>
    <Variable VarIndex="10" Expression="mvaleppt1" Label="mvaleppt1" Title="mvaleppt1" Unit="" Internal="mvaleppt1" Type="F" Min="2.00006809e+01" Max="1.93746191e+03"/>
    <Variable VarIndex="11" Expression="mvaleppt2" Label="mvaleppt2" Title="mvaleppt2" Unit="" Internal="mvaleppt2" Type="F" Min="2.00001240e+01" Max="1.39698120e+03"/>
    <Variable VarIndex="12" Expression="mvadphill" Label="mvadphill" Title="mvadphill" Unit="" Internal="mvadphill" Type="F" Min="2.01463699e-05" Max="3.14159226e+00"/>
    <Variable VarIndex="13" Expression="mvamll" Label="mvamll" Title="mvamll" Unit="" Internal="mvamll" Type="F" Min="2.00004978e+01" Max="2.96865234e+03"/>
    <Variable VarIndex="14" Expression="(mvaleppt1*mvaleppt2)/(mvajetpt1*mvajetpt2)" Label="(mvaleppt1*mvaleppt2)/(mvajetpt1*mvajetpt2)" Title="mvaptrel" Unit="" Internal="_mvaleppt1_T_mvaleppt2__D__mvajetpt1_T_mvajetpt2_" Type="F" Min="6.74202282e-04" Max="2.73840240e+02"/>
  </Variables>
  <Spectators NSpec="0"/>
  <Classes NClass="2">
    <Class Name="Signal" Index="0"/>
    <Class Name="Background" Index="1"/>
  </Classes>
  <Transformations NTransformations="0"/>
  <MVAPdfs/>
  <Weights NTrees="1000" AnalysisType="1">
    <BinaryTree type="DecisionTree" boostWeight="1.0000000000000000e+00" itree="0">
      <Node pos="s" depth="0" NCoef="0" IVar="10" Cut="7.8671028137207031e+01" cType="1" res="2.2908089158590883e-04" rms="4.9999994039535522e-01" purity="5.0022906064987183e-01" nType="0">
        <Node pos="l" depth="1" NCoef="0" IVar="3" Cut="1.3089399719238281e+02" cType="1" res="8.8225312530994415e-02" rms="4.9215474724769592e-01" purity="5.8822530508041382e-01" nType="0">
          <Node pos="l" depth="2" NCoef="0" IVar="-1" Cut="0.0000000000000000e+00" cType="1" res="2.5926696136593819e-02" rms="4.7730270028114319e-01" purity="6.4893668889999390e-01" nType="-99"/>
          <Node pos="r" depth="2" NCoef="0" IVar="-1" Cut="0.0000000000000000e+00" cType="1" res="-2.9842838644981384e-02" rms="4.6844616532325745e-01" purity="3.2519096136093140e-01" nType="-99"/>
        </Node>
        <Node pos="r" depth="1" NCoef="0" IVar="4" Cut="1.5056040954589844e+02" cType="1" res="-1.5680311620235443e-01" rms="4.7477656602859497e-01" purity="3.4319686889648438e-01" nType="0">
          <Node pos="l" depth="2" NCoef="0" IVar="-1" Cut="0.0000000000000000e+00" cType="1" res="-1.7745288088917732e-02" rms="4.8768219351768494e-01" purity="3.8970011472702026e-01" nType="-99"/>
          <Node pos="r" depth="2" NCoef="0" IVar="-1" Cut="0.0000000000000000e+00" cType="1" res="-4.0764547884464264e-02" rms="4.2632877826690674e-01" purity="2.3876489698886871e-01" nType="-99"/>
        </Node>
      </Node>
    </BinaryTree>
    <BinaryTree type="DecisionTree" boostWeight="1.0000000000000000e+00" itree="1">
      <Node pos="s" depth="0" NCoef="0" IVar="10" Cut="8.5189735412597656e+01" cType="1" res="-1.3428445672616363e-03" rms="4.9588987231254578e-01" purity="4.9907591938972473e-01" nType="0">
        <Node pos="l" depth="1" NCoef="0" IVar="3" Cut="1.4074885559082031e+02" cType="1" res="7.2353698313236237e-02" rms="4.9098873138427734e-01" purity="5.7889753580093384e-01" nType="0">
          <Node pos="l" depth="2" NCoef="0" IVar="-1" Cut="0.0000000000000000e+00" cType="1" res="2.1359898149967194e-02" rms="4.8116669058799744e-01" purity="6.3382130861282349e-01" nType="-99"/>
          <Node pos="r" depth="2" NCoef="0" IVar="-1" Cut="0.0000000000000000e+00" cType="1" res="-3.2101940363645554e-02" rms="4.5671731233596802e-01" purity="2.9645168781280518e-01" nType="-99"/>
        </Node>
        <Node pos="r" depth="1" NCoef="0" IVar="2" Cut="8.4147232055664062e+01" cType="1" res="-1.6061033308506012e-01" rms="4.6824792027473450e-01" purity="3.2657152414321899e-01" nType="0">
          <Node pos="l" depth="2" NCoef="0" IVar="-1" Cut="0.0000000000000000e+00" cType="1" res="-1.0962015949189663e-02" rms="4.9281248450279236e-01" purity="4.1750100255012512e-01" nType="-99"/>
          <Node pos="r" depth="2" NCoef="0" IVar="-1" Cut="0.0000000000000000e+00" cType="1" res="-3.4413702785968781e-02" rms="4.4435867667198181e-01" purity="2.7241122722625732e-01" nType="-99"/>
        </Node>
      </Node>
    </BinaryTree>
    <BinaryTree type="DecisionTree" boostWeight="1.0000000000000000e+00" itree="2">
      <Node pos="s" depth="0" NCoef="0" IVar="10" Cut="8.9458236694335938e+01" cType="1" res="1.9963685190305114e-04" rms="4.9222648143768311e-01" purity="5.0085651874542236e-01" nType="0">
        <Node pos="l" depth="1" NCoef="0" IVar="3" Cut="1.1437998962402344e+02" cType="1" res="6.4614608883857727e-02" rms="4.8900231719017029e-01" purity="5.7634991407394409e-01" nType="0">
          <Node pos="l" depth="2" NCoef="0" IVar="-1" Cut="0.0000000000000000e+00" cType="1" res="2.2493461146950722e-02" rms="4.7628018260002136e-01" purity="6.5023916959762573e-01" nType="-99"/>
          <Node pos="r" depth="2" NCoef="0" IVar="-1" Cut="0.0000000000000000e+00" cType="1" res="-2.0130561664700508e-02" rms="4.7813814878463745e-01" purity="3.6795791983604431e-01" nType="-99"/>
        </Node>
        <Node pos="r" depth="1" NCoef="0" IVar="2" Cut="9.2425323486328125e+01" cType="1" res="-1.5447102487087250e-01" rms="4.6475496888160706e-01" purity="3.1958475708961487e-01" nType="0">
          <Node pos="l" depth="2" NCoef="0" IVar="-1" Cut="0.0000000000000000e+00" cType="1" res="-1.1570628732442856e-02" rms="4.9045562744140625e-01" purity="4.0580803155899048e-01" nType="-99"/>
          <Node pos="r" depth="2" NCoef="0" IVar="-1" Cut="0.0000000000000000e+00" cType="1" res="-3.5115968436002731e-02" rms="4.3300750851631165e-01" purity="2.5140550732612610e-01" nType="-99"/>
        </Node>
      </Node>
    </BinaryTree>
    <BinaryTree type="DecisionTree" boostWeight="1.0000000000000000e+00" itree="3">
      <Node pos="s" depth="0" NCoef="0" IVar="4" Cut="1.3063055419921875e+02" cType="1" res="-1.3626680010929704e-03" rms="4.8929357528686523e-01" purity="4.9985256791114807e-01" nType="0">
        <Node pos="l" depth="1" NCoef="0" IVar="3" Cut="1.4618467712402344e+02" cType="1" res="4.2591791599988937e-02" rms="4.8853871226310730e-01" purity="5.5131924152374268e-01" nType="0">
          <Node pos="l" depth="2" NCoef="0" IVar="-1" Cut="0.0000000000000000e+00" cType="1" res="1.4299989677965641e-02" rms="4.8445537686347961e-01" purity="6.0061961412429810e-01" nType="-99"/>
          <Node pos="r" depth="2" NCoef="0" IVar="-1" Cut="0.0000000000000000e+00" cType="1" res="-2.9430855065584183e-02" rms="4.5118960738182068e-01" purity="2.8556746244430542e-01" nType="-99"/>
        </Node>
        <Node pos="r" depth="1" NCoef="0" IVar="9" Cut="3.1800642013549805e+00" cType="1" res="-1.9334419071674347e-01" rms="4.4422611594200134e-01" purity="2.7505958080291748e-01" nType="0">
          <Node pos="l" depth="2" NCoef="0" IVar="-1" Cut="0.0000000000000000e+00" cType="1" res="-3.8989402353763580e-02" rms="4.1290083527565002e-01" purity="2.2108508646488190e-01" nType="-99"/>
          <Node pos="r" depth="2" NCoef="0" IVar="-1" Cut="0.0000000000000000e+00" cType="1" res="-2.0145826041698456e-02" rms="4.7300708293914795e-01" purity="3.4490197896957397e-01" nType="-99"/>
        </Node>
      </Node>
    </BinaryTree>
    <BinaryTree type="DecisionTree" boostWeight="1.0000000000000000e+00" itree="4">
      <Node pos="s" depth="0" NCoef="0" IVar="10" Cut="8.0068313598632812e+01" cType="1" res="-8.8705035159364343e-04" rms="4.8645177483558655e-01" purity="5.0021159648895264e-01" nType="0">
        <Node pos="l" depth="1" NCoef="0" IVar="3" Cut="1.2674945068359375e+02" cType="1" res="6.4995042979717255e-02" rms="4.8339384794235229e-01" purity="5.8743453025817871e-01" nType="0">
          <Node pos="l" depth="2" NCoef="0" IVar="-1" Cut="0.0000000000000000e+00" cType="1" res="1.9725492224097252e-02" rms="4.7525492310523987e-01" purity="6.5188044309616089e-01" nType="-99"/>
          <Node pos="r" depth="2" NCoef="0" IVar="-1" Cut="0.0000000000000000e+00" cType="1" res="-2.0495912060141563e-02" rms="4.7009873390197754e-01" purity="3.3930677175521851e-01" nType="-99"/>
        </Node>
        <Node pos="r" depth="1" NCoef="0" IVar="1" Cut="2.7840411376953125e+02" cType="1" res="-1.2159825861454010e-01" rms="4.6855658292770386e-01" purity="3.4039902687072754e-01" nType="0">
          <Node pos="l" depth="2" NCoef="0" IVar="-1" Cut="0.0000000000000000e+00" cType="1" res="-1.4287456870079041e-02" rms="4.8092913627624512e-01" purity="3.7854063510894775e-01" nType="-99"/>
          <Node pos="r" depth="2" NCoef="0" IVar="-1" Cut="0.0000000000000000e+00" cType="1" res="-3.5387765616178513e-02" rms="4.1432073712348938e-01" purity="2.2611515223979950e-01" nType="-99"/>
        </Node>
      </Node>
    </BinaryTree>
    <BinaryTree type="DecisionTree" boostWeight="1.0000000000000000e+00" itree="5">
      <Node pos="s" depth="0" NCoef="0" IVar="4" Cut="1.1633831024169922e+02" cType="1" res="-7.7334058005362749e-04" rms="4.8428824543952942e-01" purity="5.0050926208496094e-01" nType="0">
        <Node pos="l" depth="1" NCoef="0" IVar="3" Cut="1.3017874145507812e+02" cType="1" res="4.4145602732896805e-02" rms="4.8399159312248230e-01" purity="5.6024533510208130e-01" nType="0">
          <Node pos="l" depth="2" NCoef="0" IVar="-1" Cut="0.0000000000000000e+00" cType="1" res="1.5126320533454418e-02" rms="4.7944325208663940e-01" purity="6.2159633636474609e-01" nType="-99"/>
          <Node pos="r" depth="2" NCoef="0" IVar="-1" Cut="0.0000000000000000e+00" cType="1" res="-2.0771823823451996e-02" rms="4.6509426832199097e-01" purity="3.2312306761741638e-01" nType="-99"/>
        </Node>
        <Node pos="r" depth="1" NCoef="0" IVar="9" Cut="3.4132919311523438e+00" cType="1" res="-1.4393284916877747e-01" rms="4.5664572715759277e-01" purity="3.1012681126594543e-01" nType="0">
          <Node pos="l" depth="2" NCoef="0" IVar="-1" Cut="0.0000000000000000e+00" cType="1" res="-3.0000286176800728e-02" rms="4.3605238199234009e-01" purity="2.6540610194206238e-01" nType="-99"/>
          <Node pos="r" depth="2" NCoef="0" IVar="-1" Cut="0.0000000000000000e+00" cType="1" res="-1.1124896816909313e-02" rms="4.8326617479324341e-01" purity="3.9308652281761169e-01" nType="-99"/>
        </Node>
      </Node>
    </BinaryTree>
    <BinaryTree type="DecisionTree" boostWeight="1.0000000000000000e+00" itree="6">
      <Node pos="s" depth="0" NCoef="0" IVar="10" Cut="7.2953674316406250e+01" cType="1" res="-6.4849358750507236e-04" rms="4.8203578591346741e-01" purity="5.0137537717819214e-01" nType="0">
        <Node pos="l" depth="1" NCoef="0" IVar="3" Cut="1.0182289123535156e+02" cType="1" res="6.5031580626964569e-02" rms="4.7857108712196350e-01" purity="5.9678530693054199e-01" nType="0">
          <Node pos="l" depth="2" NCoef="0" IVar="-1" Cut="0.0000000000000000e+00" cType="1" res="2.1615231409668922e-02" rms="4.6532818675041199e-01" purity="6.7911851406097412e-01" nType="-99"/>
          <Node pos="r" depth="2" NCoef="0" IVar="-1" Cut="0.0000000000000000e+00" cType="1" res="-9.0814046561717987e-03" rms="4.8395484685897827e-01" purity="4.2879685759544373e-01" nType="-99"/>
        </Node>
        <Node pos="r" depth="1" NCoef="0" IVar="9" Cut="3.0160961151123047e+00" cType="1" res="-9.8765507340431213e-02" rms="4.7038191556930542e-01" purity="3.5884609818458557e-01" nType="0">
          <Node pos="l" depth="2" NCoef="0" IVar="-1" Cut="0.0000000000000000e+00" cType="1" res="-2.4510473012924194e-02" rms="4.4977787137031555e-01" purity="3.0147936940193176e-01" nType="-99"/>
          <Node pos="r" depth="2" NCoef="0" IVar="-1" Cut="0.0000000000000000e+00" cType="1" res="-7.4698566459119320e-03" rms="4.8451754450798035e-01" purity="4.1673904657363892e-01" nType="-99"/>
        </Node>
      </Node>
    </BinaryTree>
    <BinaryTree type="DecisionTree" boostWeight="1.0000000000000000e+00" itree="7">
      <Node pos="s" depth="0" NCoef="0" IVar="11" Cut="6.3233825683593750e+01" cType="1" res="-3.0863280408084393e-03" rms="4.8022800683975220e-01" purity="4.9871134757995605e-01" nType="0">
        <Node pos="l" depth="1" NCoef="0" IVar="3" Cut="1.6526126098632812e+02" cType="1" res="4.3556999415159225e-02" rms="4.7786152362823486e-01" purity="5.5535149574279785e-01" nType="0">
          <Node pos="l" depth="2" NCoef="0" IVar="-1" Cut="0.0000000000000000e+00" cType="1" res="1.2787321582436562e-02" rms="4.7667038440704346e-01" purity="5.9719008207321167e-01" nType="-99"/>
          <Node pos="r" depth="2" NCoef="0" IVar="-1" Cut="0.0000000000000000e+00" cType="1" res="-2.9402440413832664e-02" rms="4.2855536937713623e-01" purity="2.4460284411907196e-01" nType="-99"/>
        </Node>
        <Node pos="r" depth="1" NCoef="0" IVar="1" Cut="1.2806678771972656e+02" cType="1" res="-1.2039628624916077e-01" rms="4.6592691540718079e-01" purity="3.5625901818275452e-01" nType="0">
          <Node pos="l" depth="2" NCoef="0" IVar="-1" Cut="0.0000000000000000e+00" cType="1" res="-4.9576483434066176e-04" rms="4.9976441264152527e-01" purity="4.9862700700759888e-01" nType="-99"/>
          <Node pos="r" depth="2" NCoef="0" IVar="-1" Cut="0.0000000000000000e+00" cType="1" res="-2.5833349674940109e-02" rms="4.4827646017074585e-01" purity="3.1103181838989258e-01" nType="-99"/>
        </Node>
      </Node>
    </BinaryTree>
    <BinaryTree type="DecisionTree" boostWeight="1.0000000000000000e+00" itree="8">
      <Node pos="s" depth="0" NCoef="0" IVar="10" Cut="9.2283622741699219e+01" cType="1" res="-4.7824913635849953e-03" rms="4.7853174805641174e-01" purity="4.9702316522598267e-01" nType="0">
        <Node pos="l" depth="1" NCoef="0" IVar="3" Cut="1.6924868774414062e+02" cType="1" res="3.8875594735145569e-02" rms="4.7979938983917236e-01" purity="5.6910073757171631e-01" nType="0">
          <Node pos="l" depth="2" NCoef="0" IVar="-1" Cut="0.0000000000000000e+00" cType="1" res="1.1228027753531933e-02" rms="4.8004072904586792e-01" purity="6.0847902297973633e-01" nType="-99"/>
          <Node pos="r" depth="2" NCoef="0" IVar="-1" Cut="0.0000000000000000e+00" cType="1" res="-3.0119990929961205e-02" rms="4.2113009095191956e-01" purity="2.3130644857883453e-01" nType="-99"/>
        </Node>
        <Node pos="r" depth="1" NCoef="0" IVar="2" Cut="8.2454978942871094e+01" cType="1" res="-1.1679735034704208e-01" rms="4.5655012130737305e-01" purity="3.1209158897399902e-01" nType="0">
          <Node pos="l" depth="2" NCoef="0" IVar="-1" Cut="0.0000000000000000e+00" cType="1" res="-6.4030690118670464e-03" rms="4.8859924077987671e-01" purity="4.0934377908706665e-01" nType="-99"/>
          <Node pos="r" depth="2" NCoef="0" IVar="-1" Cut="0.0000000000000000e+00" cType="1" res="-2.6329429820179939e-02" rms="4.3179571628570557e-01" purity="2.5763794779777527e-01" nType="-99"/>
        </Node>
      </Node>
    </BinaryTree>
    <BinaryTree type="DecisionTree" boostWeight="1.0000000000000000e+00" itree="9">
      <Node pos="s" depth="0" NCoef="0" IVar="11" Cut="7.0968002319335938e+01" cType="1" res="-8.9866295456886292e-04" rms="4.7710230946540833e-01" purity="5.0075399875640869e-01" nType="0">
        <Node pos="l" depth="1" NCoef="0" IVar="3" Cut="1.0900013732910156e+02" cType="1" res="3.6250028759241104e-02" rms="4.7596794366836548e-01" purity="5.5055665969848633e-01" nType="0">
          <Node pos="l" depth="2" NCoef="0" IVar="-1" Cut="0.0000000000000000e+00" cType="1" res="1.4572527259588242e-02" rms="4.7048622369766235e-01" purity="6.2662011384963989e-01" nType="-99"/>
          <Node pos="r" depth="2" NCoef="0" IVar="-1" Cut="0.0000000000000000e+00" cType="1" res="-1.2039632536470890e-02" rms="4.7166454792022705e-01" purity="3.7678232789039612e-01" nType="-99"/>
        </Node>
        <Node pos="r" depth="1" NCoef="0" IVar="2" Cut="7.2064842224121094e+01" cType="1" res="-1.2274415045976639e-01" rms="4.6021726727485657e-01" purity="3.3740425109863281e-01" nType="0">
          <Node pos="l" depth="2" NCoef="0" IVar="-1" Cut="0.0000000000000000e+00" cType="1" res="-2.7956720441579819e-03" rms="4.9633803963661194e-01" purity="4.6174114942550659e-01" nType="-99"/>
          <Node pos="r" depth="2" NCoef="0" IVar="-1" Cut="0.0000000000000000e+00" cType="1" res="-2.5800600647926331e-02" rms="4.4125404953956604e-01" purity="2.9436197876930237e-01" nType="-99"/>
        </Node>
      </Node>
    </BinaryTree>
    <BinaryTree type="DecisionTree" boostWeight="1.0000000000000000e+00" itree="10">
      <Node pos="s" depth="0" NCoef="0" IVar="4" Cut="1.1669182586669922e+02" cType="1" res="-3.2142971176654100e-03" rms="4.7497889399528503e-01" purity="4.9855265021324158e-01" nType="0">
        <Node pos="l" depth="1" NCoef="0" IVar="3" Cut="1.0876778411865234e+02" cType="1" res="3.3459454774856567e-02" rms="4.7684669494628906e-01" purity="5.6013017892837524e-01" nType="0">
          <Node pos="l" depth="2" NCoef="0" IVar="-1" Cut="0.0000000000000000e+00" cType="1" res="1.3364474289119244e-02" rms="4.7195774316787720e-01" purity="6.3694459199905396e-01" nType="-99"/>
          <Node pos="r" depth="2" NCoef="0" IVar="-1" Cut="0.0000000000000000e+00" cType="1" res="-1.1310571804642677e-02" rms="4.7349426150321960e-01" purity="3.8236767053604126e-01" nType="-99"/>
        </Node>
        <Node pos="r" depth="1" NCoef="0" IVar="4" Cut="1.8889057922363281e+02" cType="1" res="-1.2044468522071838e-01" rms="4.4931027293205261e-01" purity="3.0171555280685425e-01" nType="0">
          <Node pos="l" depth="2" NCoef="0" IVar="-1" Cut="0.0000000000000000e+00" cType="1" res="-1.4258364215493202e-02" rms="4.6787726879119873e-01" purity="3.4863230586051941e-01" nType="-99"/>
          <Node pos="r" depth="2" NCoef="0" IVar="-1" Cut="0.0000000000000000e+00" cType="1" res="-3.1892921775579453e-02" rms="3.9517056941986084e-01" purity="1.9963392615318298e-01" nType="-99"/>
        </Node>
      </Node>
    </BinaryTree>
    <BinaryTree type="DecisionTree" boostWeight="1.0000000000000000e+00" itree="11">
      <Node pos="s" depth="0" NCoef="0" IVar="11" Cut="6.8878067016601562e+01" cType="1" res="-2.1985927596688271e-03" rms="4.7393536567687988e-01" purity="4.9946337938308716e-01" nType="0">
        <Node pos="l" depth="1" NCoef="0" IVar="3" Cut="1.4676554870605469e+02" cType="1" res="3.2845366746187210e-02" rms="4.7348505258560181e-01" purity="5.5163335800170898e-01" nType="0">
          <Node pos="l" depth="2" NCoef="0" IVar="-1" Cut="0.0000000000000000e+00" cType="1" res="1.0824653320014477e-02" rms="4.7406843304634094e-01" purity="6.0453993082046509e-01" nType="-99"/>
          <Node pos="r" depth="2" NCoef="0" IVar="-1" Cut="0.0000000000000000e+00" cType="1" res="-2.0261641591787338e-02" rms="4.4189491868019104e-01" purity="2.7277734875679016e-01" nType="-99"/>
        </Node>
        <Node pos="r" depth="1" NCoef="0" IVar="2" Cut="7.6092079162597656e+01" cType="1" res="-1.1073180288076401e-01" rms="4.5864272117614746e-01" purity="3.3788999915122986e-01" nType="0">
          <Node pos="l" depth="2" NCoef="0" IVar="-1" Cut="0.0000000000000000e+00" cType="1" res="-4.3014721013605595e-03" rms="4.9414777755737305e-01" purity="4.4798731803894043e-01" nType="-99"/>
          <Node pos="r" depth="2" NCoef="0" IVar="-1" Cut="0.0000000000000000e+00" cType="1" res="-2.4273043498396873e-02" rms="4.3750354647636414e-01" purity="2.9028633236885071e-01" nType="-99"/>
        </Node>
      </Node>
    </BinaryTree>
    <BinaryTree type="DecisionTree" boostWeight="1.0000000000000000e+00" itree="12">
      <Node pos="s" depth="0" NCoef="0" IVar="10" Cut="6.8829811096191406e+01" cType="1" res="-1.5628428664058447e-03" rms="4.7279238700866699e-01" purity="5.0040841102600098e-01" nType="0">
        <Node pos="l" depth="1" NCoef="0" IVar="11" Cut="8.3243721008300781e+01" cType="1" res="5.0436120480298996e-02" rms="4.7028678655624390e-01" purity="5.9687471389770508e-01" nType="0">
          <Node pos="l" depth="2" NCoef="0" IVar="-1" Cut="0.0000000000000000e+00" cType="1" res="1.3705335557460785e-02" rms="4.6489050984382629e-01" purity="6.3152438402175903e-01" nType="-99"/>
          <Node pos="r" depth="2" NCoef="0" IVar="-1" Cut="0.0000000000000000e+00" cType="1" res="-2.0700806751847267e-02" rms="4.7111091017723083e-01" purity="3.5850328207015991e-01" nType="-99"/>
        </Node>
        <Node pos="r" depth="1" NCoef="0" IVar="9" Cut="3.4975607395172119e+00" cType="1" res="-6.8892799317836761e-02" rms="4.6750175952911377e-01" purity="3.7550064921379089e-01" nType="0">
          <Node pos="l" depth="2" NCoef="0" IVar="-1" Cut="0.0000000000000000e+00" cType="1" res="-1.7071871086955070e-02" rms="4.5596835017204285e-01" purity="3.3442986011505127e-01" nType="-99"/>
          <Node pos="r" depth="2" NCoef="0" IVar="-1" Cut="0.0000000000000000e+00" cType="1" res="-9.0360955800861120e-04" rms="4.8224961757659912e-01" purity="4.5328539609909058e-01" nType="-99"/>
        </Node>
      </Node>
    </BinaryTree>
    <BinaryTree type="DecisionTree" boostWeight="1.0000000000000000e+00" itree="13">
      <Node pos="s" depth="0" NCoef="0" IVar="10" Cut="6.2180610656738281e+01" cType="1" res="-4.1351546533405781e-03" rms="4.7135946154594421e-01" purity="4.9783611297607422e-01" nType="0">
        <Node pos="l" depth="1" NCoef="0" IVar="11" Cut="9.1327323913574219e+01" cType="1" res="5.1012989133596420e-02" rms="4.6749427914619446e-01" purity="6.0222500562667847e-01" nType="0">
          <Node pos="l" depth="2" NCoef="0" IVar="-1" Cut="0.0000000000000000e+00" cType="1" res="1.3448308221995831e-02" rms="4.6293446421623230e-01" purity="6.3533383607864380e-01" nType="-99"/>
          <Node pos="r" depth="2" NCoef="0" IVar="-1" Cut="0.0000000000000000e+00" cType="1" res="-2.2951416671276093e-02" rms="4.6320894360542297e-01" purity="3.2780089974403381e-01" nType="-99"/>
        </Node>
        <Node pos="r" depth="1" NCoef="0" IVar="9" Cut="3.7842488288879395e+00" cType="1" res="-5.9594046324491501e-02" rms="4.6871623396873474e-01" purity="3.9285901188850403e-01" nType="0">
          <Node pos="l" depth="2" NCoef="0" IVar="-1" Cut="0.0000000000000000e+00" cType="1" res="-1.4606570824980736e-02" rms="4.6033385396003723e-01" purity="3.5882207751274109e-01" nType="-99"/>
          <Node pos="r" depth="2" NCoef="0" IVar="-1" Cut="0.0000000000000000e+00" cType="1" res="1.9663651473820210e-03" rms="4.8288232088088989e-01" purity="4.8236724734306335e-01" nType="-99"/>
        </Node>
      </Node>
    </BinaryTree>
    <BinaryTree type="DecisionTree" boostWeight="1.0000000000000000e+00" itree="14">
      <Node pos="s" depth="0" NCoef="0" IVar="11" Cut="6.2131530761718750e+01" cType="1" res="-2.7134991250932217e-03" rms="4.7057077288627625e-01" purity="4.9915382266044617e-01" nType="0">
        <Node pos="l" depth="1" NCoef="0" IVar="3" Cut="8.9610466003417969e+01" cType="1" res="3.0464548617601395e-02" rms="4.7069722414016724e-01" purity="5.5845874547958374e-01" nType="0">
          <Node pos="l" depth="2" NCoef="0" IVar="-1" Cut="0.0000000000000000e+00" cType="1" res="1.4703369699418545e-02" rms="4.6123257279396057e-01" purity="6.5056586265563965e-01" nType="-99"/>
          <Node pos="r" depth="2" NCoef="0" IVar="-1" Cut="0.0000000000000000e+00" cType="1" res="-6.5931812860071659e-03" rms="4.7454914450645447e-01" purity="4.3672889471054077e-01" nType="-99"/>
        </Node>
        <Node pos="r" depth="1" NCoef="0" IVar="1" Cut="1.7827580261230469e+02" cType="1" res="-8.2070991396903992e-02" rms="4.6067517995834351e-01" purity="3.5730433464050293e-01" nType="0">
          <Node pos="l" depth="2" NCoef="0" IVar="-1" Cut="0.0000000000000000e+00" cType="1" res="-5.2802981808781624e-03" rms="4.8852241039276123e-01" purity="4.4257420301437378e-01" nType="-99"/>
          <Node pos="r" depth="2" NCoef="0" IVar="-1" Cut="0.0000000000000000e+00" cType="1" res="-2.1416245028376579e-02" rms="4.3045246601104736e-01" purity="2.8321829438209534e-01" nType="-99"/>
        </Node>
      </Node>
    </BinaryTree>
    <BinaryTree type="DecisionTree" boostWeight="1.0000000000000000e+00" itree="15">
      <Node pos="s" depth="0" NCoef="0" IVar="10" Cut="1.0423139190673828e+02" cType="1" res="-2.6027951389551163e-03" rms="4.6960720419883728e-01" purity="4.9883097410202026e-01" nType="0">
        <Node pos="l" depth="1" NCoef="0" IVar="3" Cut="1.0446263885498047e+02" cType="1" res="2.4842144921422005e-02" rms="4.7291967272758484e-01" purity="5.5923223495483398e-01" nType="0">
          <Node pos="l" depth="2" NCoef="0" IVar="-1" Cut="0.0000000000000000e+00" cType="1" res="1.1197358369827271e-02" rms="4.6898916363716125e-01" purity="6.3956528902053833e-01" nType="-99"/>
          <Node pos="r" depth="2" NCoef="0" IVar="-1" Cut="0.0000000000000000e+00" cType="1" res="-9.5522589981555939e-03" rms="4.7151461243629456e-01" purity="3.8947069644927979e-01" nType="-99"/>
        </Node>
        <Node pos="r" depth="1" NCoef="0" IVar="2" Cut="9.2274101257324219e+01" cType="1" res="-9.4306148588657379e-02" rms="4.4628760218620300e-01" purity="2.9700890183448792e-01" nType="0">
          <Node pos="l" depth="2" NCoef="0" IVar="-1" Cut="0.0000000000000000e+00" cType="1" res="-4.3835034593939781e-03" rms="4.8295432329177856e-01" purity="3.9336165785789490e-01" nType="-99"/>
          <Node pos="r" depth="2" NCoef="0" IVar="-1" Cut="0.0000000000000000e+00" cType="1" res="-2.5187881663441658e-02" rms="4.0782114863395691e-01" purity="2.2166395187377930e-01" nType="-99"/>
        </Node>
      </Node>
    </BinaryTree>
    <BinaryTree type="DecisionTree" boostWeight="1.0000000000000000e+00" itree="16">
      <Node pos="s" depth="0" NCoef="0" IVar="4" Cut="1.3716889953613281e+02" cType="1" res="-1.9753235392272472e-03" rms="4.6899953484535217e-01" purity="4.9979069828987122e-01" nType="0">
        <Node pos="l" depth="1" NCoef="0" IVar="3" Cut="1.9987370300292969e+02" cType="1" res="1.9703259691596031e-02" rms="4.7327482700347900e-01" purity="5.4736161231994629e-01" nType="0">
          <Node pos="l" depth="2" NCoef="0" IVar="-1" Cut="0.0000000000000000e+00" cType="1" res="6.0883783735334873e-03" rms="4.7589299082756042e-01" purity="5.7499974966049194e-01" nType="-99"/>
          <Node pos="r" depth="2" NCoef="0" IVar="-1" Cut="0.0000000000000000e+00" cType="1" res="-2.9206208884716034e-02" rms="3.9388084411621094e-01" purity="1.9425471127033234e-01" nType="-99"/>
        </Node>
        <Node pos="r" depth="1" NCoef="0" IVar="2" Cut="8.4193473815917969e+01" cType="1" res="-1.1022316664457321e-01" rms="4.3102297186851501e-01" purity="2.6225426793098450e-01" nType="0">
          <Node pos="l" depth="2" NCoef="0" IVar="-1" Cut="0.0000000000000000e+00" cType="1" res="-5.3680096752941608e-03" rms="4.7987562417984009e-01" purity="3.7367323040962219e-01" nType="-99"/>
          <Node pos="r" depth="2" NCoef="0" IVar="-1" Cut="0.0000000000000000e+00" cType="1" res="-2.5906978175044060e-02" rms="4.0047502517700195e-01" purity="2.0919810235500336e-01" nType="-99"/>
        </Node>
      </Node>
    </BinaryTree>
    <BinaryTree type="DecisionTree" boostWeight="1.0000000000000000e+00" itree="17">
      <Node pos="s" depth="0" NCoef="0" IVar="10" Cut="6.4569252014160156e+01" cType="1" res="-1.0669861221686006e-03" rms="4.6777179837226868e-01" purity="5.0021994113922119e-01" nType="0">
        <Node pos="l" depth="1" NCoef="0" IVar="7" Cut="2.1617928147315979e-01" cType="1" res="4.3789144605398178e-02" rms="4.6549776196479797e-01" purity="6.0313361883163452e-01" nType="0">
          <Node pos="l" depth="2" NCoef="0" IVar="-1" Cut="0.0000000000000000e+00" cType="1" res="-2.1479560527950525e-03" rms="4.7409188747406006e-01" purity="5.4428362846374512e-01" nType="-99"/>
          <Node pos="r" depth="2" NCoef="0" IVar="-1" Cut="0.0000000000000000e+00" cType="1" res="1.9244378432631493e-02" rms="4.4843465089797974e-01" purity="6.6642755270004272e-01" nType="-99"/>
        </Node>
        <Node pos="r" depth="1" NCoef="0" IVar="9" Cut="3.0176672935485840e+00" cType="1" res="-5.0128892064094543e-02" rms="4.6532133221626282e-01" purity="3.8765692710876465e-01" nType="0">
          <Node pos="l" depth="2" NCoef="0" IVar="-1" Cut="0.0000000000000000e+00" cType="1" res="-1.5446522273123264e-02" rms="4.5052272081375122e-01" purity="3.3409100770950317e-01" nType="-99"/>
          <Node pos="r" depth="2" NCoef="0" IVar="-1" Cut="0.0000000000000000e+00" cType="1" res="-1.6897766618058085e-03" rms="4.7633552551269531e-01" purity="4.4143557548522949e-01" nType="-99"/>
        </Node>
      </Node>
    </BinaryTree>
    <BinaryTree type="DecisionTree" boostWeight="1.0000000000000000e+00" itree="18">
      <Node pos="s" depth="0" NCoef="0" IVar="11" Cut="6.6814056396484375e+01" cType="1" res="-3.1311616767197847e-03" rms="4.6697428822517395e-01" purity="4.9897319078445435e-01" nType="0">
        <Node pos="l" depth="1" NCoef="0" IVar="6" Cut="1.8334652483463287e-01" cType="1" res="2.3836987093091011e-02" rms="4.6799454092979431e-01" purity="5.5381119251251221e-01" nType="0">
          <Node pos="l" depth="2" NCoef="0" IVar="-1" Cut="0.0000000000000000e+00" cType="1" res="-6.7149018868803978e-03" rms="4.7146216034889221e-01" purity="4.8726940155029297e-01" nType="-99"/>
          <Node pos="r" depth="2" NCoef="0" IVar="-1" Cut="0.0000000000000000e+00" cType="1" res="1.3118989765644073e-02" rms="4.5963278412818909e-01" purity="6.0568952560424805e-01" nType="-99"/>
        </Node>
        <Node pos="r" depth="1" NCoef="0" IVar="1" Cut="1.3984799194335938e+02" cType="1" res="-8.1202208995819092e-02" rms="4.5508569478988647e-01" purity="3.4022071957588196e-01" nType="0">
          <Node pos="l" depth="2" NCoef="0" IVar="-1" Cut="0.0000000000000000e+00" cType="1" res="-1.6340591246262193e-03" rms="4.9621990323066711e-01" purity="4.6517300605773926e-01" nType="-99"/>
          <Node pos="r" depth="2" NCoef="0" IVar="-1" Cut="0.0000000000000000e+00" cType="1" res="-1.8934121355414391e-02" rms="4.3401783704757690e-01" purity="2.8957128524780273e-01" nType="-99"/>
        </Node>
      </Node>
    </BinaryTree>
    <BinaryTree type="DecisionTree" boostWeight="1.0000000000000000e+00" itree="19">
      <Node pos="s" depth="0" NCoef="0" IVar="11" Cut="5.7364219665527344e+01" cType="1" res="-1.8684444949030876e-03" rms="4.6645489335060120e-01" purity="4.9922522902488708e-01" nType="0">
        <Node pos="l" depth="1" NCoef="0" IVar="6" Cut="1.6115012764930725e-01" cType="1" res="2.8782635927200317e-02" rms="4.6673369407653809e-01" purity="5.6411838531494141e-01" nType="0">
          <Node pos="l" depth="2" NCoef="0" IVar="-1" Cut="0.0000000000000000e+00" cType="1" res="-6.7345513962209225e-03" rms="4.7186973690986633e-01" purity="4.8594778776168823e-01" nType="-99"/>
          <Node pos="r" depth="2" NCoef="0" IVar="-1" Cut="0.0000000000000000e+00" cType="1" res="1.2922252528369427e-02" rms="4.5859807729721069e-01" purity="6.1318671703338623e-01" nType="-99"/>
        </Node>
        <Node pos="r" depth="1" NCoef="0" IVar="1" Cut="1.1229445648193359e+02" cType="1" res="-6.1391800642013550e-02" rms="4.6011677384376526e-01" purity="3.7320497632026672e-01" nType="0">
          <Node pos="l" depth="2" NCoef="0" IVar="-1" Cut="0.0000000000000000e+00" cType="1" res="3.8249925710260868e-03" rms="4.9866166710853577e-01" purity="5.2439689636230469e-01" nType="-99"/>
          <Node pos="r" depth="2" NCoef="0" IVar="-1" Cut="0.0000000000000000e+00" cType="1" res="-1.3740705326199532e-02" rms="4.4961166381835938e-01" purity="3.4162551164627075e-01" nType="-99"/>
        </Node>
      </Node>
    </BinaryTree>
    <BinaryTree type="DecisionTree" boostWeight="1.0000000000000000e+00" itree="20">
      <Node pos="s" depth="0" NCoef="0" IVar="4" Cut="1.5471902465820312e+02" cType="1" res="-3.1674602068960667e-03" rms="4.6594250202178955e-01" purity="4.9882847070693970e-01" nType="0">
        <Node pos="l" depth="1" NCoef="0" IVar="3" Cut="1.8879788208007812e+02" cType="1" res="1.2237913906574249e-02" rms="4.7067403793334961e-01" purity="5.3653955459594727e-01" nType="0">
          <Node pos="l" depth="2" NCoef="0" IVar="-1" Cut="0.0000000000000000e+00" cType="1" res="4.6602194197475910e-03" rms="4.7392177581787109e-01" purity="5.6678986549377441e-01" nType="-99"/>
          <Node pos="r" depth="2" NCoef="0" IVar="-1" Cut="0.0000000000000000e+00" cType="1" res="-2.4981833994388580e-02" rms="4.0443119406700134e-01" purity="2.0868335664272308e-01" nType="-99"/>
        </Node>
        <Node pos="r" depth="1" NCoef="0" IVar="2" Cut="1.0058010864257812e+02" cType="1" res="-1.1119005084037781e-01" rms="4.1556569933891296e-01" purity="2.3439833521842957e-01" nType="0">
          <Node pos="l" depth="2" NCoef="0" IVar="-1" Cut="0.0000000000000000e+00" cType="1" res="-9.8119834437966347e-03" rms="4.5943731069564819e-01" purity="3.1601110100746155e-01" nType="-99"/>
          <Node pos="r" depth="2" NCoef="0" IVar="-1" Cut="0.0000000000000000e+00" cType="1" res="-2.7862789109349251e-02" rms="3.7366688251495361e-01" purity="1.7203091084957123e-01" nType="-99"/>
        </Node>
      </Node>
    </BinaryTree>
    <BinaryTree type="DecisionTree" boostWeight="1.0000000000000000e+00" itree="21">
      <Node pos="s" depth="0" NCoef="0" IVar="10" Cut="5.8684268951416016e+01" cType="1" res="-2.4050942156463861e-03" rms="4.6560361981391907e-01" purity="4.9965229630470276e-01" nType="0">
        <Node pos="l" depth="1" NCoef="0" IVar="7" Cut="1.8640866875648499e-01" cType="1" res="4.0923636406660080e-02" rms="4.6199536323547363e-01" purity="6.0665655136108398e-01" nType="0">
          <Node pos="l" depth="2" NCoef="0" IVar="-1" Cut="0.0000000000000000e+00" cType="1" res="-2.7864652220159769e-03" rms="4.7182264924049377e-01" purity="5.4162812232971191e-01" nType="-99"/>
          <Node pos="r" depth="2" NCoef="0" IVar="-1" Cut="0.0000000000000000e+00" cType="1" res="1.6429560258984566e-02" rms="4.4831335544586182e-01" purity="6.6079074144363403e-01" nType="-99"/>
        </Node>
        <Node pos="r" depth="1" NCoef="0" IVar="9" Cut="3.6913449764251709e+00" cType="1" res="-3.9465460926294327e-02" rms="4.6547853946685791e-01" purity="4.0812826156616211e-01" nType="0">
          <Node pos="l" depth="2" NCoef="0" IVar="-1" Cut="0.0000000000000000e+00" cType="1" res="-1.1184474453330040e-02" rms="4.5753759145736694e-01" purity="3.7172868847846985e-01" nType="-99"/>
          <Node pos="r" depth="2" NCoef="0" IVar="-1" Cut="0.0000000000000000e+00" cType="1" res="3.0988496728241444e-03" rms="4.7856819629669189e-01" purity="4.9290895462036133e-01" nType="-99"/>
        </Node>
      </Node>
    </BinaryTree>
    <BinaryTree type="DecisionTree" boostWeight="1.0000000000000000e+00" itree="22">
      <Node pos="s" depth="0" NCoef="0" IVar="7" Cut="2.0543828606605530e-01" cType="1" res="-8.4334629354998469e-04" rms="4.6408694982528687e-01" purity="5.0089961290359497e-01" nType="0">
        <Node pos="l" depth="1" NCoef="0" IVar="1" Cut="1.9699089050292969e+02" cType="1" res="-3.8406524807214737e-02" rms="4.6697902679443359e-01" purity="4.5456102490425110e-01" nType="0">
          <Node pos="l" depth="2" NCoef="0" IVar="-1" Cut="0.0000000000000000e+00" cType="1" res="-9.1064197476953268e-04" rms="4.7908967733383179e-01" purity="5.2588641643524170e-01" nType="-99"/>
          <Node pos="r" depth="2" NCoef="0" IVar="-1" Cut="0.0000000000000000e+00" cType="1" res="-1.8149388954043388e-02" rms="4.3727564811706543e-01" purity="3.2310590147972107e-01" nType="-99"/>
        </Node>
        <Node pos="r" depth="1" NCoef="0" IVar="10" Cut="1.0927700805664062e+02" cType="1" res="3.7620298564434052e-02" rms="4.5792484283447266e-01" purity="5.4834902286529541e-01" nType="0">
          <Node pos="l" depth="2" NCoef="0" IVar="-1" Cut="0.0000000000000000e+00" cType="1" res="1.2261725030839443e-02" rms="4.5828914642333984e-01" purity="6.1373114585876465e-01" nType="-99"/>
          <Node pos="r" depth="2" NCoef="0" IVar="-1" Cut="0.0000000000000000e+00" cType="1" res="-1.4173079282045364e-02" rms="4.3749156594276428e-01" purity="2.8144049644470215e-01" nType="-99"/>
        </Node>
      </Node>
    </BinaryTree>
    <BinaryTree type="DecisionTree" boostWeight="1.0000000000000000e+00" itree="23">
      <Node pos="s" depth="0" NCoef="0" IVar="3" Cut="9.4362907409667969e+01" cType="1" res="-2.0129627082496881e-03" rms="4.6384197473526001e-01" purity="4.9968138337135315e-01" nType="0">
        <Node pos="l" depth="1" NCoef="0" IVar="11" Cut="8.1231483459472656e+01" cType="1" res="2.8910342603921890e-02" rms="4.6352007985115051e-01" purity="5.8224731683731079e-01" nType="0">
          <Node pos="l" depth="2" NCoef="0" IVar="-1" Cut="0.0000000000000000e+00" cType="1" res="9.5303794369101524e-03" rms="4.6178647875785828e-01" purity="6.2823134660720825e-01" nType="-99"/>
          <Node pos="r" depth="2" NCoef="0" IVar="-1" Cut="0.0000000000000000e+00" cType="1" res="-1.5914227813482285e-02" rms="4.5290854573249817e-01" purity="3.3343487977981567e-01" nType="-99"/>
        </Node>
        <Node pos="r" depth="1" NCoef="0" IVar="9" Cut="3.3294234275817871e+00" cType="1" res="-4.5717537403106689e-02" rms="4.6077078580856323e-01" purity="3.8298910856246948e-01" nType="0">
          <Node pos="l" depth="2" NCoef="0" IVar="-1" Cut="0.0000000000000000e+00" cType="1" res="-1.4484227634966373e-02" rms="4.4761490821838379e-01" purity="3.3594864606857300e-01" nType="-99"/>
          <Node pos="r" depth="2" NCoef="0" IVar="-1" Cut="0.0000000000000000e+00" cType="1" res="1.1160415597259998e-03" rms="4.7476440668106079e-01" purity="4.5237180590629578e-01" nType="-99"/>
        </Node>
      </Node>
    </BinaryTree>
    <BinaryTree type="DecisionTree" boostWeight="1.0000000000000000e+00" itree="24">
      <Node pos="s" depth="0" NCoef="0" IVar="6" Cut="2.2803671658039093e-01" cType="1" res="1.8201360944658518e-05" rms="4.6316510438919067e-01" purity="5.0207370519638062e-01" nType="0">
        <Node pos="l" depth="1" NCoef="0" IVar="1" Cut="1.5968176269531250e+02" cType="1" res="-3.4192956984043121e-02" rms="4.6503618359565735e-01" purity="4.5718339085578918e-01" nType="0">
          <Node pos="l" depth="2" NCoef="0" IVar="-1" Cut="0.0000000000000000e+00" cType="1" res="2.0160269923508167e-03" rms="4.7950828075408936e-01" purity="5.5653876066207886e-01" nType="-99"/>
          <Node pos="r" depth="2" NCoef="0" IVar="-1" Cut="0.0000000000000000e+00" cType="1" res="-1.4303845353424549e-02" rms="4.4646281003952026e-01" purity="3.6260926723480225e-01" nType="-99"/>
        </Node>
        <Node pos="r" depth="1" NCoef="0" IVar="11" Cut="8.3656211853027344e+01" cType="1" res="4.2447697371244431e-02" rms="4.5729216933250427e-01" purity="5.5774760246276855e-01" nType="0">
          <Node pos="l" depth="2" NCoef="0" IVar="-1" Cut="0.0000000000000000e+00" cType="1" res="1.1939967051148415e-02" rms="4.5574578642845154e-01" purity="6.0293883085250854e-01" nType="-99"/>
          <Node pos="r" depth="2" NCoef="0" IVar="-1" Cut="0.0000000000000000e+00" cType="1" res="-1.3567226938903332e-02" rms="4.4712948799133301e-01" purity="3.0876156687736511e-01" nType="-99"/>
        </Node>
      </Node>
    </BinaryTree>
    <BinaryTree type="DecisionTree" boostWeight="1.0000000000000000e+00" itree="25">
      <Node pos="s" depth="0" NCoef="0" IVar="7" Cut="2.4190005660057068e-01" cType="1" res="-1.5330549795180559e-03" rms="4.6268239617347717e-01" purity="5.0018030405044556e-01" nType="0">
        <Node pos="l" depth="1" NCoef="0" IVar="1" Cut="1.5678126525878906e+02" cType="1" res="-3.1866732984781265e-02" rms="4.6514883637428284e-01" purity="4.6080285310745239e-01" nType="0">
          <Node pos="l" depth="2" NCoef="0" IVar="-1" Cut="0.0000000000000000e+00" cType="1" res="1.8606359371915460e-03" rms="4.7981604933738708e-01" purity="5.5984830856323242e-01" nType="-99"/>
          <Node pos="r" depth="2" NCoef="0" IVar="-1" Cut="0.0000000000000000e+00" cType="1" res="-1.2811382301151752e-02" rms="4.4823282957077026e-01" purity="3.7239608168601990e-01" nType="-99"/>
        </Node>
        <Node pos="r" depth="1" NCoef="0" IVar="10" Cut="1.0852888488769531e+02" cType="1" res="4.1489966213703156e-02" rms="4.5571178197860718e-01" purity="5.5603027343750000e-01" nType="0">
          <Node pos="l" depth="2" NCoef="0" IVar="-1" Cut="0.0000000000000000e+00" cType="1" res="1.2651144526898861e-02" rms="4.5583662390708923e-01" purity="6.2273901700973511e-01" nType="-99"/>
          <Node pos="r" depth="2" NCoef="0" IVar="-1" Cut="0.0000000000000000e+00" cType="1" res="-1.1826249770820141e-02" rms="4.3931210041046143e-01" purity="2.8611797094345093e-01" nType="-99"/>
        </Node>
      </Node>
    </BinaryTree>
    <BinaryTree type="DecisionTree" boostWeight="1.0000000000000000e+00" itree="26">
      <Node pos="s" depth="0" NCoef="0" IVar="6" Cut="1.9272153079509735e-01" cType="1" res="-5.0343484617769718e-03" rms="4.6236336231231689e-01" purity="4.9651059508323669e-01" nType="0">
        <Node pos="l" depth="1" NCoef="0" IVar="1" Cut="1.2649805450439453e+02" cType="1" res="-4.2086090892553329e-02" rms="4.6343180537223816e-01" purity="4.4268882274627686e-01" nType="0">
          <Node pos="l" depth="2" NCoef="0" IVar="-1" Cut="0.0000000000000000e+00" cType="1" res="3.6269382108002901e-03" rms="4.8268064856529236e-01" purity="5.7546591758728027e-01" nType="-99"/>
          <Node pos="r" depth="2" NCoef="0" IVar="-1" Cut="0.0000000000000000e+00" cType="1" res="-1.2879799120128155e-02" rms="4.5155820250511169e-01" purity="3.8274863362312317e-01" nType="-99"/>
        </Node>
        <Node pos="r" depth="1" NCoef="0" IVar="11" Cut="8.2124992370605469e+01" cType="1" res="2.7997223660349846e-02" rms="4.5889329910278320e-01" purity="5.4449266195297241e-01" nType="0">
          <Node pos="l" depth="2" NCoef="0" IVar="-1" Cut="0.0000000000000000e+00" cType="1" res="8.7892897427082062e-03" rms="4.5954161882400513e-01" purity="5.9089988470077515e-01" nType="-99"/>
          <Node pos="r" depth="2" NCoef="0" IVar="-1" Cut="0.0000000000000000e+00" cType="1" res="-1.2343022972345352e-02" rms="4.4268798828125000e-01" purity="3.0724549293518066e-01" nType="-99"/>
        </Node>
      </Node>
    </BinaryTree>
    <BinaryTree type="DecisionTree" boostWeight="1.0000000000000000e+00" itree="27">
      <Node pos="s" depth="0" NCoef="0" IVar="0" Cut="2.6647443771362305e+00" cType="1" res="-2.3043178953230381e-03" rms="4.6130445599555969e-01" purity="4.9814784526824951e-01" nType="0">
        <Node pos="l" depth="1" NCoef="0" IVar="0" Cut="-2.5923602581024170e+00" cType="1" res="-2.0760718733072281e-02" rms="4.6243759989738464e-01" purity="4.6672105789184570e-01" nType="0">
          <Node pos="l" depth="2" NCoef="0" IVar="-1" Cut="0.0000000000000000e+00" cType="1" res="9.4712115824222565e-03" rms="4.5417401194572449e-01" purity="5.9516102075576782e-01" nType="-99"/>
          <Node pos="r" depth="2" NCoef="0" IVar="-1" Cut="0.0000000000000000e+00" cType="1" res="-9.5832645893096924e-03" rms="4.6245169639587402e-01" purity="4.0817582607269287e-01" nType="-99"/>
        </Node>
        <Node pos="r" depth="1" NCoef="0" IVar="6" Cut="1.3542971014976501e-01" cType="1" res="6.2508083879947662e-02" rms="4.5136374235153198e-01" purity="6.0850763320922852e-01" nType="0">
          <Node pos="l" depth="2" NCoef="0" IVar="-1" Cut="0.0000000000000000e+00" cType="1" res="-2.4952029343694448e-03" rms="4.6310669183731079e-01" purity="5.0690656900405884e-01" nType="-99"/>
          <Node pos="r" depth="2" NCoef="0" IVar="-1" Cut="0.0000000000000000e+00" cType="1" res="1.8020678311586380e-02" rms="4.4194951653480530e-01" purity="6.5318059921264648e-01" nType="-99"/>
        </Node>
      </Node>
    </BinaryTree>
    <BinaryTree type="DecisionTree" boostWeight="1.0000000000000000e+00" itree="28">
      <Node pos="s" depth="0" NCoef="0" IVar="7" Cut="2.9539522528648376e-01" cType="1" res="1.2283326359465718e-03" rms="4.6098756790161133e-01" purity="5.0229513645172119e-01" nType="0">
        <Node pos="l" depth="1" NCoef="0" IVar="1" Cut="2.0736810302734375e+02" cType="1" res="-2.0800301805138588e-02" rms="4.6308466792106628e-01" purity="4.7267252206802368e-01" nType="0">
          <Node pos="l" depth="2" NCoef="0" IVar="-1" Cut="0.0000000000000000e+00" cType="1" res="5.3339556325227022e-04" rms="4.7324621677398682e-01" purity="5.3796952962875366e-01" nType="-99"/>
          <Node pos="r" depth="2" NCoef="0" IVar="-1" Cut="0.0000000000000000e+00" cType="1" res="-1.3462816365063190e-02" rms="4.3632635474205017e-01" purity="3.3351913094520569e-01" nType="-99"/>
        </Node>
        <Node pos="r" depth="1" NCoef="0" IVar="6" Cut="1.3559132814407349e-01" cType="1" res="5.0942152738571167e-02" rms="4.5229372382164001e-01" purity="5.6914693117141724e-01" nType="0">
          <Node pos="l" depth="2" NCoef="0" IVar="-1" Cut="0.0000000000000000e+00" cType="1" res="-3.5368229728192091e-03" rms="4.5764246582984924e-01" purity="4.7198057174682617e-01" nType="-99"/>
          <Node pos="r" depth="2" NCoef="0" IVar="-1" Cut="0.0000000000000000e+00" cType="1" res="1.5822274610400200e-02" rms="4.4611945748329163e-01" purity="6.1403399705886841e-01" nType="-99"/>
        </Node>
      </Node>
    </BinaryTree>
    <BinaryTree type="DecisionTree" boostWeight="1.0000000000000000e+00" itree="29">
      <Node pos="s" depth="0" NCoef="0" IVar="10" Cut="6.1358367919921875e+01" cType="1" res="-2.3495282512158155e-03" rms="4.6053504943847656e-01" purity="4.9891301989555359e-01" nType="0">
        <Node pos="l" depth="1" NCoef="0" IVar="3" Cut="1.6565016174316406e+02" cType="1" res="3.1283870339393616e-02" rms="4.5821237564086914e-01" purity="6.0501861572265625e-01" nType="0">
          <Node pos="l" depth="2" NCoef="0" IVar="-1" Cut="0.0000000000000000e+00" cType="1" res="8.6275208741426468e-03" rms="4.5930096507072449e-01" purity="6.4596426486968994e-01" nType="-99"/>
          <Node pos="r" depth="2" NCoef="0" IVar="-1" Cut="0.0000000000000000e+00" cType="1" res="-1.7622902989387512e-02" rms="4.2903122305870056e-01" purity="2.5401949882507324e-01" nType="-99"/>
        </Node>
        <Node pos="r" depth="1" NCoef="0" IVar="9" Cut="2.5005049705505371e+00" cType="1" res="-3.4648060798645020e-02" rms="4.6044793725013733e-01" purity="3.9701858162879944e-01" nType="0">
          <Node pos="l" depth="2" NCoef="0" IVar="-1" Cut="0.0000000000000000e+00" cType="1" res="-1.4225544407963753e-02" rms="4.4253924489021301e-01" purity="3.3462777733802795e-01" nType="-99"/>
          <Node pos="r" depth="2" NCoef="0" IVar="-1" Cut="0.0000000000000000e+00" cType="1" res="-2.2306828759610653e-03" rms="4.6738862991333008e-01" purity="4.2753979563713074e-01" nType="-99"/>
        </Node>
      </Node>
    </BinaryTree>
    <BinaryTree type="DecisionTree" boostWeight="1.0000000000000000e+00" itree="30">
      <Node pos="s" depth="0" NCoef="0" IVar="0" Cut="2.6936342716217041e+00" cType="1" res="4.2013867641799152e-04" rms="4.6007704734802246e-01" purity="5.0213414430618286e-01" nType="0">
        <Node pos="l" depth="1" NCoef="0" IVar="0" Cut="-2.5365393161773682e+00" cType="1" res="-1.5736756846308708e-02" rms="4.6176451444625854e-01" purity="4.7156867384910583e-01" nType="0">
          <Node pos="l" depth="2" NCoef="0" IVar="-1" Cut="0.0000000000000000e+00" cType="1" res="8.7776342406868935e-03" rms="4.5512530207633972e-01" purity="5.9485095739364624e-01" nType="-99"/>
          <Node pos="r" depth="2" NCoef="0" IVar="-1" Cut="0.0000000000000000e+00" cType="1" res="-8.3802221342921257e-03" rms="4.6185708045959473e-01" purity="4.1113787889480591e-01" nType="-99"/>
        </Node>
        <Node pos="r" depth="1" NCoef="0" IVar="10" Cut="5.9967494964599609e+01" cType="1" res="6.1599176377058029e-02" rms="4.4838517904281616e-01" purity="6.1787223815917969e-01" nType="0">
          <Node pos="l" depth="2" NCoef="0" IVar="-1" Cut="0.0000000000000000e+00" cType="1" res="1.9264804199337959e-02" rms="4.3000289797782898e-01" purity="7.1405333280563354e-01" nType="-99"/>
          <Node pos="r" depth="2" NCoef="0" IVar="-1" Cut="0.0000000000000000e+00" cType="1" res="1.8376229563727975e-03" rms="4.6745756268501282e-01" purity="4.8662886023521423e-01" nType="-99"/>
        </Node>
      </Node>
    </BinaryTree>
    <BinaryTree type="DecisionTree" boostWeight="1.0000000000000000e+00" itree="31">
      <Node pos="s" depth="0" NCoef="0" IVar="9" Cut="2.8404793739318848e+00" cType="1" res="1.0297849075868726e-03" rms="4.5994159579277039e-01" purity="5.0217032432556152e-01" nType="0">
        <Node pos="l" depth="1" NCoef="0" IVar="7" Cut="3.1483158469200134e-01" cType="1" res="-3.2802596688270569e-02" rms="4.5303991436958313e-01" purity="4.5660310983657837e-01" nType="0">
          <Node pos="l" depth="2" NCoef="0" IVar="-1" Cut="0.0000000000000000e+00" cType="1" res="-9.8588336259126663e-03" rms="4.5187988877296448e-01" purity="4.2597195506095886e-01" nType="-99"/>
          <Node pos="r" depth="2" NCoef="0" IVar="-1" Cut="0.0000000000000000e+00" cType="1" res="4.5141656883060932e-03" rms="4.5124605298042297e-01" purity="5.3689086437225342e-01" nType="-99"/>
        </Node>
        <Node pos="r" depth="1" NCoef="0" IVar="0" Cut="-2.5981435775756836e+00" cType="1" res="2.7658985927700996e-02" rms="4.6356850862503052e-01" purity="5.3803592920303345e-01" nType="0">
          <Node pos="l" depth="2" NCoef="0" IVar="-1" Cut="0.0000000000000000e+00" cType="1" res="1.7337322235107422e-02" rms="4.4665467739105225e-01" purity="6.6758769750595093e-01" nType="-99"/>
          <Node pos="r" depth="2" NCoef="0" IVar="-1" Cut="0.0000000000000000e+00" cType="1" res="1.8051002407446504e-03" rms="4.6650239825248718e-01" purity="5.0275713205337524e-01" nType="-99"/>
        </Node>
      </Node>
    </BinaryTree>
    <BinaryTree type="DecisionTree" boostWeight="1.0000000000000000e+00" itree="32">
      <Node pos="s" depth="0" NCoef="0" IVar="9" Cut="2.4484715461730957e+00" cType="1" res="-3.0262465588748455e-03" rms="4.5913589000701904e-01" purity="4.9890524148941040e-01" nType="0">
        <Node pos="l" depth="1" NCoef="0" IVar="3" Cut="8.3856750488281250e+01" cType="1" res="-4.6672236174345016e-02" rms="4.5179903507232666e-01" purity="4.4363546371459961e-01" nType="0">
          <Node pos="l" depth="2" NCoef="0" IVar="-1" Cut="0.0000000000000000e+00" cType="1" res="-2.2550965659320354e-03" rms="4.5911103487014771e-01" purity="5.3493088483810425e-01" nType="-99"/>
          <Node pos="r" depth="2" NCoef="0" IVar="-1" Cut="0.0000000000000000e+00" cType="1" res="-1.5696248039603233e-02" rms="4.4025784730911255e-01" purity="3.4128177165985107e-01" nType="-99"/>
        </Node>
        <Node pos="r" depth="1" NCoef="0" IVar="0" Cut="2.3399393558502197e+00" cType="1" res="1.7266416922211647e-02" rms="4.6110263466835022e-01" purity="5.2460229396820068e-01" nType="0">
          <Node pos="l" depth="2" NCoef="0" IVar="-1" Cut="0.0000000000000000e+00" cType="1" res="-8.5549848154187202e-04" rms="4.6327731013298035e-01" purity="4.8181393742561340e-01" nType="-99"/>
          <Node pos="r" depth="2" NCoef="0" IVar="-1" Cut="0.0000000000000000e+00" cType="1" res="1.3388602994382381e-02" rms="4.5106202363967896e-01" purity="6.3074243068695068e-01" nType="-99"/>
        </Node>
      </Node>
    </BinaryTree>
    <BinaryTree type="DecisionTree" boostWeight="1.0000000000000000e+00" itree="33">
      <Node pos="s" depth="0" NCoef="0" IVar="3" Cut="1.8877862548828125e+02" cType="1" res="-1.3244076399132609e-04" rms="4.5844995975494385e-01" purity="5.0096976757049561e-01" nType="0">
        <Node pos="l" depth="1" NCoef="0" IVar="11" Cut="5.8001003265380859e+01" cType="1" res="9.7243869677186012e-03" rms="4.6315419673919678e-01" purity="5.3291290998458862e-01" nType="0">
          <Node pos="l" depth="2" NCoef="0" IVar="-1" Cut="0.0000000000000000e+00" cType="1" res="5.9569887816905975e-03" rms="4.6209493279457092e-01" purity="5.9705096483230591e-01" nType="-99"/>
          <Node pos="r" depth="2" NCoef="0" IVar="-1" Cut="0.0000000000000000e+00" cType="1" res="-6.6180364228785038e-03" rms="4.6185582876205444e-01" purity="3.9621829986572266e-01" nType="-99"/>
        </Node>
        <Node pos="r" depth="1" NCoef="0" IVar="-1" Cut="0.0000000000000000e+00" cType="1" res="-1.6924222931265831e-02" rms="4.0333360433578491e-01" purity="2.1485024690628052e-01" nType="-99"/>
      </Node>
    </BinaryTree>
    <BinaryTree type="DecisionTree" boostWeight="1.0000000000000000e+00" itree="34">
      <Node pos="s" depth="0" NCoef="0" IVar="6" Cut="2.3568150401115417e-01" cType="1" res="-2.2405998315662146e-03" rms="4.5917057991027832e-01" purity="4.9945631623268127e-01" nType="0">
        <Node pos="l" depth="1" NCoef="0" IVar="1" Cut="1.8194422912597656e+02" cType="1" res="-2.7362719178199768e-02" rms="4.6205398440361023e-01" purity="4.5758214592933655e-01" nType="0">
          <Node pos="l" depth="2" NCoef="0" IVar="-1" Cut="0.0000000000000000e+00" cType="1" res="8.5058272816240788e-05" rms="4.7569403052330017e-01" purity="5.4022997617721558e-01" nType="-99"/>
          <Node pos="r" depth="2" NCoef="0" IVar="-1" Cut="0.0000000000000000e+00" cType="1" res="-1.2841567397117615e-02" rms="4.3865299224853516e-01" purity="3.3891710638999939e-01" nType="-99"/>
        </Node>
        <Node pos="r" depth="1" NCoef="0" IVar="7" Cut="2.5687393546104431e-01" cType="1" res="3.1045800074934959e-02" rms="4.5318201184272766e-01" purity="5.5493891239166260e-01" nType="0">
          <Node pos="l" depth="2" NCoef="0" IVar="-1" Cut="0.0000000000000000e+00" cType="1" res="-3.7739533581770957e-04" rms="4.5839467644691467e-01" purity="5.0653779506683350e-01" nType="-99"/>
          <Node pos="r" depth="2" NCoef="0" IVar="-1" Cut="0.0000000000000000e+00" cType="1" res="1.5344385057687759e-02" rms="4.4089519977569580e-01" purity="6.2623763084411621e-01" nType="-99"/>
        </Node>
      </Node>
    </BinaryTree>
    <BinaryTree type="DecisionTree" boostWeight="1.0000000000000000e+00" itree="35">
      <Node pos="s" depth="0" NCoef="0" IVar="6" Cut="1.2020511925220490e-01" cType="1" res="-1.1826920090243220e-03" rms="4.5836955308914185e-01" purity="5.0058406591415405e-01" nType="0">
        <Node pos="l" depth="1" NCoef="0" IVar="1" Cut="1.1234529876708984e+02" cType="1" res="-4.5333877205848694e-02" rms="4.6195757389068604e-01" purity="4.2615234851837158e-01" nType="0">
          <Node pos="l" depth="2" NCoef="0" IVar="-1" Cut="0.0000000000000000e+00" cType="1" res="5.3893001750111580e-03" rms="4.8793482780456543e-01" purity="5.8763456344604492e-01" nType="-99"/>
          <Node pos="r" depth="2" NCoef="0" IVar="-1" Cut="0.0000000000000000e+00" cType="1" res="-1.2554978951811790e-02" rms="4.5129728317260742e-01" purity="3.7767684459686279e-01" nType="-99"/>
        </Node>
        <Node pos="r" depth="1" NCoef="0" IVar="10" Cut="1.1775700378417969e+02" cType="1" res="1.7325099557638168e-02" rms="4.5558613538742065e-01" purity="5.3178524971008301e-01" nType="0">
          <Node pos="l" depth="2" NCoef="0" IVar="-1" Cut="0.0000000000000000e+00" cType="1" res="6.3416161574423313e-03" rms="4.5844802260398865e-01" purity="5.8359521627426147e-01" nType="-99"/>
          <Node pos="r" depth="2" NCoef="0" IVar="-1" Cut="0.0000000000000000e+00" cType="1" res="-1.1394971981644630e-02" rms="4.3220415711402893e-01" purity="2.7662286162376404e-01" nType="-99"/>
        </Node>
      </Node>
    </BinaryTree>
    <BinaryTree type="DecisionTree" boostWeight="1.0000000000000000e+00" itree="36">
      <Node pos="s" depth="0" NCoef="0" IVar="7" Cut="1.8311245739459991e-01" cType="1" res="-1.0502511868253350e-03" rms="4.5777049660682678e-01" purity="5.0054651498794556e-01" nType="0">
        <Node pos="l" depth="1" NCoef="0" IVar="1" Cut="1.4970359802246094e+02" cType="1" res="-3.3148892223834991e-02" rms="4.6215131878852844e-01" purity="4.4841882586479187e-01" nType="0">
          <Node pos="l" depth="2" NCoef="0" IVar="-1" Cut="0.0000000000000000e+00" cType="1" res="5.0888059195131063e-04" rms="4.8093238472938538e-01" purity="5.5365258455276489e-01" nType="-99"/>
          <Node pos="r" depth="2" NCoef="0" IVar="-1" Cut="0.0000000000000000e+00" cType="1" res="-1.1499104090034962e-02" rms="4.4480806589126587e-01" purity="3.6582183837890625e-01" nType="-99"/>
        </Node>
        <Node pos="r" depth="1" NCoef="0" IVar="3" Cut="1.8361834716796875e+02" cType="1" res="2.6101779192686081e-02" rms="4.5225664973258972e-01" purity="5.4464107751846313e-01" nType="0">
          <Node pos="l" depth="2" NCoef="0" IVar="-1" Cut="0.0000000000000000e+00" cType="1" res="7.2148959152400494e-03" rms="4.5510342717170715e-01" purity="5.8061033487319946e-01" nType="-99"/>
          <Node pos="r" depth="2" NCoef="0" IVar="-1" Cut="0.0000000000000000e+00" cType="1" res="-1.5832979232072830e-02" rms="4.1095471382141113e-01" purity="2.2677201032638550e-01" nType="-99"/>
        </Node>
      </Node>
    </BinaryTree>
    <BinaryTree type="DecisionTree" boostWeight="1.0000000000000000e+00" itree="37">
      <Node pos="s" depth="0" NCoef="0" IVar="0" Cut="-2.6842093467712402e+00" cType="1" res="-6.8740913411602378e-04" rms="4.5788997411727905e-01" purity="5.0016134977340698e-01" nType="0">
        <Node pos="l" depth="1" NCoef="0" IVar="10" Cut="6.2335514068603516e+01" cType="1" res="5.1354020833969116e-02" rms="4.4849476218223572e-01" purity="6.1038804054260254e-01" nType="0">
          <Node pos="l" depth="2" NCoef="0" IVar="-1" Cut="0.0000000000000000e+00" cType="1" res="1.7091123387217522e-02" rms="4.3239215016365051e-01" purity="7.0775520801544189e-01" nType="-99"/>
          <Node pos="r" depth="2" NCoef="0" IVar="-1" Cut="0.0000000000000000e+00" cType="1" res="-3.7524168146774173e-04" rms="4.6618744730949402e-01" purity="4.6644267439842224e-01" nType="-99"/>
        </Node>
        <Node pos="r" depth="1" NCoef="0" IVar="0" Cut="2.4501237869262695e+00" cType="1" res="-1.4608420431613922e-02" rms="4.5937228202819824e-01" purity="4.7067588567733765e-01" nType="0">
          <Node pos="l" depth="2" NCoef="0" IVar="-1" Cut="0.0000000000000000e+00" cType="1" res="-8.2822870463132858e-03" rms="4.6089601516723633e-01" purity="4.0260732173919678e-01" nType="-99"/>
          <Node pos="r" depth="2" NCoef="0" IVar="-1" Cut="0.0000000000000000e+00" cType="1" res="7.4043823406100273e-03" rms="4.5167741179466248e-01" purity="5.8929026126861572e-01" nType="-99"/>
        </Node>
      </Node>
    </BinaryTree>
    <BinaryTree type="DecisionTree" boostWeight="1.0000000000000000e+00" itree="38">
      <Node pos="s" depth="0" NCoef="0" IVar="9" Cut="3.1754107475280762e+00" cType="1" res="-6.1486987397074699e-04" rms="4.5718997716903687e-01" purity="5.0059795379638672e-01" nType="0">
        <Node pos="l" depth="1" NCoef="0" IVar="7" Cut="3.2255539298057556e-01" cType="1" res="-2.4281587451696396e-02" rms="4.5245146751403809e-01" purity="4.6036040782928467e-01" nType="0">
          <Node pos="l" depth="2" NCoef="0" IVar="-1" Cut="0.0000000000000000e+00" cType="1" res="-7.4768662452697754e-03" rms="4.5294821262359619e-01" purity="4.3246474862098694e-01" nType="-99"/>
          <Node pos="r" depth="2" NCoef="0" IVar="-1" Cut="0.0000000000000000e+00" cType="1" res="4.7103129327297211e-03" rms="4.4749039411544800e-01" purity="5.4279536008834839e-01" nType="-99"/>
        </Node>
        <Node pos="r" depth="1" NCoef="0" IVar="0" Cut="-2.4611494541168213e+00" cType="1" res="2.8727062046527863e-02" rms="4.6131470799446106e-01" purity="5.5048435926437378e-01" nType="0">
          <Node pos="l" depth="2" NCoef="0" IVar="-1" Cut="0.0000000000000000e+00" cType="1" res="1.5445610508322716e-02" rms="4.4534999132156372e-01" purity="6.6690129041671753e-01" nType="-99"/>
          <Node pos="r" depth="2" NCoef="0" IVar="-1" Cut="0.0000000000000000e+00" cType="1" res="2.0468309521675110e-03" rms="4.6521276235580444e-01" purity="5.1159119606018066e-01" nType="-99"/>
        </Node>
      </Node>
    </BinaryTree>
    <BinaryTree type="DecisionTree" boostWeight="1.0000000000000000e+00" itree="39">
      <Node pos="s" depth="0" NCoef="0" IVar="1" Cut="3.6958584594726562e+02" cType="1" res="-2.0026199053972960e-03" rms="4.5715269446372986e-01" purity="4.9895676970481873e-01" nType="0">
        <Node pos="l" depth="1" NCoef="0" IVar="0" Cut="-2.7332181930541992e+00" cType="1" res="5.2160602062940598e-03" rms="4.6109697222709656e-01" purity="5.1944470405578613e-01" nType="0">
          <Node pos="l" depth="2" NCoef="0" IVar="-1" Cut="0.0000000000000000e+00" cType="1" res="1.0955765843391418e-02" rms="4.4717079401016235e-01" purity="6.4053434133529663e-01" nType="-99"/>
          <Node pos="r" depth="2" NCoef="0" IVar="-1" Cut="0.0000000000000000e+00" cType="1" res="-1.3584709959104657e-03" rms="4.6349573135375977e-01" purity="4.9033913016319275e-01" nType="-99"/>
        </Node>
        <Node pos="r" depth="1" NCoef="0" IVar="-1" Cut="0.0000000000000000e+00" cType="1" res="-1.9758012145757675e-02" rms="3.8794690370559692e-01" purity="2.2482982277870178e-01" nType="-99"/>
      </Node>
    </BinaryTree>
    <BinaryTree type="DecisionTree" boostWeight="1.0000000000000000e+00" itree="40">
      <Node pos="s" depth="0" NCoef="0" IVar="0" Cut="2.6860764026641846e+00" cType="1" res="-1.8294308101758361e-03" rms="4.5645946264266968e-01" purity="4.9904581904411316e-01" nType="0">
        <Node pos="l" depth="1" NCoef="0" IVar="0" Cut="-2.4569108486175537e+00" cType="1" res="-1.5246928669512272e-02" rms="4.5810702443122864e-01" purity="4.6879652142524719e-01" nType="0">
          <Node pos="l" depth="2" NCoef="0" IVar="-1" Cut="0.0000000000000000e+00" cType="1" res="6.1882878653705120e-03" rms="4.5100092887878418e-01" purity="5.8903014659881592e-01" nType="-99"/>
          <Node pos="r" depth="2" NCoef="0" IVar="-1" Cut="0.0000000000000000e+00" cType="1" res="-7.6779439114034176e-03" rms="4.5985957980155945e-01" purity="4.0157693624496460e-01" nType="-99"/>
        </Node>
        <Node pos="r" depth="1" NCoef="0" IVar="10" Cut="6.9461235046386719e+01" cType="1" res="4.8412241041660309e-02" rms="4.4667065143585205e-01" purity="6.1231398582458496e-01" nType="0">
          <Node pos="l" depth="2" NCoef="0" IVar="-1" Cut="0.0000000000000000e+00" cType="1" res="1.5210370533168316e-02" rms="4.3401062488555908e-01" purity="7.0151883363723755e-01" nType="-99"/>
          <Node pos="r" depth="2" NCoef="0" IVar="-1" Cut="0.0000000000000000e+00" cType="1" res="-2.0020422525703907e-03" rms="4.6600538492202759e-01" purity="4.2886844277381897e-01" nType="-99"/>
        </Node>
      </Node>
    </BinaryTree>
    <BinaryTree type="DecisionTree" boostWeight="1.0000000000000000e+00" itree="41">
      <Node pos="s" depth="0" NCoef="0" IVar="9" Cut="3.0400114059448242e+00" cType="1" res="-1.9511771388351917e-03" rms="4.5696386694908142e-01" purity="4.9856024980545044e-01" nType="0">
        <Node pos="l" depth="1" NCoef="0" IVar="6" Cut="1.1564202606678009e-01" cType="1" res="-2.6444384828209877e-02" rms="4.5211362838745117e-01" purity="4.5502197742462158e-01" nType="0">
          <Node pos="l" depth="2" NCoef="0" IVar="-1" Cut="0.0000000000000000e+00" cType="1" res="-1.2527756392955780e-02" rms="4.4831451773643494e-01" purity="3.7673476338386536e-01" nType="-99"/>
          <Node pos="r" depth="2" NCoef="0" IVar="-1" Cut="0.0000000000000000e+00" cType="1" res="-1.6945928800851107e-03" rms="4.5254752039909363e-01" purity="4.8775720596313477e-01" nType="-99"/>
        </Node>
        <Node pos="r" depth="1" NCoef="0" IVar="0" Cut="2.2827568054199219e+00" cType="1" res="2.3211067542433739e-02" rms="4.6053907275199890e-01" purity="5.4328769445419312e-01" nType="0">
          <Node pos="l" depth="2" NCoef="0" IVar="-1" Cut="0.0000000000000000e+00" cType="1" res="9.5464230980724096e-04" rms="4.6368572115898132e-01" purity="5.0119060277938843e-01" nType="-99"/>
          <Node pos="r" depth="2" NCoef="0" IVar="-1" Cut="0.0000000000000000e+00" cType="1" res="1.2549048289656639e-02" rms="4.5004144310951233e-01" purity="6.4368313550949097e-01" nType="-99"/>
        </Node>
      </Node>
    </BinaryTree>
    <BinaryTree type="DecisionTree" boostWeight="1.0000000000000000e+00" itree="42">
      <Node pos="s" depth="0" NCoef="0" IVar="7" Cut="1.1989248543977737e-01" cType="1" res="-1.7720910254865885e-03" rms="4.5613697171211243e-01" purity="4.9937111139297485e-01" nType="0">
        <Node pos="l" depth="1" NCoef="0" IVar="1" Cut="1.0961515045166016e+02" cType="1" res="-4.0965162217617035e-02" rms="4.6168166399002075e-01" purity="4.3414875864982605e-01" nType="0">
          <Node pos="l" depth="2" NCoef="0" IVar="-1" Cut="0.0000000000000000e+00" cType="1" res="3.5309158265590668e-03" rms="4.9189737439155579e-01" purity="5.7835960388183594e-01" nType="-99"/>
          <Node pos="r" depth="2" NCoef="0" IVar="-1" Cut="0.0000000000000000e+00" cType="1" res="-1.0643436573445797e-02" rms="4.5173090696334839e-01" purity="3.9520868659019470e-01" nType="-99"/>
        </Node>
        <Node pos="r" depth="1" NCoef="0" IVar="11" Cut="9.3902099609375000e+01" cType="1" res="1.5462766401469707e-02" rms="4.5260417461395264e-01" purity="5.2805209159851074e-01" nType="0">
          <Node pos="l" depth="2" NCoef="0" IVar="-1" Cut="0.0000000000000000e+00" cType="1" res="5.2211279980838299e-03" rms="4.5392245054244995e-01" purity="5.6305760145187378e-01" nType="-99"/>
          <Node pos="r" depth="2" NCoef="0" IVar="-1" Cut="0.0000000000000000e+00" cType="1" res="-1.1479924432933331e-02" rms="4.3519997596740723e-01" purity="2.9125750064849854e-01" nType="-99"/>
        </Node>
      </Node>
    </BinaryTree>
    <BinaryTree type="DecisionTree" boostWeight="1.0000000000000000e+00" itree="43">
      <Node pos="s" depth="0" NCoef="0" IVar="6" Cut="3.0182844400405884e-01" cType="1" res="-1.2046908959746361e-03" rms="4.5623055100440979e-01" purity="4.9991792440414429e-01" nType="0">
        <Node pos="l" depth="1" NCoef="0" IVar="1" Cut="2.5696057128906250e+02" cType="1" res="-1.6954915598034859e-02" rms="4.5821088552474976e-01" purity="4.7166821360588074e-01" nType="0">
          <Node pos="l" depth="2" NCoef="0" IVar="-1" Cut="0.0000000000000000e+00" cType="1" res="-6.3725130166858435e-04" rms="4.6756395697593689e-01" purity="5.1768571138381958e-01" nType="-99"/>
          <Node pos="r" depth="2" NCoef="0" IVar="-1" Cut="0.0000000000000000e+00" cType="1" res="-1.4759222976863384e-02" rms="4.1185224056243896e-01" purity="2.7832496166229248e-01" nType="-99"/>
        </Node>
        <Node pos="r" depth="1" NCoef="0" IVar="14" Cut="3.9920172095298767e-01" cType="1" res="3.6254432052373886e-02" rms="4.4927307963371277e-01" purity="5.6710487604141235e-01" nType="0">
          <Node pos="l" depth="2" NCoef="0" IVar="-1" Cut="0.0000000000000000e+00" cType="1" res="1.0634159669280052e-02" rms="4.4684088230133057e-01" purity="6.0459733009338379e-01" nType="-99"/>
          <Node pos="r" depth="2" NCoef="0" IVar="-1" Cut="0.0000000000000000e+00" cType="1" res="-8.1288106739521027e-03" rms="4.5105761289596558e-01" purity="3.9602187275886536e-01" nType="-99"/>
        </Node>
      </Node>
    </BinaryTree>
    <BinaryTree type="DecisionTree" boostWeight="1.0000000000000000e+00" itree="44">
      <Node pos="s" depth="0" NCoef="0" IVar="0" Cut="2.6100857257843018e+00" cType="1" res="-1.0256468085572124e-03" rms="4.5568490028381348e-01" purity="5.0014436244964600e-01" nType="0">
        <Node pos="l" depth="1" NCoef="0" IVar="0" Cut="-2.1972603797912598e+00" cType="1" res="-1.5731194987893105e-02" rms="4.5783719420433044e-01" purity="4.6509483456611633e-01" nType="0">
          <Node pos="l" depth="2" NCoef="0" IVar="-1" Cut="0.0000000000000000e+00" cType="1" res="3.8775757420808077e-03" rms="4.5368778705596924e-01" purity="5.6437385082244873e-01" nType="-99"/>
          <Node pos="r" depth="2" NCoef="0" IVar="-1" Cut="0.0000000000000000e+00" cType="1" res="-8.2303555682301521e-03" rms="4.5908766984939575e-01" purity="3.8480749726295471e-01" nType="-99"/>
        </Node>
        <Node pos="r" depth="1" NCoef="0" IVar="12" Cut="1.4786300659179688e+00" cType="1" res="4.5231733471155167e-02" rms="4.4569501280784607e-01" purity="6.1039525270462036e-01" nType="0">
          <Node pos="l" depth="2" NCoef="0" IVar="-1" Cut="0.0000000000000000e+00" cType="1" res="1.8731297925114632e-02" rms="4.2783802747726440e-01" purity="6.8193995952606201e-01" nType="-99"/>
          <Node pos="r" depth="2" NCoef="0" IVar="-1" Cut="0.0000000000000000e+00" cType="1" res="3.1050865072757006e-03" rms="4.5321875810623169e-01" purity="5.6904536485671997e-01" nType="-99"/>
        </Node>
      </Node>
    </BinaryTree>
    <BinaryTree type="DecisionTree" boostWeight="1.0000000000000000e+00" itree="45">
      <Node pos="s" depth="0" NCoef="0" IVar="9" Cut="2.5196814537048340e+00" cType="1" res="-2.0065871067345142e-03" rms="4.5515835285186768e-01" purity="4.9943786859512329e-01" nType="0">
        <Node pos="l" depth="1" NCoef="0" IVar="10" Cut="7.4864013671875000e+01" cType="1" res="-3.4575350582599640e-02" rms="4.4765007495880127e-01" purity="4.4753122329711914e-01" nType="0">
          <Node pos="l" depth="2" NCoef="0" IVar="-1" Cut="0.0000000000000000e+00" cType="1" res="-2.1296816412359476e-03" rms="4.5828327536582947e-01" purity="5.5441915988922119e-01" nType="-99"/>
          <Node pos="r" depth="2" NCoef="0" IVar="-1" Cut="0.0000000000000000e+00" cType="1" res="-1.3294336386024952e-02" rms="4.2769128084182739e-01" purity="2.7849116921424866e-01" nType="-99"/>
        </Node>
        <Node pos="r" depth="1" NCoef="0" IVar="6" Cut="1.3565181195735931e-01" cType="1" res="1.4555989764630795e-02" rms="4.5804211497306824e-01" purity="5.2583461999893188e-01" nType="0">
          <Node pos="l" depth="2" NCoef="0" IVar="-1" Cut="0.0000000000000000e+00" cType="1" res="-4.1536851786077023e-03" rms="4.6648362278938293e-01" purity="4.5241084694862366e-01" nType="-99"/>
          <Node pos="r" depth="2" NCoef="0" IVar="-1" Cut="0.0000000000000000e+00" cType="1" res="6.4209974370896816e-03" rms="4.5238992571830750e-01" purity="5.6391727924346924e-01" nType="-99"/>
        </Node>
      </Node>
    </BinaryTree>
    <BinaryTree type="DecisionTree" boostWeight="1.0000000000000000e+00" itree="46">
      <Node pos="s" depth="0" NCoef="0" IVar="7" Cut="1.2641327083110809e-01" cType="1" res="1.3048088294453919e-04" rms="4.5467188954353333e-01" purity="5.0077414512634277e-01" nType="0">
        <Node pos="l" depth="1" NCoef="0" IVar="1" Cut="1.0727818298339844e+02" cType="1" res="-3.4315027296543121e-02" rms="4.6042579412460327e-01" purity="4.3781638145446777e-01" nType="0">
          <Node pos="l" depth="2" NCoef="0" IVar="-1" Cut="0.0000000000000000e+00" cType="1" res="5.0668357871472836e-03" rms="4.8776364326477051e-01" purity="5.8892601728439331e-01" nType="-99"/>
          <Node pos="r" depth="2" NCoef="0" IVar="-1" Cut="0.0000000000000000e+00" cType="1" res="-9.4454521313309669e-03" rms="4.5154386758804321e-01" purity="3.9847421646118164e-01" nType="-99"/>
        </Node>
        <Node pos="r" depth="1" NCoef="0" IVar="10" Cut="9.2071388244628906e+01" cType="1" res="1.6474898904561996e-02" rms="4.5099663734436035e-01" purity="5.3064769506454468e-01" nType="0">
          <Node pos="l" depth="2" NCoef="0" IVar="-1" Cut="0.0000000000000000e+00" cType="1" res="6.6244900226593018e-03" rms="4.5153421163558960e-01" purity="6.1028039455413818e-01" nType="-99"/>
          <Node pos="r" depth="2" NCoef="0" IVar="-1" Cut="0.0000000000000000e+00" cType="1" res="-5.9220721013844013e-03" rms="4.4596740603446960e-01" purity="3.1610253453254700e-01" nType="-99"/>
        </Node>
      </Node>
    </BinaryTree>
    <BinaryTree type="DecisionTree" boostWeight="1.0000000000000000e+00" itree="47">
      <Node pos="s" depth="0" NCoef="0" IVar="7" Cut="2.9736420512199402e-01" cType="1" res="-3.8154685171321034e-04" rms="4.5523262023925781e-01" purity="5.0126868486404419e-01" nType="0">
        <Node pos="l" depth="1" NCoef="0" IVar="9" Cut="2.1803812980651855e+00" cType="1" res="-1.5554958023130894e-02" rms="4.5882457494735718e-01" purity="4.7141972184181213e-01" nType="0">
          <Node pos="l" depth="2" NCoef="0" IVar="-1" Cut="0.0000000000000000e+00" cType="1" res="-1.1289650574326515e-02" rms="4.4701188802719116e-01" purity="4.0646359324455261e-01" nType="-99"/>
          <Node pos="r" depth="2" NCoef="0" IVar="-1" Cut="0.0000000000000000e+00" cType="1" res="-3.6192816332913935e-04" rms="4.6147340536117554e-01" purity="4.9105432629585266e-01" nType="-99"/>
        </Node>
        <Node pos="r" depth="1" NCoef="0" IVar="11" Cut="5.5442726135253906e+01" cType="1" res="3.4076888114213943e-02" rms="4.4505092501640320e-01" purity="5.6905496120452881e-01" nType="0">
          <Node pos="l" depth="2" NCoef="0" IVar="-1" Cut="0.0000000000000000e+00" cType="1" res="1.1758765205740929e-02" rms="4.3926191329956055e-01" purity="6.3973152637481689e-01" nType="-99"/>
          <Node pos="r" depth="2" NCoef="0" IVar="-1" Cut="0.0000000000000000e+00" cType="1" res="-3.1977274920791388e-03" rms="4.5248070359230042e-01" purity="4.2334252595901489e-01" nType="-99"/>
        </Node>
      </Node>
    </BinaryTree>
    <BinaryTree type="DecisionTree" boostWeight="1.0000000000000000e+00" itree="48">
      <Node pos="s" depth="0" NCoef="0" IVar="0" Cut="2.7055742740631104e+00" cType="1" res="-1.7897321376949549e-03" rms="4.5497378706932068e-01" purity="4.9907672405242920e-01" nType="0">
        <Node pos="l" depth="1" NCoef="0" IVar="0" Cut="-2.5399355888366699e+00" cType="1" res="-1.3324298895895481e-02" rms="4.5711368322372437e-01" purity="4.6845939755439758e-01" nType="0">
          <Node pos="l" depth="2" NCoef="0" IVar="-1" Cut="0.0000000000000000e+00" cType="1" res="4.9752164632081985e-03" rms="4.4986543059349060e-01" purity="5.9148740768432617e-01" nType="-99"/>
          <Node pos="r" depth="2" NCoef="0" IVar="-1" Cut="0.0000000000000000e+00" cType="1" res="-5.9854243882000446e-03" rms="4.5938527584075928e-01" purity="4.0861436724662781e-01" nType="-99"/>
        </Node>
        <Node pos="r" depth="1" NCoef="0" IVar="6" Cut="2.1581655740737915e-01" cType="1" res="4.3230235576629639e-02" rms="4.4366335868835449e-01" purity="6.1857783794403076e-01" nType="0">
          <Node pos="l" depth="2" NCoef="0" IVar="-1" Cut="0.0000000000000000e+00" cType="1" res="1.2139942264184356e-03" rms="4.5429563522338867e-01" purity="5.5339014530181885e-01" nType="-99"/>
          <Node pos="r" depth="2" NCoef="0" IVar="-1" Cut="0.0000000000000000e+00" cType="1" res="1.5496388077735901e-02" rms="4.3058070540428162e-01" purity="6.7982494831085205e-01" nType="-99"/>
        </Node>
      </Node>
    </BinaryTree>
    <BinaryTree type="DecisionTree" boostWeight="1.0000000000000000e+00" itree="49">
      <Node pos="s" depth="0" NCoef="0" IVar="6" Cut="3.0512678623199463e-01" cType="1" res="-3.3116768463514745e-04" rms="4.5505297183990479e-01" purity="5.0074142217636108e-01" nType="0">
        <Node pos="l" depth="1" NCoef="0" IVar="1" Cut="2.2319856262207031e+02" cType="1" res="-1.3944832608103752e-02" rms="4.5798864960670471e-01" purity="4.7248765826225281e-01" nType="0">
          <Node pos="l" depth="2" NCoef="0" IVar="-1" Cut="0.0000000000000000e+00" cType="1" res="1.7819849017541856e-04" rms="4.6853008866310120e-01" purity="5.3156518936157227e-01" nType="-99"/>
          <Node pos="r" depth="2" NCoef="0" IVar="-1" Cut="0.0000000000000000e+00" cType="1" res="-1.0833507403731346e-02" rms="4.2611744999885559e-01" purity="3.1518772244453430e-01" nType="-99"/>
        </Node>
        <Node pos="r" depth="1" NCoef="0" IVar="0" Cut="-2.5560171604156494e+00" cType="1" res="3.2800655812025070e-02" rms="4.4609537720680237e-01" purity="5.6950312852859497e-01" nType="0">
          <Node pos="l" depth="2" NCoef="0" IVar="-1" Cut="0.0000000000000000e+00" cType="1" res="1.7729233950376511e-02" rms="4.3140384554862976e-01" purity="6.8759524822235107e-01" nType="-99"/>
          <Node pos="r" depth="2" NCoef="0" IVar="-1" Cut="0.0000000000000000e+00" cType="1" res="2.1151020191609859e-03" rms="4.4976049661636353e-01" purity="5.2383226156234741e-01" nType="-99"/>
        </Node>
      </Node>
    </BinaryTree>
    <BinaryTree type="DecisionTree" boostWeight="1.0000000000000000e+00" itree="50">
      <Node pos="s" depth="0" NCoef="0" IVar="6" Cut="1.3498678803443909e-01" cType="1" res="-1.8567391671240330e-03" rms="4.5492115616798401e-01" purity="4.9902179837226868e-01" nType="0">
        <Node pos="l" depth="1" NCoef="0" IVar="2" Cut="7.0010978698730469e+01" cType="1" res="-3.2265529036521912e-02" rms="4.5967292785644531e-01" purity="4.2584210634231567e-01" nType="0">
          <Node pos="l" depth="2" NCoef="0" IVar="-1" Cut="0.0000000000000000e+00" cType="1" res="3.3656484447419643e-03" rms="4.8927599191665649e-01" purity="5.1560330390930176e-01" nType="-99"/>
          <Node pos="r" depth="2" NCoef="0" IVar="-1" Cut="0.0000000000000000e+00" cType="1" res="-9.5733311027288437e-03" rms="4.4728374481201172e-01" purity="3.9403447508811951e-01" nType="-99"/>
        </Node>
        <Node pos="r" depth="1" NCoef="0" IVar="3" Cut="1.9622782897949219e+02" cType="1" res="1.3306353241205215e-02" rms="4.5176893472671509e-01" purity="5.3551220893859863e-01" nType="0">
          <Node pos="l" depth="2" NCoef="0" IVar="-1" Cut="0.0000000000000000e+00" cType="1" res="4.1395816951990128e-03" rms="4.5530402660369873e-01" purity="5.6636404991149902e-01" nType="-99"/>
          <Node pos="r" depth="2" NCoef="0" IVar="-1" Cut="0.0000000000000000e+00" cType="1" res="-1.5258627943694592e-02" rms="4.0207266807556152e-01" purity="2.1038264036178589e-01" nType="-99"/>
        </Node>
      </Node>
    </BinaryTree>
    <BinaryTree type="DecisionTree" boostWeight="1.0000000000000000e+00" itree="51">
      <Node pos="s" depth="0" NCoef="0" IVar="9" Cut="2.5809104442596436e+00" cType="1" res="-2.7973644318990409e-04" rms="4.5349329710006714e-01" purity="5.0059074163436890e-01" nType="0">
        <Node pos="l" depth="1" NCoef="0" IVar="6" Cut="2.8090330958366394e-01" cType="1" res="-3.1744875013828278e-02" rms="4.4712612032890320e-01" purity="4.4573333859443665e-01" nType="0">
          <Node pos="l" depth="2" NCoef="0" IVar="-1" Cut="0.0000000000000000e+00" cType="1" res="-9.6395742148160934e-03" rms="4.4630411267280579e-01" purity="4.0548965334892273e-01" nType="-99"/>
          <Node pos="r" depth="2" NCoef="0" IVar="-1" Cut="0.0000000000000000e+00" cType="1" res="1.1125948512926698e-03" rms="4.4634598493576050e-01" purity="5.2381390333175659e-01" nType="-99"/>
        </Node>
        <Node pos="r" depth="1" NCoef="0" IVar="2" Cut="1.2095162200927734e+02" cType="1" res="1.7226578667759895e-02" rms="4.5605847239494324e-01" purity="5.3111183643341064e-01" nType="0">
          <Node pos="l" depth="2" NCoef="0" IVar="-1" Cut="0.0000000000000000e+00" cType="1" res="5.9288372285664082e-03" rms="4.6345150470733643e-01" purity="5.6236916780471802e-01" nType="-99"/>
          <Node pos="r" depth="2" NCoef="0" IVar="-1" Cut="0.0000000000000000e+00" cType="1" res="-4.1911038570106030e-03" rms="4.3463474512100220e-01" purity="4.5261335372924805e-01" nType="-99"/>
        </Node>
      </Node>
    </BinaryTree>
    <BinaryTree type="DecisionTree" boostWeight="1.0000000000000000e+00" itree="52">
      <Node pos="s" depth="0" NCoef="0" IVar="9" Cut="3.9036986827850342e+00" cType="1" res="-2.7625958318822086e-04" rms="4.5451676845550537e-01" purity="5.0113314390182495e-01" nType="0">
        <Node pos="l" depth="1" NCoef="0" IVar="3" Cut="7.9323730468750000e+01" cType="1" res="-1.2441025115549564e-02" rms="4.5260685682296753e-01" purity="4.7407066822052002e-01" nType="0">
          <Node pos="l" depth="2" NCoef="0" IVar="-1" Cut="0.0000000000000000e+00" cType="1" res="2.1437564864754677e-03" rms="4.5316272974014282e-01" purity="5.6592512130737305e-01" nType="-99"/>
          <Node pos="r" depth="2" NCoef="0" IVar="-1" Cut="0.0000000000000000e+00" cType="1" res="-6.3471621833741665e-03" rms="4.5108613371849060e-01" purity="3.9346826076507568e-01" nType="-99"/>
        </Node>
        <Node pos="r" depth="1" NCoef="0" IVar="2" Cut="6.5964637756347656e+01" cType="1" res="3.6277413368225098e-02" rms="4.5826926827430725e-01" purity="5.8245259523391724e-01" nType="0">
          <Node pos="l" depth="2" NCoef="0" IVar="-1" Cut="0.0000000000000000e+00" cType="1" res="1.5419789589941502e-02" rms="4.6291932463645935e-01" purity="6.5240442752838135e-01" nType="-99"/>
          <Node pos="r" depth="2" NCoef="0" IVar="-1" Cut="0.0000000000000000e+00" cType="1" res="3.5979640670120716e-03" rms="4.5533496141433716e-01" purity="5.5770832300186157e-01" nType="-99"/>
        </Node>
      </Node>
    </BinaryTree>
    <BinaryTree type="DecisionTree" boostWeight="1.0000000000000000e+00" itree="53">
      <Node pos="s" depth="0" NCoef="0" IVar="0" Cut="2.3656952381134033e+00" cType="1" res="-3.4790839999914169e-03" rms="4.5468297600746155e-01" purity="4.9651566147804260e-01" nType="0">
        <Node pos="l" depth="1" NCoef="0" IVar="0" Cut="-2.2037899494171143e+00" cType="1" res="-1.7540207132697105e-02" rms="4.5622387528419495e-01" purity="4.5838537812232971e-01" nType="0">
          <Node pos="l" depth="2" NCoef="0" IVar="-1" Cut="0.0000000000000000e+00" cType="1" res="2.2267368622124195e-03" rms="4.5326587557792664e-01" purity="5.5820101499557495e-01" nType="-99"/>
          <Node pos="r" depth="2" NCoef="0" IVar="-1" Cut="0.0000000000000000e+00" cType="1" res="-8.5511561483144760e-03" rms="4.5730343461036682e-01" purity="3.6075025796890259e-01" nType="-99"/>
        </Node>
        <Node pos="r" depth="1" NCoef="0" IVar="7" Cut="1.6253514587879181e-01" cType="1" res="2.7790201827883720e-02" rms="4.4966408610343933e-01" purity="5.8131027221679688e-01" nType="0">
          <Node pos="l" depth="2" NCoef="0" IVar="-1" Cut="0.0000000000000000e+00" cType="1" res="-2.5723730213940144e-03" rms="4.6120625734329224e-01" purity="5.0703811645507812e-01" nType="-99"/>
          <Node pos="r" depth="2" NCoef="0" IVar="-1" Cut="0.0000000000000000e+00" cType="1" res="1.0638312436640263e-02" rms="4.4021734595298767e-01" purity="6.2811881303787231e-01" nType="-99"/>
        </Node>
      </Node>
    </BinaryTree>
    <BinaryTree type="DecisionTree" boostWeight="1.0000000000000000e+00" itree="54">
      <Node pos="s" depth="0" NCoef="0" IVar="7" Cut="3.7398985028266907e-01" cType="1" res="-3.8063124520704150e-04" rms="4.5442330837249756e-01" purity="5.0090771913528442e-01" nType="0">
        <Node pos="l" depth="1" NCoef="0" IVar="14" Cut="1.0854898691177368e+00" cType="1" res="-9.9758394062519073e-03" rms="4.5631989836692810e-01" purity="4.8191303014755249e-01" nType="0">
          <Node pos="l" depth="2" NCoef="0" IVar="-1" Cut="0.0000000000000000e+00" cType="1" res="-3.0725097749382257e-03" rms="4.5317438244819641e-01" purity="4.8557817935943604e-01" nType="-99"/>
          <Node pos="r" depth="2" NCoef="0" IVar="-1" Cut="0.0000000000000000e+00" cType="1" res="1.1313443072140217e-02" rms="4.8750734329223633e-01" purity="4.3579345941543579e-01" nType="-99"/>
        </Node>
        <Node pos="r" depth="1" NCoef="0" IVar="6" Cut="3.2980999350547791e-01" cType="1" res="4.1794177144765854e-02" rms="4.4353684782981873e-01" purity="5.8439695835113525e-01" nType="0">
          <Node pos="l" depth="2" NCoef="0" IVar="-1" Cut="0.0000000000000000e+00" cType="1" res="3.7665029522031546e-03" rms="4.5039844512939453e-01" purity="5.4406911134719849e-01" nType="-99"/>
          <Node pos="r" depth="2" NCoef="0" IVar="-1" Cut="0.0000000000000000e+00" cType="1" res="1.9020693376660347e-02" rms="4.2235893011093140e-01" purity="6.7856591939926147e-01" nType="-99"/>
        </Node>
      </Node>
    </BinaryTree>
    <BinaryTree type="DecisionTree" boostWeight="1.0000000000000000e+00" itree="55">
      <Node pos="s" depth="0" NCoef="0" IVar="10" Cut="5.4512199401855469e+01" cType="1" res="-5.8612204156816006e-04" rms="4.5308479666709900e-01" purity="5.0090837478637695e-01" nType="0">
        <Node pos="l" depth="1" NCoef="0" IVar="3" Cut="7.6376525878906250e+01" cType="1" res="2.3956649005413055e-02" rms="4.4787785410881042e-01" purity="6.1226677894592285e-01" nType="0">
          <Node pos="l" depth="2" NCoef="0" IVar="-1" Cut="0.0000000000000000e+00" cType="1" res="1.1641503311693668e-02" rms="4.3245142698287964e-01" purity="7.1544510126113892e-01" nType="-99"/>
          <Node pos="r" depth="2" NCoef="0" IVar="-1" Cut="0.0000000000000000e+00" cType="1" res="-1.0167482541874051e-03" rms="4.5878043770790100e-01" purity="5.2318680286407471e-01" nType="-99"/>
        </Node>
        <Node pos="r" depth="1" NCoef="0" IVar="9" Cut="2.0206305980682373e+00" cType="1" res="-1.7798388376832008e-02" rms="4.5591360330581665e-01" purity="4.2281073331832886e-01" nType="0">
          <Node pos="l" depth="2" NCoef="0" IVar="-1" Cut="0.0000000000000000e+00" cType="1" res="-1.1088007129728794e-02" rms="4.3878301978111267e-01" purity="3.5807299613952637e-01" nType="-99"/>
          <Node pos="r" depth="2" NCoef="0" IVar="-1" Cut="0.0000000000000000e+00" cType="1" res="-1.3244930887594819e-03" rms="4.5966008305549622e-01" purity="4.3962010741233826e-01" nType="-99"/>
        </Node>
      </Node>
    </BinaryTree>
    <BinaryTree type="DecisionTree" boostWeight="1.0000000000000000e+00" itree="56">
      <Node pos="s" depth="0" NCoef="0" IVar="9" Cut="2.4484264850616455e+00" cType="1" res="-1.4273715205490589e-03" rms="4.5288938283920288e-01" purity="4.9903410673141479e-01" nType="0">
        <Node pos="l" depth="1" NCoef="0" IVar="4" Cut="9.1407203674316406e+01" cType="1" res="-3.1531296670436859e-02" rms="4.4556528329849243e-01" purity="4.4220286607742310e-01" nType="0">
          <Node pos="l" depth="2" NCoef="0" IVar="-1" Cut="0.0000000000000000e+00" cType="1" res="-2.3269171360880136e-03" rms="4.5914390683174133e-01" purity="5.2790111303329468e-01" nType="-99"/>
          <Node pos="r" depth="2" NCoef="0" IVar="-1" Cut="0.0000000000000000e+00" cType="1" res="-1.2733273208141327e-02" rms="4.1871532797813416e-01" purity="2.9272004961967468e-01" nType="-99"/>
        </Node>
        <Node pos="r" depth="1" NCoef="0" IVar="0" Cut="2.3173046112060547e+00" cType="1" res="1.2668657116591930e-02" rms="4.5559516549110413e-01" purity="5.2564507722854614e-01" nType="0">
          <Node pos="l" depth="2" NCoef="0" IVar="-1" Cut="0.0000000000000000e+00" cType="1" res="-1.9201358372811228e-04" rms="4.5836210250854492e-01" purity="4.8293673992156982e-01" nType="-99"/>
          <Node pos="r" depth="2" NCoef="0" IVar="-1" Cut="0.0000000000000000e+00" cType="1" res="8.9312959462404251e-03" rms="4.4701746106147766e-01" purity="6.2983852624893188e-01" nType="-99"/>
        </Node>
      </Node>
    </BinaryTree>
    <BinaryTree type="DecisionTree" boostWeight="1.0000000000000000e+00" itree="57">
      <Node pos="s" depth="0" NCoef="0" IVar="3" Cut="6.9961265563964844e+01" cType="1" res="-1.2714113108813763e-03" rms="4.5306545495986938e-01" purity="4.9946662783622742e-01" nType="0">
        <Node pos="l" depth="1" NCoef="0" IVar="11" Cut="6.6554092407226562e+01" cType="1" res="2.3111084476113319e-02" rms="4.4913172721862793e-01" purity="5.9435731172561646e-01" nType="0">
          <Node pos="l" depth="2" NCoef="0" IVar="-1" Cut="0.0000000000000000e+00" cType="1" res="8.7846750393509865e-03" rms="4.4502228498458862e-01" purity="6.5999865531921387e-01" nType="-99"/>
          <Node pos="r" depth="2" NCoef="0" IVar="-1" Cut="0.0000000000000000e+00" cType="1" res="-8.3073843270540237e-03" rms="4.5495262742042542e-01" purity="3.8492703437805176e-01" nType="-99"/>
        </Node>
        <Node pos="r" depth="1" NCoef="0" IVar="2" Cut="6.7493484497070312e+01" cType="1" res="-1.6091676428914070e-02" rms="4.5480155944824219e-01" purity="4.4178983569145203e-01" nType="0">
          <Node pos="l" depth="2" NCoef="0" IVar="-1" Cut="0.0000000000000000e+00" cType="1" res="5.6208111345767975e-03" rms="4.8103377223014832e-01" purity="5.2433550357818604e-01" nType="-99"/>
          <Node pos="r" depth="2" NCoef="0" IVar="-1" Cut="0.0000000000000000e+00" cType="1" res="-5.3761270828545094e-03" rms="4.4735902547836304e-01" purity="4.2153668403625488e-01" nType="-99"/>
        </Node>
      </Node>
    </BinaryTree>
    <BinaryTree type="DecisionTree" boostWeight="1.0000000000000000e+00" itree="58">
      <Node pos="s" depth="0" NCoef="0" IVar="6" Cut="2.0584273338317871e-01" cType="1" res="6.0835689509985968e-05" rms="4.5269444584846497e-01" purity="5.0005036592483521e-01" nType="0">
        <Node pos="l" depth="1" NCoef="0" IVar="2" Cut="8.4861946105957031e+01" cType="1" res="-1.7473531886935234e-02" rms="4.5768609642982483e-01" purity="4.5028942823410034e-01" nType="0">
          <Node pos="l" depth="2" NCoef="0" IVar="-1" Cut="0.0000000000000000e+00" cType="1" res="1.8739870283752680e-03" rms="4.8082754015922546e-01" purity="5.1732015609741211e-01" nType="-99"/>
          <Node pos="r" depth="2" NCoef="0" IVar="-1" Cut="0.0000000000000000e+00" cType="1" res="-7.4230218306183815e-03" rms="4.3894183635711670e-01" purity="4.0147671103477478e-01" nType="-99"/>
        </Node>
        <Node pos="r" depth="1" NCoef="0" IVar="11" Cut="9.5161621093750000e+01" cType="1" res="1.7766475677490234e-02" rms="4.4690001010894775e-01" purity="5.5029731988906860e-01" nType="0">
          <Node pos="l" depth="2" NCoef="0" IVar="-1" Cut="0.0000000000000000e+00" cType="1" res="5.6171258911490440e-03" rms="4.4759371876716614e-01" purity="5.8716928958892822e-01" nType="-99"/>
          <Node pos="r" depth="2" NCoef="0" IVar="-1" Cut="0.0000000000000000e+00" cType="1" res="-1.1137814261019230e-02" rms="4.3387603759765625e-01" purity="2.8447121381759644e-01" nType="-99"/>
        </Node>
      </Node>
    </BinaryTree>
    <BinaryTree type="DecisionTree" boostWeight="1.0000000000000000e+00" itree="59">
      <Node pos="s" depth="0" NCoef="0" IVar="0" Cut="-2.7583546638488770e+00" cType="1" res="-2.2510665003210306e-03" rms="4.5275241136550903e-01" purity="4.9757918715476990e-01" nType="0">
        <Node pos="l" depth="1" NCoef="0" IVar="10" Cut="5.7655326843261719e+01" cType="1" res="3.9517611265182495e-02" rms="4.4216683506965637e-01" purity="6.1867761611938477e-01" nType="0">
          <Node pos="l" depth="2" NCoef="0" IVar="-1" Cut="0.0000000000000000e+00" cType="1" res="1.5242439694702625e-02" rms="4.2482230067253113e-01" purity="7.2298926115036011e-01" nType="-99"/>
          <Node pos="r" depth="2" NCoef="0" IVar="-1" Cut="0.0000000000000000e+00" cType="1" res="-4.6419276623055339e-04" rms="4.5876383781433105e-01" purity="4.9257355928421021e-01" nType="-99"/>
        </Node>
        <Node pos="r" depth="1" NCoef="0" IVar="0" Cut="2.4024019241333008e+00" cType="1" res="-1.1703383177518845e-02" rms="4.5458155870437622e-01" purity="4.7017443180084229e-01" nType="0">
          <Node pos="l" depth="2" NCoef="0" IVar="-1" Cut="0.0000000000000000e+00" cType="1" res="-5.9273946098983288e-03" rms="4.5762866735458374e-01" purity="4.0571850538253784e-01" nType="-99"/>
          <Node pos="r" depth="2" NCoef="0" IVar="-1" Cut="0.0000000000000000e+00" cType="1" res="4.3417187407612801e-03" rms="4.4726124405860901e-01" purity="5.8068358898162842e-01" nType="-99"/>
        </Node>
      </Node>
    </BinaryTree>
    <BinaryTree type="DecisionTree" boostWeight="1.0000000000000000e+00" itree="60">
      <Node pos="s" depth="0" NCoef="0" IVar="7" Cut="1.6174168884754181e-01" cType="1" res="1.2543272459879518e-03" rms="4.5265749096870422e-01" purity="5.0152546167373657e-01" nType="0">
        <Node pos="l" depth="1" NCoef="0" IVar="11" Cut="2.8541164398193359e+01" cType="1" res="-2.0247250795364380e-02" rms="4.5872670412063599e-01" purity="4.4789338111877441e-01" nType="0">
          <Node pos="l" depth="2" NCoef="0" IVar="-1" Cut="0.0000000000000000e+00" cType="1" res="-1.9056739285588264e-02" rms="4.5486724376678467e-01" purity="4.1508224606513977e-01" nType="-99"/>
          <Node pos="r" depth="2" NCoef="0" IVar="-1" Cut="0.0000000000000000e+00" cType="1" res="-1.1966369347646832e-03" rms="4.5793527364730835e-01" purity="4.5343020558357239e-01" nType="-99"/>
        </Node>
        <Node pos="r" depth="1" NCoef="0" IVar="10" Cut="1.1770175170898438e+02" cType="1" res="1.5971960499882698e-02" rms="4.4786110520362854e-01" purity="5.3823608160018921e-01" nType="0">
          <Node pos="l" depth="2" NCoef="0" IVar="-1" Cut="0.0000000000000000e+00" cType="1" res="5.4682455956935883e-03" rms="4.5085927844047546e-01" purity="5.9468829631805420e-01" nType="-99"/>
          <Node pos="r" depth="2" NCoef="0" IVar="-1" Cut="0.0000000000000000e+00" cType="1" res="-7.9397894442081451e-03" rms="4.2879772186279297e-01" purity="2.6975491642951965e-01" nType="-99"/>
        </Node>
      </Node>
    </BinaryTree>
    <BinaryTree type="DecisionTree" boostWeight="1.0000000000000000e+00" itree="61">
      <Node pos="s" depth="0" NCoef="0" IVar="7" Cut="3.8590633869171143e-01" cType="1" res="4.9862964078783989e-04" rms="4.5223405957221985e-01" purity="5.0036501884460449e-01" nType="0">
        <Node pos="l" depth="1" NCoef="0" IVar="9" Cut="1.9703587293624878e+00" cType="1" res="-7.6584396883845329e-03" rms="4.5418068766593933e-01" purity="4.8301851749420166e-01" nType="0">
          <Node pos="l" depth="2" NCoef="0" IVar="-1" Cut="0.0000000000000000e+00" cType="1" res="-9.7207408398389816e-03" rms="4.4296726584434509e-01" purity="4.1407865285873413e-01" nType="-99"/>
          <Node pos="r" depth="2" NCoef="0" IVar="-1" Cut="0.0000000000000000e+00" cType="1" res="4.1117830551229417e-04" rms="4.5614615082740784e-01" purity="4.9882706999778748e-01" nType="-99"/>
        </Node>
        <Node pos="r" depth="1" NCoef="0" IVar="11" Cut="5.0839714050292969e+01" cType="1" res="3.9983388036489487e-02" rms="4.4056051969528198e-01" purity="5.8433169126510620e-01" nType="0">
          <Node pos="l" depth="2" NCoef="0" IVar="-1" Cut="0.0000000000000000e+00" cType="1" res="1.3355824165046215e-02" rms="4.3179529905319214e-01" purity="6.5938508510589600e-01" nType="-99"/>
          <Node pos="r" depth="2" NCoef="0" IVar="-1" Cut="0.0000000000000000e+00" cType="1" res="-7.2344316868111491e-04" rms="4.5194658637046814e-01" purity="4.5489424467086792e-01" nType="-99"/>
        </Node>
      </Node>
    </BinaryTree>
    <BinaryTree type="DecisionTree" boostWeight="1.0000000000000000e+00" itree="62">
      <Node pos="s" depth="0" NCoef="0" IVar="3" Cut="2.2777767944335938e+02" cType="1" res="-1.9045213703066111e-03" rms="4.5217043161392212e-01" purity="4.9836724996566772e-01" nType="0">
        <Node pos="l" depth="1" NCoef="0" IVar="4" Cut="1.9928184509277344e+02" cType="1" res="2.7244777884334326e-03" rms="4.5636725425720215e-01" purity="5.1935869455337524e-01" nType="0">
