<?xml version="1.0"?>
<MethodSetup Method="BDT::BDTG_v1">
  <GeneralInfo>
    <Info name="TMVA Release" value="4.2.1 [262657]"/>
    <Info name="ROOT Release" value="6.12/07 [396295]"/>
    <Info name="Creator" value="ceballos"/>
    <Info name="Date" value="Thu Mar 19 15:48:39 2020"/>
    <Info name="Host" value="Linux vocms0315.cern.ch 2.6.32-696.30.1.el6.x86_64 #1 SMP Tue May 22 06:09:36 CEST 2018 x86_64 x86_64 x86_64 GNU/Linux"/>
    <Info name="Dir" value="/home/ceballos/cms/cmssw/051/CMSSW_10_3_2/src"/>
    <Info name="Training events" value="148272"/>
    <Info name="TrainingTime" value="1.28919107e+02"/>
    <Info name="AnalysisType" value="Classification"/>
  </GeneralInfo>
  <Options>
    <Option name="V" modified="Yes">False</Option>
    <Option name="VerbosityLevel" modified="No">Default</Option>
    <Option name="VarTransform" modified="No">None</Option>
    <Option name="H" modified="Yes">False</Option>
    <Option name="CreateMVAPdfs" modified="No">False</Option>
    <Option name="IgnoreNegWeightsInTraining" modified="No">False</Option>
    <Option name="NTrees" modified="Yes">1000</Option>
    <Option name="MaxDepth" modified="Yes">2</Option>
    <Option name="MinNodeSize" modified="Yes">5%</Option>
    <Option name="nCuts" modified="Yes">10000</Option>
    <Option name="BoostType" modified="Yes">Grad</Option>
    <Option name="AdaBoostR2Loss" modified="No">quadratic</Option>
    <Option name="UseBaggedBoost" modified="Yes">True</Option>
    <Option name="Shrinkage" modified="Yes">1.000000e-01</Option>
    <Option name="AdaBoostBeta" modified="No">5.000000e-01</Option>
    <Option name="UseRandomisedTrees" modified="No">False</Option>
    <Option name="UseNvars" modified="No">5</Option>
    <Option name="UsePoissonNvars" modified="No">True</Option>
    <Option name="BaggedSampleFraction" modified="No">5.000000e-01</Option>
    <Option name="UseYesNoLeaf" modified="No">True</Option>
    <Option name="NegWeightTreatment" modified="Yes">ignorenegweightsintraining</Option>
    <Option name="Css" modified="No">1.000000e+00</Option>
    <Option name="Cts_sb" modified="No">1.000000e+00</Option>
    <Option name="Ctb_ss" modified="No">1.000000e+00</Option>
    <Option name="Cbb" modified="No">1.000000e+00</Option>
    <Option name="NodePurityLimit" modified="No">5.000000e-01</Option>
    <Option name="SeparationType" modified="No">giniindex</Option>
    <Option name="RegressionLossFunctionBDTG" modified="No">huber</Option>
    <Option name="HuberQuantile" modified="No">7.000000e-01</Option>
    <Option name="DoBoostMonitor" modified="No">False</Option>
    <Option name="UseFisherCuts" modified="No">False</Option>
    <Option name="MinLinCorrForFisher" modified="No">8.000000e-01</Option>
    <Option name="UseExclusiveVars" modified="No">False</Option>
    <Option name="DoPreselection" modified="No">False</Option>
    <Option name="SigToBkgFraction" modified="No">1.000000e+00</Option>
    <Option name="PruneMethod" modified="No">nopruning</Option>
    <Option name="PruneStrength" modified="No">0.000000e+00</Option>
    <Option name="PruningValFraction" modified="No">5.000000e-01</Option>
    <Option name="SkipNormalization" modified="No">False</Option>
    <Option name="nEventsMin" modified="No">0</Option>
    <Option name="UseBaggedGrad" modified="No">False</Option>
    <Option name="GradBaggingFraction" modified="Yes">5.000000e-01</Option>
    <Option name="UseNTrainEvents" modified="No">0</Option>
    <Option name="NNodesMax" modified="No">0</Option>
  </Options>
  <Variables NVar="20">
    <Variable VarIndex="0" Expression="mvadetajj" Label="mvadetajj" Title="mvadetajj" Unit="" Internal="mvadetajj" Type="F" Min="2.50012064e+00" Max="8.94531250e+00"/>
    <Variable VarIndex="1" Expression="mvadphijj" Label="mvadphijj" Title="mvadphijj" Unit="" Internal="mvadphijj" Type="F" Min="-3.14158773e+00" Max="3.14157963e+00"/>
    <Variable VarIndex="2" Expression="mvajetpt1" Label="mvajetpt1" Title="mvajetpt1" Unit="" Internal="mvajetpt1" Type="F" Min="5.00363159e+01" Max="2.27259277e+03"/>
    <Variable VarIndex="3" Expression="mvajetpt2" Label="mvajetpt2" Title="mvajetpt2" Unit="" Internal="mvajetpt2" Type="F" Min="5.00018959e+01" Max="8.56895935e+02"/>
    <Variable VarIndex="4" Expression="mvajeteta2" Label="mvajeteta2" Title="mvajeteta2" Unit="" Internal="mvajeteta2" Type="F" Min="-4.69719505e+00" Max="4.69961834e+00"/>
    <Variable VarIndex="5" Expression="mvaWpt" Label="mvaWpt" Title="mvaMet" Unit="" Internal="mvaWpt" Type="F" Min="3.00001774e+01" Max="2.33687012e+03"/>
    <Variable VarIndex="6" Expression="mvaZpt" Label="mvaZpt" Title="mvaZpt" Unit="" Internal="mvaZpt" Type="F" Min="3.39884788e-01" Max="1.71788208e+03"/>
    <Variable VarIndex="7" Expression="mvaVVmt" Label="mvaVVmt" Title="mvaVVmt" Unit="" Internal="mvaVVmt" Type="F" Min="3.63522489e-03" Max="1.67123352e+03"/>
    <Variable VarIndex="8" Expression="mvazep1" Label="mvazep1" Title="mvazep1" Unit="" Internal="mvazep1" Type="F" Min="4.27701525e-06" Max="7.49936759e-01"/>
    <Variable VarIndex="9" Expression="mvazep2" Label="mvazep2" Title="mvazep2" Unit="" Internal="mvazep2" Type="F" Min="6.10486438e-07" Max="7.49970317e-01"/>
    <Variable VarIndex="10" Expression="mvamaxzep" Label="mvamaxzep" Title="mvamaxzep" Unit="" Internal="mvamaxzep" Type="F" Min="3.57390410e-04" Max="7.49970317e-01"/>
    <Variable VarIndex="11" Expression="mvaj1Zdr" Label="mvaj1Zdr" Title="mvaj1Zdr" Unit="" Internal="mvaj1Zdr" Type="F" Min="3.59564088e-02" Max="9.49631119e+00"/>
    <Variable VarIndex="12" Expression="mvaj2Zdr" Label="mvaj2Zdr" Title="mvaj2Zdr" Unit="" Internal="mvaj2Zdr" Type="F" Min="7.96650164e-03" Max="9.41378403e+00"/>
    <Variable VarIndex="13" Expression="mvapttot" Label="mvapttot" Title="mvapttot" Unit="" Internal="mvapttot" Type="F" Min="9.02700424e-02" Max="1.33147339e+03"/>
    <Variable VarIndex="14" Expression="mvaleppt1" Label="mvaleppt1" Title="mvaleppt1" Unit="" Internal="mvaleppt1" Type="F" Min="2.00001831e+01" Max="1.68633154e+03"/>
    <Variable VarIndex="15" Expression="mvaleppt2" Label="mvaleppt2" Title="mvaleppt2" Unit="" Internal="mvaleppt2" Type="F" Min="2.00001926e+01" Max="1.29047327e+03"/>
    <Variable VarIndex="16" Expression="mvalepeta1" Label="mvalepeta1" Title="mvalepeta1" Unit="" Internal="mvalepeta1" Type="F" Min="-2.49804616e+00" Max="2.49923539e+00"/>
    <Variable VarIndex="17" Expression="mvadphill" Label="mvadphill" Title="mvadphill" Unit="" Internal="mvadphill" Type="F" Min="9.53674316e-07" Max="3.14154840e+00"/>
    <Variable VarIndex="18" Expression="mvadrll" Label="mvadrll" Title="mvadrll" Unit="" Internal="mvadrll" Type="F" Min="1.61331534e-01" Max="5.59629154e+00"/>
    <Variable VarIndex="19" Expression="(mvaleppt1*mvaleppt2)/(mvajetpt1*mvajetpt2)" Label="(mvaleppt1*mvaleppt2)/(mvajetpt1*mvajetpt2)" Title="mvaptrel" Unit="" Internal="_mvaleppt1_T_mvaleppt2__D__mvajetpt1_T_mvajetpt2_" Type="F" Min="1.29400170e-03" Max="1.15134636e+02"/>
  </Variables>
  <Spectators NSpec="0"/>
  <Classes NClass="2">
    <Class Name="Signal" Index="0"/>
    <Class Name="Background" Index="1"/>
  </Classes>
  <Transformations NTransformations="0"/>
  <MVAPdfs/>
  <Weights NTrees="1000" AnalysisType="1">
    <BinaryTree type="DecisionTree" boostWeight="1.0000000000000000e+00" itree="0">
      <Node pos="s" depth="0" NCoef="0" IVar="14" Cut="8.2148124694824219e+01" cType="1" res="-1.9318548729643226e-03" rms="4.9999627470970154e-01" purity="4.9806815385818481e-01" nType="0">
        <Node pos="l" depth="1" NCoef="0" IVar="5" Cut="1.3311959838867188e+02" cType="1" res="9.6769623458385468e-02" rms="4.9054625630378723e-01" purity="5.9676963090896606e-01" nType="0">
          <Node pos="l" depth="2" NCoef="0" IVar="-1" Cut="0.0000000000000000e+00" cType="1" res="3.0383609235286713e-02" rms="4.7636216878890991e-01" purity="6.5191799402236938e-01" nType="-99"/>
          <Node pos="r" depth="2" NCoef="0" IVar="-1" Cut="0.0000000000000000e+00" cType="1" res="-3.2679796218872070e-02" rms="4.7254711389541626e-01" purity="3.3660101890563965e-01" nType="-99"/>
        </Node>
        <Node pos="r" depth="1" NCoef="0" IVar="5" Cut="1.1383991241455078e+02" cType="1" res="-1.9803710281848907e-01" rms="4.5910924673080444e-01" purity="3.0196291208267212e-01" nType="0">
          <Node pos="l" depth="2" NCoef="0" IVar="-1" Cut="0.0000000000000000e+00" cType="1" res="-2.7856623753905296e-02" rms="4.8020851612091064e-01" purity="3.6071690917015076e-01" nType="-99"/>
          <Node pos="r" depth="2" NCoef="0" IVar="-1" Cut="0.0000000000000000e+00" cType="1" res="-6.4401701092720032e-02" rms="3.8250556588172913e-01" purity="1.7799149453639984e-01" nType="-99"/>
        </Node>
      </Node>
    </BinaryTree>
    <BinaryTree type="DecisionTree" boostWeight="1.0000000000000000e+00" itree="1">
      <Node pos="s" depth="0" NCoef="0" IVar="14" Cut="8.7538825988769531e+01" cType="1" res="3.5001370124518871e-03" rms="4.9416759610176086e-01" purity="5.0339865684509277e-01" nType="0">
        <Node pos="l" depth="1" NCoef="0" IVar="5" Cut="1.3019671630859375e+02" cType="1" res="8.4784485399723053e-02" rms="4.8836094141006470e-01" purity="5.9315794706344604e-01" nType="0">
          <Node pos="l" depth="2" NCoef="0" IVar="-1" Cut="0.0000000000000000e+00" cType="1" res="2.6671476662158966e-02" rms="4.7755345702171326e-01" purity="6.4699989557266235e-01" nType="-99"/>
          <Node pos="r" depth="2" NCoef="0" IVar="-1" Cut="0.0000000000000000e+00" cType="1" res="-2.6226134970784187e-02" rms="4.7747367620468140e-01" purity="3.5338735580444336e-01" nType="-99"/>
        </Node>
        <Node pos="r" depth="1" NCoef="0" IVar="14" Cut="1.4916014099121094e+02" cType="1" res="-1.8642185628414154e-01" rms="4.5389845967292786e-01" purity="2.9367494583129883e-01" nType="0">
          <Node pos="l" depth="2" NCoef="0" IVar="-1" Cut="0.0000000000000000e+00" cType="1" res="-2.5587555021047592e-02" rms="4.7632575035095215e-01" purity="3.5295769572257996e-01" nType="-99"/>
          <Node pos="r" depth="2" NCoef="0" IVar="-1" Cut="0.0000000000000000e+00" cType="1" res="-5.8750312775373459e-02" rms="3.8787344098091125e-01" purity="1.8591350317001343e-01" nType="-99"/>
        </Node>
      </Node>
    </BinaryTree>
    <BinaryTree type="DecisionTree" boostWeight="1.0000000000000000e+00" itree="2">
      <Node pos="s" depth="0" NCoef="0" IVar="14" Cut="9.2487541198730469e+01" cType="1" res="-1.5114925336092710e-03" rms="4.8942688107490540e-01" purity="4.9848848581314087e-01" nType="0">
        <Node pos="l" depth="1" NCoef="0" IVar="5" Cut="1.2981997680664062e+02" cType="1" res="6.8282589316368103e-02" rms="4.8772513866424561e-01" purity="5.8320772647857666e-01" nType="0">
          <Node pos="l" depth="2" NCoef="0" IVar="-1" Cut="0.0000000000000000e+00" cType="1" res="2.2802889347076416e-02" rms="4.7958347201347351e-01" purity="6.3864421844482422e-01" nType="-99"/>
          <Node pos="r" depth="2" NCoef="0" IVar="-1" Cut="0.0000000000000000e+00" cType="1" res="-2.6044940575957298e-02" rms="4.7333344817161560e-01" purity="3.4128895401954651e-01" nType="-99"/>
        </Node>
        <Node pos="r" depth="1" NCoef="0" IVar="15" Cut="8.0237419128417969e+01" cType="1" res="-1.8540388345718384e-01" rms="4.4414970278739929e-01" purity="2.7527123689651489e-01" nType="0">
          <Node pos="l" depth="2" NCoef="0" IVar="-1" Cut="0.0000000000000000e+00" cType="1" res="-2.7246695011854172e-02" rms="4.6647664904594421e-01" purity="3.2651880383491516e-01" nType="-99"/>
          <Node pos="r" depth="2" NCoef="0" IVar="-1" Cut="0.0000000000000000e+00" cType="1" res="-5.9487555176019669e-02" rms="3.6761048436164856e-01" purity="1.6287113726139069e-01" nType="-99"/>
        </Node>
      </Node>
    </BinaryTree>
    <BinaryTree type="DecisionTree" boostWeight="1.0000000000000000e+00" itree="3">
      <Node pos="s" depth="0" NCoef="0" IVar="14" Cut="6.7346015930175781e+01" cType="1" res="3.2587791793048382e-03" rms="4.8548936843872070e-01" purity="5.0321149826049805e-01" nType="0">
        <Node pos="l" depth="1" NCoef="0" IVar="15" Cut="7.7801544189453125e+01" cType="1" res="9.7909495234489441e-02" rms="4.7822737693786621e-01" purity="6.2297224998474121e-01" nType="0">
          <Node pos="l" depth="2" NCoef="0" IVar="-1" Cut="0.0000000000000000e+00" cType="1" res="2.7519015595316887e-02" rms="4.6647286415100098e-01" purity="6.6261947154998779e-01" nType="-99"/>
          <Node pos="r" depth="2" NCoef="0" IVar="-1" Cut="0.0000000000000000e+00" cType="1" res="-2.5500386953353882e-02" rms="4.8354935646057129e-01" purity="3.9349386096000671e-01" nType="-99"/>
        </Node>
        <Node pos="r" depth="1" NCoef="0" IVar="15" Cut="7.4476158142089844e+01" cType="1" res="-1.1393371969461441e-01" rms="4.6854963898658752e-01" purity="3.5492882132530212e-01" nType="0">
          <Node pos="l" depth="2" NCoef="0" IVar="-1" Cut="0.0000000000000000e+00" cType="1" res="-1.3207844458520412e-02" rms="4.8372659087181091e-01" purity="4.1147875785827637e-01" nType="-99"/>
          <Node pos="r" depth="2" NCoef="0" IVar="-1" Cut="0.0000000000000000e+00" cType="1" res="-4.9521930515766144e-02" rms="3.9727640151977539e-01" purity="2.0372395217418671e-01" nType="-99"/>
        </Node>
      </Node>
    </BinaryTree>
    <BinaryTree type="DecisionTree" boostWeight="1.0000000000000000e+00" itree="4">
      <Node pos="s" depth="0" NCoef="0" IVar="5" Cut="1.4243992614746094e+02" cType="1" res="-1.7216478008776903e-03" rms="4.8245987296104431e-01" purity="4.9846938252449036e-01" nType="0">
        <Node pos="l" depth="1" NCoef="0" IVar="15" Cut="6.4684104919433594e+01" cType="1" res="3.8864530622959137e-02" rms="4.8374900221824646e-01" purity="5.5051875114440918e-01" nType="0">
          <Node pos="l" depth="2" NCoef="0" IVar="-1" Cut="0.0000000000000000e+00" cType="1" res="1.8829645588994026e-02" rms="4.7666066884994507e-01" purity="6.1602365970611572e-01" nType="-99"/>
          <Node pos="r" depth="2" NCoef="0" IVar="-1" Cut="0.0000000000000000e+00" cType="1" res="-2.3480724543333054e-02" rms="4.7018826007843018e-01" purity="3.6423256993293762e-01" nType="-99"/>
        </Node>
        <Node pos="r" depth="1" NCoef="0" IVar="5" Cut="1.7430570983886719e+02" cType="1" res="-2.0377519726753235e-01" rms="4.2135533690452576e-01" purity="2.3934777081012726e-01" nType="0">
          <Node pos="l" depth="2" NCoef="0" IVar="-1" Cut="0.0000000000000000e+00" cType="1" res="-2.4568440392613411e-02" rms="4.6210888028144836e-01" purity="3.2600933313369751e-01" nType="-99"/>
          <Node pos="r" depth="2" NCoef="0" IVar="-1" Cut="0.0000000000000000e+00" cType="1" res="-5.1907401531934738e-02" rms="3.8510417938232422e-01" purity="1.8552468717098236e-01" nType="-99"/>
        </Node>
      </Node>
    </BinaryTree>
    <BinaryTree type="DecisionTree" boostWeight="1.0000000000000000e+00" itree="5">
      <Node pos="s" depth="0" NCoef="0" IVar="14" Cut="9.5812812805175781e+01" cType="1" res="6.3844659598544240e-04" rms="4.7874510288238525e-01" purity="5.0078743696212769e-01" nType="0">
        <Node pos="l" depth="1" NCoef="0" IVar="15" Cut="7.0732536315917969e+01" cType="1" res="5.4013930261135101e-02" rms="4.8087814450263977e-01" purity="5.8005827665328979e-01" nType="0">
          <Node pos="l" depth="2" NCoef="0" IVar="-1" Cut="0.0000000000000000e+00" cType="1" res="1.8538594245910645e-02" rms="4.7389921545982361e-01" purity="6.2589770555496216e-01" nType="-99"/>
          <Node pos="r" depth="2" NCoef="0" IVar="-1" Cut="0.0000000000000000e+00" cType="1" res="-2.3297818377614021e-02" rms="4.7565069794654846e-01" purity="3.7288436293601990e-01" nType="-99"/>
        </Node>
        <Node pos="r" depth="1" NCoef="0" IVar="5" Cut="1.0292052459716797e+02" cType="1" res="-1.5526902675628662e-01" rms="4.3656513094902039e-01" purity="2.6924061775207520e-01" nType="0">
          <Node pos="l" depth="2" NCoef="0" IVar="-1" Cut="0.0000000000000000e+00" cType="1" res="-2.1367872133851051e-02" rms="4.6598428487777710e-01" purity="3.3144587278366089e-01" nType="-99"/>
          <Node pos="r" depth="2" NCoef="0" IVar="-1" Cut="0.0000000000000000e+00" cType="1" res="-4.8370063304901123e-02" rms="3.7416103482246399e-01" purity="1.7389209568500519e-01" nType="-99"/>
        </Node>
      </Node>
    </BinaryTree>
    <BinaryTree type="DecisionTree" boostWeight="1.0000000000000000e+00" itree="6">
      <Node pos="s" depth="0" NCoef="0" IVar="14" Cut="7.3484069824218750e+01" cType="1" res="-2.9383811634033918e-03" rms="4.7609606385231018e-01" purity="4.9678838253021240e-01" nType="0">
        <Node pos="l" depth="1" NCoef="0" IVar="5" Cut="1.1719777679443359e+02" cType="1" res="6.5559476613998413e-02" rms="4.7603410482406616e-01" purity="6.0553896427154541e-01" nType="0">
          <Node pos="l" depth="2" NCoef="0" IVar="-1" Cut="0.0000000000000000e+00" cType="1" res="2.2576505318284035e-02" rms="4.6544134616851807e-01" purity="6.7021065950393677e-01" nType="-99"/>
          <Node pos="r" depth="2" NCoef="0" IVar="-1" Cut="0.0000000000000000e+00" cType="1" res="-1.5609945170581341e-02" rms="4.8067575693130493e-01" purity="4.0263301134109497e-01" nType="-99"/>
        </Node>
        <Node pos="r" depth="1" NCoef="0" IVar="5" Cut="1.0303199005126953e+02" cType="1" res="-1.0718677192926407e-01" rms="4.5689031481742859e-01" purity="3.3127847313880920e-01" nType="0">
          <Node pos="l" depth="2" NCoef="0" IVar="-1" Cut="0.0000000000000000e+00" cType="1" res="-1.1893956921994686e-02" rms="4.7965830564498901e-01" purity="3.9959937334060669e-01" nType="-99"/>
          <Node pos="r" depth="2" NCoef="0" IVar="-1" Cut="0.0000000000000000e+00" cType="1" res="-4.0063418447971344e-02" rms="4.0112474560737610e-01" purity="2.1369008719921112e-01" nType="-99"/>
        </Node>
      </Node>
    </BinaryTree>
    <BinaryTree type="DecisionTree" boostWeight="1.0000000000000000e+00" itree="7">
      <Node pos="s" depth="0" NCoef="0" IVar="6" Cut="1.1163089752197266e+02" cType="1" res="1.8298346549272537e-04" rms="4.7398239374160767e-01" purity="4.9933165311813354e-01" nType="0">
        <Node pos="l" depth="1" NCoef="0" IVar="5" Cut="1.6932534790039062e+02" cType="1" res="4.6287190169095993e-02" rms="4.7562336921691895e-01" purity="5.7036113739013672e-01" nType="0">
          <Node pos="l" depth="2" NCoef="0" IVar="-1" Cut="0.0000000000000000e+00" cType="1" res="1.4278860762715340e-02" rms="4.7458133101463318e-01" purity="6.0562807321548462e-01" nType="-99"/>
          <Node pos="r" depth="2" NCoef="0" IVar="-1" Cut="0.0000000000000000e+00" cType="1" res="-3.4696448594331741e-02" rms="4.2935243248939514e-01" purity="2.5004851818084717e-01" nType="-99"/>
        </Node>
        <Node pos="r" depth="1" NCoef="0" IVar="17" Cut="1.3822691440582275e+00" cType="1" res="-1.2794531881809235e-01" rms="4.4497713446617126e-01" purity="3.0193337798118591e-01" nType="0">
          <Node pos="l" depth="2" NCoef="0" IVar="-1" Cut="0.0000000000000000e+00" cType="1" res="-1.4439187012612820e-02" rms="4.7174656391143799e-01" purity="3.7965425848960876e-01" nType="-99"/>
          <Node pos="r" depth="2" NCoef="0" IVar="-1" Cut="0.0000000000000000e+00" cType="1" res="-4.0982358157634735e-02" rms="4.0103185176849365e-01" purity="2.1091976761817932e-01" nType="-99"/>
        </Node>
      </Node>
    </BinaryTree>
    <BinaryTree type="DecisionTree" boostWeight="1.0000000000000000e+00" itree="8">
      <Node pos="s" depth="0" NCoef="0" IVar="14" Cut="6.5212326049804688e+01" cType="1" res="3.4387697814963758e-04" rms="4.7154825925827026e-01" purity="5.0028741359710693e-01" nType="0">
        <Node pos="l" depth="1" NCoef="0" IVar="15" Cut="9.3044998168945312e+01" cType="1" res="7.1369081735610962e-02" rms="4.6978425979614258e-01" purity="6.2232691049575806e-01" nType="0">
          <Node pos="l" depth="2" NCoef="0" IVar="-1" Cut="0.0000000000000000e+00" cType="1" res="1.9692102447152138e-02" rms="4.6363535523414612e-01" purity="6.5546250343322754e-01" nType="-99"/>
          <Node pos="r" depth="2" NCoef="0" IVar="-1" Cut="0.0000000000000000e+00" cType="1" res="-2.8349997475743294e-02" rms="4.6930423378944397e-01" purity="3.3704257011413574e-01" nType="-99"/>
        </Node>
        <Node pos="r" depth="1" NCoef="0" IVar="5" Cut="9.5106040954589844e+01" cType="1" res="-8.1235803663730621e-02" rms="4.6023425459861755e-01" purity="3.6011251807212830e-01" nType="0">
          <Node pos="l" depth="2" NCoef="0" IVar="-1" Cut="0.0000000000000000e+00" cType="1" res="-6.1092269606888294e-03" rms="4.8130840063095093e-01" purity="4.3929600715637207e-01" nType="-99"/>
          <Node pos="r" depth="2" NCoef="0" IVar="-1" Cut="0.0000000000000000e+00" cType="1" res="-3.3291567116975784e-02" rms="4.1615828871726990e-01" purity="2.4403974413871765e-01" nType="-99"/>
        </Node>
      </Node>
    </BinaryTree>
    <BinaryTree type="DecisionTree" boostWeight="1.0000000000000000e+00" itree="9">
      <Node pos="s" depth="0" NCoef="0" IVar="15" Cut="5.6841178894042969e+01" cType="1" res="-2.2394615225493908e-03" rms="4.7012883424758911e-01" purity="4.9791878461837769e-01" nType="0">
        <Node pos="l" depth="1" NCoef="0" IVar="5" Cut="1.1304920196533203e+02" cType="1" res="4.6859692782163620e-02" rms="4.7107756137847900e-01" purity="5.7536810636520386e-01" nType="0">
          <Node pos="l" depth="2" NCoef="0" IVar="-1" Cut="0.0000000000000000e+00" cType="1" res="1.8423698842525482e-02" rms="4.6553024649620056e-01" purity="6.4487087726593018e-01" nType="-99"/>
          <Node pos="r" depth="2" NCoef="0" IVar="-1" Cut="0.0000000000000000e+00" cType="1" res="-1.5104982070624828e-02" rms="4.6600002050399780e-01" purity="3.7958008050918579e-01" nType="-99"/>
        </Node>
        <Node pos="r" depth="1" NCoef="0" IVar="9" Cut="2.4661259353160858e-01" cType="1" res="-9.7353227436542511e-02" rms="4.5340344309806824e-01" purity="3.4788578748703003e-01" nType="0">
          <Node pos="l" depth="2" NCoef="0" IVar="-1" Cut="0.0000000000000000e+00" cType="1" res="-3.0318768694996834e-02" rms="4.3902540206909180e-01" purity="2.9772555828094482e-01" nType="-99"/>
          <Node pos="r" depth="2" NCoef="0" IVar="-1" Cut="0.0000000000000000e+00" cType="1" res="-4.7721168957650661e-03" rms="4.6536225080490112e-01" purity="4.2639529705047607e-01" nType="-99"/>
        </Node>
      </Node>
    </BinaryTree>
    <BinaryTree type="DecisionTree" boostWeight="1.0000000000000000e+00" itree="10">
      <Node pos="s" depth="0" NCoef="0" IVar="14" Cut="1.0883109283447266e+02" cType="1" res="7.7162228990346193e-04" rms="4.6795216202735901e-01" purity="4.9997580051422119e-01" nType="0">
        <Node pos="l" depth="1" NCoef="0" IVar="10" Cut="2.3066143691539764e-01" cType="1" res="3.4237217158079147e-02" rms="4.7388020157814026e-01" purity="5.6572198867797852e-01" nType="0">
          <Node pos="l" depth="2" NCoef="0" IVar="-1" Cut="0.0000000000000000e+00" cType="1" res="-1.2774514965713024e-02" rms="4.7802382707595825e-01" purity="4.6445047855377197e-01" nType="-99"/>
          <Node pos="r" depth="2" NCoef="0" IVar="-1" Cut="0.0000000000000000e+00" cType="1" res="1.5558724291622639e-02" rms="4.6607443690299988e-01" purity="6.0909277200698853e-01" nType="-99"/>
        </Node>
        <Node pos="r" depth="1" NCoef="0" IVar="12" Cut="3.3657274246215820e+00" cType="1" res="-1.3052707910537720e-01" rms="4.1885659098625183e-01" purity="2.4202778935432434e-01" nType="0">
          <Node pos="l" depth="2" NCoef="0" IVar="-1" Cut="0.0000000000000000e+00" cType="1" res="-3.8042731583118439e-02" rms="3.8952916860580444e-01" purity="1.9632178544998169e-01" nType="-99"/>
          <Node pos="r" depth="2" NCoef="0" IVar="-1" Cut="0.0000000000000000e+00" cType="1" res="-1.1707612313330173e-02" rms="4.5399871468544006e-01" purity="3.1907197833061218e-01" nType="-99"/>
        </Node>
      </Node>
    </BinaryTree>
    <BinaryTree type="DecisionTree" boostWeight="1.0000000000000000e+00" itree="11">
      <Node pos="s" depth="0" NCoef="0" IVar="15" Cut="6.9164062500000000e+01" cType="1" res="2.1906900219619274e-03" rms="4.6557658910751343e-01" purity="5.0153011083602905e-01" nType="0">
        <Node pos="l" depth="1" NCoef="0" IVar="5" Cut="1.0101036834716797e+02" cType="1" res="4.0076378732919693e-02" rms="4.6870329976081848e-01" purity="5.6719809770584106e-01" nType="0">
          <Node pos="l" depth="2" NCoef="0" IVar="-1" Cut="0.0000000000000000e+00" cType="1" res="1.7418039962649345e-02" rms="4.6222713589668274e-01" purity="6.4391493797302246e-01" nType="-99"/>
          <Node pos="r" depth="2" NCoef="0" IVar="-1" Cut="0.0000000000000000e+00" cType="1" res="-9.2984037473797798e-03" rms="4.6951800584793091e-01" purity="4.1934061050415039e-01" nType="-99"/>
        </Node>
        <Node pos="r" depth="1" NCoef="0" IVar="6" Cut="1.6097792053222656e+02" cType="1" res="-1.1760736256837845e-01" rms="4.3432039022445679e-01" purity="2.9388180375099182e-01" nType="0">
          <Node pos="l" depth="2" NCoef="0" IVar="-1" Cut="0.0000000000000000e+00" cType="1" res="-1.7839914187788963e-02" rms="4.5633766055107117e-01" purity="3.4371295571327209e-01" nType="-99"/>
          <Node pos="r" depth="2" NCoef="0" IVar="-1" Cut="0.0000000000000000e+00" cType="1" res="-4.5259919017553329e-02" rms="3.5402756929397583e-01" purity="1.5993806719779968e-01" nType="-99"/>
        </Node>
      </Node>
    </BinaryTree>
    <BinaryTree type="DecisionTree" boostWeight="1.0000000000000000e+00" itree="12">
      <Node pos="s" depth="0" NCoef="0" IVar="14" Cut="6.8837829589843750e+01" cType="1" res="-1.8254980386700481e-04" rms="4.6436908841133118e-01" purity="4.9978965520858765e-01" nType="0">
        <Node pos="l" depth="1" NCoef="0" IVar="5" Cut="1.5687739562988281e+02" cType="1" res="5.2616443485021591e-02" rms="4.6650522947311401e-01" purity="6.1583989858627319e-01" nType="0">
          <Node pos="l" depth="2" NCoef="0" IVar="-1" Cut="0.0000000000000000e+00" cType="1" res="1.5566161833703518e-02" rms="4.6370485424995422e-01" purity="6.5573126077651978e-01" nType="-99"/>
          <Node pos="r" depth="2" NCoef="0" IVar="-1" Cut="0.0000000000000000e+00" cType="1" res="-2.5756651535630226e-02" rms="4.5069944858551025e-01" purity="2.9550242424011230e-01" nType="-99"/>
        </Node>
        <Node pos="r" depth="1" NCoef="0" IVar="12" Cut="3.2237734794616699e+00" cType="1" res="-6.8738751113414764e-02" rms="4.5247879624366760e-01" purity="3.4910571575164795e-01" nType="0">
          <Node pos="l" depth="2" NCoef="0" IVar="-1" Cut="0.0000000000000000e+00" cType="1" res="-2.5240240618586540e-02" rms="4.3331030011177063e-01" purity="2.9549494385719299e-01" nType="-99"/>
          <Node pos="r" depth="2" NCoef="0" IVar="-1" Cut="0.0000000000000000e+00" cType="1" res="-4.0921496110968292e-04" rms="4.6900567412376404e-01" purity="4.2169177532196045e-01" nType="-99"/>
        </Node>
      </Node>
    </BinaryTree>
    <BinaryTree type="DecisionTree" boostWeight="1.0000000000000000e+00" itree="13">
      <Node pos="s" depth="0" NCoef="0" IVar="14" Cut="6.7320938110351562e+01" cType="1" res="9.8311563488095999e-04" rms="4.6320235729217529e-01" purity="5.0086730718612671e-01" nType="0">
        <Node pos="l" depth="1" NCoef="0" IVar="10" Cut="2.5497969985008240e-01" cType="1" res="5.2312444895505905e-02" rms="4.6473231911659241e-01" purity="6.2156170606613159e-01" nType="0">
          <Node pos="l" depth="2" NCoef="0" IVar="-1" Cut="0.0000000000000000e+00" cType="1" res="-5.1810010336339474e-03" rms="4.7983416914939880e-01" purity="5.3345847129821777e-01" nType="-99"/>
          <Node pos="r" depth="2" NCoef="0" IVar="-1" Cut="0.0000000000000000e+00" cType="1" res="1.9721200689673424e-02" rms="4.5091950893402100e-01" purity="6.6911393404006958e-01" nType="-99"/>
        </Node>
        <Node pos="r" depth="1" NCoef="0" IVar="8" Cut="1.6652366518974304e-01" cType="1" res="-6.2407981604337692e-02" rms="4.5335510373115540e-01" purity="3.5181117057800293e-01" nType="0">
          <Node pos="l" depth="2" NCoef="0" IVar="-1" Cut="0.0000000000000000e+00" cType="1" res="-2.8388705104589462e-02" rms="4.3019500374794006e-01" purity="2.7032184600830078e-01" nType="-99"/>
          <Node pos="r" depth="2" NCoef="0" IVar="-1" Cut="0.0000000000000000e+00" cType="1" res="-2.8188077267259359e-03" rms="4.6280559897422791e-01" purity="4.0950617194175720e-01" nType="-99"/>
        </Node>
      </Node>
    </BinaryTree>
    <BinaryTree type="DecisionTree" boostWeight="1.0000000000000000e+00" itree="14">
      <Node pos="s" depth="0" NCoef="0" IVar="15" Cut="5.0023090362548828e+01" cType="1" res="2.3057369980961084e-03" rms="4.6235942840576172e-01" purity="5.0159996747970581e-01" nType="0">
        <Node pos="l" depth="1" NCoef="0" IVar="5" Cut="1.7411476135253906e+02" cType="1" res="5.1618445664644241e-02" rms="4.6312940120697021e-01" purity="5.9297335147857666e-01" nType="0">
          <Node pos="l" depth="2" NCoef="0" IVar="-1" Cut="0.0000000000000000e+00" cType="1" res="1.4587236568331718e-02" rms="4.6290928125381470e-01" purity="6.2755662202835083e-01" nType="-99"/>
          <Node pos="r" depth="2" NCoef="0" IVar="-1" Cut="0.0000000000000000e+00" cType="1" res="-2.7110327035188675e-02" rms="4.2675095796585083e-01" purity="2.4849012494087219e-01" nType="-99"/>
        </Node>
        <Node pos="r" depth="1" NCoef="0" IVar="5" Cut="8.9024909973144531e+01" cType="1" res="-6.6169321537017822e-02" rms="4.5246127247810364e-01" purity="3.7471997737884521e-01" nType="0">
          <Node pos="l" depth="2" NCoef="0" IVar="-1" Cut="0.0000000000000000e+00" cType="1" res="-4.5753037557005882e-03" rms="4.7051587700843811e-01" purity="4.5508253574371338e-01" nType="-99"/>
          <Node pos="r" depth="2" NCoef="0" IVar="-1" Cut="0.0000000000000000e+00" cType="1" res="-2.7164032682776451e-02" rms="4.2125281691551208e-01" purity="2.7118742465972900e-01" nType="-99"/>
        </Node>
      </Node>
    </BinaryTree>
    <BinaryTree type="DecisionTree" boostWeight="1.0000000000000000e+00" itree="15">
      <Node pos="s" depth="0" NCoef="0" IVar="6" Cut="1.3169209289550781e+02" cType="1" res="-1.3740834547206759e-03" rms="4.6008595824241638e-01" purity="4.9974271655082703e-01" nType="0">
        <Node pos="l" depth="1" NCoef="0" IVar="5" Cut="1.1488947296142578e+02" cType="1" res="2.4435274302959442e-02" rms="4.6555185317993164e-01" purity="5.5622822046279907e-01" nType="0">
          <Node pos="l" depth="2" NCoef="0" IVar="-1" Cut="0.0000000000000000e+00" cType="1" res="1.1640951037406921e-02" rms="4.6372812986373901e-01" purity="6.2317872047424316e-01" nType="-99"/>
          <Node pos="r" depth="2" NCoef="0" IVar="-1" Cut="0.0000000000000000e+00" cType="1" res="-1.3947061263024807e-02" rms="4.5915707945823669e-01" purity="3.6026039719581604e-01" nType="-99"/>
        </Node>
        <Node pos="r" depth="1" NCoef="0" IVar="3" Cut="1.0458975219726562e+02" cType="1" res="-1.1718922108411789e-01" rms="4.1541972756385803e-01" purity="2.4627374112606049e-01" nType="0">
          <Node pos="l" depth="2" NCoef="0" IVar="-1" Cut="0.0000000000000000e+00" cType="1" res="-1.2791653163731098e-02" rms="4.5111185312271118e-01" purity="3.1437146663665771e-01" nType="-99"/>
          <Node pos="r" depth="2" NCoef="0" IVar="-1" Cut="0.0000000000000000e+00" cType="1" res="-3.8191813975572586e-02" rms="3.7227353453636169e-01" purity="1.8459987640380859e-01" nType="-99"/>
        </Node>
      </Node>
    </BinaryTree>
    <BinaryTree type="DecisionTree" boostWeight="1.0000000000000000e+00" itree="16">
      <Node pos="s" depth="0" NCoef="0" IVar="8" Cut="1.6194349527359009e-01" cType="1" res="5.2348698955029249e-04" rms="4.5978370308876038e-01" purity="5.0058418512344360e-01" nType="0">
        <Node pos="l" depth="1" NCoef="0" IVar="0" Cut="4.2641558647155762e+00" cType="1" res="-6.2235448509454727e-02" rms="4.5693081617355347e-01" purity="4.1993322968482971e-01" nType="0">
          <Node pos="l" depth="2" NCoef="0" IVar="-1" Cut="0.0000000000000000e+00" cType="1" res="-2.8762523084878922e-02" rms="4.2853629589080811e-01" purity="3.3187276124954224e-01" nType="-99"/>
          <Node pos="r" depth="2" NCoef="0" IVar="-1" Cut="0.0000000000000000e+00" cType="1" res="-3.2447802368551493e-03" rms="4.6919625997543335e-01" purity="4.7904965281486511e-01" nType="-99"/>
        </Node>
        <Node pos="r" depth="1" NCoef="0" IVar="15" Cut="7.7674270629882812e+01" cType="1" res="4.0354542434215546e-02" rms="4.5713740587234497e-01" purity="5.5177074670791626e-01" nType="0">
          <Node pos="l" depth="2" NCoef="0" IVar="-1" Cut="0.0000000000000000e+00" cType="1" res="1.4294621534645557e-02" rms="4.5709624886512756e-01" purity="6.0687905550003052e-01" nType="-99"/>
          <Node pos="r" depth="2" NCoef="0" IVar="-1" Cut="0.0000000000000000e+00" cType="1" res="-1.7493719235062599e-02" rms="4.3761736154556274e-01" purity="3.0629032850265503e-01" nType="-99"/>
        </Node>
      </Node>
    </BinaryTree>
    <BinaryTree type="DecisionTree" boostWeight="1.0000000000000000e+00" itree="17">
      <Node pos="s" depth="0" NCoef="0" IVar="1" Cut="-2.6031346321105957e+00" cType="1" res="-4.6797837130725384e-03" rms="4.5932102203369141e-01" purity="4.9391525983810425e-01" nType="0">
        <Node pos="l" depth="1" NCoef="0" IVar="8" Cut="1.3017873466014862e-01" cType="1" res="7.5199864804744720e-02" rms="4.5171231031417847e-01" purity="6.1542236804962158e-01" nType="0">
          <Node pos="l" depth="2" NCoef="0" IVar="-1" Cut="0.0000000000000000e+00" cType="1" res="-2.3657670244574547e-03" rms="4.6236485242843628e-01" purity="5.0855469703674316e-01" nType="-99"/>
          <Node pos="r" depth="2" NCoef="0" IVar="-1" Cut="0.0000000000000000e+00" cType="1" res="2.3333689197897911e-02" rms="4.4287911057472229e-01" purity="6.5741306543350220e-01" nType="-99"/>
        </Node>
        <Node pos="r" depth="1" NCoef="0" IVar="1" Cut="2.5137064456939697e+00" cType="1" res="-3.1327798962593079e-02" rms="4.5874774456024170e-01" purity="4.5338022708892822e-01" nType="0">
          <Node pos="l" depth="2" NCoef="0" IVar="-1" Cut="0.0000000000000000e+00" cType="1" res="-1.9154803827404976e-02" rms="4.5165395736694336e-01" purity="3.6347138881683350e-01" nType="-99"/>
          <Node pos="r" depth="2" NCoef="0" IVar="-1" Cut="0.0000000000000000e+00" cType="1" res="1.3719678856432438e-02" rms="4.5461308956146240e-01" purity="6.0402280092239380e-01" nType="-99"/>
        </Node>
      </Node>
    </BinaryTree>
    <BinaryTree type="DecisionTree" boostWeight="1.0000000000000000e+00" itree="18">
      <Node pos="s" depth="0" NCoef="0" IVar="14" Cut="1.2195970153808594e+02" cType="1" res="-7.7302521094679832e-04" rms="4.5656117796897888e-01" purity="4.9876958131790161e-01" nType="0">
        <Node pos="l" depth="1" NCoef="0" IVar="9" Cut="1.7323008179664612e-01" cType="1" res="2.0405627787113190e-02" rms="4.6441522240638733e-01" purity="5.5462819337844849e-01" nType="0">
          <Node pos="l" depth="2" NCoef="0" IVar="-1" Cut="0.0000000000000000e+00" cType="1" res="-9.0027488768100739e-03" rms="4.6681568026542664e-01" purity="4.8038995265960693e-01" nType="-99"/>
          <Node pos="r" depth="2" NCoef="0" IVar="-1" Cut="0.0000000000000000e+00" cType="1" res="1.3665016740560532e-02" rms="4.5764327049255371e-01" purity="6.0650402307510376e-01" nType="-99"/>
        </Node>
        <Node pos="r" depth="1" NCoef="0" IVar="3" Cut="8.4383293151855469e+01" cType="1" res="-1.0889158397912979e-01" rms="3.9691531658172607e-01" purity="2.1360751986503601e-01" nType="0">
          <Node pos="l" depth="2" NCoef="0" IVar="-1" Cut="0.0000000000000000e+00" cType="1" res="-1.1465893127024174e-02" rms="4.4305574893951416e-01" purity="2.8362104296684265e-01" nType="-99"/>
          <Node pos="r" depth="2" NCoef="0" IVar="-1" Cut="0.0000000000000000e+00" cType="1" res="-3.2523673027753830e-02" rms="3.6867403984069824e-01" purity="1.7915232479572296e-01" nType="-99"/>
        </Node>
      </Node>
    </BinaryTree>
    <BinaryTree type="DecisionTree" boostWeight="1.0000000000000000e+00" itree="19">
      <Node pos="s" depth="0" NCoef="0" IVar="10" Cut="2.1745671331882477e-01" cType="1" res="1.2182659702375531e-03" rms="4.5585030317306519e-01" purity="5.0068771839141846e-01" nType="0">
        <Node pos="l" depth="1" NCoef="0" IVar="0" Cut="4.7920374870300293e+00" cType="1" res="-7.2907738387584686e-02" rms="4.5350572466850281e-01" purity="3.9061132073402405e-01" nType="0">
          <Node pos="l" depth="2" NCoef="0" IVar="-1" Cut="0.0000000000000000e+00" cType="1" res="-3.0166788026690483e-02" rms="4.2479187250137329e-01" purity="3.0939224362373352e-01" nType="-99"/>
          <Node pos="r" depth="2" NCoef="0" IVar="-1" Cut="0.0000000000000000e+00" cType="1" res="-5.1305314991623163e-04" rms="4.7269126772880554e-01" purity="4.7863009572029114e-01" nType="-99"/>
        </Node>
        <Node pos="r" depth="1" NCoef="0" IVar="5" Cut="1.5021659851074219e+02" cType="1" res="2.9730474576354027e-02" rms="4.5353403687477112e-01" purity="5.4302799701690674e-01" nType="0">
          <Node pos="l" depth="2" NCoef="0" IVar="-1" Cut="0.0000000000000000e+00" cType="1" res="1.0994903743267059e-02" rms="4.5596975088119507e-01" purity="5.9320771694183350e-01" nType="-99"/>
          <Node pos="r" depth="2" NCoef="0" IVar="-1" Cut="0.0000000000000000e+00" cType="1" res="-2.1076191216707230e-02" rms="4.1869902610778809e-01" purity="2.5609320402145386e-01" nType="-99"/>
        </Node>
      </Node>
    </BinaryTree>
    <BinaryTree type="DecisionTree" boostWeight="1.0000000000000000e+00" itree="20">
      <Node pos="s" depth="0" NCoef="0" IVar="15" Cut="6.2794860839843750e+01" cType="1" res="1.3131882296875119e-03" rms="4.5584902167320251e-01" purity="5.0088888406753540e-01" nType="0">
        <Node pos="l" depth="1" NCoef="0" IVar="8" Cut="1.6197197139263153e-01" cType="1" res="3.0998189002275467e-02" rms="4.6025094389915466e-01" purity="5.7534444332122803e-01" nType="0">
          <Node pos="l" depth="2" NCoef="0" IVar="-1" Cut="0.0000000000000000e+00" cType="1" res="-7.3934718966484070e-03" rms="4.6728312969207764e-01" purity="4.8194563388824463e-01" nType="-99"/>
          <Node pos="r" depth="2" NCoef="0" IVar="-1" Cut="0.0000000000000000e+00" cType="1" res="1.4981571584939957e-02" rms="4.5164948701858521e-01" purity="6.3022118806838989e-01" nType="-99"/>
        </Node>
        <Node pos="r" depth="1" NCoef="0" IVar="15" Cut="1.0387694549560547e+02" cType="1" res="-7.1349784731864929e-02" rms="4.3645200133323669e-01" purity="3.1863641738891602e-01" nType="0">
          <Node pos="l" depth="2" NCoef="0" IVar="-1" Cut="0.0000000000000000e+00" cType="1" res="-8.3858827129006386e-03" rms="4.5403018593788147e-01" purity="3.7816488742828369e-01" nType="-99"/>
          <Node pos="r" depth="2" NCoef="0" IVar="-1" Cut="0.0000000000000000e+00" cType="1" res="-2.9287541285157204e-02" rms="3.9895674586296082e-01" purity="2.1831113100051880e-01" nType="-99"/>
        </Node>
      </Node>
    </BinaryTree>
    <BinaryTree type="DecisionTree" boostWeight="1.0000000000000000e+00" itree="21">
      <Node pos="s" depth="0" NCoef="0" IVar="14" Cut="5.4824710845947266e+01" cType="1" res="-2.3938599042594433e-03" rms="4.5445948839187622e-01" purity="4.9719384312629700e-01" nType="0">
        <Node pos="l" depth="1" NCoef="0" IVar="1" Cut="-2.5459914207458496e+00" cType="1" res="4.9084022641181946e-02" rms="4.5361748337745667e-01" purity="6.2952303886413574e-01" nType="0">
          <Node pos="l" depth="2" NCoef="0" IVar="-1" Cut="0.0000000000000000e+00" cType="1" res="2.6397295296192169e-02" rms="4.2421314120292664e-01" purity="7.3187786340713501e-01" nType="-99"/>
          <Node pos="r" depth="2" NCoef="0" IVar="-1" Cut="0.0000000000000000e+00" cType="1" res="3.1073142308741808e-03" rms="4.6302461624145508e-01" purity="5.8066260814666748e-01" nType="-99"/>
        </Node>
        <Node pos="r" depth="1" NCoef="0" IVar="8" Cut="1.1531148850917816e-01" cType="1" res="-3.9776172488927841e-02" rms="4.5140546560287476e-01" purity="4.0109884738922119e-01" nType="0">
          <Node pos="l" depth="2" NCoef="0" IVar="-1" Cut="0.0000000000000000e+00" cType="1" res="-2.4123495444655418e-02" rms="4.3339586257934570e-01" purity="2.9267168045043945e-01" nType="-99"/>
          <Node pos="r" depth="2" NCoef="0" IVar="-1" Cut="0.0000000000000000e+00" cType="1" res="-2.8616986237466335e-03" rms="4.5553582906723022e-01" purity="4.4376653432846069e-01" nType="-99"/>
        </Node>
      </Node>
    </BinaryTree>
    <BinaryTree type="DecisionTree" boostWeight="1.0000000000000000e+00" itree="22">
      <Node pos="s" depth="0" NCoef="0" IVar="12" Cut="3.5685958862304688e+00" cType="1" res="6.0358765767887235e-04" rms="4.5370140671730042e-01" purity="5.0001335144042969e-01" nType="0">
        <Node pos="l" depth="1" NCoef="0" IVar="6" Cut="1.2148228454589844e+02" cType="1" res="-2.9027128592133522e-02" rms="4.5134839415550232e-01" purity="4.6255588531494141e-01" nType="0">
          <Node pos="l" depth="2" NCoef="0" IVar="-1" Cut="0.0000000000000000e+00" cType="1" res="-1.3809128431603312e-03" rms="4.6304267644882202e-01" purity="5.3207844495773315e-01" nType="-99"/>
          <Node pos="r" depth="2" NCoef="0" IVar="-1" Cut="0.0000000000000000e+00" cType="1" res="-2.4269018322229385e-02" rms="4.0112668275833130e-01" purity="2.3187530040740967e-01" nType="-99"/>
        </Node>
        <Node pos="r" depth="1" NCoef="0" IVar="1" Cut="2.3266336917877197e+00" cType="1" res="6.0182180255651474e-02" rms="4.5256158709526062e-01" purity="5.7532930374145508e-01" nType="0">
          <Node pos="l" depth="2" NCoef="0" IVar="-1" Cut="0.0000000000000000e+00" cType="1" res="6.5222587436437607e-03" rms="4.5744714140892029e-01" purity="5.2510130405426025e-01" nType="-99"/>
          <Node pos="r" depth="2" NCoef="0" IVar="-1" Cut="0.0000000000000000e+00" cType="1" res="2.8687674552202225e-02" rms="4.3204382061958313e-01" purity="6.9597500562667847e-01" nType="-99"/>
        </Node>
      </Node>
    </BinaryTree>
    <BinaryTree type="DecisionTree" boostWeight="1.0000000000000000e+00" itree="23">
      <Node pos="s" depth="0" NCoef="0" IVar="15" Cut="5.1681961059570312e+01" cType="1" res="1.4613230014219880e-03" rms="4.5260500907897949e-01" purity="5.0120037794113159e-01" nType="0">
        <Node pos="l" depth="1" NCoef="0" IVar="5" Cut="8.2403762817382812e+01" cType="1" res="3.6760054528713226e-02" rms="4.5531436800956726e-01" purity="5.9160840511322021e-01" nType="0">
          <Node pos="l" depth="2" NCoef="0" IVar="-1" Cut="0.0000000000000000e+00" cType="1" res="1.7217379063367844e-02" rms="4.4127425551414490e-01" purity="6.8334847688674927e-01" nType="-99"/>
          <Node pos="r" depth="2" NCoef="0" IVar="-1" Cut="0.0000000000000000e+00" cType="1" res="-1.6613149782642722e-03" rms="4.6545371413230896e-01" purity="4.9544733762741089e-01" nType="-99"/>
        </Node>
        <Node pos="r" depth="1" NCoef="0" IVar="0" Cut="4.3503742218017578e+00" cType="1" res="-5.1893226802349091e-02" rms="4.4317391514778137e-01" purity="3.6454743146896362e-01" nType="0">
          <Node pos="l" depth="2" NCoef="0" IVar="-1" Cut="0.0000000000000000e+00" cType="1" res="-2.0151788368821144e-02" rms="4.2137849330902100e-01" purity="3.1310001015663147e-01" nType="-99"/>
          <Node pos="r" depth="2" NCoef="0" IVar="-1" Cut="0.0000000000000000e+00" cType="1" res="-2.8552005533128977e-03" rms="4.6168145537376404e-01" purity="4.1835197806358337e-01" nType="-99"/>
        </Node>
      </Node>
    </BinaryTree>
    <BinaryTree type="DecisionTree" boostWeight="1.0000000000000000e+00" itree="24">
      <Node pos="s" depth="0" NCoef="0" IVar="10" Cut="3.4798276424407959e-01" cType="1" res="4.0476955473423004e-03" rms="4.5218840241432190e-01" purity="5.0349706411361694e-01" nType="0">
        <Node pos="l" depth="1" NCoef="0" IVar="0" Cut="4.0851106643676758e+00" cType="1" res="-2.8690872713923454e-02" rms="4.5255610346794128e-01" purity="4.5577606558799744e-01" nType="0">
          <Node pos="l" depth="2" NCoef="0" IVar="-1" Cut="0.0000000000000000e+00" cType="1" res="-2.3790394887328148e-02" rms="4.2521360516548157e-01" purity="3.4143128991127014e-01" nType="-99"/>
          <Node pos="r" depth="2" NCoef="0" IVar="-1" Cut="0.0000000000000000e+00" cType="1" res="1.5661771176382899e-03" rms="4.6032339334487915e-01" purity="5.0888007879257202e-01" nType="-99"/>
        </Node>
        <Node pos="r" depth="1" NCoef="0" IVar="5" Cut="1.6331336975097656e+02" cType="1" res="5.4391562938690186e-02" rms="4.4696766138076782e-01" purity="5.7688027620315552e-01" nType="0">
          <Node pos="l" depth="2" NCoef="0" IVar="-1" Cut="0.0000000000000000e+00" cType="1" res="1.5577184967696667e-02" rms="4.4753116369247437e-01" purity="6.2186193466186523e-01" nType="-99"/>
          <Node pos="r" depth="2" NCoef="0" IVar="-1" Cut="0.0000000000000000e+00" cType="1" res="-1.4488238841295242e-02" rms="4.2517724633216858e-01" purity="2.6834404468536377e-01" nType="-99"/>
        </Node>
      </Node>
    </BinaryTree>
    <BinaryTree type="DecisionTree" boostWeight="1.0000000000000000e+00" itree="25">
      <Node pos="s" depth="0" NCoef="0" IVar="9" Cut="1.8109233677387238e-01" cType="1" res="1.8381369300186634e-03" rms="4.5199799537658691e-01" purity="5.0292146205902100e-01" nType="0">
        <Node pos="l" depth="1" NCoef="0" IVar="2" Cut="1.6125178527832031e+02" cType="1" res="-4.6078849583864212e-02" rms="4.5297560095787048e-01" purity="4.3314585089683533e-01" nType="0">
          <Node pos="l" depth="2" NCoef="0" IVar="-1" Cut="0.0000000000000000e+00" cType="1" res="-7.2609941707924008e-04" rms="4.6731790900230408e-01" purity="5.2625006437301636e-01" nType="-99"/>
          <Node pos="r" depth="2" NCoef="0" IVar="-1" Cut="0.0000000000000000e+00" cType="1" res="-2.0165104418992996e-02" rms="4.3358072638511658e-01" purity="3.3832415938377380e-01" nType="-99"/>
        </Node>
        <Node pos="r" depth="1" NCoef="0" IVar="14" Cut="1.0331293487548828e+02" cType="1" res="3.8813699036836624e-02" rms="4.4775053858757019e-01" purity="5.5676442384719849e-01" nType="0">
          <Node pos="l" depth="2" NCoef="0" IVar="-1" Cut="0.0000000000000000e+00" cType="1" res="1.3366428203880787e-02" rms="4.5030853152275085e-01" purity="6.3132226467132568e-01" nType="-99"/>
          <Node pos="r" depth="2" NCoef="0" IVar="-1" Cut="0.0000000000000000e+00" cType="1" res="-1.0737281292676926e-02" rms="4.2772385478019714e-01" purity="2.8166183829307556e-01" nType="-99"/>
        </Node>
      </Node>
    </BinaryTree>
    <BinaryTree type="DecisionTree" boostWeight="1.0000000000000000e+00" itree="26">
      <Node pos="s" depth="0" NCoef="0" IVar="5" Cut="7.7521385192871094e+01" cType="1" res="-4.6020746231079102e-04" rms="4.5060878992080688e-01" purity="4.9998381733894348e-01" nType="0">
        <Node pos="l" depth="1" NCoef="0" IVar="14" Cut="5.8182518005371094e+01" cType="1" res="4.1244443506002426e-02" rms="4.5104920864105225e-01" purity="5.9321802854537964e-01" nType="0">
          <Node pos="l" depth="2" NCoef="0" IVar="-1" Cut="0.0000000000000000e+00" cType="1" res="1.9782118499279022e-02" rms="4.2837861180305481e-01" purity="7.2712653875350952e-01" nType="-99"/>
          <Node pos="r" depth="2" NCoef="0" IVar="-1" Cut="0.0000000000000000e+00" cType="1" res="-2.2991318473941647e-05" rms="4.6585521101951599e-01" purity="4.7728636860847473e-01" nType="-99"/>
        </Node>
        <Node pos="r" depth="1" NCoef="0" IVar="7" Cut="1.1480471038818359e+02" cType="1" res="-3.7167400121688843e-02" rms="4.4701284170150757e-01" purity="4.1792184114456177e-01" nType="0">
          <Node pos="l" depth="2" NCoef="0" IVar="-1" Cut="0.0000000000000000e+00" cType="1" res="-1.7797358334064484e-02" rms="4.5030599832534790e-01" purity="3.7596058845520020e-01" nType="-99"/>
          <Node pos="r" depth="2" NCoef="0" IVar="-1" Cut="0.0000000000000000e+00" cType="1" res="4.3021095916628838e-04" rms="4.4035682082176208e-01" purity="4.5651358366012573e-01" nType="-99"/>
        </Node>
      </Node>
    </BinaryTree>
    <BinaryTree type="DecisionTree" boostWeight="1.0000000000000000e+00" itree="27">
      <Node pos="s" depth="0" NCoef="0" IVar="1" Cut="-2.5529253482818604e+00" cType="1" res="5.5889191571623087e-04" rms="4.4925376772880554e-01" purity="5.0111562013626099e-01" nType="0">
        <Node pos="l" depth="1" NCoef="0" IVar="12" Cut="2.8437368869781494e+00" cType="1" res="6.5253920853137970e-02" rms="4.4045120477676392e-01" purity="6.2256425619125366e-01" nType="0">
          <Node pos="l" depth="2" NCoef="0" IVar="-1" Cut="0.0000000000000000e+00" cType="1" res="3.4803105518221855e-03" rms="4.4622102379798889e-01" purity="5.5585145950317383e-01" nType="-99"/>
          <Node pos="r" depth="2" NCoef="0" IVar="-1" Cut="0.0000000000000000e+00" cType="1" res="2.5690957903862000e-02" rms="4.2839962244033813e-01" purity="6.9163930416107178e-01" nType="-99"/>
        </Node>
        <Node pos="r" depth="1" NCoef="0" IVar="1" Cut="2.3876011371612549e+00" cType="1" res="-2.3474304005503654e-02" rms="4.5011761784553528e-01" purity="4.5599928498268127e-01" nType="0">
          <Node pos="l" depth="2" NCoef="0" IVar="-1" Cut="0.0000000000000000e+00" cType="1" res="-1.7378011718392372e-02" rms="4.4318518042564392e-01" purity="3.5149836540222168e-01" nType="-99"/>
          <Node pos="r" depth="2" NCoef="0" IVar="-1" Cut="0.0000000000000000e+00" cType="1" res="1.0623834095895290e-02" rms="4.4923585653305054e-01" purity="5.9513801336288452e-01" nType="-99"/>
        </Node>
      </Node>
    </BinaryTree>
    <BinaryTree type="DecisionTree" boostWeight="1.0000000000000000e+00" itree="28">
      <Node pos="s" depth="0" NCoef="0" IVar="15" Cut="8.3773757934570312e+01" cType="1" res="2.6816976605914533e-04" rms="4.4938302040100098e-01" purity="4.9929767847061157e-01" nType="0">
        <Node pos="l" depth="1" NCoef="0" IVar="10" Cut="2.7896064519882202e-01" cType="1" res="1.6335377469658852e-02" rms="4.5501014590263367e-01" purity="5.4917144775390625e-01" nType="0">
          <Node pos="l" depth="2" NCoef="0" IVar="-1" Cut="0.0000000000000000e+00" cType="1" res="-6.0534314252436161e-03" rms="4.6168628334999084e-01" purity="4.7301512956619263e-01" nType="-99"/>
          <Node pos="r" depth="2" NCoef="0" IVar="-1" Cut="0.0000000000000000e+00" cType="1" res="1.1011337861418724e-02" rms="4.4700950384140015e-01" purity="6.0681360960006714e-01" nType="-99"/>
        </Node>
        <Node pos="r" depth="1" NCoef="0" IVar="3" Cut="7.7595451354980469e+01" cType="1" res="-7.7735066413879395e-02" rms="4.1218996047973633e-01" purity="2.5716981291770935e-01" nType="0">
          <Node pos="l" depth="2" NCoef="0" IVar="-1" Cut="0.0000000000000000e+00" cType="1" res="-3.6071883514523506e-03" rms="4.5679309964179993e-01" purity="3.3297410607337952e-01" nType="-99"/>
          <Node pos="r" depth="2" NCoef="0" IVar="-1" Cut="0.0000000000000000e+00" cType="1" res="-2.4902150034904480e-02" rms="3.8940021395683289e-01" purity="2.2585721313953400e-01" nType="-99"/>
        </Node>
      </Node>
    </BinaryTree>
    <BinaryTree type="DecisionTree" boostWeight="1.0000000000000000e+00" itree="29">
      <Node pos="s" depth="0" NCoef="0" IVar="14" Cut="5.5156257629394531e+01" cType="1" res="-4.2943255975842476e-03" rms="4.4804754853248596e-01" purity="4.9661421775817871e-01" nType="0">
        <Node pos="l" depth="1" NCoef="0" IVar="1" Cut="-2.6826701164245605e+00" cType="1" res="3.6752659827470779e-02" rms="4.4802802801132202e-01" purity="6.2981218099594116e-01" nType="0">
          <Node pos="l" depth="2" NCoef="0" IVar="-1" Cut="0.0000000000000000e+00" cType="1" res="2.2714575752615929e-02" rms="4.1560161113739014e-01" purity="7.4302440881729126e-01" nType="-99"/>
          <Node pos="r" depth="2" NCoef="0" IVar="-1" Cut="0.0000000000000000e+00" cType="1" res="2.9430245049297810e-03" rms="4.5716473460197449e-01" purity="5.8821076154708862e-01" nType="-99"/>
        </Node>
        <Node pos="r" depth="1" NCoef="0" IVar="12" Cut="2.8001964092254639e+00" cType="1" res="-3.4440778195858002e-02" rms="4.4566041231155396e-01" purity="3.9878857135772705e-01" nType="0">
          <Node pos="l" depth="2" NCoef="0" IVar="-1" Cut="0.0000000000000000e+00" cType="1" res="-1.9123183563351631e-02" rms="4.2916858196258545e-01" purity="3.3882793784141541e-01" nType="-99"/>
          <Node pos="r" depth="2" NCoef="0" IVar="-1" Cut="0.0000000000000000e+00" cType="1" res="7.0708064595237374e-04" rms="4.5421287417411804e-01" purity="4.4437453150749207e-01" nType="-99"/>
        </Node>
      </Node>
    </BinaryTree>
    <BinaryTree type="DecisionTree" boostWeight="1.0000000000000000e+00" itree="30">
      <Node pos="s" depth="0" NCoef="0" IVar="5" Cut="2.1661854553222656e+02" cType="1" res="8.7694596732035279e-04" rms="4.4818314909934998e-01" purity="5.0204336643218994e-01" nType="0">
        <Node pos="l" depth="1" NCoef="0" IVar="12" Cut="3.4911739826202393e+00" cType="1" res="9.8005449399352074e-03" rms="4.5268198847770691e-01" purity="5.2477085590362549e-01" nType="0">
          <Node pos="l" depth="2" NCoef="0" IVar="-1" Cut="0.0000000000000000e+00" cType="1" res="-3.6495625972747803e-03" rms="4.5082056522369385e-01" purity="4.8471170663833618e-01" nType="-99"/>
          <Node pos="r" depth="2" NCoef="0" IVar="-1" Cut="0.0000000000000000e+00" cType="1" res="1.2697243131697178e-02" rms="4.5218539237976074e-01" purity="5.9771585464477539e-01" nType="-99"/>
        </Node>
        <Node pos="r" depth="1" NCoef="0" IVar="-1" Cut="0.0000000000000000e+00" cType="1" res="-3.5956688225269318e-02" rms="3.3940103650093079e-01" purity="1.4123167097568512e-01" nType="-99"/>
      </Node>
    </BinaryTree>
    <BinaryTree type="DecisionTree" boostWeight="1.0000000000000000e+00" itree="31">
      <Node pos="s" depth="0" NCoef="0" IVar="1" Cut="-2.6432151794433594e+00" cType="1" res="-7.8861863585188985e-04" rms="4.4869902729988098e-01" purity="4.9869900941848755e-01" nType="0">
        <Node pos="l" depth="1" NCoef="0" IVar="9" Cut="2.0731590688228607e-01" cType="1" res="5.7709552347660065e-02" rms="4.4103997945785522e-01" purity="6.2825244665145874e-01" nType="0">
          <Node pos="l" depth="2" NCoef="0" IVar="-1" Cut="0.0000000000000000e+00" cType="1" res="3.3169167581945658e-03" rms="4.5326301455497742e-01" purity="5.6165480613708496e-01" nType="-99"/>
          <Node pos="r" depth="2" NCoef="0" IVar="-1" Cut="0.0000000000000000e+00" cType="1" res="2.1770751103758812e-02" rms="4.2614990472793579e-01" purity="6.8795067071914673e-01" nType="-99"/>
        </Node>
        <Node pos="r" depth="1" NCoef="0" IVar="1" Cut="2.4908118247985840e+00" cType="1" res="-1.8777074292302132e-02" rms="4.4950020313262939e-01" purity="4.5886066555976868e-01" nType="0">
          <Node pos="l" depth="2" NCoef="0" IVar="-1" Cut="0.0000000000000000e+00" cType="1" res="-1.2848018668591976e-02" rms="4.4671770930290222e-01" purity="3.7333437800407410e-01" nType="-99"/>
          <Node pos="r" depth="2" NCoef="0" IVar="-1" Cut="0.0000000000000000e+00" cType="1" res="9.8870350047945976e-03" rms="4.4700127840042114e-01" purity="6.0206031799316406e-01" nType="-99"/>
        </Node>
      </Node>
    </BinaryTree>
    <BinaryTree type="DecisionTree" boostWeight="1.0000000000000000e+00" itree="32">
      <Node pos="s" depth="0" NCoef="0" IVar="8" Cut="2.5000798702239990e-01" cType="1" res="5.9539452195167542e-04" rms="4.4770371913909912e-01" purity="5.0089257955551147e-01" nType="0">
        <Node pos="l" depth="1" NCoef="0" IVar="12" Cut="2.6901164054870605e+00" cType="1" res="-2.6664022356271744e-02" rms="4.5028999447822571e-01" purity="4.4847595691680908e-01" nType="0">
          <Node pos="l" depth="2" NCoef="0" IVar="-1" Cut="0.0000000000000000e+00" cType="1" res="-1.6912762075662613e-02" rms="4.3885129690170288e-01" purity="3.8567158579826355e-01" nType="-99"/>
          <Node pos="r" depth="2" NCoef="0" IVar="-1" Cut="0.0000000000000000e+00" cType="1" res="9.8417839035391808e-04" rms="4.5489624142646790e-01" purity="4.8933121562004089e-01" nType="-99"/>
        </Node>
        <Node pos="r" depth="1" NCoef="0" IVar="1" Cut="2.6163065433502197e+00" cType="1" res="3.9482910186052322e-02" rms="4.4108185172080994e-01" purity="5.7566863298416138e-01" nType="0">
          <Node pos="l" depth="2" NCoef="0" IVar="-1" Cut="0.0000000000000000e+00" cType="1" res="3.2656667754054070e-03" rms="4.4480055570602417e-01" purity="5.3031116724014282e-01" nType="-99"/>
          <Node pos="r" depth="2" NCoef="0" IVar="-1" Cut="0.0000000000000000e+00" cType="1" res="2.4679254740476608e-02" rms="4.2254948616027832e-01" purity="7.0336240530014038e-01" nType="-99"/>
        </Node>
      </Node>
    </BinaryTree>
    <BinaryTree type="DecisionTree" boostWeight="1.0000000000000000e+00" itree="33">
      <Node pos="s" depth="0" NCoef="0" IVar="14" Cut="5.5372283935546875e+01" cType="1" res="-1.6844865167513490e-03" rms="4.4620263576507568e-01" purity="4.9807387590408325e-01" nType="0">
        <Node pos="l" depth="1" NCoef="0" IVar="15" Cut="9.0528617858886719e+01" cType="1" res="3.6905542016029358e-02" rms="4.4575443863868713e-01" purity="6.3426291942596436e-01" nType="0">
          <Node pos="l" depth="2" NCoef="0" IVar="-1" Cut="0.0000000000000000e+00" cType="1" res="1.1338323354721069e-02" rms="4.4247221946716309e-01" purity="6.7285615205764771e-01" nType="-99"/>
          <Node pos="r" depth="2" NCoef="0" IVar="-1" Cut="0.0000000000000000e+00" cType="1" res="-1.4016137458384037e-02" rms="4.5684140920639038e-01" purity="3.4504395723342896e-01" nType="-99"/>
        </Node>
        <Node pos="r" depth="1" NCoef="0" IVar="8" Cut="2.9885447025299072e-01" cType="1" res="-3.0501604080200195e-02" rms="4.4435665011405945e-01" purity="3.9637467265129089e-01" nType="0">
          <Node pos="l" depth="2" NCoef="0" IVar="-1" Cut="0.0000000000000000e+00" cType="1" res="-1.2391266413033009e-02" rms="4.3996816873550415e-01" purity="3.5277441143989563e-01" nType="-99"/>
          <Node pos="r" depth="2" NCoef="0" IVar="-1" Cut="0.0000000000000000e+00" cType="1" res="5.4296720772981644e-03" rms="4.4970682263374329e-01" purity="4.9831533432006836e-01" nType="-99"/>
        </Node>
      </Node>
    </BinaryTree>
    <BinaryTree type="DecisionTree" boostWeight="1.0000000000000000e+00" itree="34">
      <Node pos="s" depth="0" NCoef="0" IVar="5" Cut="8.0033859252929688e+01" cType="1" res="8.9944829232990742e-04" rms="4.4709619879722595e-01" purity="5.0016224384307861e-01" nType="0">
        <Node pos="l" depth="1" NCoef="0" IVar="8" Cut="1.3872942328453064e-01" cType="1" res="3.5081632435321808e-02" rms="4.5029160380363464e-01" purity="5.9198808670043945e-01" nType="0">
          <Node pos="l" depth="2" NCoef="0" IVar="-1" Cut="0.0000000000000000e+00" cType="1" res="-2.9156028758734465e-03" rms="4.6271261572837830e-01" purity="4.9514526128768921e-01" nType="-99"/>
          <Node pos="r" depth="2" NCoef="0" IVar="-1" Cut="0.0000000000000000e+00" cType="1" res="1.3024965301156044e-02" rms="4.4242966175079346e-01" purity="6.3798141479492188e-01" nType="-99"/>
        </Node>
        <Node pos="r" depth="1" NCoef="0" IVar="1" Cut="-2.7148349285125732e+00" cType="1" res="-3.2280068844556808e-02" rms="4.4144830107688904e-01" purity="4.1102993488311768e-01" nType="0">
          <Node pos="l" depth="2" NCoef="0" IVar="-1" Cut="0.0000000000000000e+00" cType="1" res="9.9589452147483826e-03" rms="4.4171261787414551e-01" purity="5.7620114088058472e-01" nType="-99"/>
          <Node pos="r" depth="2" NCoef="0" IVar="-1" Cut="0.0000000000000000e+00" cType="1" res="-1.1276247911155224e-02" rms="4.3964594602584839e-01" purity="3.7542217969894409e-01" nType="-99"/>
        </Node>
      </Node>
    </BinaryTree>
    <BinaryTree type="DecisionTree" boostWeight="1.0000000000000000e+00" itree="35">
      <Node pos="s" depth="0" NCoef="0" IVar="15" Cut="4.9091117858886719e+01" cType="1" res="2.2165377158671618e-03" rms="4.4579651951789856e-01" purity="5.0196093320846558e-01" nType="0">
        <Node pos="l" depth="1" NCoef="0" IVar="12" Cut="2.4743413925170898e+00" cType="1" res="2.9500529170036316e-02" rms="4.4786396622657776e-01" purity="5.9388720989227295e-01" nType="0">
          <Node pos="l" depth="2" NCoef="0" IVar="-1" Cut="0.0000000000000000e+00" cType="1" res="-3.6559931468218565e-03" rms="4.4737637042999268e-01" purity="5.4275965690612793e-01" nType="-99"/>
          <Node pos="r" depth="2" NCoef="0" IVar="-1" Cut="0.0000000000000000e+00" cType="1" res="1.1470021679997444e-02" rms="4.4646376371383667e-01" purity="6.1802011728286743e-01" nType="-99"/>
        </Node>
        <Node pos="r" depth="1" NCoef="0" IVar="9" Cut="1.0546274483203888e-01" cType="1" res="-3.4361369907855988e-02" rms="4.4036534428596497e-01" purity="3.7872123718261719e-01" nType="0">
          <Node pos="l" depth="2" NCoef="0" IVar="-1" Cut="0.0000000000000000e+00" cType="1" res="-2.0878482609987259e-02" rms="4.2634564638137817e-01" purity="2.8891932964324951e-01" nType="-99"/>
          <Node pos="r" depth="2" NCoef="0" IVar="-1" Cut="0.0000000000000000e+00" cType="1" res="-3.2251176889985800e-03" rms="4.4374653697013855e-01" purity="4.1204881668090820e-01" nType="-99"/>
        </Node>
      </Node>
    </BinaryTree>
    <BinaryTree type="DecisionTree" boostWeight="1.0000000000000000e+00" itree="36">
      <Node pos="s" depth="0" NCoef="0" IVar="5" Cut="1.1468409729003906e+02" cType="1" res="4.3650963343679905e-03" rms="4.4322878122329712e-01" purity="5.0520461797714233e-01" nType="0">
        <Node pos="l" depth="1" NCoef="0" IVar="15" Cut="9.7028991699218750e+01" cType="1" res="2.5386355817317963e-02" rms="4.4795960187911987e-01" purity="5.7736051082611084e-01" nType="0">
          <Node pos="l" depth="2" NCoef="0" IVar="-1" Cut="0.0000000000000000e+00" cType="1" res="8.6093004792928696e-03" rms="4.4938692450523376e-01" purity="6.1614030599594116e-01" nType="-99"/>
          <Node pos="r" depth="2" NCoef="0" IVar="-1" Cut="0.0000000000000000e+00" cType="1" res="-1.8942009657621384e-02" rms="4.2127922177314758e-01" purity="2.6295623183250427e-01" nType="-99"/>
        </Node>
        <Node pos="r" depth="1" NCoef="0" IVar="3" Cut="8.0903472900390625e+01" cType="1" res="-5.2800573408603668e-02" rms="4.2487281560897827e-01" purity="3.0898228287696838e-01" nType="0">
          <Node pos="l" depth="2" NCoef="0" IVar="-1" Cut="0.0000000000000000e+00" cType="1" res="1.5489099314436316e-03" rms="4.6226698160171509e-01" purity="3.8504767417907715e-01" nType="-99"/>
          <Node pos="r" depth="2" NCoef="0" IVar="-1" Cut="0.0000000000000000e+00" cType="1" res="-1.8935466185212135e-02" rms="4.0478312969207764e-01" purity="2.7583935856819153e-01" nType="-99"/>
        </Node>
      </Node>
    </BinaryTree>
    <BinaryTree type="DecisionTree" boostWeight="1.0000000000000000e+00" itree="37">
      <Node pos="s" depth="0" NCoef="0" IVar="12" Cut="2.9530544281005859e+00" cType="1" res="1.7356572207063437e-03" rms="4.4443041086196899e-01" purity="5.0227379798889160e-01" nType="0">
        <Node pos="l" depth="1" NCoef="0" IVar="2" Cut="2.4501831054687500e+02" cType="1" res="-2.9436057433485985e-02" rms="4.4055324792861938e-01" purity="4.5284497737884521e-01" nType="0">
          <Node pos="l" depth="2" NCoef="0" IVar="-1" Cut="0.0000000000000000e+00" cType="1" res="-2.1107117645442486e-03" rms="4.5224720239639282e-01" purity="5.1509958505630493e-01" nType="-99"/>
          <Node pos="r" depth="2" NCoef="0" IVar="-1" Cut="0.0000000000000000e+00" cType="1" res="-2.0165888592600822e-02" rms="4.0312939882278442e-01" purity="2.8773787617683411e-01" nType="-99"/>
        </Node>
        <Node pos="r" depth="1" NCoef="0" IVar="8" Cut="8.2423672080039978e-02" cType="1" res="3.0288670212030411e-02" rms="4.4604489207267761e-01" purity="5.4755032062530518e-01" nType="0">
          <Node pos="l" depth="2" NCoef="0" IVar="-1" Cut="0.0000000000000000e+00" cType="1" res="-7.0660528726875782e-03" rms="4.5391350984573364e-01" purity="4.4006142020225525e-01" nType="-99"/>
          <Node pos="r" depth="2" NCoef="0" IVar="-1" Cut="0.0000000000000000e+00" cType="1" res="1.0148281231522560e-02" rms="4.4298577308654785e-01" purity="5.7247591018676758e-01" nType="-99"/>
        </Node>
      </Node>
    </BinaryTree>
    <BinaryTree type="DecisionTree" boostWeight="1.0000000000000000e+00" itree="38">
      <Node pos="s" depth="0" NCoef="0" IVar="9" Cut="1.4713163673877716e-01" cType="1" res="-1.5437811380252242e-03" rms="4.4482737779617310e-01" purity="4.9896341562271118e-01" nType="0">
        <Node pos="l" depth="1" NCoef="0" IVar="0" Cut="4.6451101303100586e+00" cType="1" res="-4.1130889207124710e-02" rms="4.4564422965049744e-01" purity="4.2606237530708313e-01" nType="0">
          <Node pos="l" depth="2" NCoef="0" IVar="-1" Cut="0.0000000000000000e+00" cType="1" res="-1.7928563058376312e-02" rms="4.2471009492874146e-01" purity="3.6692607402801514e-01" nType="-99"/>
          <Node pos="r" depth="2" NCoef="0" IVar="-1" Cut="0.0000000000000000e+00" cType="1" res="-3.0208725365810096e-04" rms="4.6473166346549988e-01" purity="4.9219298362731934e-01" nType="-99"/>
        </Node>
        <Node pos="r" depth="1" NCoef="0" IVar="14" Cut="1.2297019195556641e+02" cType="1" res="2.0515738055109978e-02" rms="4.4283878803253174e-01" purity="5.3958678245544434e-01" nType="0">
          <Node pos="l" depth="2" NCoef="0" IVar="-1" Cut="0.0000000000000000e+00" cType="1" res="7.9794228076934814e-03" rms="4.4983199238777161e-01" purity="5.9735053777694702e-01" nType="-99"/>
          <Node pos="r" depth="2" NCoef="0" IVar="-1" Cut="0.0000000000000000e+00" cType="1" res="-1.6280079260468483e-02" rms="3.9146453142166138e-01" purity="2.1927987039089203e-01" nType="-99"/>
        </Node>
      </Node>
    </BinaryTree>
    <BinaryTree type="DecisionTree" boostWeight="1.0000000000000000e+00" itree="39">
      <Node pos="s" depth="0" NCoef="0" IVar="8" Cut="9.3073442578315735e-02" cType="1" res="3.4306091256439686e-03" rms="4.4465059041976929e-01" purity="5.0360816717147827e-01" nType="0">
        <Node pos="l" depth="1" NCoef="0" IVar="2" Cut="1.7735034179687500e+02" cType="1" res="-5.0918333232402802e-02" rms="4.4500496983528137e-01" purity="3.9499595761299133e-01" nType="0">
          <Node pos="l" depth="2" NCoef="0" IVar="-1" Cut="0.0000000000000000e+00" cType="1" res="-2.6969898026436567e-03" rms="4.6825090050697327e-01" purity="4.9104753136634827e-01" nType="-99"/>
          <Node pos="r" depth="2" NCoef="0" IVar="-1" Cut="0.0000000000000000e+00" cType="1" res="-2.5808382779359818e-02" rms="4.0411958098411560e-01" purity="2.6073363423347473e-01" nType="-99"/>
        </Node>
        <Node pos="r" depth="1" NCoef="0" IVar="1" Cut="2.7695555686950684e+00" cType="1" res="1.8907073885202408e-02" rms="4.4333252310752869e-01" purity="5.3453660011291504e-01" nType="0">
          <Node pos="l" depth="2" NCoef="0" IVar="-1" Cut="0.0000000000000000e+00" cType="1" res="9.0438540792092681e-04" rms="4.4516390562057495e-01" purity="5.0222635269165039e-01" nType="-99"/>
          <Node pos="r" depth="2" NCoef="0" IVar="-1" Cut="0.0000000000000000e+00" cType="1" res="1.8526833504438400e-02" rms="4.3001028895378113e-01" purity="6.6945463418960571e-01" nType="-99"/>
        </Node>
      </Node>
    </BinaryTree>
    <BinaryTree type="DecisionTree" boostWeight="1.0000000000000000e+00" itree="40">
      <Node pos="s" depth="0" NCoef="0" IVar="12" Cut="2.9527354240417480e+00" cType="1" res="-2.3024308029562235e-03" rms="4.4515457749366760e-01" purity="4.9747651815414429e-01" nType="0">
        <Node pos="l" depth="1" NCoef="0" IVar="1" Cut="-2.7130775451660156e+00" cType="1" res="-3.2579373568296432e-02" rms="4.4022333621978760e-01" purity="4.4482231140136719e-01" nType="0">
          <Node pos="l" depth="2" NCoef="0" IVar="-1" Cut="0.0000000000000000e+00" cType="1" res="5.0152554176747799e-03" rms="4.4229611754417419e-01" purity="5.6874173879623413e-01" nType="-99"/>
          <Node pos="r" depth="2" NCoef="0" IVar="-1" Cut="0.0000000000000000e+00" cType="1" res="-1.1631418950855732e-02" rms="4.3813344836235046e-01" purity="4.0532335638999939e-01" nType="-99"/>
        </Node>
        <Node pos="r" depth="1" NCoef="0" IVar="1" Cut="-2.3442983627319336e+00" cType="1" res="2.5323849171400070e-02" rms="4.4782444834709167e-01" purity="5.4552102088928223e-01" nType="0">
          <Node pos="l" depth="2" NCoef="0" IVar="-1" Cut="0.0000000000000000e+00" cType="1" res="1.7319587990641594e-02" rms="4.3545088171958923e-01" purity="6.7250084877014160e-01" nType="-99"/>
          <Node pos="r" depth="2" NCoef="0" IVar="-1" Cut="0.0000000000000000e+00" cType="1" res="9.9624181166291237e-04" rms="4.5125153660774231e-01" purity="4.9239376187324524e-01" nType="-99"/>
        </Node>
      </Node>
    </BinaryTree>
    <BinaryTree type="DecisionTree" boostWeight="1.0000000000000000e+00" itree="41">
      <Node pos="s" depth="0" NCoef="0" IVar="1" Cut="2.6540014743804932e+00" cType="1" res="-9.3935738550499082e-04" rms="4.4294840097427368e-01" purity="4.9814748764038086e-01" nType="0">
        <Node pos="l" depth="1" NCoef="0" IVar="1" Cut="-2.3459472656250000e+00" cType="1" res="-1.6039276495575905e-02" rms="4.4350317120552063e-01" purity="4.6100682020187378e-01" nType="0">
          <Node pos="l" depth="2" NCoef="0" IVar="-1" Cut="0.0000000000000000e+00" cType="1" res="8.4261409938335419e-03" rms="4.3895828723907471e-01" purity="5.9651857614517212e-01" nType="-99"/>
          <Node pos="r" depth="2" NCoef="0" IVar="-1" Cut="0.0000000000000000e+00" cType="1" res="-1.2760593555867672e-02" rms="4.4283086061477661e-01" purity="3.6164462566375732e-01" nType="-99"/>
        </Node>
        <Node pos="r" depth="1" NCoef="0" IVar="12" Cut="2.3064429759979248e+00" cType="1" res="4.8373047262430191e-02" rms="4.3751680850982666e-01" purity="6.1943918466567993e-01" nType="0">
          <Node pos="l" depth="2" NCoef="0" IVar="-1" Cut="0.0000000000000000e+00" cType="1" res="-8.7095127673819661e-04" rms="4.4354212284088135e-01" purity="5.2696073055267334e-01" nType="-99"/>
          <Node pos="r" depth="2" NCoef="0" IVar="-1" Cut="0.0000000000000000e+00" cType="1" res="1.7571641132235527e-02" rms="4.3150866031646729e-01" purity="6.7010498046875000e-01" nType="-99"/>
        </Node>
      </Node>
    </BinaryTree>
    <BinaryTree type="DecisionTree" boostWeight="1.0000000000000000e+00" itree="42">
      <Node pos="s" depth="0" NCoef="0" IVar="9" Cut="1.8432472646236420e-01" cType="1" res="-3.9094877429306507e-03" rms="4.4258680939674377e-01" purity="4.9791306257247925e-01" nType="0">
        <Node pos="l" depth="1" NCoef="0" IVar="2" Cut="1.3752491760253906e+02" cType="1" res="-3.4158434718847275e-02" rms="4.4402605295181274e-01" purity="4.3400630354881287e-01" nType="0">
          <Node pos="l" depth="2" NCoef="0" IVar="-1" Cut="0.0000000000000000e+00" cType="1" res="1.0083818342536688e-03" rms="4.6523186564445496e-01" purity="5.4607814550399780e-01" nType="-99"/>
          <Node pos="r" depth="2" NCoef="0" IVar="-1" Cut="0.0000000000000000e+00" cType="1" res="-1.3530409894883633e-02" rms="4.2913243174552917e-01" purity="3.6676600575447083e-01" nType="-99"/>
        </Node>
        <Node pos="r" depth="1" NCoef="0" IVar="8" Cut="1.9988752901554108e-01" cType="1" res="2.0325439050793648e-02" rms="4.3993216753005981e-01" purity="5.4911404848098755e-01" nType="0">
          <Node pos="l" depth="2" NCoef="0" IVar="-1" Cut="0.0000000000000000e+00" cType="1" res="-3.6808110307902098e-03" rms="4.4693624973297119e-01" purity="4.7488462924957275e-01" nType="-99"/>
          <Node pos="r" depth="2" NCoef="0" IVar="-1" Cut="0.0000000000000000e+00" cType="1" res="1.2013353407382965e-02" rms="4.3132272362709045e-01" purity="6.1339193582534790e-01" nType="-99"/>
        </Node>
      </Node>
    </BinaryTree>
    <BinaryTree type="DecisionTree" boostWeight="1.0000000000000000e+00" itree="43">
      <Node pos="s" depth="0" NCoef="0" IVar="15" Cut="4.5407112121582031e+01" cType="1" res="-2.9777109157294035e-03" rms="4.4215548038482666e-01" purity="4.9667501449584961e-01" nType="0">
        <Node pos="l" depth="1" NCoef="0" IVar="7" Cut="8.8820816040039062e+01" cType="1" res="2.3167826235294342e-02" rms="4.4547766447067261e-01" purity="5.9583497047424316e-01" nType="0">
          <Node pos="l" depth="2" NCoef="0" IVar="-1" Cut="0.0000000000000000e+00" cType="1" res="-2.9044789262115955e-03" rms="4.5567435026168823e-01" purity="5.7092344760894775e-01" nType="-99"/>
          <Node pos="r" depth="2" NCoef="0" IVar="-1" Cut="0.0000000000000000e+00" cType="1" res="1.1398440226912498e-02" rms="4.3570283055305481e-01" purity="6.1459523439407349e-01" nType="-99"/>
        </Node>
        <Node pos="r" depth="1" NCoef="0" IVar="9" Cut="8.2991190254688263e-02" cType="1" res="-3.0932977795600891e-02" rms="4.3684789538383484e-01" purity="3.9065155386924744e-01" nType="0">
          <Node pos="l" depth="2" NCoef="0" IVar="-1" Cut="0.0000000000000000e+00" cType="1" res="-2.3376639932394028e-02" rms="4.1701391339302063e-01" purity="2.7217054367065430e-01" nType="-99"/>
          <Node pos="r" depth="2" NCoef="0" IVar="-1" Cut="0.0000000000000000e+00" cType="1" res="-3.1074476428329945e-03" rms="4.4034183025360107e-01" purity="4.2237761616706848e-01" nType="-99"/>
        </Node>
      </Node>
    </BinaryTree>
    <BinaryTree type="DecisionTree" boostWeight="1.0000000000000000e+00" itree="44">
      <Node pos="s" depth="0" NCoef="0" IVar="5" Cut="9.0526786804199219e+01" cType="1" res="1.1411533923819661e-03" rms="4.4174450635910034e-01" purity="5.0087869167327881e-01" nType="0">
        <Node pos="l" depth="1" NCoef="0" IVar="8" Cut="1.9570538401603699e-01" cType="1" res="2.2881157696247101e-02" rms="4.4531613588333130e-01" purity="5.8395648002624512e-01" nType="0">
          <Node pos="l" depth="2" NCoef="0" IVar="-1" Cut="0.0000000000000000e+00" cType="1" res="-1.9627620931714773e-03" rms="4.5630538463592529e-01" purity="5.0678449869155884e-01" nType="-99"/>
          <Node pos="r" depth="2" NCoef="0" IVar="-1" Cut="0.0000000000000000e+00" cType="1" res="1.1508041992783546e-02" rms="4.3393695354461670e-01" purity="6.4964157342910767e-01" nType="-99"/>
        </Node>
        <Node pos="r" depth="1" NCoef="0" IVar="0" Cut="4.2532911300659180e+00" cType="1" res="-2.9210820794105530e-02" rms="4.3489521741867065e-01" purity="3.8489085435867310e-01" nType="0">
          <Node pos="l" depth="2" NCoef="0" IVar="-1" Cut="0.0000000000000000e+00" cType="1" res="-1.5860147774219513e-02" rms="4.1285642981529236e-01" purity="3.2567176222801208e-01" nType="-99"/>
          <Node pos="r" depth="2" NCoef="0" IVar="-1" Cut="0.0000000000000000e+00" cType="1" res="1.6959687927737832e-03" rms="4.5345845818519592e-01" purity="4.4553214311599731e-01" nType="-99"/>
        </Node>
      </Node>
    </BinaryTree>
    <BinaryTree type="DecisionTree" boostWeight="1.0000000000000000e+00" itree="45">
      <Node pos="s" depth="0" NCoef="0" IVar="15" Cut="1.2762822723388672e+02" cType="1" res="-2.5399331934750080e-03" rms="4.4214570522308350e-01" purity="4.9653092026710510e-01" nType="0">
        <Node pos="l" depth="1" NCoef="0" IVar="5" Cut="1.8922758483886719e+02" cType="1" res="3.9176275022327900e-03" rms="4.4620433449745178e-01" purity="5.1907527446746826e-01" nType="0">
          <Node pos="l" depth="2" NCoef="0" IVar="-1" Cut="0.0000000000000000e+00" cType="1" res="2.5588949210941792e-03" rms="4.5118695497512817e-01" purity="5.4874861240386963e-01" nType="-99"/>
          <Node pos="r" depth="2" NCoef="0" IVar="-1" Cut="0.0000000000000000e+00" cType="1" res="-2.1319307386875153e-02" rms="3.7555852532386780e-01" purity="1.8344303965568542e-01" nType="-99"/>
        </Node>
        <Node pos="r" depth="1" NCoef="0" IVar="-1" Cut="0.0000000000000000e+00" cType="1" res="-2.4724951013922691e-02" rms="3.6944004893302917e-01" purity="1.8197295069694519e-01" nType="-99"/>
      </Node>
    </BinaryTree>
    <BinaryTree type="DecisionTree" boostWeight="1.0000000000000000e+00" itree="46">
      <Node pos="s" depth="0" NCoef="0" IVar="1" Cut="-2.5126032829284668e+00" cType="1" res="8.1252392192254774e-06" rms="4.4175416231155396e-01" purity="4.9774438142776489e-01" nType="0">
        <Node pos="l" depth="1" NCoef="0" IVar="17" Cut="1.5735782384872437e+00" cType="1" res="3.8120117038488388e-02" rms="4.3563595414161682e-01" purity="6.1535286903381348e-01" nType="0">
          <Node pos="l" depth="2" NCoef="0" IVar="-1" Cut="0.0000000000000000e+00" cType="1" res="1.9103443250060081e-02" rms="4.2187467217445374e-01" purity="6.8981987237930298e-01" nType="-99"/>
          <Node pos="r" depth="2" NCoef="0" IVar="-1" Cut="0.0000000000000000e+00" cType="1" res="1.4983186265453696e-03" rms="4.4264674186706543e-01" purity="5.6144380569458008e-01" nType="-99"/>
        </Node>
        <Node pos="r" depth="1" NCoef="0" IVar="1" Cut="2.4348890781402588e+00" cType="1" res="-1.5061685815453529e-02" rms="4.4324699044227600e-01" purity="4.5124095678329468e-01" nType="0">
          <Node pos="l" depth="2" NCoef="0" IVar="-1" Cut="0.0000000000000000e+00" cType="1" res="-1.1970369145274162e-02" rms="4.4080770015716553e-01" purity="3.4666135907173157e-01" nType="-99"/>
          <Node pos="r" depth="2" NCoef="0" IVar="-1" Cut="0.0000000000000000e+00" cType="1" res="7.8685013577342033e-03" rms="4.4191217422485352e-01" purity="5.9657150506973267e-01" nType="-99"/>
        </Node>
      </Node>
    </BinaryTree>
    <BinaryTree type="DecisionTree" boostWeight="1.0000000000000000e+00" itree="47">
      <Node pos="s" depth="0" NCoef="0" IVar="5" Cut="6.4830680847167969e+01" cType="1" res="-1.2444084277376533e-03" rms="4.4059619307518005e-01" purity="4.9852624535560608e-01" nType="0">
        <Node pos="l" depth="1" NCoef="0" IVar="14" Cut="1.2105502319335938e+02" cType="1" res="3.1920742243528366e-02" rms="4.4239807128906250e-01" purity="5.9867209196090698e-01" nType="0">
          <Node pos="l" depth="2" NCoef="0" IVar="-1" Cut="0.0000000000000000e+00" cType="1" res="1.0045516304671764e-02" rms="4.4427683949470520e-01" purity="6.5390706062316895e-01" nType="-99"/>
          <Node pos="r" depth="2" NCoef="0" IVar="-1" Cut="0.0000000000000000e+00" cType="1" res="-9.2173665761947632e-03" rms="4.2460599541664124e-01" purity="2.7765968441963196e-01" nType="-99"/>
        </Node>
        <Node pos="r" depth="1" NCoef="0" IVar="7" Cut="1.2017099761962891e+02" cType="1" res="-1.8712818622589111e-02" rms="4.3863710761070251e-01" purity="4.4577848911285400e-01" nType="0">
          <Node pos="l" depth="2" NCoef="0" IVar="-1" Cut="0.0000000000000000e+00" cType="1" res="-1.0974003933370113e-02" rms="4.4528836011886597e-01" purity="4.1622075438499451e-01" nType="-99"/>
          <Node pos="r" depth="2" NCoef="0" IVar="-1" Cut="0.0000000000000000e+00" cType="1" res="2.6042081881314516e-03" rms="4.2944127321243286e-01" purity="4.7731250524520874e-01" nType="-99"/>
        </Node>
      </Node>
    </BinaryTree>
    <BinaryTree type="DecisionTree" boostWeight="1.0000000000000000e+00" itree="48">
      <Node pos="s" depth="0" NCoef="0" IVar="12" Cut="2.3384487628936768e+00" cType="1" res="9.2994072474539280e-04" rms="4.4095823168754578e-01" purity="4.9897813796997070e-01" nType="0">
        <Node pos="l" depth="1" NCoef="0" IVar="9" Cut="3.1614455580711365e-01" cType="1" res="-4.0528591722249985e-02" rms="4.3239247798919678e-01" purity="4.4009077548980713e-01" nType="0">
          <Node pos="l" depth="2" NCoef="0" IVar="-1" Cut="0.0000000000000000e+00" cType="1" res="-1.5157689340412617e-02" rms="4.2875328660011292e-01" purity="3.9827170968055725e-01" nType="-99"/>
          <Node pos="r" depth="2" NCoef="0" IVar="-1" Cut="0.0000000000000000e+00" cType="1" res="3.5118975210934877e-03" rms="4.3567815423011780e-01" purity="5.3720486164093018e-01" nType="-99"/>
        </Node>
        <Node pos="r" depth="1" NCoef="0" IVar="1" Cut="2.3197052478790283e+00" cType="1" res="1.7681168392300606e-02" rms="4.4327387213706970e-01" purity="5.2277141809463501e-01" nType="0">
          <Node pos="l" depth="2" NCoef="0" IVar="-1" Cut="0.0000000000000000e+00" cType="1" res="3.4789289929904044e-04" rms="4.4440501928329468e-01" purity="4.7219628095626831e-01" nType="-99"/>
          <Node pos="r" depth="2" NCoef="0" IVar="-1" Cut="0.0000000000000000e+00" cType="1" res="1.2770202942192554e-02" rms="4.3833500146865845e-01" purity="6.4012783765792847e-01" nType="-99"/>
        </Node>
      </Node>
    </BinaryTree>
    <BinaryTree type="DecisionTree" boostWeight="1.0000000000000000e+00" itree="49">
      <Node pos="s" depth="0" NCoef="0" IVar="2" Cut="2.6437387084960938e+02" cType="1" res="4.2854472994804382e-03" rms="4.4031891226768494e-01" purity="5.0341492891311646e-01" nType="0">
        <Node pos="l" depth="1" NCoef="0" IVar="7" Cut="1.0528440093994141e+02" cType="1" res="1.5450309030711651e-02" rms="4.4634294509887695e-01" purity="5.4643774032592773e-01" nType="0">
          <Node pos="l" depth="2" NCoef="0" IVar="-1" Cut="0.0000000000000000e+00" cType="1" res="-1.5411925269290805e-03" rms="4.5231336355209351e-01" purity="5.4214131832122803e-01" nType="-99"/>
          <Node pos="r" depth="2" NCoef="0" IVar="-1" Cut="0.0000000000000000e+00" cType="1" res="8.8311424478888512e-03" rms="4.3896320462226868e-01" purity="5.5085140466690063e-01" nType="-99"/>
        </Node>
        <Node pos="r" depth="1" NCoef="0" IVar="10" Cut="3.3837720751762390e-01" cType="1" res="-4.6196687966585159e-02" rms="4.0818867087364197e-01" purity="3.0888646841049194e-01" nType="0">
          <Node pos="l" depth="2" NCoef="0" IVar="-1" Cut="0.0000000000000000e+00" cType="1" res="-2.1155565977096558e-02" rms="3.7744840979576111e-01" purity="2.3106816411018372e-01" nType="-99"/>
          <Node pos="r" depth="2" NCoef="0" IVar="-1" Cut="0.0000000000000000e+00" cType="1" res="-2.4357563816010952e-03" rms="4.3669354915618896e-01" purity="3.9450573921203613e-01" nType="-99"/>
        </Node>
      </Node>
    </BinaryTree>
    <BinaryTree type="DecisionTree" boostWeight="1.0000000000000000e+00" itree="50">
      <Node pos="s" depth="0" NCoef="0" IVar="10" Cut="3.8372248411178589e-01" cType="1" res="-1.9842504989355803e-03" rms="4.4112837314605713e-01" purity="4.9713319540023804e-01" nType="0">
        <Node pos="l" depth="1" NCoef="0" IVar="0" Cut="4.6630940437316895e+00" cType="1" res="-1.7713217064738274e-02" rms="4.4193550944328308e-01" purity="4.6010729670524597e-01" nType="0">
          <Node pos="l" depth="2" NCoef="0" IVar="-1" Cut="0.0000000000000000e+00" cType="1" res="-1.1044015176594257e-02" rms="4.2817053198814392e-01" purity="3.9629876613616943e-01" nType="-99"/>
          <Node pos="r" depth="2" NCoef="0" IVar="-1" Cut="0.0000000000000000e+00" cType="1" res="2.9132294002920389e-03" rms="4.5432877540588379e-01" purity="5.2878308296203613e-01" nType="-99"/>
        </Node>
        <Node pos="r" depth="1" NCoef="0" IVar="1" Cut="2.7123825550079346e+00" cType="1" res="3.2553628087043762e-02" rms="4.3737059831619263e-01" purity="5.7843518257141113e-01" nType="0">
          <Node pos="l" depth="2" NCoef="0" IVar="-1" Cut="0.0000000000000000e+00" cType="1" res="4.1440837085247040e-03" rms="4.4320157170295715e-01" purity="5.3767508268356323e-01" nType="-99"/>
          <Node pos="r" depth="2" NCoef="0" IVar="-1" Cut="0.0000000000000000e+00" cType="1" res="1.9373230636119843e-02" rms="4.1384062170982361e-01" purity="7.1253132820129395e-01" nType="-99"/>
        </Node>
      </Node>
    </BinaryTree>
    <BinaryTree type="DecisionTree" boostWeight="1.0000000000000000e+00" itree="51">
      <Node pos="s" depth="0" NCoef="0" IVar="14" Cut="5.8175640106201172e+01" cType="1" res="-6.2206870643422008e-04" rms="4.4061058759689331e-01" purity="4.9691757559776306e-01" nType="0">
        <Node pos="l" depth="1" NCoef="0" IVar="7" Cut="9.5673484802246094e+01" cType="1" res="2.3510955274105072e-02" rms="4.4243738055229187e-01" purity="6.2945526838302612e-01" nType="0">
          <Node pos="l" depth="2" NCoef="0" IVar="-1" Cut="0.0000000000000000e+00" cType="1" res="-1.2676476035267115e-03" rms="4.5050579309463501e-01" purity="6.0559070110321045e-01" nType="-99"/>
          <Node pos="r" depth="2" NCoef="0" IVar="-1" Cut="0.0000000000000000e+00" cType="1" res="1.2023499235510826e-02" rms="4.3250817060470581e-01" purity="6.5284693241119385e-01" nType="-99"/>
        </Node>
        <Node pos="r" depth="1" NCoef="0" IVar="0" Cut="3.8675119876861572e+00" cType="1" res="-2.0665680989623070e-02" rms="4.3807810544967651e-01" purity="3.8683879375457764e-01" nType="0">
          <Node pos="l" depth="2" NCoef="0" IVar="-1" Cut="0.0000000000000000e+00" cType="1" res="-1.3397708535194397e-02" rms="4.0891420841217041e-01" purity="3.2200080156326294e-01" nType="-99"/>
          <Node pos="r" depth="2" NCoef="0" IVar="-1" Cut="0.0000000000000000e+00" cType="1" res="-6.1265105614438653e-04" rms="4.5210948586463928e-01" purity="4.2205160856246948e-01" nType="-99"/>
        </Node>
      </Node>
    </BinaryTree>
    <BinaryTree type="DecisionTree" boostWeight="1.0000000000000000e+00" itree="52">
      <Node pos="s" depth="0" NCoef="0" IVar="0" Cut="3.3540232181549072e+00" cType="1" res="1.8270717700943351e-03" rms="4.4119891524314880e-01" purity="5.0025808811187744e-01" nType="0">
        <Node pos="l" depth="1" NCoef="0" IVar="10" Cut="4.8077666759490967e-01" cType="1" res="-5.0323374569416046e-02" rms="4.2136505246162415e-01" purity="3.9950671792030334e-01" nType="0">
          <Node pos="l" depth="2" NCoef="0" IVar="-1" Cut="0.0000000000000000e+00" cType="1" res="-1.9513415172696114e-02" rms="4.1000112891197205e-01" purity="3.3705869317054749e-01" nType="-99"/>
          <Node pos="r" depth="2" NCoef="0" IVar="-1" Cut="0.0000000000000000e+00" cType="1" res="3.3199205063283443e-03" rms="4.3891552090644836e-01" purity="5.3895086050033569e-01" nType="-99"/>
        </Node>
        <Node pos="r" depth="1" NCoef="0" IVar="9" Cut="3.4378951787948608e-01" cType="1" res="1.2783516198396683e-02" rms="4.4447645545005798e-01" purity="5.2142524719238281e-01" nType="0">
          <Node pos="l" depth="2" NCoef="0" IVar="-1" Cut="0.0000000000000000e+00" cType="1" res="2.4446292081847787e-04" rms="4.4650328159332275e-01" purity="4.9621534347534180e-01" nType="-99"/>
          <Node pos="r" depth="2" NCoef="0" IVar="-1" Cut="0.0000000000000000e+00" cType="1" res="1.3356256298720837e-02" rms="4.3402159214019775e-01" purity="6.1561459302902222e-01" nType="-99"/>
        </Node>
      </Node>
    </BinaryTree>
    <BinaryTree type="DecisionTree" boostWeight="1.0000000000000000e+00" itree="53">
      <Node pos="s" depth="0" NCoef="0" IVar="9" Cut="1.8359142541885376e-01" cType="1" res="1.7995611997321248e-03" rms="4.3943127989768982e-01" purity="5.0181329250335693e-01" nType="0">
        <Node pos="l" depth="1" NCoef="0" IVar="0" Cut="5.7630329132080078e+00" cType="1" res="-2.3317813873291016e-02" rms="4.4270882010459900e-01" purity="4.3668392300605774e-01" nType="0">
          <Node pos="l" depth="2" NCoef="0" IVar="-1" Cut="0.0000000000000000e+00" cType="1" res="-8.4918728098273277e-03" rms="4.3539124727249146e-01" purity="4.1325280070304871e-01" nType="-99"/>
          <Node pos="r" depth="2" NCoef="0" IVar="-1" Cut="0.0000000000000000e+00" cType="1" res="7.3749478906393051e-03" rms="4.7052142024040222e-01" purity="5.4321181774139404e-01" nType="-99"/>
        </Node>
        <Node pos="r" depth="1" NCoef="0" IVar="8" Cut="1.6302773356437683e-01" cType="1" res="2.2123090922832489e-02" rms="4.3570277094841003e-01" purity="5.5451214313507080e-01" nType="0">
          <Node pos="l" depth="2" NCoef="0" IVar="-1" Cut="0.0000000000000000e+00" cType="1" res="-3.0005855951458216e-03" rms="4.4514530897140503e-01" purity="4.6670231223106384e-01" nType="-99"/>
          <Node pos="r" depth="2" NCoef="0" IVar="-1" Cut="0.0000000000000000e+00" cType="1" res="1.0394470766186714e-02" rms="4.2833954095840454e-01" purity="6.0882180929183960e-01" nType="-99"/>
        </Node>
      </Node>
    </BinaryTree>
    <BinaryTree type="DecisionTree" boostWeight="1.0000000000000000e+00" itree="54">
      <Node pos="s" depth="0" NCoef="0" IVar="5" Cut="8.0054496765136719e+01" cType="1" res="1.6589827137067914e-03" rms="4.3985483050346375e-01" purity="5.0123518705368042e-01" nType="0">
        <Node pos="l" depth="1" NCoef="0" IVar="8" Cut="1.7095476388931274e-01" cType="1" res="2.5709712877869606e-02" rms="4.4295740127563477e-01" purity="5.9504973888397217e-01" nType="0">
          <Node pos="l" depth="2" NCoef="0" IVar="-1" Cut="0.0000000000000000e+00" cType="1" res="-1.2136341538280249e-03" rms="4.5715451240539551e-01" purity="5.0584840774536133e-01" nType="-99"/>
          <Node pos="r" depth="2" NCoef="0" IVar="-1" Cut="0.0000000000000000e+00" cType="1" res="1.0925487615168095e-02" rms="4.3207275867462158e-01" purity="6.5413618087768555e-01" nType="-99"/>
        </Node>
        <Node pos="r" depth="1" NCoef="0" IVar="12" Cut="2.5934727191925049e+00" cType="1" res="-2.1918499842286110e-02" rms="4.3550452589988708e-01" purity="4.0926659107208252e-01" nType="0">
          <Node pos="l" depth="2" NCoef="0" IVar="-1" Cut="0.0000000000000000e+00" cType="1" res="-1.4445502310991287e-02" rms="4.1941604018211365e-01" purity="3.3674192428588867e-01" nType="-99"/>
          <Node pos="r" depth="2" NCoef="0" IVar="-1" Cut="0.0000000000000000e+00" cType="1" res="-4.2275447049178183e-04" rms="4.4275766611099243e-01" purity="4.4890689849853516e-01" nType="-99"/>
        </Node>
      </Node>
    </BinaryTree>
    <BinaryTree type="DecisionTree" boostWeight="1.0000000000000000e+00" itree="55">
      <Node pos="s" depth="0" NCoef="0" IVar="5" Cut="1.0416270446777344e+02" cType="1" res="-1.1771775316447020e-03" rms="4.3854814767837524e-01" purity="5.0020706653594971e-01" nType="0">
        <Node pos="l" depth="1" NCoef="0" IVar="8" Cut="8.9449040591716766e-02" cType="1" res="1.5345341525971889e-02" rms="4.4514781236648560e-01" purity="5.8050674200057983e-01" nType="0">
          <Node pos="l" depth="2" NCoef="0" IVar="-1" Cut="0.0000000000000000e+00" cType="1" res="-7.4471016414463520e-03" rms="4.5653030276298523e-01" purity="4.5536324381828308e-01" nType="-99"/>
          <Node pos="r" depth="2" NCoef="0" IVar="-1" Cut="0.0000000000000000e+00" cType="1" res="6.5014036372303963e-03" rms="4.4126862287521362e-01" purity="6.1316990852355957e-01" nType="-99"/>
        </Node>
        <Node pos="r" depth="1" NCoef="0" IVar="3" Cut="9.2524032592773438e+01" cType="1" res="-3.4618269652128220e-02" rms="4.2290613055229187e-01" purity="3.3768275380134583e-01" nType="0">
          <Node pos="l" depth="2" NCoef="0" IVar="-1" Cut="0.0000000000000000e+00" cType="1" res="5.1009061280637980e-04" rms="4.5303642749786377e-01" purity="4.0198853611946106e-01" nType="-99"/>
          <Node pos="r" depth="2" NCoef="0" IVar="-1" Cut="0.0000000000000000e+00" cType="1" res="-1.5222953632473946e-02" rms="3.9889732003211975e-01" purity="2.9343461990356445e-01" nType="-99"/>
        </Node>
      </Node>
    </BinaryTree>
    <BinaryTree type="DecisionTree" boostWeight="1.0000000000000000e+00" itree="56">
      <Node pos="s" depth="0" NCoef="0" IVar="9" Cut="1.2148167937994003e-01" cType="1" res="5.3903134539723396e-04" rms="4.3959236145019531e-01" purity="5.0004452466964722e-01" nType="0">
        <Node pos="l" depth="1" NCoef="0" IVar="0" Cut="5.7096891403198242e+00" cType="1" res="-3.3310741186141968e-02" rms="4.4196268916130066e-01" purity="4.1754573583602905e-01" nType="0">
          <Node pos="l" depth="2" NCoef="0" IVar="-1" Cut="0.0000000000000000e+00" cType="1" res="-1.0748465545475483e-02" rms="4.3309509754180908e-01" purity="3.9285901188850403e-01" nType="-99"/>
          <Node pos="r" depth="2" NCoef="0" IVar="-1" Cut="0.0000000000000000e+00" cType="1" res="3.2119525130838156e-03" rms="4.7426211833953857e-01" purity="5.2056568861007690e-01" nType="-99"/>
        </Node>
        <Node pos="r" depth="1" NCoef="0" IVar="1" Cut="2.5879256725311279e+00" cType="1" res="1.4760725200176239e-02" rms="4.3781259655952454e-01" purity="5.3470563888549805e-01" nType="0">
          <Node pos="l" depth="2" NCoef="0" IVar="-1" Cut="0.0000000000000000e+00" cType="1" res="1.3006071094423532e-04" rms="4.4058224558830261e-01" purity="4.9058270454406738e-01" nType="-99"/>
          <Node pos="r" depth="2" NCoef="0" IVar="-1" Cut="0.0000000000000000e+00" cType="1" res="1.2878057546913624e-02" rms="4.2756083607673645e-01" purity="6.5719747543334961e-01" nType="-99"/>
        </Node>
      </Node>
    </BinaryTree>
    <BinaryTree type="DecisionTree" boostWeight="1.0000000000000000e+00" itree="57">
      <Node pos="s" depth="0" NCoef="0" IVar="12" Cut="2.2141442298889160e+00" cType="1" res="1.4884026022627950e-03" rms="4.3931564688682556e-01" purity="5.0199276208877563e-01" nType="0">
        <Node pos="l" depth="1" NCoef="0" IVar="9" Cut="1.3118338584899902e-01" cType="1" res="-3.3308807760477066e-02" rms="4.3211919069290161e-01" purity="4.4566550850868225e-01" nType="0">
          <Node pos="l" depth="2" NCoef="0" IVar="-1" Cut="0.0000000000000000e+00" cType="1" res="-1.9018033519387245e-02" rms="4.1938444972038269e-01" purity="3.4928950667381287e-01" nType="-99"/>
          <Node pos="r" depth="2" NCoef="0" IVar="-1" Cut="0.0000000000000000e+00" cType="1" res="-3.2427904661744833e-03" rms="4.3605533242225647e-01" purity="4.8737868666648865e-01" nType="-99"/>
        </Node>
        <Node pos="r" depth="1" NCoef="0" IVar="8" Cut="2.2937852144241333e-01" cType="1" res="1.3420484960079193e-02" rms="4.4112479686737061e-01" purity="5.2130758762359619e-01" nType="0">
          <Node pos="l" depth="2" NCoef="0" IVar="-1" Cut="0.0000000000000000e+00" cType="1" res="-1.7196260159835219e-03" rms="4.4712805747985840e-01" purity="4.6066734194755554e-01" nType="-99"/>
          <Node pos="r" depth="2" NCoef="0" IVar="-1" Cut="0.0000000000000000e+00" cType="1" res="9.3869091942906380e-03" rms="4.3212667107582092e-01" purity="5.9700995683670044e-01" nType="-99"/>
        </Node>
      </Node>
    </BinaryTree>
    <BinaryTree type="DecisionTree" boostWeight="1.0000000000000000e+00" itree="58">
      <Node pos="s" depth="0" NCoef="0" IVar="1" Cut="-2.5428180694580078e+00" cType="1" res="-3.4524365328252316e-03" rms="4.3780630826950073e-01" purity="4.9702504277229309e-01" nType="0">
        <Node pos="l" depth="1" NCoef="0" IVar="9" Cut="2.0147415995597839e-01" cType="1" res="3.3827412873506546e-02" rms="4.3398642539978027e-01" purity="6.1833959817886353e-01" nType="0">
          <Node pos="l" depth="2" NCoef="0" IVar="-1" Cut="0.0000000000000000e+00" cType="1" res="1.4434136392083019e-04" rms="4.4544789195060730e-01" purity="5.4017531871795654e-01" nType="-99"/>
          <Node pos="r" depth="2" NCoef="0" IVar="-1" Cut="0.0000000000000000e+00" cType="1" res="1.4697954058647156e-02" rms="4.2240291833877563e-01" purity="6.8249005079269409e-01" nType="-99"/>
        </Node>
        <Node pos="r" depth="1" NCoef="0" IVar="1" Cut="2.4367911815643311e+00" cType="1" res="-1.7531454563140869e-02" rms="4.3841636180877686e-01" purity="4.5120966434478760e-01" nType="0">
          <Node pos="l" depth="2" NCoef="0" IVar="-1" Cut="0.0000000000000000e+00" cType="1" res="-1.1263883672654629e-02" rms="4.3756604194641113e-01" purity="3.4587892889976501e-01" nType="-99"/>
          <Node pos="r" depth="2" NCoef="0" IVar="-1" Cut="0.0000000000000000e+00" cType="1" res="5.5180755443871021e-03" rms="4.3632489442825317e-01" purity="5.9902834892272949e-01" nType="-99"/>
        </Node>
      </Node>
    </BinaryTree>
    <BinaryTree type="DecisionTree" boostWeight="1.0000000000000000e+00" itree="59">
      <Node pos="s" depth="0" NCoef="0" IVar="15" Cut="4.4140491485595703e+01" cType="1" res="2.1791812032461166e-03" rms="4.3849328160285950e-01" purity="5.0205749273300171e-01" nType="0">
        <Node pos="l" depth="1" NCoef="0" IVar="8" Cut="1.1045579612255096e-01" cType="1" res="2.3340497165918350e-02" rms="4.4062995910644531e-01" purity="6.0123729705810547e-01" nType="0">
          <Node pos="l" depth="2" NCoef="0" IVar="-1" Cut="0.0000000000000000e+00" cType="1" res="-4.2631453834474087e-03" rms="4.5398947596549988e-01" purity="4.8609304428100586e-01" nType="-99"/>
          <Node pos="r" depth="2" NCoef="0" IVar="-1" Cut="0.0000000000000000e+00" cType="1" res="8.8779423385858536e-03" rms="4.3517282605171204e-01" purity="6.3972318172454834e-01" nType="-99"/>
        </Node>
        <Node pos="r" depth="1" NCoef="0" IVar="0" Cut="4.2202401161193848e+00" cType="1" res="-1.8376525491476059e-02" rms="4.3542411923408508e-01" purity="4.0571621060371399e-01" nType="0">
          <Node pos="l" depth="2" NCoef="0" IVar="-1" Cut="0.0000000000000000e+00" cType="1" res="-1.1827849783003330e-02" rms="4.1406625509262085e-01" purity="3.4455901384353638e-01" nType="-99"/>
          <Node pos="r" depth="2" NCoef="0" IVar="-1" Cut="0.0000000000000000e+00" cType="1" res="1.5332892071455717e-03" rms="4.5178183913230896e-01" purity="4.5912495255470276e-01" nType="-99"/>
        </Node>
      </Node>
    </BinaryTree>
    <BinaryTree type="DecisionTree" boostWeight="1.0000000000000000e+00" itree="60">
      <Node pos="s" depth="0" NCoef="0" IVar="1" Cut="-2.8009665012359619e+00" cType="1" res="3.5924252588301897e-03" rms="4.3830075860023499e-01" purity="5.0309926271438599e-01" nType="0">
        <Node pos="l" depth="1" NCoef="0" IVar="17" Cut="1.6046913862228394e+00" cType="1" res="5.3076244890689850e-02" rms="4.2136833071708679e-01" purity="6.5538895130157471e-01" nType="0">
          <Node pos="l" depth="2" NCoef="0" IVar="-1" Cut="0.0000000000000000e+00" cType="1" res="2.2715015336871147e-02" rms="3.9834755659103394e-01" purity="7.3830217123031616e-01" nType="-99"/>
          <Node pos="r" depth="2" NCoef="0" IVar="-1" Cut="0.0000000000000000e+00" cType="1" res="5.5685928091406822e-03" rms="4.3513208627700806e-01" purity="5.9454536437988281e-01" nType="-99"/>
        </Node>
        <Node pos="r" depth="1" NCoef="0" IVar="1" Cut="2.5289728641510010e+00" cType="1" res="-7.0413411594927311e-03" rms="4.4113075733184814e-01" purity="4.7037315368652344e-01" nType="0">
          <Node pos="l" depth="2" NCoef="0" IVar="-1" Cut="0.0000000000000000e+00" cType="1" res="-5.2960044704377651e-03" rms="4.4245165586471558e-01" purity="4.0264865756034851e-01" nType="-99"/>
          <Node pos="r" depth="2" NCoef="0" IVar="-1" Cut="0.0000000000000000e+00" cType="1" res="5.4394137114286423e-03" rms="4.3693640828132629e-01" purity="6.0583329200744629e-01" nType="-99"/>
        </Node>
      </Node>
    </BinaryTree>
    <BinaryTree type="DecisionTree" boostWeight="1.0000000000000000e+00" itree="61">
      <Node pos="s" depth="0" NCoef="0" IVar="14" Cut="5.3756488800048828e+01" cType="1" res="3.2791800331324339e-03" rms="4.3988621234893799e-01" purity="5.0380706787109375e-01" nType="0">
        <Node pos="l" depth="1" NCoef="0" IVar="7" Cut="8.4344001770019531e+01" cType="1" res="2.6621794328093529e-02" rms="4.3919777870178223e-01" purity="6.3718193769454956e-01" nType="0">
          <Node pos="l" depth="2" NCoef="0" IVar="-1" Cut="0.0000000000000000e+00" cType="1" res="-2.1252601873129606e-03" rms="4.5010840892791748e-01" purity="6.0202533006668091e-01" nType="-99"/>
          <Node pos="r" depth="2" NCoef="0" IVar="-1" Cut="0.0000000000000000e+00" cType="1" res="1.2284808792173862e-02" rms="4.2947557568550110e-01" purity="6.6219693422317505e-01" nType="-99"/>
        </Node>
        <Node pos="r" depth="1" NCoef="0" IVar="3" Cut="6.7267700195312500e+01" cType="1" res="-1.2652144767343998e-02" rms="4.3964442610740662e-01" purity="4.1277873516082764e-01" nType="0">
          <Node pos="l" depth="2" NCoef="0" IVar="-1" Cut="0.0000000000000000e+00" cType="1" res="8.0535840243101120e-03" rms="4.7409725189208984e-01" purity="4.8423728346824646e-01" nType="-99"/>
