<?xml version="1.0"?>
<MethodSetup Method="BDT::BDTG_v0_bdt_nonvbs">
  <GeneralInfo>
    <Info name="TMVA Release" value="4.2.1 [262657]"/>
    <Info name="ROOT Release" value="6.12/07 [396295]"/>
    <Info name="Creator" value="ceballos"/>
    <Info name="Date" value="Wed May 27 04:48:06 2020"/>
    <Info name="Host" value="Linux vocms0315.cern.ch 2.6.32-696.30.1.el6.x86_64 #1 SMP Tue May 22 06:09:36 CEST 2018 x86_64 x86_64 x86_64 GNU/Linux"/>
    <Info name="Dir" value="/home/ceballos/cms/cmssw/051/CMSSW_10_3_2/src"/>
    <Info name="Training events" value="248653"/>
    <Info name="TrainingTime" value="2.25896513e+02"/>
    <Info name="AnalysisType" value="Classification"/>
  </GeneralInfo>
  <Options>
    <Option name="V" modified="Yes">False</Option>
    <Option name="VerbosityLevel" modified="No">Default</Option>
    <Option name="VarTransform" modified="No">None</Option>
    <Option name="H" modified="Yes">False</Option>
    <Option name="CreateMVAPdfs" modified="No">False</Option>
    <Option name="IgnoreNegWeightsInTraining" modified="No">False</Option>
    <Option name="NTrees" modified="Yes">1000</Option>
    <Option name="MaxDepth" modified="Yes">2</Option>
    <Option name="MinNodeSize" modified="Yes">5%</Option>
    <Option name="nCuts" modified="Yes">10000</Option>
    <Option name="BoostType" modified="Yes">Grad</Option>
    <Option name="AdaBoostR2Loss" modified="No">quadratic</Option>
    <Option name="UseBaggedBoost" modified="Yes">True</Option>
    <Option name="Shrinkage" modified="Yes">1.000000e-01</Option>
    <Option name="AdaBoostBeta" modified="No">5.000000e-01</Option>
    <Option name="UseRandomisedTrees" modified="No">False</Option>
    <Option name="UseNvars" modified="No">3</Option>
    <Option name="UsePoissonNvars" modified="No">True</Option>
    <Option name="BaggedSampleFraction" modified="No">5.000000e-01</Option>
    <Option name="UseYesNoLeaf" modified="No">True</Option>
    <Option name="NegWeightTreatment" modified="Yes">ignorenegweightsintraining</Option>
    <Option name="Css" modified="No">1.000000e+00</Option>
    <Option name="Cts_sb" modified="No">1.000000e+00</Option>
    <Option name="Ctb_ss" modified="No">1.000000e+00</Option>
    <Option name="Cbb" modified="No">1.000000e+00</Option>
    <Option name="NodePurityLimit" modified="No">5.000000e-01</Option>
    <Option name="SeparationType" modified="No">giniindex</Option>
    <Option name="RegressionLossFunctionBDTG" modified="No">huber</Option>
    <Option name="HuberQuantile" modified="No">7.000000e-01</Option>
    <Option name="DoBoostMonitor" modified="No">False</Option>
    <Option name="UseFisherCuts" modified="No">False</Option>
    <Option name="MinLinCorrForFisher" modified="No">8.000000e-01</Option>
    <Option name="UseExclusiveVars" modified="No">False</Option>
    <Option name="DoPreselection" modified="No">False</Option>
    <Option name="SigToBkgFraction" modified="No">1.000000e+00</Option>
    <Option name="PruneMethod" modified="No">nopruning</Option>
    <Option name="PruneStrength" modified="No">0.000000e+00</Option>
    <Option name="PruningValFraction" modified="No">5.000000e-01</Option>
    <Option name="SkipNormalization" modified="No">False</Option>
    <Option name="nEventsMin" modified="No">0</Option>
    <Option name="UseBaggedGrad" modified="No">False</Option>
    <Option name="GradBaggingFraction" modified="Yes">5.000000e-01</Option>
    <Option name="UseNTrainEvents" modified="No">0</Option>
    <Option name="NNodesMax" modified="No">0</Option>
  </Options>
  <Variables NVar="10">
    <Variable VarIndex="0" Expression="mvadphijj" Label="mvadphijj" Title="mvadphijj" Unit="" Internal="mvadphijj" Type="F" Min="-3.14157033e+00" Max="3.14158154e+00"/>
    <Variable VarIndex="1" Expression="mvajetpt1" Label="mvajetpt1" Title="mvajetpt1" Unit="" Internal="mvajetpt1" Type="F" Min="5.01831589e+01" Max="2.19191650e+03"/>
    <Variable VarIndex="2" Expression="mvajetpt2" Label="mvajetpt2" Title="mvajetpt2" Unit="" Internal="mvajetpt2" Type="F" Min="5.00003090e+01" Max="1.47258972e+03"/>
    <Variable VarIndex="3" Expression="mvaWpt" Label="mvaWpt" Title="mvaMet" Unit="" Internal="mvaWpt" Type="F" Min="3.00003586e+01" Max="1.91673596e+03"/>
    <Variable VarIndex="4" Expression="mvaZpt" Label="mvaZpt" Title="mvaZpt" Unit="" Internal="mvaZpt" Type="F" Min="1.22788265e-01" Max="1.18650903e+03"/>
    <Variable VarIndex="5" Expression="mvazep1" Label="mvazep1" Title="mvazep1" Unit="" Internal="mvazep1" Type="F" Min="7.60112130e-07" Max="7.49844074e-01"/>
    <Variable VarIndex="6" Expression="mvazep2" Label="mvazep2" Title="mvazep2" Unit="" Internal="mvazep2" Type="F" Min="1.39809080e-08" Max="7.49936819e-01"/>
    <Variable VarIndex="7" Expression="mvaleppt1" Label="mvaleppt1" Title="mvaleppt1" Unit="" Internal="mvaleppt1" Type="F" Min="2.00000534e+01" Max="1.20468457e+03"/>
    <Variable VarIndex="8" Expression="mvamjj" Label="mvamjj" Title="mvamjj" Unit="" Internal="mvamjj" Type="F" Min="5.00000397e+02" Max="1.00909570e+04"/>
    <Variable VarIndex="9" Expression="mvadetajj" Label="mvadetajj" Title="mvadetajj" Unit="" Internal="mvadetajj" Type="F" Min="2.50001097e+00" Max="9.27768040e+00"/>
  </Variables>
  <Spectators NSpec="0"/>
  <Classes NClass="2">
    <Class Name="Signal" Index="0"/>
    <Class Name="Background" Index="1"/>
  </Classes>
  <Transformations NTransformations="0"/>
  <MVAPdfs/>
  <Weights NTrees="1000" AnalysisType="1">
    <BinaryTree type="DecisionTree" boostWeight="1.0000000000000000e+00" itree="0">
      <Node pos="s" depth="0" NCoef="0" IVar="8" Cut="9.8696899414062500e+02" cType="1" res="5.8254124596714973e-03" rms="4.9996605515480042e-01" purity="5.0582540035247803e-01" nType="0">
        <Node pos="l" depth="1" NCoef="0" IVar="1" Cut="1.2224443817138672e+02" cType="1" res="-1.6339634358882904e-01" rms="4.7254803776741028e-01" purity="3.3660367131233215e-01" nType="0">
          <Node pos="l" depth="2" NCoef="0" IVar="-1" Cut="0.0000000000000000e+00" cType="1" res="-5.2998282015323639e-02" rms="4.2400419712066650e-01" purity="2.3500858247280121e-01" nType="-99"/>
          <Node pos="r" depth="2" NCoef="0" IVar="-1" Cut="0.0000000000000000e+00" cType="1" res="-1.7907667905092239e-02" rms="4.9191755056381226e-01" purity="4.1046163439750671e-01" nType="-99"/>
        </Node>
        <Node pos="r" depth="1" NCoef="0" IVar="1" Cut="1.4388813781738281e+02" cType="1" res="2.0425404608249664e-01" rms="4.5637735724449158e-01" purity="7.0425403118133545e-01" nType="0">
          <Node pos="l" depth="2" NCoef="0" IVar="-1" Cut="0.0000000000000000e+00" cType="1" res="1.0583031922578812e-02" rms="4.9719211459159851e-01" purity="5.5291515588760376e-01" nType="-99"/>
          <Node pos="r" depth="2" NCoef="0" IVar="-1" Cut="0.0000000000000000e+00" cType="1" res="5.5346410721540451e-02" rms="4.1643652319908142e-01" purity="7.7673202753067017e-01" nType="-99"/>
        </Node>
      </Node>
    </BinaryTree>
    <BinaryTree type="DecisionTree" boostWeight="1.0000000000000000e+00" itree="1">
      <Node pos="s" depth="0" NCoef="0" IVar="8" Cut="1.1452404785156250e+03" cType="1" res="-3.9293016307055950e-03" rms="4.9177071452140808e-01" purity="4.9655997753143311e-01" nType="0">
        <Node pos="l" depth="1" NCoef="0" IVar="8" Cut="7.3704071044921875e+02" cType="1" res="-1.3196511566638947e-01" rms="4.7573262453079224e-01" purity="3.5685014724731445e-01" nType="0">
          <Node pos="l" depth="2" NCoef="0" IVar="-1" Cut="0.0000000000000000e+00" cType="1" res="-4.4518988579511642e-02" rms="4.3779075145721436e-01" purity="2.6052483916282654e-01" nType="-99"/>
          <Node pos="r" depth="2" NCoef="0" IVar="-1" Cut="0.0000000000000000e+00" cType="1" res="-7.0935962721705437e-03" rms="4.9531972408294678e-01" purity="4.5984071493148804e-01" nType="-99"/>
        </Node>
        <Node pos="r" depth="1" NCoef="0" IVar="8" Cut="1.7706910400390625e+03" cType="1" res="2.1963983774185181e-01" rms="4.3626272678375244e-01" purity="7.4051368236541748e-01" nType="0">
          <Node pos="l" depth="2" NCoef="0" IVar="-1" Cut="0.0000000000000000e+00" cType="1" res="2.7569981291890144e-02" rms="4.7229447960853577e-01" purity="6.5774667263031006e-01" nType="-99"/>
          <Node pos="r" depth="2" NCoef="0" IVar="-1" Cut="0.0000000000000000e+00" cType="1" res="6.5585911273956299e-02" rms="3.5642644762992859e-01" purity="8.4895998239517212e-01" nType="-99"/>
        </Node>
      </Node>
    </BinaryTree>
    <BinaryTree type="DecisionTree" boostWeight="1.0000000000000000e+00" itree="2">
      <Node pos="s" depth="0" NCoef="0" IVar="8" Cut="1.0377678222656250e+03" cType="1" res="-5.2950782701373100e-03" rms="4.8473429679870605e-01" purity="4.9487912654876709e-01" nType="0">
        <Node pos="l" depth="1" NCoef="0" IVar="1" Cut="1.4282855224609375e+02" cType="1" res="-1.3598525524139404e-01" rms="4.6850809454917908e-01" purity="3.3558139204978943e-01" nType="0">
          <Node pos="l" depth="2" NCoef="0" IVar="-1" Cut="0.0000000000000000e+00" cType="1" res="-4.2509477585554123e-02" rms="4.3245825171470642e-01" purity="2.5229158997535706e-01" nType="-99"/>
          <Node pos="r" depth="2" NCoef="0" IVar="-1" Cut="0.0000000000000000e+00" cType="1" res="-9.2761451378464699e-03" rms="4.9336811900138855e-01" purity="4.3485671281814575e-01" nType="-99"/>
        </Node>
        <Node pos="r" depth="1" NCoef="0" IVar="1" Cut="1.2426567840576172e+02" cType="1" res="1.7091962695121765e-01" rms="4.4915658235549927e-01" purity="7.0966655015945435e-01" nType="0">
          <Node pos="l" depth="2" NCoef="0" IVar="-1" Cut="0.0000000000000000e+00" cType="1" res="7.5066200224682689e-04" rms="4.9681633710861206e-01" purity="5.2544653415679932e-01" nType="-99"/>
          <Node pos="r" depth="2" NCoef="0" IVar="-1" Cut="0.0000000000000000e+00" cType="1" res="4.4500418007373810e-02" rms="4.2138764262199402e-01" purity="7.6441729068756104e-01" nType="-99"/>
        </Node>
      </Node>
    </BinaryTree>
    <BinaryTree type="DecisionTree" boostWeight="1.0000000000000000e+00" itree="3">
      <Node pos="s" depth="0" NCoef="0" IVar="8" Cut="1.2978881835937500e+03" cType="1" res="-9.6525059780105948e-04" rms="4.7902777791023254e-01" purity="4.9866718053817749e-01" nType="0">
        <Node pos="l" depth="1" NCoef="0" IVar="8" Cut="7.8577197265625000e+02" cType="1" res="-8.8352173566818237e-02" rms="4.7699627280235291e-01" purity="3.8511738181114197e-01" nType="0">
          <Node pos="l" depth="2" NCoef="0" IVar="-1" Cut="0.0000000000000000e+00" cType="1" res="-3.3888205885887146e-02" rms="4.4700461626052856e-01" purity="2.8142112493515015e-01" nType="-99"/>
          <Node pos="r" depth="2" NCoef="0" IVar="-1" Cut="0.0000000000000000e+00" cType="1" res="2.1576430299319327e-04" rms="4.9373722076416016e-01" purity="5.0232362747192383e-01" nType="-99"/>
        </Node>
        <Node pos="r" depth="1" NCoef="0" IVar="2" Cut="8.5956275939941406e+01" cType="1" res="2.1004036068916321e-01" rms="4.1375681757926941e-01" purity="7.7284598350524902e-01" nType="0">
          <Node pos="l" depth="2" NCoef="0" IVar="-1" Cut="0.0000000000000000e+00" cType="1" res="2.0770348608493805e-02" rms="4.7134694457054138e-01" purity="6.5239584445953369e-01" nType="-99"/>
          <Node pos="r" depth="2" NCoef="0" IVar="-1" Cut="0.0000000000000000e+00" cType="1" res="5.4045684635639191e-02" rms="3.6927974224090576e-01" purity="8.3418071269989014e-01" nType="-99"/>
        </Node>
      </Node>
    </BinaryTree>
    <BinaryTree type="DecisionTree" boostWeight="1.0000000000000000e+00" itree="4">
      <Node pos="s" depth="0" NCoef="0" IVar="8" Cut="1.3716586914062500e+03" cType="1" res="2.0761706400662661e-03" rms="4.7392246127128601e-01" purity="5.0166344642639160e-01" nType="0">
        <Node pos="l" depth="1" NCoef="0" IVar="1" Cut="1.5840876770019531e+02" cType="1" res="-7.3677338659763336e-02" rms="4.7671779990196228e-01" purity="3.9507469534873962e-01" nType="0">
          <Node pos="l" depth="2" NCoef="0" IVar="-1" Cut="0.0000000000000000e+00" cType="1" res="-2.8824042528867722e-02" rms="4.5470702648162842e-01" purity="3.0807125568389893e-01" nType="-99"/>
          <Node pos="r" depth="2" NCoef="0" IVar="-1" Cut="0.0000000000000000e+00" cType="1" res="4.6924855560064316e-03" rms="4.9038043618202209e-01" purity="5.1901012659072876e-01" nType="-99"/>
        </Node>
        <Node pos="r" depth="1" NCoef="0" IVar="1" Cut="1.3712976074218750e+02" cType="1" res="2.1053357422351837e-01" rms="3.9754769206047058e-01" purity="7.9497289657592773e-01" nType="0">
          <Node pos="l" depth="2" NCoef="0" IVar="-1" Cut="0.0000000000000000e+00" cType="1" res="1.9636854529380798e-02" rms="4.7526231408119202e-01" purity="6.4610278606414795e-01" nType="-99"/>
          <Node pos="r" depth="2" NCoef="0" IVar="-1" Cut="0.0000000000000000e+00" cType="1" res="5.1957990974187851e-02" rms="3.5844197869300842e-01" purity="8.4665900468826294e-01" nType="-99"/>
        </Node>
      </Node>
    </BinaryTree>
    <BinaryTree type="DecisionTree" boostWeight="1.0000000000000000e+00" itree="5">
      <Node pos="s" depth="0" NCoef="0" IVar="8" Cut="1.1128012695312500e+03" cType="1" res="-2.6649713981896639e-03" rms="4.6972560882568359e-01" purity="4.9755126237869263e-01" nType="0">
        <Node pos="l" depth="1" NCoef="0" IVar="5" Cut="2.3834683001041412e-01" cType="1" res="-9.4847418367862701e-02" rms="4.6856957674026489e-01" purity="3.5069742798805237e-01" nType="0">
          <Node pos="l" depth="2" NCoef="0" IVar="-1" Cut="0.0000000000000000e+00" cType="1" res="-3.8882771041244268e-03" rms="4.8582917451858521e-01" purity="4.2790311574935913e-01" nType="-99"/>
          <Node pos="r" depth="2" NCoef="0" IVar="-1" Cut="0.0000000000000000e+00" cType="1" res="-3.2705314457416534e-02" rms="4.4270473718643188e-01" purity="2.8375947475433350e-01" nType="-99"/>
        </Node>
        <Node pos="r" depth="1" NCoef="0" IVar="6" Cut="3.2529991865158081e-01" cType="1" res="1.4545141160488129e-01" rms="4.3219536542892456e-01" purity="7.3351222276687622e-01" nType="0">
          <Node pos="l" depth="2" NCoef="0" IVar="-1" Cut="0.0000000000000000e+00" cType="1" res="3.7958431988954544e-02" rms="4.1104272007942200e-01" purity="7.7108389139175415e-01" nType="-99"/>
          <Node pos="r" depth="2" NCoef="0" IVar="-1" Cut="0.0000000000000000e+00" cType="1" res="4.4139176607131958e-03" rms="4.7582492232322693e-01" purity="6.0786390304565430e-01" nType="-99"/>
        </Node>
      </Node>
    </BinaryTree>
    <BinaryTree type="DecisionTree" boostWeight="1.0000000000000000e+00" itree="6">
      <Node pos="s" depth="0" NCoef="0" IVar="8" Cut="8.9223132324218750e+02" cType="1" res="4.1855517774820328e-03" rms="4.6602550148963928e-01" purity="5.0349640846252441e-01" nType="0">
        <Node pos="l" depth="1" NCoef="0" IVar="5" Cut="1.9659157097339630e-01" cType="1" res="-1.1165481060743332e-01" rms="4.5701909065246582e-01" purity="3.1022506952285767e-01" nType="0">
          <Node pos="l" depth="2" NCoef="0" IVar="-1" Cut="0.0000000000000000e+00" cType="1" res="-6.5141282975673676e-03" rms="4.8422297835350037e-01" purity="3.9789307117462158e-01" nType="-99"/>
          <Node pos="r" depth="2" NCoef="0" IVar="-1" Cut="0.0000000000000000e+00" cType="1" res="-3.2602768391370773e-02" rms="4.3374285101890564e-01" purity="2.5928252935409546e-01" nType="-99"/>
        </Node>
        <Node pos="r" depth="1" NCoef="0" IVar="1" Cut="1.0223809814453125e+02" cType="1" res="1.0891568660736084e-01" rms="4.4899371266365051e-01" purity="6.7823123931884766e-01" nType="0">
          <Node pos="l" depth="2" NCoef="0" IVar="-1" Cut="0.0000000000000000e+00" cType="1" res="-1.5409743413329124e-02" rms="4.8399883508682251e-01" purity="4.3541032075881958e-01" nType="-99"/>
          <Node pos="r" depth="2" NCoef="0" IVar="-1" Cut="0.0000000000000000e+00" cType="1" res="2.9466059058904648e-02" rms="4.3459618091583252e-01" purity="7.2062784433364868e-01" nType="-99"/>
        </Node>
      </Node>
    </BinaryTree>
    <BinaryTree type="DecisionTree" boostWeight="1.0000000000000000e+00" itree="7">
      <Node pos="s" depth="0" NCoef="0" IVar="8" Cut="1.2512413330078125e+03" cType="1" res="4.9442640738561749e-04" rms="4.6307525038719177e-01" purity="5.0085979700088501e-01" nType="0">
        <Node pos="l" depth="1" NCoef="0" IVar="1" Cut="1.6769155883789062e+02" cType="1" res="-6.6694743931293488e-02" rms="4.7028157114982605e-01" purity="3.7684437632560730e-01" nType="0">
          <Node pos="l" depth="2" NCoef="0" IVar="-1" Cut="0.0000000000000000e+00" cType="1" res="-2.3967226967215538e-02" rms="4.5082196593284607e-01" purity="3.0506047606468201e-01" nType="-99"/>
          <Node pos="r" depth="2" NCoef="0" IVar="-1" Cut="0.0000000000000000e+00" cType="1" res="4.5306286774575710e-03" rms="4.9143937230110168e-01" purity="5.0750076770782471e-01" nType="-99"/>
        </Node>
        <Node pos="r" depth="1" NCoef="0" IVar="8" Cut="1.7905267333984375e+03" cType="1" res="1.4620475471019745e-01" rms="4.1088986396789551e-01" purity="7.6980686187744141e-01" nType="0">
          <Node pos="l" depth="2" NCoef="0" IVar="-1" Cut="0.0000000000000000e+00" cType="1" res="1.7761059105396271e-02" rms="4.5373126864433289e-01" purity="6.9078981876373291e-01" nType="-99"/>
          <Node pos="r" depth="2" NCoef="0" IVar="-1" Cut="0.0000000000000000e+00" cType="1" res="4.6141538769006729e-02" rms="3.4875640273094177e-01" purity="8.5282981395721436e-01" nType="-99"/>
        </Node>
      </Node>
    </BinaryTree>
    <BinaryTree type="DecisionTree" boostWeight="1.0000000000000000e+00" itree="8">
      <Node pos="s" depth="0" NCoef="0" IVar="8" Cut="8.6922076416015625e+02" cType="1" res="3.8760772440582514e-03" rms="4.6069288253784180e-01" purity="5.0451183319091797e-01" nType="0">
        <Node pos="l" depth="1" NCoef="0" IVar="6" Cut="3.2392597198486328e-01" cType="1" res="-9.4694122672080994e-02" rms="4.5470553636550903e-01" purity="3.0707111954689026e-01" nType="0">
          <Node pos="l" depth="2" NCoef="0" IVar="-1" Cut="0.0000000000000000e+00" cType="1" res="-8.7914140895009041e-03" rms="4.7285947203636169e-01" purity="3.5949239134788513e-01" nType="-99"/>
          <Node pos="r" depth="2" NCoef="0" IVar="-1" Cut="0.0000000000000000e+00" cType="1" res="-3.6741927266120911e-02" rms="4.1224542260169983e-01" purity="2.2627028822898865e-01" nType="-99"/>
        </Node>
        <Node pos="r" depth="1" NCoef="0" IVar="6" Cut="2.8702074289321899e-01" cType="1" res="8.3914734423160553e-02" rms="4.4988074898719788e-01" purity="6.6483300924301147e-01" nType="0">
          <Node pos="l" depth="2" NCoef="0" IVar="-1" Cut="0.0000000000000000e+00" cType="1" res="2.8750192373991013e-02" rms="4.2800271511077881e-01" purity="7.2421145439147949e-01" nType="-99"/>
          <Node pos="r" depth="2" NCoef="0" IVar="-1" Cut="0.0000000000000000e+00" cType="1" res="-4.1355681605637074e-03" rms="4.7443950176239014e-01" purity="5.4493409395217896e-01" nType="-99"/>
        </Node>
      </Node>
    </BinaryTree>
    <BinaryTree type="DecisionTree" boostWeight="1.0000000000000000e+00" itree="9">
      <Node pos="s" depth="0" NCoef="0" IVar="8" Cut="7.8962384033203125e+02" cType="1" res="-2.0937053486704826e-03" rms="4.5813325047492981e-01" purity="4.9809464812278748e-01" nType="0">
        <Node pos="l" depth="1" NCoef="0" IVar="1" Cut="1.0377211761474609e+02" cType="1" res="-1.0506765544414520e-01" rms="4.4318425655364990e-01" purity="2.8085926175117493e-01" nType="0">
          <Node pos="l" depth="2" NCoef="0" IVar="-1" Cut="0.0000000000000000e+00" cType="1" res="-4.0087234228849411e-02" rms="3.7951713800430298e-01" purity="1.7716607451438904e-01" nType="-99"/>
          <Node pos="r" depth="2" NCoef="0" IVar="-1" Cut="0.0000000000000000e+00" cType="1" res="-1.4465293847024441e-02" rms="4.6462213993072510e-01" purity="3.2767900824546814e-01" nType="-99"/>
        </Node>
        <Node pos="r" depth="1" NCoef="0" IVar="1" Cut="1.1060253906250000e+02" cType="1" res="6.1375785619020462e-02" rms="4.5566082000732422e-01" purity="6.3199084997177124e-01" nType="0">
          <Node pos="l" depth="2" NCoef="0" IVar="-1" Cut="0.0000000000000000e+00" cType="1" res="-1.7522791400551796e-02" rms="4.7434940934181213e-01" purity="4.1112369298934937e-01" nType="-99"/>
          <Node pos="r" depth="2" NCoef="0" IVar="-1" Cut="0.0000000000000000e+00" cType="1" res="2.0822379738092422e-02" rms="4.4356042146682739e-01" purity="6.8636739253997803e-01" nType="-99"/>
        </Node>
      </Node>
    </BinaryTree>
    <BinaryTree type="DecisionTree" boostWeight="1.0000000000000000e+00" itree="10">
      <Node pos="s" depth="0" NCoef="0" IVar="8" Cut="1.4467949218750000e+03" cType="1" res="-9.5704407431185246e-04" rms="4.5509690046310425e-01" purity="4.9987033009529114e-01" nType="0">
        <Node pos="l" depth="1" NCoef="0" IVar="6" Cut="2.4243900179862976e-01" cType="1" res="-4.4929318130016327e-02" rms="4.6579217910766602e-01" purity="4.0328878164291382e-01" nType="0">
          <Node pos="l" depth="2" NCoef="0" IVar="-1" Cut="0.0000000000000000e+00" cType="1" res="3.9351042360067368e-03" rms="4.7399741411209106e-01" purity="4.7983226180076599e-01" nType="-99"/>
          <Node pos="r" depth="2" NCoef="0" IVar="-1" Cut="0.0000000000000000e+00" cType="1" res="-2.2420391440391541e-02" rms="4.4918265938758850e-01" purity="3.2921043038368225e-01" nType="-99"/>
        </Node>
        <Node pos="r" depth="1" NCoef="0" IVar="2" Cut="8.2177223205566406e+01" cType="1" res="1.3666485249996185e-01" rms="3.8896849751472473e-01" purity="8.0214577913284302e-01" nType="0">
          <Node pos="l" depth="2" NCoef="0" IVar="-1" Cut="0.0000000000000000e+00" cType="1" res="1.0634645819664001e-02" rms="4.5672854781150818e-01" purity="6.8033611774444580e-01" nType="-99"/>
          <Node pos="r" depth="2" NCoef="0" IVar="-1" Cut="0.0000000000000000e+00" cType="1" res="3.9842959493398666e-02" rms="3.5090884566307068e-01" purity="8.5247504711151123e-01" nType="-99"/>
        </Node>
      </Node>
    </BinaryTree>
    <BinaryTree type="DecisionTree" boostWeight="1.0000000000000000e+00" itree="11">
      <Node pos="s" depth="0" NCoef="0" IVar="8" Cut="8.0646582031250000e+02" cType="1" res="2.1995847055222839e-04" rms="4.5319932699203491e-01" purity="5.0186061859130859e-01" nType="0">
        <Node pos="l" depth="1" NCoef="0" IVar="5" Cut="4.0523850917816162e-01" cType="1" res="-9.0798333287239075e-02" rms="4.4270771741867065e-01" purity="2.8220197558403015e-01" nType="0">
          <Node pos="l" depth="2" NCoef="0" IVar="-1" Cut="0.0000000000000000e+00" cType="1" res="-1.3179082423448563e-02" rms="4.5755025744438171e-01" purity="3.1509411334991455e-01" nType="-99"/>
          <Node pos="r" depth="2" NCoef="0" IVar="-1" Cut="0.0000000000000000e+00" cType="1" res="-3.7398032844066620e-02" rms="3.8717243075370789e-01" purity="1.9087518751621246e-01" nType="-99"/>
        </Node>
        <Node pos="r" depth="1" NCoef="0" IVar="6" Cut="3.5678437352180481e-01" cType="1" res="5.8936420828104019e-02" rms="4.5017930865287781e-01" purity="6.4356380701065063e-01" nType="0">
          <Node pos="l" depth="2" NCoef="0" IVar="-1" Cut="0.0000000000000000e+00" cType="1" res="2.0151985809206963e-02" rms="4.3740853667259216e-01" purity="6.8874657154083252e-01" nType="-99"/>
          <Node pos="r" depth="2" NCoef="0" IVar="-1" Cut="0.0000000000000000e+00" cType="1" res="-1.2836097739636898e-02" rms="4.7349524497985840e-01" purity="4.8409089446067810e-01" nType="-99"/>
        </Node>
      </Node>
    </BinaryTree>
    <BinaryTree type="DecisionTree" boostWeight="1.0000000000000000e+00" itree="12">
      <Node pos="s" depth="0" NCoef="0" IVar="2" Cut="1.0504901123046875e+02" cType="1" res="-1.5240847133100033e-03" rms="4.5152500271797180e-01" purity="4.9846515059471130e-01" nType="0">
        <Node pos="l" depth="1" NCoef="0" IVar="5" Cut="2.1630035340785980e-01" cType="1" res="-5.3055923432111740e-02" rms="4.5440492033958435e-01" purity="4.0640488266944885e-01" nType="0">
          <Node pos="l" depth="2" NCoef="0" IVar="-1" Cut="0.0000000000000000e+00" cType="1" res="3.4493620041757822e-03" rms="4.6508368849754333e-01" purity="5.0538861751556396e-01" nType="-99"/>
          <Node pos="r" depth="2" NCoef="0" IVar="-1" Cut="0.0000000000000000e+00" cType="1" res="-2.4989735335111618e-02" rms="4.3524995446205139e-01" purity="3.1731566786766052e-01" nType="-99"/>
        </Node>
        <Node pos="r" depth="1" NCoef="0" IVar="5" Cut="3.0483654141426086e-01" cType="1" res="9.6570089459419250e-02" rms="4.2922133207321167e-01" purity="6.7370778322219849e-01" nType="0">
          <Node pos="l" depth="2" NCoef="0" IVar="-1" Cut="0.0000000000000000e+00" cType="1" res="3.1850770115852356e-02" rms="4.0677830576896667e-01" purity="7.3998039960861206e-01" nType="-99"/>
          <Node pos="r" depth="2" NCoef="0" IVar="-1" Cut="0.0000000000000000e+00" cType="1" res="2.1678847260773182e-03" rms="4.5513090491294861e-01" purity="5.5183780193328857e-01" nType="-99"/>
        </Node>
      </Node>
    </BinaryTree>
    <BinaryTree type="DecisionTree" boostWeight="1.0000000000000000e+00" itree="13">
      <Node pos="s" depth="0" NCoef="0" IVar="2" Cut="8.3226753234863281e+01" cType="1" res="2.9437923803925514e-03" rms="4.5045569539070129e-01" purity="5.0329840183258057e-01" nType="0">
        <Node pos="l" depth="1" NCoef="0" IVar="6" Cut="2.1820709109306335e-01" cType="1" res="-6.5473139286041260e-02" rms="4.4993469119071960e-01" purity="3.7706214189529419e-01" nType="0">
          <Node pos="l" depth="2" NCoef="0" IVar="-1" Cut="0.0000000000000000e+00" cType="1" res="6.7455775570124388e-04" rms="4.6498480439186096e-01" purity="4.7645476460456848e-01" nType="-99"/>
          <Node pos="r" depth="2" NCoef="0" IVar="-1" Cut="0.0000000000000000e+00" cType="1" res="-2.7562500908970833e-02" rms="4.2659518122673035e-01" purity="2.8756281733512878e-01" nType="-99"/>
        </Node>
        <Node pos="r" depth="1" NCoef="0" IVar="6" Cut="3.2460004091262817e-01" cType="1" res="6.1163514852523804e-02" rms="4.4264745712280273e-01" purity="6.1071974039077759e-01" nType="0">
          <Node pos="l" depth="2" NCoef="0" IVar="-1" Cut="0.0000000000000000e+00" cType="1" res="2.2965872660279274e-02" rms="4.2707940936088562e-01" purity="6.7968142032623291e-01" nType="-99"/>
          <Node pos="r" depth="2" NCoef="0" IVar="-1" Cut="0.0000000000000000e+00" cType="1" res="-5.6843846105039120e-03" rms="4.6140286326408386e-01" purity="4.6651181578636169e-01" nType="-99"/>
        </Node>
      </Node>
    </BinaryTree>
    <BinaryTree type="DecisionTree" boostWeight="1.0000000000000000e+00" itree="14">
      <Node pos="s" depth="0" NCoef="0" IVar="1" Cut="1.3048855590820312e+02" cType="1" res="-1.3987343991175294e-03" rms="4.4750025868415833e-01" purity="4.9866881966590881e-01" nType="0">
        <Node pos="l" depth="1" NCoef="0" IVar="6" Cut="2.3895564675331116e-01" cType="1" res="-8.4651932120323181e-02" rms="4.3728700280189514e-01" purity="3.2637158036231995e-01" nType="0">
          <Node pos="l" depth="2" NCoef="0" IVar="-1" Cut="0.0000000000000000e+00" cType="1" res="-4.0028006769716740e-03" rms="4.6029132604598999e-01" purity="4.2538931965827942e-01" nType="-99"/>
          <Node pos="r" depth="2" NCoef="0" IVar="-1" Cut="0.0000000000000000e+00" cType="1" res="-3.4028284251689911e-02" rms="4.0056359767913818e-01" purity="2.2321367263793945e-01" nType="-99"/>
        </Node>
        <Node pos="r" depth="1" NCoef="0" IVar="8" Cut="7.6564331054687500e+02" cType="1" res="4.9743212759494781e-02" rms="4.4602060317993164e-01" purity="6.0451000928878784e-01" nType="0">
          <Node pos="l" depth="2" NCoef="0" IVar="-1" Cut="0.0000000000000000e+00" cType="1" res="-9.4486530870199203e-03" rms="4.6868228912353516e-01" purity="3.4022432565689087e-01" nType="-99"/>
          <Node pos="r" depth="2" NCoef="0" IVar="-1" Cut="0.0000000000000000e+00" cType="1" res="1.9171731546521187e-02" rms="4.3152505159378052e-01" purity="7.0630455017089844e-01" nType="-99"/>
        </Node>
      </Node>
    </BinaryTree>
    <BinaryTree type="DecisionTree" boostWeight="1.0000000000000000e+00" itree="15">
      <Node pos="s" depth="0" NCoef="0" IVar="8" Cut="1.6719030761718750e+03" cType="1" res="-1.6836639260873199e-03" rms="4.4766649603843689e-01" purity="4.9840593338012695e-01" nType="0">
        <Node pos="l" depth="1" NCoef="0" IVar="1" Cut="9.7887763977050781e+01" cType="1" res="-3.0640987679362297e-02" rms="4.5963212847709656e-01" purity="4.2437574267387390e-01" nType="0">
          <Node pos="l" depth="2" NCoef="0" IVar="-1" Cut="0.0000000000000000e+00" cType="1" res="-2.8961889445781708e-02" rms="4.1073030233383179e-01" purity="2.3690460622310638e-01" nType="-99"/>
          <Node pos="r" depth="2" NCoef="0" IVar="-1" Cut="0.0000000000000000e+00" cType="1" res="-1.0677214013412595e-03" rms="4.6795716881752014e-01" purity="4.7256737947463989e-01" nType="-99"/>
        </Node>
        <Node pos="r" depth="1" NCoef="0" IVar="5" Cut="2.6704949140548706e-01" cType="1" res="1.3072185218334198e-01" rms="3.5972177982330322e-01" purity="8.3690434694290161e-01" nType="0">
          <Node pos="l" depth="2" NCoef="0" IVar="-1" Cut="0.0000000000000000e+00" cType="1" res="3.8680966943502426e-02" rms="3.3471438288688660e-01" purity="8.6488789319992065e-01" nType="-99"/>
          <Node pos="r" depth="2" NCoef="0" IVar="-1" Cut="0.0000000000000000e+00" cType="1" res="1.4735596254467964e-02" rms="4.0906992554664612e-01" purity="7.6474952697753906e-01" nType="-99"/>
        </Node>
      </Node>
    </BinaryTree>
    <BinaryTree type="DecisionTree" boostWeight="1.0000000000000000e+00" itree="16">
      <Node pos="s" depth="0" NCoef="0" IVar="8" Cut="6.9950146484375000e+02" cType="1" res="6.4472956582903862e-03" rms="4.4520694017410278e-01" purity="5.0689077377319336e-01" nType="0">
        <Node pos="l" depth="1" NCoef="0" IVar="6" Cut="3.0040112137794495e-01" cType="1" res="-8.3770297467708588e-02" rms="4.2799115180969238e-01" purity="2.5673639774322510e-01" nType="0">
          <Node pos="l" depth="2" NCoef="0" IVar="-1" Cut="0.0000000000000000e+00" cType="1" res="-1.1355675756931305e-02" rms="4.5266208052635193e-01" purity="3.0444243550300598e-01" nType="-99"/>
          <Node pos="r" depth="2" NCoef="0" IVar="-1" Cut="0.0000000000000000e+00" cType="1" res="-2.8392916545271873e-02" rms="3.9247038960456848e-01" purity="1.9883519411087036e-01" nType="-99"/>
        </Node>
        <Node pos="r" depth="1" NCoef="0" IVar="5" Cut="2.8093028068542480e-01" cType="1" res="4.2235840111970901e-02" rms="4.4683670997619629e-01" purity="6.0612487792968750e-01" nType="0">
          <Node pos="l" depth="2" NCoef="0" IVar="-1" Cut="0.0000000000000000e+00" cType="1" res="1.9769778475165367e-02" rms="4.3401992321014404e-01" purity="6.7432940006256104e-01" nType="-99"/>
          <Node pos="r" depth="2" NCoef="0" IVar="-1" Cut="0.0000000000000000e+00" cType="1" res="-8.7180417031049728e-03" rms="4.5722928643226624e-01" purity="4.8549234867095947e-01" nType="-99"/>
        </Node>
      </Node>
    </BinaryTree>
    <BinaryTree type="DecisionTree" boostWeight="1.0000000000000000e+00" itree="17">
      <Node pos="s" depth="0" NCoef="0" IVar="1" Cut="1.0093716430664062e+02" cType="1" res="1.5248128911480308e-03" rms="4.4367364048957825e-01" purity="5.0253361463546753e-01" nType="0">
        <Node pos="l" depth="1" NCoef="0" IVar="1" Cut="7.9591903686523438e+01" cType="1" res="-1.0562422126531601e-01" rms="4.1670626401901245e-01" purity="2.6991748809814453e-01" nType="0">
          <Node pos="l" depth="2" NCoef="0" IVar="-1" Cut="0.0000000000000000e+00" cType="1" res="-3.5893395543098450e-02" rms="3.8428473472595215e-01" purity="2.1024383604526520e-01" nType="-99"/>
          <Node pos="r" depth="2" NCoef="0" IVar="-1" Cut="0.0000000000000000e+00" cType="1" res="-1.4322427101433277e-02" rms="4.3589916825294495e-01" purity="3.1671881675720215e-01" nType="-99"/>
        </Node>
        <Node pos="r" depth="1" NCoef="0" IVar="5" Cut="3.3064281940460205e-01" cType="1" res="2.9692953452467918e-02" rms="4.4624456763267517e-01" purity="5.6368541717529297e-01" nType="0">
          <Node pos="l" depth="2" NCoef="0" IVar="-1" Cut="0.0000000000000000e+00" cType="1" res="1.4466999098658562e-02" rms="4.4051116704940796e-01" purity="6.2562865018844604e-01" nType="-99"/>
          <Node pos="r" depth="2" NCoef="0" IVar="-1" Cut="0.0000000000000000e+00" cType="1" res="-1.1136819608509541e-02" rms="4.4900742173194885e-01" purity="4.2118218541145325e-01" nType="-99"/>
        </Node>
      </Node>
    </BinaryTree>
    <BinaryTree type="DecisionTree" boostWeight="1.0000000000000000e+00" itree="18">
      <Node pos="s" depth="0" NCoef="0" IVar="8" Cut="1.3362481689453125e+03" cType="1" res="-1.8831152701750398e-03" rms="4.4202402234077454e-01" purity="4.9858209490776062e-01" nType="0">
        <Node pos="l" depth="1" NCoef="0" IVar="2" Cut="8.9397346496582031e+01" cType="1" res="-3.6984592676162720e-02" rms="4.5681709051132202e-01" purity="3.8472387194633484e-01" nType="0">
          <Node pos="l" depth="2" NCoef="0" IVar="-1" Cut="0.0000000000000000e+00" cType="1" res="-1.5959795564413071e-02" rms="4.4181311130523682e-01" purity="3.1017979979515076e-01" nType="-99"/>
          <Node pos="r" depth="2" NCoef="0" IVar="-1" Cut="0.0000000000000000e+00" cType="1" res="3.1398823484778404e-03" rms="4.7337079048156738e-01" purity="4.9476960301399231e-01" nType="-99"/>
        </Node>
        <Node pos="r" depth="1" NCoef="0" IVar="2" Cut="6.9349563598632812e+01" cType="1" res="8.8787078857421875e-02" rms="3.8682711124420166e-01" purity="7.9268777370452881e-01" nType="0">
          <Node pos="l" depth="2" NCoef="0" IVar="-1" Cut="0.0000000000000000e+00" cType="1" res="2.1236304019112140e-04" rms="4.5895570516586304e-01" purity="6.3495826721191406e-01" nType="-99"/>
          <Node pos="r" depth="2" NCoef="0" IVar="-1" Cut="0.0000000000000000e+00" cType="1" res="2.7416344732046127e-02" rms="3.6555975675582886e-01" purity="8.2850289344787598e-01" nType="-99"/>
        </Node>
      </Node>
    </BinaryTree>
    <BinaryTree type="DecisionTree" boostWeight="1.0000000000000000e+00" itree="19">
      <Node pos="s" depth="0" NCoef="0" IVar="1" Cut="1.2757423400878906e+02" cType="1" res="-3.5458737984299660e-03" rms="4.4313025474548340e-01" purity="4.9867582321166992e-01" nType="0">
        <Node pos="l" depth="1" NCoef="0" IVar="5" Cut="2.4906191229820251e-01" cType="1" res="-6.6266216337680817e-02" rms="4.3200966715812683e-01" purity="3.2212454080581665e-01" nType="0">
          <Node pos="l" depth="2" NCoef="0" IVar="-1" Cut="0.0000000000000000e+00" cType="1" res="-4.0369229391217232e-03" rms="4.5796069502830505e-01" purity="4.1053041815757751e-01" nType="-99"/>
          <Node pos="r" depth="2" NCoef="0" IVar="-1" Cut="0.0000000000000000e+00" cType="1" res="-2.8668200597167015e-02" rms="3.9243328571319580e-01" purity="2.1935132145881653e-01" nType="-99"/>
        </Node>
        <Node pos="r" depth="1" NCoef="0" IVar="5" Cut="3.6461311578750610e-01" cType="1" res="3.1845469027757645e-02" rms="4.4540280103683472e-01" purity="5.9829878807067871e-01" nType="0">
          <Node pos="l" depth="2" NCoef="0" IVar="-1" Cut="0.0000000000000000e+00" cType="1" res="1.3333102688193321e-02" rms="4.3719860911369324e-01" purity="6.4905607700347900e-01" nType="-99"/>
          <Node pos="r" depth="2" NCoef="0" IVar="-1" Cut="0.0000000000000000e+00" cType="1" res="-1.0683252476155758e-02" rms="4.6013736724853516e-01" purity="4.4448804855346680e-01" nType="-99"/>
        </Node>
      </Node>
    </BinaryTree>
    <BinaryTree type="DecisionTree" boostWeight="1.0000000000000000e+00" itree="20">
      <Node pos="s" depth="0" NCoef="0" IVar="6" Cut="2.7469652891159058e-01" cType="1" res="5.6824949570000172e-04" rms="4.4129896163940430e-01" purity="5.0221943855285645e-01" nType="0">
        <Node pos="l" depth="1" NCoef="0" IVar="2" Cut="6.7413665771484375e+01" cType="1" res="4.1501104831695557e-02" rms="4.3930265307426453e-01" purity="5.8043205738067627e-01" nType="0">
          <Node pos="l" depth="2" NCoef="0" IVar="-1" Cut="0.0000000000000000e+00" cType="1" res="-9.5885079354047775e-03" rms="4.5317134261131287e-01" purity="3.9306238293647766e-01" nType="-99"/>
          <Node pos="r" depth="2" NCoef="0" IVar="-1" Cut="0.0000000000000000e+00" cType="1" res="1.6996618360280991e-02" rms="4.2962929606437683e-01" purity="6.5118873119354248e-01" nType="-99"/>
        </Node>
        <Node pos="r" depth="1" NCoef="0" IVar="2" Cut="1.3128849792480469e+02" cType="1" res="-5.7909771800041199e-02" rms="4.3754187226295471e-01" purity="3.9048224687576294e-01" nType="0">
          <Node pos="l" depth="2" NCoef="0" IVar="-1" Cut="0.0000000000000000e+00" cType="1" res="-1.9002869725227356e-02" rms="4.3249231576919556e-01" purity="3.2431533932685852e-01" nType="-99"/>
          <Node pos="r" depth="2" NCoef="0" IVar="-1" Cut="0.0000000000000000e+00" cType="1" res="1.0616290383040905e-02" rms="4.4209781289100647e-01" purity="6.5734994411468506e-01" nType="-99"/>
        </Node>
      </Node>
    </BinaryTree>
    <BinaryTree type="DecisionTree" boostWeight="1.0000000000000000e+00" itree="21">
      <Node pos="s" depth="0" NCoef="0" IVar="6" Cut="3.2454103231430054e-01" cType="1" res="-5.7465885765850544e-04" rms="4.4163808226585388e-01" purity="5.0018584728240967e-01" nType="0">
        <Node pos="l" depth="1" NCoef="0" IVar="8" Cut="6.3617834472656250e+02" cType="1" res="3.0528552830219269e-02" rms="4.4098693132400513e-01" purity="5.6488269567489624e-01" nType="0">
          <Node pos="l" depth="2" NCoef="0" IVar="-1" Cut="0.0000000000000000e+00" cType="1" res="-1.4776705764234066e-02" rms="4.3737116456031799e-01" purity="2.7343952655792236e-01" nType="-99"/>
          <Node pos="r" depth="2" NCoef="0" IVar="-1" Cut="0.0000000000000000e+00" cType="1" res="1.1868467554450035e-02" rms="4.3896096944808960e-01" purity="6.2963229417800903e-01" nType="-99"/>
        </Node>
        <Node pos="r" depth="1" NCoef="0" IVar="1" Cut="1.7711343383789062e+02" cType="1" res="-6.6067047417163849e-02" rms="4.3580734729766846e-01" purity="3.6395710706710815e-01" nType="0">
          <Node pos="l" depth="2" NCoef="0" IVar="-1" Cut="0.0000000000000000e+00" cType="1" res="-2.4685515090823174e-02" rms="4.1225537657737732e-01" purity="2.5249093770980835e-01" nType="-99"/>
          <Node pos="r" depth="2" NCoef="0" IVar="-1" Cut="0.0000000000000000e+00" cType="1" res="-9.2276901705190539e-04" rms="4.6334224939346313e-01" purity="5.3722208738327026e-01" nType="-99"/>
        </Node>
      </Node>
    </BinaryTree>
    <BinaryTree type="DecisionTree" boostWeight="1.0000000000000000e+00" itree="22">
      <Node pos="s" depth="0" NCoef="0" IVar="1" Cut="1.9835955810546875e+02" cType="1" res="1.5133265405893326e-03" rms="4.4037947058677673e-01" purity="5.0371485948562622e-01" nType="0">
        <Node pos="l" depth="1" NCoef="0" IVar="6" Cut="3.1711527705192566e-01" cType="1" res="-2.8171451762318611e-02" rms="4.4394552707672119e-01" purity="4.1471692919731140e-01" nType="0">
          <Node pos="l" depth="2" NCoef="0" IVar="-1" Cut="0.0000000000000000e+00" cType="1" res="9.0488384012132883e-04" rms="4.5321643352508545e-01" purity="4.8687377572059631e-01" nType="-99"/>
          <Node pos="r" depth="2" NCoef="0" IVar="-1" Cut="0.0000000000000000e+00" cType="1" res="-2.1603886038064957e-02" rms="4.1747507452964783e-01" purity="2.7071481943130493e-01" nType="-99"/>
        </Node>
        <Node pos="r" depth="1" NCoef="0" IVar="6" Cut="4.1084939241409302e-01" cType="1" res="6.3899569213390350e-02" rms="4.2610156536102295e-01" purity="6.9075512886047363e-01" nType="0">
          <Node pos="l" depth="2" NCoef="0" IVar="-1" Cut="0.0000000000000000e+00" cType="1" res="2.0190440118312836e-02" rms="4.1409996151924133e-01" purity="7.3300391435623169e-01" nType="-99"/>
          <Node pos="r" depth="2" NCoef="0" IVar="-1" Cut="0.0000000000000000e+00" cType="1" res="-4.3038185685873032e-03" rms="4.6277642250061035e-01" purity="5.1776564121246338e-01" nType="-99"/>
        </Node>
      </Node>
    </BinaryTree>
    <BinaryTree type="DecisionTree" boostWeight="1.0000000000000000e+00" itree="23">
      <Node pos="s" depth="0" NCoef="0" IVar="8" Cut="1.9931932373046875e+03" cType="1" res="-3.7717013619840145e-03" rms="4.4000166654586792e-01" purity="4.9712267518043518e-01" nType="0">
        <Node pos="l" depth="1" NCoef="0" IVar="6" Cut="1.9623994827270508e-01" cType="1" res="-1.9124994054436684e-02" rms="4.5039576292037964e-01" purity="4.4701156020164490e-01" nType="0">
          <Node pos="l" depth="2" NCoef="0" IVar="-1" Cut="0.0000000000000000e+00" cType="1" res="6.4541101455688477e-03" rms="4.5580720901489258e-01" purity="5.4393601417541504e-01" nType="-99"/>
          <Node pos="r" depth="2" NCoef="0" IVar="-1" Cut="0.0000000000000000e+00" cType="1" res="-1.1895042844116688e-02" rms="4.4361829757690430e-01" purity="3.8029924035072327e-01" nType="-99"/>
        </Node>
        <Node pos="r" depth="1" NCoef="0" IVar="3" Cut="1.0129321289062500e+02" cType="1" res="1.0803498327732086e-01" rms="3.3464577794075012e-01" purity="8.6204493045806885e-01" nType="0">
          <Node pos="l" depth="2" NCoef="0" IVar="-1" Cut="0.0000000000000000e+00" cType="1" res="3.6036297678947449e-02" rms="3.1570404767990112e-01" purity="8.7741231918334961e-01" nType="-99"/>
          <Node pos="r" depth="2" NCoef="0" IVar="-1" Cut="0.0000000000000000e+00" cType="1" res="2.3468976840376854e-02" rms="3.4997832775115967e-01" purity="8.4737956523895264e-01" nType="-99"/>
        </Node>
      </Node>
    </BinaryTree>
    <BinaryTree type="DecisionTree" boostWeight="1.0000000000000000e+00" itree="24">
      <Node pos="s" depth="0" NCoef="0" IVar="8" Cut="1.5290157470703125e+03" cType="1" res="-5.4986774921417236e-03" rms="4.3697732686996460e-01" purity="4.9401593208312988e-01" nType="0">
        <Node pos="l" depth="1" NCoef="0" IVar="5" Cut="1.6732926666736603e-01" cType="1" res="-2.7164386585354805e-02" rms="4.5097863674163818e-01" purity="4.0490823984146118e-01" nType="0">
          <Node pos="l" depth="2" NCoef="0" IVar="-1" Cut="0.0000000000000000e+00" cType="1" res="5.6621120311319828e-03" rms="4.6331679821014404e-01" purity="5.0081551074981689e-01" nType="-99"/>
          <Node pos="r" depth="2" NCoef="0" IVar="-1" Cut="0.0000000000000000e+00" cType="1" res="-1.2423760257661343e-02" rms="4.4188961386680603e-01" purity="3.5492354631423950e-01" nType="-99"/>
        </Node>
        <Node pos="r" depth="1" NCoef="0" IVar="5" Cut="3.0366885662078857e-01" cType="1" res="7.2000965476036072e-02" rms="3.7254774570465088e-01" purity="8.1275981664657593e-01" nType="0">
          <Node pos="l" depth="2" NCoef="0" IVar="-1" Cut="0.0000000000000000e+00" cType="1" res="2.4977341294288635e-02" rms="3.5267856717109680e-01" purity="8.4070712327957153e-01" nType="-99"/>
          <Node pos="r" depth="2" NCoef="0" IVar="-1" Cut="0.0000000000000000e+00" cType="1" res="1.7902500694617629e-03" rms="4.2688530683517456e-01" purity="7.1794992685317993e-01" nType="-99"/>
        </Node>
      </Node>
    </BinaryTree>
    <BinaryTree type="DecisionTree" boostWeight="1.0000000000000000e+00" itree="25">
      <Node pos="s" depth="0" NCoef="0" IVar="5" Cut="3.2664719223976135e-01" cType="1" res="-4.4547962024807930e-03" rms="4.3823036551475525e-01" purity="4.9569171667098999e-01" nType="0">
        <Node pos="l" depth="1" NCoef="0" IVar="0" Cut="-1.8599363565444946e+00" cType="1" res="2.6364099234342575e-02" rms="4.3985092639923096e-01" purity="5.6254798173904419e-01" nType="0">
          <Node pos="l" depth="2" NCoef="0" IVar="-1" Cut="0.0000000000000000e+00" cType="1" res="1.9980162382125854e-02" rms="4.2425394058227539e-01" purity="6.3635367155075073e-01" nType="-99"/>
          <Node pos="r" depth="2" NCoef="0" IVar="-1" Cut="0.0000000000000000e+00" cType="1" res="-3.6323643871583045e-04" rms="4.4436621665954590e-01" purity="5.2743792533874512e-01" nType="-99"/>
        </Node>
        <Node pos="r" depth="1" NCoef="0" IVar="1" Cut="1.9842919921875000e+02" cType="1" res="-7.0993781089782715e-02" rms="4.2719495296478271e-01" purity="3.5134693980216980e-01" nType="0">
          <Node pos="l" depth="2" NCoef="0" IVar="-1" Cut="0.0000000000000000e+00" cType="1" res="-2.4512844160199165e-02" rms="4.0737587213516235e-01" purity="2.5615096092224121e-01" nType="-99"/>
          <Node pos="r" depth="2" NCoef="0" IVar="-1" Cut="0.0000000000000000e+00" cType="1" res="6.8785324401687831e-05" rms="4.6008956432342529e-01" purity="5.6181877851486206e-01" nType="-99"/>
        </Node>
      </Node>
    </BinaryTree>
    <BinaryTree type="DecisionTree" boostWeight="1.0000000000000000e+00" itree="26">
      <Node pos="s" depth="0" NCoef="0" IVar="1" Cut="1.6462242126464844e+02" cType="1" res="-2.8378583374433219e-04" rms="4.3788185715675354e-01" purity="4.9992868304252625e-01" nType="0">
        <Node pos="l" depth="1" NCoef="0" IVar="6" Cut="1.5490216016769409e-01" cType="1" res="-3.5429891198873520e-02" rms="4.3861550092697144e-01" purity="3.7765234708786011e-01" nType="0">
          <Node pos="l" depth="2" NCoef="0" IVar="-1" Cut="0.0000000000000000e+00" cType="1" res="3.3172639086842537e-03" rms="4.5715647935867310e-01" purity="4.9160254001617432e-01" nType="-99"/>
          <Node pos="r" depth="2" NCoef="0" IVar="-1" Cut="0.0000000000000000e+00" cType="1" res="-1.4735099859535694e-02" rms="4.2595398426055908e-01" purity="3.1674423813819885e-01" nType="-99"/>
        </Node>
        <Node pos="r" depth="1" NCoef="0" IVar="6" Cut="4.0934959053993225e-01" cType="1" res="4.2439512908458710e-02" rms="4.3316513299942017e-01" purity="6.4856684207916260e-01" nType="0">
          <Node pos="l" depth="2" NCoef="0" IVar="-1" Cut="0.0000000000000000e+00" cType="1" res="1.4407362788915634e-02" rms="4.2315667867660522e-01" purity="6.9142061471939087e-01" nType="-99"/>
          <Node pos="r" depth="2" NCoef="0" IVar="-1" Cut="0.0000000000000000e+00" cType="1" res="-6.4547122456133366e-03" rms="4.6498477458953857e-01" purity="4.7347328066825867e-01" nType="-99"/>
        </Node>
      </Node>
    </BinaryTree>
    <BinaryTree type="DecisionTree" boostWeight="1.0000000000000000e+00" itree="27">
      <Node pos="s" depth="0" NCoef="0" IVar="5" Cut="3.7646341323852539e-01" cType="1" res="1.8829265609383583e-03" rms="4.3690150976181030e-01" purity="5.0253021717071533e-01" nType="0">
        <Node pos="l" depth="1" NCoef="0" IVar="0" Cut="2.3977017402648926e+00" cType="1" res="2.1495196968317032e-02" rms="4.3847870826721191e-01" purity="5.5113148689270020e-01" nType="0">
          <Node pos="l" depth="2" NCoef="0" IVar="-1" Cut="0.0000000000000000e+00" cType="1" res="6.4222118817269802e-04" rms="4.4103449583053589e-01" purity="5.2679252624511719e-01" nType="-99"/>
          <Node pos="r" depth="2" NCoef="0" IVar="-1" Cut="0.0000000000000000e+00" cType="1" res="2.0406657829880714e-02" rms="4.2310827970504761e-01" purity="6.3554924726486206e-01" nType="-99"/>
        </Node>
        <Node pos="r" depth="1" NCoef="0" IVar="6" Cut="1.9140560925006866e-01" cType="1" res="-6.1856690794229507e-02" rms="4.2553848028182983e-01" purity="3.4457674622535706e-01" nType="0">
          <Node pos="l" depth="2" NCoef="0" IVar="-1" Cut="0.0000000000000000e+00" cType="1" res="-8.4762595361098647e-04" rms="4.4976267218589783e-01" purity="4.6493825316429138e-01" nType="-99"/>
          <Node pos="r" depth="2" NCoef="0" IVar="-1" Cut="0.0000000000000000e+00" cType="1" res="-2.2842839360237122e-02" rms="4.0783545374870300e-01" purity="2.7748957276344299e-01" nType="-99"/>
        </Node>
      </Node>
    </BinaryTree>
    <BinaryTree type="DecisionTree" boostWeight="1.0000000000000000e+00" itree="28">
      <Node pos="s" depth="0" NCoef="0" IVar="8" Cut="1.8560261230468750e+03" cType="1" res="-3.7931045517325401e-03" rms="4.3572172522544861e-01" purity="4.9706444144248962e-01" nType="0">
        <Node pos="l" depth="1" NCoef="0" IVar="0" Cut="2.2368733882904053e+00" cType="1" res="-1.8832486122846603e-02" rms="4.4854003190994263e-01" purity="4.3657389283180237e-01" nType="0">
          <Node pos="l" depth="2" NCoef="0" IVar="-1" Cut="0.0000000000000000e+00" cType="1" res="-9.0693812817335129e-03" rms="4.4632378220558167e-01" purity="4.0932473540306091e-01" nType="-99"/>
          <Node pos="r" depth="2" NCoef="0" IVar="-1" Cut="0.0000000000000000e+00" cType="1" res="1.0077455081045628e-02" rms="4.4934824109077454e-01" purity="5.1943010091781616e-01" nType="-99"/>
        </Node>
        <Node pos="r" depth="1" NCoef="0" IVar="8" Cut="2.6572443847656250e+03" cType="1" res="8.6218722164630890e-02" rms="3.3549696207046509e-01" purity="8.5910499095916748e-01" nType="0">
          <Node pos="l" depth="2" NCoef="0" IVar="-1" Cut="0.0000000000000000e+00" cType="1" res="1.7998743802309036e-02" rms="3.6446273326873779e-01" purity="8.2833981513977051e-01" nType="-99"/>
          <Node pos="r" depth="2" NCoef="0" IVar="-1" Cut="0.0000000000000000e+00" cType="1" res="3.8201559334993362e-02" rms="2.7454340457916260e-01" purity="9.1171592473983765e-01" nType="-99"/>
        </Node>
      </Node>
    </BinaryTree>
    <BinaryTree type="DecisionTree" boostWeight="1.0000000000000000e+00" itree="29">
      <Node pos="s" depth="0" NCoef="0" IVar="8" Cut="5.9976580810546875e+02" cType="1" res="4.3387808836996555e-03" rms="4.3631777167320251e-01" purity="5.0572973489761353e-01" nType="0">
        <Node pos="l" depth="1" NCoef="0" IVar="-1" Cut="0.0000000000000000e+00" cType="1" res="-1.9881675019860268e-02" rms="4.0080076456069946e-01" purity="2.1427986025810242e-01" nType="-99"/>
        <Node pos="r" depth="1" NCoef="0" IVar="5" Cut="2.5271838903427124e-01" cType="1" res="2.0031208172440529e-02" rms="4.4078642129898071e-01" purity="5.5961960554122925e-01" nType="0">
          <Node pos="l" depth="2" NCoef="0" IVar="-1" Cut="0.0000000000000000e+00" cType="1" res="1.2592431157827377e-02" rms="4.3318912386894226e-01" purity="6.4127761125564575e-01" nType="-99"/>
          <Node pos="r" depth="2" NCoef="0" IVar="-1" Cut="0.0000000000000000e+00" cType="1" res="-5.4175509139895439e-03" rms="4.4686844944953918e-01" purity="4.5251777768135071e-01" nType="-99"/>
        </Node>
      </Node>
    </BinaryTree>
    <BinaryTree type="DecisionTree" boostWeight="1.0000000000000000e+00" itree="30">
      <Node pos="s" depth="0" NCoef="0" IVar="0" Cut="-2.1734385490417480e+00" cType="1" res="4.3617666233330965e-04" rms="4.3376147747039795e-01" purity="5.0035095214843750e-01" nType="0">
        <Node pos="l" depth="1" NCoef="0" IVar="6" Cut="3.8534438610076904e-01" cType="1" res="6.4558774232864380e-02" rms="4.2587623000144958e-01" purity="5.8606797456741333e-01" nType="0">
          <Node pos="l" depth="2" NCoef="0" IVar="-1" Cut="0.0000000000000000e+00" cType="1" res="2.1372083574533463e-02" rms="4.2041391134262085e-01" purity="6.4224791526794434e-01" nType="-99"/>
          <Node pos="r" depth="2" NCoef="0" IVar="-1" Cut="0.0000000000000000e+00" cType="1" res="-4.7019440680742264e-03" rms="4.3359649181365967e-01" purity="3.9344239234924316e-01" nType="-99"/>
        </Node>
        <Node pos="r" depth="1" NCoef="0" IVar="0" Cut="1.6955323219299316e+00" cType="1" res="-2.2817526012659073e-02" rms="4.3425264954566956e-01" purity="4.6926611661911011e-01" nType="0">
          <Node pos="l" depth="2" NCoef="0" IVar="-1" Cut="0.0000000000000000e+00" cType="1" res="-1.8003694713115692e-02" rms="4.2776367068290710e-01" purity="3.8971716165542603e-01" nType="-99"/>
          <Node pos="r" depth="2" NCoef="0" IVar="-1" Cut="0.0000000000000000e+00" cType="1" res="8.3699040114879608e-03" rms="4.3378159403800964e-01" purity="5.5558884143829346e-01" nType="-99"/>
        </Node>
      </Node>
    </BinaryTree>
    <BinaryTree type="DecisionTree" boostWeight="1.0000000000000000e+00" itree="31">
      <Node pos="s" depth="0" NCoef="0" IVar="2" Cut="6.1291278839111328e+01" cType="1" res="3.8398720789700747e-03" rms="4.3541932106018066e-01" purity="5.0548398494720459e-01" nType="0">
        <Node pos="l" depth="1" NCoef="0" IVar="5" Cut="1.9396971166133881e-01" cType="1" res="-6.9516666233539581e-02" rms="4.2515370249748230e-01" purity="3.1661754846572876e-01" nType="0">
          <Node pos="l" depth="2" NCoef="0" IVar="-1" Cut="0.0000000000000000e+00" cType="1" res="-7.2882277891039848e-03" rms="4.5551529526710510e-01" purity="4.1708254814147949e-01" nType="-99"/>
          <Node pos="r" depth="2" NCoef="0" IVar="-1" Cut="0.0000000000000000e+00" cType="1" res="-2.3997591808438301e-02" rms="3.9885285496711731e-01" purity="2.4194113910198212e-01" nType="-99"/>
        </Node>
        <Node pos="r" depth="1" NCoef="0" IVar="6" Cut="3.8179442286491394e-01" cType="1" res="2.1312909200787544e-02" rms="4.3601280450820923e-01" purity="5.5047076940536499e-01" nType="0">
          <Node pos="l" depth="2" NCoef="0" IVar="-1" Cut="0.0000000000000000e+00" cType="1" res="9.5411837100982666e-03" rms="4.3423795700073242e-01" purity="6.0403746366500854e-01" nType="-99"/>
          <Node pos="r" depth="2" NCoef="0" IVar="-1" Cut="0.0000000000000000e+00" cType="1" res="-9.3815876170992851e-03" rms="4.3628442287445068e-01" purity="3.7383478879928589e-01" nType="-99"/>
        </Node>
      </Node>
    </BinaryTree>
    <BinaryTree type="DecisionTree" boostWeight="1.0000000000000000e+00" itree="32">
      <Node pos="s" depth="0" NCoef="0" IVar="1" Cut="9.4791885375976562e+01" cType="1" res="-3.6334120668470860e-03" rms="4.3527090549468994e-01" purity="4.9858269095420837e-01" nType="0">
        <Node pos="l" depth="1" NCoef="0" IVar="0" Cut="-9.8862653970718384e-01" cType="1" res="-8.3112820982933044e-02" rms="4.0203526616096497e-01" purity="2.4875560402870178e-01" nType="0">
          <Node pos="l" depth="2" NCoef="0" IVar="-1" Cut="0.0000000000000000e+00" cType="1" res="-1.0295103304088116e-02" rms="4.2060670256614685e-01" purity="2.9633671045303345e-01" nType="-99"/>
          <Node pos="r" depth="2" NCoef="0" IVar="-1" Cut="0.0000000000000000e+00" cType="1" res="-2.6646092534065247e-02" rms="3.8844546675682068e-01" purity="2.2036628425121307e-01" nType="-99"/>
        </Node>
        <Node pos="r" depth="1" NCoef="0" IVar="5" Cut="2.5154942274093628e-01" cType="1" res="1.2832675129175186e-02" rms="4.4005253911018372e-01" purity="5.5034041404724121e-01" nType="0">
          <Node pos="l" depth="2" NCoef="0" IVar="-1" Cut="0.0000000000000000e+00" cType="1" res="9.7678061574697495e-03" rms="4.3116760253906250e-01" purity="6.3467824459075928e-01" nType="-99"/>
          <Node pos="r" depth="2" NCoef="0" IVar="-1" Cut="0.0000000000000000e+00" cType="1" res="-4.9402792938053608e-03" rms="4.4827696681022644e-01" purity="4.4796746969223022e-01" nType="-99"/>
        </Node>
      </Node>
    </BinaryTree>
    <BinaryTree type="DecisionTree" boostWeight="1.0000000000000000e+00" itree="33">
      <Node pos="s" depth="0" NCoef="0" IVar="1" Cut="1.7699049377441406e+02" cType="1" res="5.5729253217577934e-03" rms="4.3387961387634277e-01" purity="5.0611740350723267e-01" nType="0">
        <Node pos="l" depth="1" NCoef="0" IVar="5" Cut="2.2946684062480927e-01" cType="1" res="-1.9026948139071465e-02" rms="4.3869432806968689e-01" purity="3.9787203073501587e-01" nType="0">
          <Node pos="l" depth="2" NCoef="0" IVar="-1" Cut="0.0000000000000000e+00" cType="1" res="4.2628515511751175e-03" rms="4.5431602001190186e-01" purity="5.0101882219314575e-01" nType="-99"/>
          <Node pos="r" depth="2" NCoef="0" IVar="-1" Cut="0.0000000000000000e+00" cType="1" res="-1.3920593075454235e-02" rms="4.1921508312225342e-01" purity="2.9514387249946594e-01" nType="-99"/>
        </Node>
        <Node pos="r" depth="1" NCoef="0" IVar="0" Cut="2.2739279270172119e+00" cType="1" res="4.3006904423236847e-02" rms="4.2371726036071777e-01" purity="6.7083609104156494e-01" nType="0">
          <Node pos="l" depth="2" NCoef="0" IVar="-1" Cut="0.0000000000000000e+00" cType="1" res="6.1089363880455494e-03" rms="4.3134665489196777e-01" purity="6.4496010541915894e-01" nType="-99"/>
          <Node pos="r" depth="2" NCoef="0" IVar="-1" Cut="0.0000000000000000e+00" cType="1" res="2.1965276449918747e-02" rms="4.0005517005920410e-01" purity="7.3674297332763672e-01" nType="-99"/>
        </Node>
      </Node>
    </BinaryTree>
    <BinaryTree type="DecisionTree" boostWeight="1.0000000000000000e+00" itree="34">
      <Node pos="s" depth="0" NCoef="0" IVar="0" Cut="2.1137261390686035e+00" cType="1" res="-1.1567132314667106e-03" rms="4.3416720628738403e-01" purity="4.9864557385444641e-01" nType="0">
        <Node pos="l" depth="1" NCoef="0" IVar="0" Cut="-1.6712888479232788e+00" cType="1" res="-1.9427478313446045e-02" rms="4.3533012270927429e-01" purity="4.6874317526817322e-01" nType="0">
          <Node pos="l" depth="2" NCoef="0" IVar="-1" Cut="0.0000000000000000e+00" cType="1" res="8.7896725162863731e-03" rms="4.2812749743461609e-01" purity="5.5643427371978760e-01" nType="-99"/>
          <Node pos="r" depth="2" NCoef="0" IVar="-1" Cut="0.0000000000000000e+00" cType="1" res="-1.7667502164840698e-02" rms="4.3538779020309448e-01" purity="3.8380575180053711e-01" nType="-99"/>
        </Node>
        <Node pos="r" depth="1" NCoef="0" IVar="5" Cut="2.3467631638050079e-01" cType="1" res="4.6359688043594360e-02" rms="4.2748746275901794e-01" purity="5.7641232013702393e-01" nType="0">
          <Node pos="l" depth="2" NCoef="0" IVar="-1" Cut="0.0000000000000000e+00" cType="1" res="1.9862700253725052e-02" rms="4.1546955704689026e-01" purity="6.7509275674819946e-01" nType="-99"/>
          <Node pos="r" depth="2" NCoef="0" IVar="-1" Cut="0.0000000000000000e+00" cType="1" res="1.9836581777781248e-03" rms="4.3684121966362000e-01" purity="4.7041031718254089e-01" nType="-99"/>
        </Node>
      </Node>
    </BinaryTree>
    <BinaryTree type="DecisionTree" boostWeight="1.0000000000000000e+00" itree="35">
      <Node pos="s" depth="0" NCoef="0" IVar="8" Cut="6.6885723876953125e+02" cType="1" res="2.6449111755937338e-03" rms="4.3261784315109253e-01" purity="5.0220215320587158e-01" nType="0">
        <Node pos="l" depth="1" NCoef="0" IVar="0" Cut="-1.4294790029525757e+00" cType="1" res="-4.8393592238426208e-02" rms="4.1570961475372314e-01" purity="2.4541918933391571e-01" nType="0">
          <Node pos="l" depth="2" NCoef="0" IVar="-1" Cut="0.0000000000000000e+00" cType="1" res="-4.8829526640474796e-03" rms="4.3388494849205017e-01" purity="2.8004264831542969e-01" nType="-99"/>
          <Node pos="r" depth="2" NCoef="0" IVar="-1" Cut="0.0000000000000000e+00" cType="1" res="-1.6465026885271072e-02" rms="4.0352958440780640e-01" purity="2.2478979825973511e-01" nType="-99"/>
        </Node>
        <Node pos="r" depth="1" NCoef="0" IVar="6" Cut="4.0898564457893372e-01" cType="1" res="1.9685257226228714e-02" rms="4.3679180741310120e-01" purity="5.8793485164642334e-01" nType="0">
          <Node pos="l" depth="2" NCoef="0" IVar="-1" Cut="0.0000000000000000e+00" cType="1" res="8.1194909289479256e-03" rms="4.3305000662803650e-01" purity="6.2698310613632202e-01" nType="-99"/>
          <Node pos="r" depth="2" NCoef="0" IVar="-1" Cut="0.0000000000000000e+00" cType="1" res="-1.0841043666005135e-02" rms="4.4811287522315979e-01" purity="4.0231564640998840e-01" nType="-99"/>
        </Node>
      </Node>
    </BinaryTree>
    <BinaryTree type="DecisionTree" boostWeight="1.0000000000000000e+00" itree="36">
      <Node pos="s" depth="0" NCoef="0" IVar="0" Cut="-2.0289387702941895e+00" cType="1" res="-2.7419331017881632e-03" rms="4.3306538462638855e-01" purity="4.9659892916679382e-01" nType="0">
        <Node pos="l" depth="1" NCoef="0" IVar="8" Cut="6.8590045166015625e+02" cType="1" res="4.0149644017219543e-02" rms="4.3086600303649902e-01" purity="5.6836259365081787e-01" nType="0">
          <Node pos="l" depth="2" NCoef="0" IVar="-1" Cut="0.0000000000000000e+00" cType="1" res="-4.6650716103613377e-03" rms="4.4048166275024414e-01" purity="2.9181417822837830e-01" nType="-99"/>
          <Node pos="r" depth="2" NCoef="0" IVar="-1" Cut="0.0000000000000000e+00" cType="1" res="1.4585301280021667e-02" rms="4.2570415139198303e-01" purity="6.6168093681335449e-01" nType="-99"/>
        </Node>
        <Node pos="r" depth="1" NCoef="0" IVar="0" Cut="1.7218595743179321e+00" cType="1" res="-2.0784333348274231e-02" rms="4.3271875381469727e-01" purity="4.6641147136688232e-01" nType="0">
          <Node pos="l" depth="2" NCoef="0" IVar="-1" Cut="0.0000000000000000e+00" cType="1" res="-1.7027746886014938e-02" rms="4.3187239766120911e-01" purity="3.8016912341117859e-01" nType="-99"/>
          <Node pos="r" depth="2" NCoef="0" IVar="-1" Cut="0.0000000000000000e+00" cType="1" res="7.5087612494826317e-03" rms="4.2749077081680298e-01" purity="5.5547368526458740e-01" nType="-99"/>
        </Node>
      </Node>
    </BinaryTree>
    <BinaryTree type="DecisionTree" boostWeight="1.0000000000000000e+00" itree="37">
      <Node pos="s" depth="0" NCoef="0" IVar="8" Cut="1.6263005371093750e+03" cType="1" res="-1.1801830260083079e-04" rms="4.3046522140502930e-01" purity="5.0052714347839355e-01" nType="0">
        <Node pos="l" depth="1" NCoef="0" IVar="5" Cut="1.3968431949615479e-01" cType="1" res="-1.3623304665088654e-02" rms="4.4539305567741394e-01" purity="4.2073854804039001e-01" nType="0">
          <Node pos="l" depth="2" NCoef="0" IVar="-1" Cut="0.0000000000000000e+00" cType="1" res="6.5529160201549530e-03" rms="4.5718884468078613e-01" purity="5.2911657094955444e-01" nType="-99"/>
          <Node pos="r" depth="2" NCoef="0" IVar="-1" Cut="0.0000000000000000e+00" cType="1" res="-7.3265847750008106e-03" rms="4.3930554389953613e-01" purity="3.7658849358558655e-01" nType="-99"/>
        </Node>
        <Node pos="r" depth="1" NCoef="0" IVar="0" Cut="-2.2971992492675781e+00" cType="1" res="5.5843576788902283e-02" rms="3.5670095682144165e-01" purity="8.3114570379257202e-01" nType="0">
          <Node pos="l" depth="2" NCoef="0" IVar="-1" Cut="0.0000000000000000e+00" cType="1" res="3.4222338348627090e-02" rms="2.8476420044898987e-01" purity="9.0265935659408569e-01" nType="-99"/>
          <Node pos="r" depth="2" NCoef="0" IVar="-1" Cut="0.0000000000000000e+00" cType="1" res="1.0845898650586605e-02" rms="3.7773326039314270e-01" purity="8.0515342950820923e-01" nType="-99"/>
        </Node>
      </Node>
    </BinaryTree>
    <BinaryTree type="DecisionTree" boostWeight="1.0000000000000000e+00" itree="38">
      <Node pos="s" depth="0" NCoef="0" IVar="6" Cut="1.8458062410354614e-01" cType="1" res="2.1558284061029553e-04" rms="4.3118080496788025e-01" purity="5.0060868263244629e-01" nType="0">
        <Node pos="l" depth="1" NCoef="0" IVar="2" Cut="9.3153144836425781e+01" cType="1" res="3.4713152796030045e-02" rms="4.3019646406173706e-01" purity="6.0325247049331665e-01" nType="0">
          <Node pos="l" depth="2" NCoef="0" IVar="-1" Cut="0.0000000000000000e+00" cType="1" res="1.2621209025382996e-03" rms="4.5215904712677002e-01" purity="4.9403855204582214e-01" nType="-99"/>
          <Node pos="r" depth="2" NCoef="0" IVar="-1" Cut="0.0000000000000000e+00" cType="1" res="1.8669646233320236e-02" rms="3.9757794141769409e-01" purity="7.4158996343612671e-01" nType="-99"/>
        </Node>
        <Node pos="r" depth="1" NCoef="0" IVar="8" Cut="1.7763908691406250e+03" cType="1" res="-2.3644521832466125e-02" rms="4.3024516105651855e-01" purity="4.2961555719375610e-01" nType="0">
          <Node pos="l" depth="2" NCoef="0" IVar="-1" Cut="0.0000000000000000e+00" cType="1" res="-8.2729225978255272e-03" rms="4.3854162096977234e-01" purity="3.7434539198875427e-01" nType="-99"/>
          <Node pos="r" depth="2" NCoef="0" IVar="-1" Cut="0.0000000000000000e+00" cType="1" res="1.7181592062115669e-02" rms="3.5374397039413452e-01" purity="8.3191996812820435e-01" nType="-99"/>
        </Node>
      </Node>
    </BinaryTree>
    <BinaryTree type="DecisionTree" boostWeight="1.0000000000000000e+00" itree="39">
      <Node pos="s" depth="0" NCoef="0" IVar="1" Cut="7.9197601318359375e+01" cType="1" res="1.9725044257938862e-03" rms="4.3072378635406494e-01" purity="5.0347697734832764e-01" nType="0">
        <Node pos="l" depth="1" NCoef="0" IVar="-1" Cut="0.0000000000000000e+00" cType="1" res="-2.1360266953706741e-02" rms="3.8645899295806885e-01" purity="2.2825908660888672e-01" nType="-99"/>
        <Node pos="r" depth="1" NCoef="0" IVar="6" Cut="4.2719629406929016e-01" cType="1" res="1.0106032714247704e-02" rms="4.3385127186775208e-01" purity="5.2981328964233398e-01" nType="0">
          <Node pos="l" depth="2" NCoef="0" IVar="-1" Cut="0.0000000000000000e+00" cType="1" res="5.6323464959859848e-03" rms="4.3502587080001831e-01" purity="5.7284539937973022e-01" nType="-99"/>
          <Node pos="r" depth="2" NCoef="0" IVar="-1" Cut="0.0000000000000000e+00" cType="1" res="-1.1946953833103180e-02" rms="4.2346188426017761e-01" purity="3.3373352885246277e-01" nType="-99"/>
        </Node>
      </Node>
    </BinaryTree>
    <BinaryTree type="DecisionTree" boostWeight="1.0000000000000000e+00" itree="40">
      <Node pos="s" depth="0" NCoef="0" IVar="1" Cut="1.3198919677734375e+02" cType="1" res="1.8092292593792081e-03" rms="4.3123748898506165e-01" purity="5.0199198722839355e-01" nType="0">
        <Node pos="l" depth="1" NCoef="0" IVar="6" Cut="1.5069709718227386e-01" cType="1" res="-3.0449431389570236e-02" rms="4.2392680048942566e-01" purity="3.3154159784317017e-01" nType="0">
          <Node pos="l" depth="2" NCoef="0" IVar="-1" Cut="0.0000000000000000e+00" cType="1" res="3.8564219139516354e-03" rms="4.4901147484779358e-01" purity="4.5389840006828308e-01" nType="-99"/>
          <Node pos="r" depth="2" NCoef="0" IVar="-1" Cut="0.0000000000000000e+00" cType="1" res="-1.3879337348043919e-02" rms="4.0874940156936646e-01" purity="2.7028024196624756e-01" nType="-99"/>
        </Node>
        <Node pos="r" depth="1" NCoef="0" IVar="6" Cut="3.5037809610366821e-01" cType="1" res="2.2099588066339493e-02" rms="4.3454790115356445e-01" purity="6.0920345783233643e-01" nType="0">
          <Node pos="l" depth="2" NCoef="0" IVar="-1" Cut="0.0000000000000000e+00" cType="1" res="9.4167320057749748e-03" rms="4.2674630880355835e-01" purity="6.7133444547653198e-01" nType="-99"/>
          <Node pos="r" depth="2" NCoef="0" IVar="-1" Cut="0.0000000000000000e+00" cType="1" res="-4.1483072564005852e-03" rms="4.5153164863586426e-01" purity="4.4935968518257141e-01" nType="-99"/>
        </Node>
      </Node>
    </BinaryTree>
    <BinaryTree type="DecisionTree" boostWeight="1.0000000000000000e+00" itree="41">
      <Node pos="s" depth="0" NCoef="0" IVar="0" Cut="1.8988769054412842e+00" cType="1" res="-1.0376131394878030e-03" rms="4.3100571632385254e-01" purity="5.0216889381408691e-01" nType="0">
        <Node pos="l" depth="1" NCoef="0" IVar="0" Cut="-1.2934863567352295e+00" cType="1" res="-2.1602191030979156e-02" rms="4.3211051821708679e-01" purity="4.6592721343040466e-01" nType="0">
          <Node pos="l" depth="2" NCoef="0" IVar="-1" Cut="0.0000000000000000e+00" cType="1" res="3.7617951165884733e-03" rms="4.3127289414405823e-01" purity="5.3778475522994995e-01" nType="-99"/>
          <Node pos="r" depth="2" NCoef="0" IVar="-1" Cut="0.0000000000000000e+00" cType="1" res="-1.7858216539025307e-02" rms="4.2801991105079651e-01" purity="3.6577650904655457e-01" nType="-99"/>
        </Node>
        <Node pos="r" depth="1" NCoef="0" IVar="5" Cut="1.2086354941129684e-01" cType="1" res="4.3905429542064667e-02" rms="4.2513266205787659e-01" purity="5.8137345314025879e-01" nType="0">
          <Node pos="l" depth="2" NCoef="0" IVar="-1" Cut="0.0000000000000000e+00" cType="1" res="2.3746997117996216e-02" rms="4.0825277566909790e-01" purity="7.1303033828735352e-01" nType="-99"/>
          <Node pos="r" depth="2" NCoef="0" IVar="-1" Cut="0.0000000000000000e+00" cType="1" res="6.1572496779263020e-03" rms="4.2963305115699768e-01" purity="5.3307908773422241e-01" nType="-99"/>
        </Node>
      </Node>
    </BinaryTree>
    <BinaryTree type="DecisionTree" boostWeight="1.0000000000000000e+00" itree="42">
      <Node pos="s" depth="0" NCoef="0" IVar="5" Cut="4.3756780028343201e-01" cType="1" res="-3.1889511737972498e-03" rms="4.3062290549278259e-01" purity="4.9764037132263184e-01" nType="0">
        <Node pos="l" depth="1" NCoef="0" IVar="2" Cut="1.0632921600341797e+02" cType="1" res="9.2794196680188179e-03" rms="4.3300423026084900e-01" purity="5.3528559207916260e-01" nType="0">
          <Node pos="l" depth="2" NCoef="0" IVar="-1" Cut="0.0000000000000000e+00" cType="1" res="-2.2672316990792751e-03" rms="4.4407936930656433e-01" purity="4.4293653964996338e-01" nType="-99"/>
          <Node pos="r" depth="2" NCoef="0" IVar="-1" Cut="0.0000000000000000e+00" cType="1" res="1.2205269187688828e-02" rms="4.0768879652023315e-01" purity="7.1783179044723511e-01" nType="-99"/>
        </Node>
        <Node pos="r" depth="1" NCoef="0" IVar="6" Cut="1.9047528505325317e-01" cType="1" res="-6.7162007093429565e-02" rms="4.1230323910713196e-01" purity="3.0448928475379944e-01" nType="0">
          <Node pos="l" depth="2" NCoef="0" IVar="-1" Cut="0.0000000000000000e+00" cType="1" res="-3.6519714631140232e-03" rms="4.3675273656845093e-01" purity="4.2925640940666199e-01" nType="-99"/>
          <Node pos="r" depth="2" NCoef="0" IVar="-1" Cut="0.0000000000000000e+00" cType="1" res="-2.4066561833024025e-02" rms="3.9726483821868896e-01" purity="2.4314311146736145e-01" nType="-99"/>
        </Node>
      </Node>
    </BinaryTree>
    <BinaryTree type="DecisionTree" boostWeight="1.0000000000000000e+00" itree="43">
      <Node pos="s" depth="0" NCoef="0" IVar="0" Cut="2.2375011444091797e+00" cType="1" res="-1.2092906981706619e-03" rms="4.2914399504661560e-01" purity="4.9875944852828979e-01" nType="0">
        <Node pos="l" depth="1" NCoef="0" IVar="0" Cut="-1.4236496686935425e+00" cType="1" res="-1.4813113957643509e-02" rms="4.2971137166023254e-01" purity="4.6831470727920532e-01" nType="0">
          <Node pos="l" depth="2" NCoef="0" IVar="-1" Cut="0.0000000000000000e+00" cType="1" res="5.9465486556291580e-03" rms="4.2815807461738586e-01" purity="5.4744750261306763e-01" nType="-99"/>
          <Node pos="r" depth="2" NCoef="0" IVar="-1" Cut="0.0000000000000000e+00" cType="1" res="-1.3941976241767406e-02" rms="4.2747944593429565e-01" purity="3.8345551490783691e-01" nType="-99"/>
        </Node>
        <Node pos="r" depth="1" NCoef="0" IVar="6" Cut="1.5777210891246796e-01" cType="1" res="3.9633207023143768e-02" rms="4.2482677102088928e-01" purity="5.9016323089599609e-01" nType="0">
          <Node pos="l" depth="2" NCoef="0" IVar="-1" Cut="0.0000000000000000e+00" cType="1" res="2.0052032545208931e-02" rms="4.0489593148231506e-01" purity="7.0098519325256348e-01" nType="-99"/>
          <Node pos="r" depth="2" NCoef="0" IVar="-1" Cut="0.0000000000000000e+00" cType="1" res="4.2704930528998375e-03" rms="4.3405830860137939e-01" purity="5.2782613039016724e-01" nType="-99"/>
        </Node>
      </Node>
    </BinaryTree>
    <BinaryTree type="DecisionTree" boostWeight="1.0000000000000000e+00" itree="44">
      <Node pos="s" depth="0" NCoef="0" IVar="7" Cut="1.7885414123535156e+02" cType="1" res="-2.3809534031897783e-03" rms="4.2891523241996765e-01" purity="4.9615111947059631e-01" nType="0">
        <Node pos="l" depth="1" NCoef="0" IVar="1" Cut="8.9650497436523438e+01" cType="1" res="-1.1192672885954380e-02" rms="4.2900016903877258e-01" purity="4.7918823361396790e-01" nType="0">
          <Node pos="l" depth="2" NCoef="0" IVar="-1" Cut="0.0000000000000000e+00" cType="1" res="-1.7195310443639755e-02" rms="3.8629654049873352e-01" purity="2.3559485375881195e-01" nType="-99"/>
          <Node pos="r" depth="2" NCoef="0" IVar="-1" Cut="0.0000000000000000e+00" cType="1" res="-3.9036953239701688e-04" rms="4.3549594283103943e-01" purity="5.2273327112197876e-01" nType="-99"/>
        </Node>
        <Node pos="r" depth="1" NCoef="0" IVar="-1" Cut="0.0000000000000000e+00" cType="1" res="2.2853093221783638e-02" rms="4.1670763492584229e-01" purity="6.7598766088485718e-01" nType="-99"/>
      </Node>
    </BinaryTree>
    <BinaryTree type="DecisionTree" boostWeight="1.0000000000000000e+00" itree="45">
      <Node pos="s" depth="0" NCoef="0" IVar="6" Cut="4.6151712536811829e-01" cType="1" res="1.6796499257907271e-03" rms="4.2862612009048462e-01" purity="5.0239783525466919e-01" nType="0">
        <Node pos="l" depth="1" NCoef="0" IVar="1" Cut="7.9586662292480469e+01" cType="1" res="1.0781353339552879e-02" rms="4.3048638105392456e-01" purity="5.3516209125518799e-01" nType="0">
          <Node pos="l" depth="2" NCoef="0" IVar="-1" Cut="0.0000000000000000e+00" cType="1" res="-1.4195553958415985e-02" rms="3.9807957410812378e-01" purity="2.4398799240589142e-01" nType="-99"/>
          <Node pos="r" depth="2" NCoef="0" IVar="-1" Cut="0.0000000000000000e+00" cType="1" res="4.2126704938709736e-03" rms="4.3298217654228210e-01" purity="5.6338459253311157e-01" nType="-99"/>
        </Node>
        <Node pos="r" depth="1" NCoef="0" IVar="5" Cut="2.2060617804527283e-01" cType="1" res="-5.2892398089170456e-02" rms="4.1311413049697876e-01" purity="3.0594959855079651e-01" nType="0">
          <Node pos="l" depth="2" NCoef="0" IVar="-1" Cut="0.0000000000000000e+00" cType="1" res="-3.1813716050237417e-03" rms="4.4250807166099548e-01" purity="4.1772219538688660e-01" nType="-99"/>
          <Node pos="r" depth="2" NCoef="0" IVar="-1" Cut="0.0000000000000000e+00" cType="1" res="-2.0807653665542603e-02" rms="3.9090847969055176e-01" purity="2.3388107120990753e-01" nType="-99"/>
        </Node>
      </Node>
    </BinaryTree>
    <BinaryTree type="DecisionTree" boostWeight="1.0000000000000000e+00" itree="46">
      <Node pos="s" depth="0" NCoef="0" IVar="5" Cut="3.6273866891860962e-01" cType="1" res="-2.3157469695433974e-04" rms="4.2916381359100342e-01" purity="5.0221341848373413e-01" nType="0">
        <Node pos="l" depth="1" NCoef="0" IVar="0" Cut="-1.6318677663803101e+00" cType="1" res="1.2739090248942375e-02" rms="4.3158322572708130e-01" purity="5.5559605360031128e-01" nType="0">
          <Node pos="l" depth="2" NCoef="0" IVar="-1" Cut="0.0000000000000000e+00" cType="1" res="1.1285492219030857e-02" rms="4.2527535557746887e-01" purity="6.2115830183029175e-01" nType="-99"/>
          <Node pos="r" depth="2" NCoef="0" IVar="-1" Cut="0.0000000000000000e+00" cType="1" res="-1.2975354911759496e-03" rms="4.3400108814239502e-01" purity="5.1921176910400391e-01" nType="-99"/>
        </Node>
        <Node pos="r" depth="1" NCoef="0" IVar="1" Cut="2.1918936157226562e+02" cType="1" res="-3.8715917617082596e-02" rms="4.1955041885375977e-01" purity="3.4382557868957520e-01" nType="0">
          <Node pos="l" depth="2" NCoef="0" IVar="-1" Cut="0.0000000000000000e+00" cType="1" res="-1.4185366220772266e-02" rms="4.0938544273376465e-01" purity="2.6707062125205994e-01" nType="-99"/>
          <Node pos="r" depth="2" NCoef="0" IVar="-1" Cut="0.0000000000000000e+00" cType="1" res="2.1123392507433891e-03" rms="4.4558882713317871e-01" purity="5.7655674219131470e-01" nType="-99"/>
        </Node>
      </Node>
    </BinaryTree>
    <BinaryTree type="DecisionTree" boostWeight="1.0000000000000000e+00" itree="47">
      <Node pos="s" depth="0" NCoef="0" IVar="2" Cut="1.5649456787109375e+02" cType="1" res="-5.2837897092103958e-03" rms="4.2731311917304993e-01" purity="4.9587967991828918e-01" nType="0">
        <Node pos="l" depth="1" NCoef="0" IVar="5" Cut="3.5229572653770447e-01" cType="1" res="-1.4522982761263847e-02" rms="4.3419373035430908e-01" purity="4.5152094960212708e-01" nType="0">
          <Node pos="l" depth="2" NCoef="0" IVar="-1" Cut="0.0000000000000000e+00" cType="1" res="6.0561182181118056e-05" rms="4.4097787141799927e-01" purity="5.1099419593811035e-01" nType="-99"/>
          <Node pos="r" depth="2" NCoef="0" IVar="-1" Cut="0.0000000000000000e+00" cType="1" res="-1.3868534006178379e-02" rms="4.1296407580375671e-01" purity="2.9278281331062317e-01" nType="-99"/>
        </Node>
        <Node pos="r" depth="1" NCoef="0" IVar="4" Cut="1.1864537811279297e+02" cType="1" res="5.7384096086025238e-02" rms="3.7132698297500610e-01" purity="7.9675745964050293e-01" nType="0">
          <Node pos="l" depth="2" NCoef="0" IVar="-1" Cut="0.0000000000000000e+00" cType="1" res="2.5308139622211456e-02" rms="3.4963238239288330e-01" purity="8.2554793357849121e-01" nType="-99"/>
          <Node pos="r" depth="2" NCoef="0" IVar="-1" Cut="0.0000000000000000e+00" cType="1" res="4.2212107218801975e-03" rms="3.9568647742271423e-01" purity="7.5656104087829590e-01" nType="-99"/>
        </Node>
      </Node>
    </BinaryTree>
    <BinaryTree type="DecisionTree" boostWeight="1.0000000000000000e+00" itree="48">
      <Node pos="s" depth="0" NCoef="0" IVar="8" Cut="6.0104931640625000e+02" cType="1" res="-5.8473984245210886e-04" rms="4.2841094732284546e-01" purity="4.9904283881187439e-01" nType="0">
        <Node pos="l" depth="1" NCoef="0" IVar="-1" Cut="0.0000000000000000e+00" cType="1" res="-1.3943744823336601e-02" rms="3.9845234155654907e-01" purity="2.1347016096115112e-01" nType="-99"/>
        <Node pos="r" depth="1" NCoef="0" IVar="6" Cut="2.4863137304782867e-01" cType="1" res="8.7342271581292152e-03" rms="4.3298134207725525e-01" purity="5.5093854665756226e-01" nType="0">
          <Node pos="l" depth="2" NCoef="0" IVar="-1" Cut="0.0000000000000000e+00" cType="1" res="7.1763694286346436e-03" rms="4.2679527401924133e-01" purity="6.3555449247360229e-01" nType="-99"/>
          <Node pos="r" depth="2" NCoef="0" IVar="-1" Cut="0.0000000000000000e+00" cType="1" res="-3.8353793788701296e-03" rms="4.3920984864234924e-01" purity="4.4727882742881775e-01" nType="-99"/>
        </Node>
      </Node>
    </BinaryTree>
    <BinaryTree type="DecisionTree" boostWeight="1.0000000000000000e+00" itree="49">
      <Node pos="s" depth="0" NCoef="0" IVar="8" Cut="2.3700544433593750e+03" cType="1" res="-2.7308890130370855e-03" rms="4.2967399954795837e-01" purity="4.9725446105003357e-01" nType="0">
        <Node pos="l" depth="1" NCoef="0" IVar="3" Cut="6.8448608398437500e+01" cType="1" res="-8.8802585378289223e-03" rms="4.3794661760330200e-01" purity="4.6528854966163635e-01" nType="0">
          <Node pos="l" depth="2" NCoef="0" IVar="-1" Cut="0.0000000000000000e+00" cType="1" res="4.9904808402061462e-03" rms="4.3418344855308533e-01" purity="4.6356794238090515e-01" nType="-99"/>
          <Node pos="r" depth="2" NCoef="0" IVar="-1" Cut="0.0000000000000000e+00" cType="1" res="-5.4463529959321022e-03" rms="4.3901488184928894e-01" purity="4.6607744693756104e-01" nType="-99"/>
        </Node>
        <Node pos="r" depth="1" NCoef="0" IVar="-1" Cut="0.0000000000000000e+00" cType="1" res="2.5731140747666359e-02" rms="2.9930683970451355e-01" purity="8.9265424013137817e-01" nType="-99"/>
      </Node>
    </BinaryTree>
    <BinaryTree type="DecisionTree" boostWeight="1.0000000000000000e+00" itree="50">
      <Node pos="s" depth="0" NCoef="0" IVar="7" Cut="1.9294670104980469e+02" cType="1" res="5.3334184922277927e-03" rms="4.2901197075843811e-01" purity="5.0590336322784424e-01" nType="0">
        <Node pos="l" depth="1" NCoef="0" IVar="2" Cut="7.5934959411621094e+01" cType="1" res="-1.0285687167197466e-03" rms="4.2926022410392761e-01" purity="4.9179649353027344e-01" nType="0">
          <Node pos="l" depth="2" NCoef="0" IVar="-1" Cut="0.0000000000000000e+00" cType="1" res="-6.8980483338236809e-03" rms="4.2716658115386963e-01" purity="3.5265195369720459e-01" nType="-99"/>
          <Node pos="r" depth="2" NCoef="0" IVar="-1" Cut="0.0000000000000000e+00" cType="1" res="4.0631089359521866e-03" rms="4.2973452806472778e-01" purity="5.8152711391448975e-01" nType="-99"/>
        </Node>
        <Node pos="r" depth="1" NCoef="0" IVar="-1" Cut="0.0000000000000000e+00" cType="1" res="2.3851787671446800e-02" rms="4.1595348715782166e-01" purity="6.9879412651062012e-01" nType="-99"/>
      </Node>
    </BinaryTree>
    <BinaryTree type="DecisionTree" boostWeight="1.0000000000000000e+00" itree="51">
      <Node pos="s" depth="0" NCoef="0" IVar="0" Cut="-1.9352477788925171e+00" cType="1" res="3.2832717988640070e-03" rms="4.2747128009796143e-01" purity="5.0466293096542358e-01" nType="0">
        <Node pos="l" depth="1" NCoef="0" IVar="6" Cut="2.3268195986747742e-01" cType="1" res="3.4805580973625183e-02" rms="4.2237058281898499e-01" purity="5.8077865839004517e-01" nType="0">
          <Node pos="l" depth="2" NCoef="0" IVar="-1" Cut="0.0000000000000000e+00" cType="1" res="1.5927599743008614e-02" rms="4.0930059552192688e-01" purity="6.7884111404418945e-01" nType="-99"/>
          <Node pos="r" depth="2" NCoef="0" IVar="-1" Cut="0.0000000000000000e+00" cType="1" res="1.3670226326212287e-03" rms="4.3416315317153931e-01" purity="4.7472020983695984e-01" nType="-99"/>
        </Node>
        <Node pos="r" depth="1" NCoef="0" IVar="0" Cut="1.7182197570800781e+00" cType="1" res="-1.1148395016789436e-02" rms="4.2901408672332764e-01" purity="4.6981531381607056e-01" nType="0">
          <Node pos="l" depth="2" NCoef="0" IVar="-1" Cut="0.0000000000000000e+00" cType="1" res="-1.2264433316886425e-02" rms="4.2929017543792725e-01" purity="3.7964418530464172e-01" nType="-99"/>
          <Node pos="r" depth="2" NCoef="0" IVar="-1" Cut="0.0000000000000000e+00" cType="1" res="6.5870997495949268e-03" rms="4.2547136545181274e-01" purity="5.5975681543350220e-01" nType="-99"/>
        </Node>
      </Node>
    </BinaryTree>
    <BinaryTree type="DecisionTree" boostWeight="1.0000000000000000e+00" itree="52">
      <Node pos="s" depth="0" NCoef="0" IVar="7" Cut="1.2566801452636719e+02" cType="1" res="-2.4806167930364609e-03" rms="4.2658662796020508e-01" purity="4.9913176894187927e-01" nType="0">
        <Node pos="l" depth="1" NCoef="0" IVar="2" Cut="1.4658447265625000e+02" cType="1" res="-1.2734785676002502e-02" rms="4.2568314075469971e-01" purity="4.7513437271118164e-01" nType="0">
          <Node pos="l" depth="2" NCoef="0" IVar="-1" Cut="0.0000000000000000e+00" cType="1" res="-5.2507570944726467e-03" rms="4.3166592717170715e-01" purity="4.2822596430778503e-01" nType="-99"/>
          <Node pos="r" depth="2" NCoef="0" IVar="-1" Cut="0.0000000000000000e+00" cType="1" res="1.1856316588819027e-02" rms="3.8111212849617004e-01" purity="7.7319282293319702e-01" nType="-99"/>
        </Node>
        <Node pos="r" depth="1" NCoef="0" IVar="6" Cut="1.7888684570789337e-01" cType="1" res="4.0134981274604797e-02" rms="4.2769512534141541e-01" purity="5.9886312484741211e-01" nType="0">
          <Node pos="l" depth="2" NCoef="0" IVar="-1" Cut="0.0000000000000000e+00" cType="1" res="2.0390368998050690e-02" rms="3.9943978190422058e-01" purity="7.1669471263885498e-01" nType="-99"/>
          <Node pos="r" depth="2" NCoef="0" IVar="-1" Cut="0.0000000000000000e+00" cType="1" res="3.9611919783055782e-03" rms="4.4360581040382385e-01" purity="5.2149242162704468e-01" nType="-99"/>
        </Node>
      </Node>
    </BinaryTree>
    <BinaryTree type="DecisionTree" boostWeight="1.0000000000000000e+00" itree="53">
      <Node pos="s" depth="0" NCoef="0" IVar="2" Cut="6.3131137847900391e+01" cType="1" res="-2.4873591028153896e-03" rms="4.2738646268844604e-01" purity="4.9477651715278625e-01" nType="0">
        <Node pos="l" depth="1" NCoef="0" IVar="0" Cut="-1.7119711637496948e+00" cType="1" res="-4.1743535548448563e-02" rms="4.1710597276687622e-01" purity="3.1935077905654907e-01" nType="0">
          <Node pos="l" depth="2" NCoef="0" IVar="-1" Cut="0.0000000000000000e+00" cType="1" res="-2.0495967473834753e-03" rms="4.3074622750282288e-01" purity="3.8474780321121216e-01" nType="-99"/>
          <Node pos="r" depth="2" NCoef="0" IVar="-1" Cut="0.0000000000000000e+00" cType="1" res="-1.4371195808053017e-02" rms="4.1047692298889160e-01" purity="2.9207360744476318e-01" nType="-99"/>
        </Node>
        <Node pos="r" depth="1" NCoef="0" IVar="5" Cut="4.8708367347717285e-01" cType="1" res="8.3214156329631805e-03" rms="4.2954453825950623e-01" purity="5.4307818412780762e-01" nType="0">
          <Node pos="l" depth="2" NCoef="0" IVar="-1" Cut="0.0000000000000000e+00" cType="1" res="3.9760586805641651e-03" rms="4.2963796854019165e-01" purity="5.7135725021362305e-01" nType="-99"/>
          <Node pos="r" depth="2" NCoef="0" IVar="-1" Cut="0.0000000000000000e+00" cType="1" res="-1.2225171551108360e-02" rms="4.2466229200363159e-01" purity="3.2993605732917786e-01" nType="-99"/>
        </Node>
      </Node>
    </BinaryTree>
    <BinaryTree type="DecisionTree" boostWeight="1.0000000000000000e+00" itree="54">
      <Node pos="s" depth="0" NCoef="0" IVar="0" Cut="1.5376280546188354e+00" cType="1" res="-2.8571551665663719e-03" rms="4.2676374316215515e-01" purity="4.9628576636314392e-01" nType="0">
        <Node pos="l" depth="1" NCoef="0" IVar="0" Cut="-1.1470311880111694e+00" cType="1" res="-1.8144519999623299e-02" rms="4.2640003561973572e-01" purity="4.6426901221275330e-01" nType="0">
          <Node pos="l" depth="2" NCoef="0" IVar="-1" Cut="0.0000000000000000e+00" cType="1" res="2.8265425935387611e-03" rms="4.2657878994941711e-01" purity="5.3387773036956787e-01" nType="-99"/>
          <Node pos="r" depth="2" NCoef="0" IVar="-1" Cut="0.0000000000000000e+00" cType="1" res="-1.8567485734820366e-02" rms="4.2063367366790771e-01" purity="3.3432641625404358e-01" nType="-99"/>
        </Node>
        <Node pos="r" depth="1" NCoef="0" IVar="6" Cut="1.1799488216638565e-01" cType="1" res="2.3142848163843155e-02" rms="4.2612385749816895e-01" purity="5.5073827505111694e-01" nType="0">
          <Node pos="l" depth="2" NCoef="0" IVar="-1" Cut="0.0000000000000000e+00" cType="1" res="1.7021827399730682e-02" rms="4.0549308061599731e-01" purity="6.8120533227920532e-01" nType="-99"/>
          <Node pos="r" depth="2" NCoef="0" IVar="-1" Cut="0.0000000000000000e+00" cType="1" res="1.9057529279962182e-03" rms="4.3224999308586121e-01" purity="5.0377464294433594e-01" nType="-99"/>
        </Node>
      </Node>
    </BinaryTree>
    <BinaryTree type="DecisionTree" boostWeight="1.0000000000000000e+00" itree="55">
      <Node pos="s" depth="0" NCoef="0" IVar="8" Cut="6.0357238769531250e+02" cType="1" res="-1.0015185689553618e-03" rms="4.2698508501052856e-01" purity="4.9767521023750305e-01" nType="0">
        <Node pos="l" depth="1" NCoef="0" IVar="-1" Cut="0.0000000000000000e+00" cType="1" res="-1.3800082728266716e-02" rms="3.9522179961204529e-01" purity="2.0868356525897980e-01" nType="-99"/>
        <Node pos="r" depth="1" NCoef="0" IVar="5" Cut="1.9456304609775543e-01" cType="1" res="8.6105689406394958e-03" rms="4.3225443363189697e-01" purity="5.5404102802276611e-01" nType="0">
          <Node pos="l" depth="2" NCoef="0" IVar="-1" Cut="0.0000000000000000e+00" cType="1" res="7.5841308571398258e-03" rms="4.2681941390037537e-01" purity="6.4724099636077881e-01" nType="-99"/>
          <Node pos="r" depth="2" NCoef="0" IVar="-1" Cut="0.0000000000000000e+00" cType="1" res="-2.0649484358727932e-03" rms="4.3579322099685669e-01" purity="4.7982439398765564e-01" nType="-99"/>
        </Node>
      </Node>
    </BinaryTree>
    <BinaryTree type="DecisionTree" boostWeight="1.0000000000000000e+00" itree="56">
      <Node pos="s" depth="0" NCoef="0" IVar="2" Cut="7.5396095275878906e+01" cType="1" res="-6.5194279886782169e-04" rms="4.2645171284675598e-01" purity="5.0059998035430908e-01" nType="0">
        <Node pos="l" depth="1" NCoef="0" IVar="0" Cut="2.1349391937255859e+00" cType="1" res="-2.6945007964968681e-02" rms="4.2435348033905029e-01" purity="3.5270559787750244e-01" nType="0">
          <Node pos="l" depth="2" NCoef="0" IVar="-1" Cut="0.0000000000000000e+00" cType="1" res="-1.0592680424451828e-02" rms="4.1910609602928162e-01" purity="3.2521358132362366e-01" nType="-99"/>
          <Node pos="r" depth="2" NCoef="0" IVar="-1" Cut="0.0000000000000000e+00" cType="1" res="5.2622254006564617e-03" rms="4.3811047077178955e-01" purity="4.4541487097740173e-01" nType="-99"/>
        </Node>
        <Node pos="r" depth="1" NCoef="0" IVar="3" Cut="5.9973178863525391e+01" cType="1" res="1.5341931022703648e-02" rms="4.2693167924880981e-01" purity="5.9056299924850464e-01" nType="0">
          <Node pos="l" depth="2" NCoef="0" IVar="-1" Cut="0.0000000000000000e+00" cType="1" res="1.4422476291656494e-02" rms="4.2453247308731079e-01" purity="6.1560398340225220e-01" nType="-99"/>
          <Node pos="r" depth="2" NCoef="0" IVar="-1" Cut="0.0000000000000000e+00" cType="1" res="8.5254653822630644e-04" rms="4.2685940861701965e-01" purity="5.8337658643722534e-01" nType="-99"/>
        </Node>
      </Node>
    </BinaryTree>
    <BinaryTree type="DecisionTree" boostWeight="1.0000000000000000e+00" itree="57">
      <Node pos="s" depth="0" NCoef="0" IVar="0" Cut="-2.1734335422515869e+00" cType="1" res="1.5514373080804944e-03" rms="4.2585694789886475e-01" purity="5.0093567371368408e-01" nType="0">
        <Node pos="l" depth="1" NCoef="0" IVar="5" Cut="1.8586431443691254e-01" cType="1" res="3.0558634549379349e-02" rms="4.2143857479095459e-01" purity="5.8074021339416504e-01" nType="0">
          <Node pos="l" depth="2" NCoef="0" IVar="-1" Cut="0.0000000000000000e+00" cType="1" res="1.6434215009212494e-02" rms="3.9968711137771606e-01" purity="6.9491088390350342e-01" nType="-99"/>
          <Node pos="r" depth="2" NCoef="0" IVar="-1" Cut="0.0000000000000000e+00" cType="1" res="2.3816484026610851e-03" rms="4.3375453352928162e-01" purity="5.0617235898971558e-01" nType="-99"/>
        </Node>
        <Node pos="r" depth="1" NCoef="0" IVar="0" Cut="1.2815288305282593e+00" cType="1" res="-9.1033484786748886e-03" rms="4.2697381973266602e-01" purity="4.7162219882011414e-01" nType="0">
          <Node pos="l" depth="2" NCoef="0" IVar="-1" Cut="0.0000000000000000e+00" cType="1" res="-1.1770870536565781e-02" rms="4.2524865269660950e-01" purity="3.8054215908050537e-01" nType="-99"/>
          <Node pos="r" depth="2" NCoef="0" IVar="-1" Cut="0.0000000000000000e+00" cType="1" res="5.4577183909714222e-03" rms="4.2599093914031982e-01" purity="5.4704427719116211e-01" nType="-99"/>
        </Node>
      </Node>
    </BinaryTree>
    <BinaryTree type="DecisionTree" boostWeight="1.0000000000000000e+00" itree="58">
      <Node pos="s" depth="0" NCoef="0" IVar="6" Cut="2.1483542025089264e-01" cType="1" res="-2.6811982024810277e-05" rms="4.2614522576332092e-01" purity="4.9845784902572632e-01" nType="0">
        <Node pos="l" depth="1" NCoef="0" IVar="7" Cut="1.6042597961425781e+02" cType="1" res="2.2625386714935303e-02" rms="4.2595517635345459e-01" purity="6.0098069906234741e-01" nType="0">
          <Node pos="l" depth="2" NCoef="0" IVar="-1" Cut="0.0000000000000000e+00" cType="1" res="3.8838987238705158e-03" rms="4.2821538448333740e-01" purity="5.8189475536346436e-01" nType="-99"/>
          <Node pos="r" depth="2" NCoef="0" IVar="-1" Cut="0.0000000000000000e+00" cType="1" res="2.1366497501730919e-02" rms="4.0383100509643555e-01" purity="7.4789184331893921e-01" nType="-99"/>
        </Node>
        <Node pos="r" depth="1" NCoef="0" IVar="1" Cut="2.0597245788574219e+02" cType="1" res="-1.9992316141724586e-02" rms="4.2531356215476990e-01" purity="4.0809491276741028e-01" nType="0">
          <Node pos="l" depth="2" NCoef="0" IVar="-1" Cut="0.0000000000000000e+00" cType="1" res="-8.7269106879830360e-03" rms="4.2073333263397217e-01" purity="3.2250800728797913e-01" nType="-99"/>
          <Node pos="r" depth="2" NCoef="0" IVar="-1" Cut="0.0000000000000000e+00" cType="1" res="3.3011112827807665e-03" rms="4.3461608886718750e-01" purity="6.1909407377243042e-01" nType="-99"/>
        </Node>
      </Node>
    </BinaryTree>
    <BinaryTree type="DecisionTree" boostWeight="1.0000000000000000e+00" itree="59">
      <Node pos="s" depth="0" NCoef="0" IVar="8" Cut="6.0070098876953125e+02" cType="1" res="4.5427484437823296e-03" rms="4.2604053020477295e-01" purity="5.0693058967590332e-01" nType="0">
        <Node pos="l" depth="1" NCoef="0" IVar="-1" Cut="0.0000000000000000e+00" cType="1" res="-1.0827178135514259e-02" rms="3.9859306812286377e-01" purity="2.1546721458435059e-01" nType="-99"/>
        <Node pos="r" depth="1" NCoef="0" IVar="5" Cut="1.8016612529754639e-01" cType="1" res="1.2646630406379700e-02" rms="4.3047830462455750e-01" purity="5.6125986576080322e-01" nType="0">
          <Node pos="l" depth="2" NCoef="0" IVar="-1" Cut="0.0000000000000000e+00" cType="1" res="8.6893355473875999e-03" rms="4.2073601484298706e-01" purity="6.5845501422882080e-01" nType="-99"/>
          <Node pos="r" depth="2" NCoef="0" IVar="-1" Cut="0.0000000000000000e+00" cType="1" res="-5.6964566465467215e-04" rms="4.3658411502838135e-01" purity="4.9288532137870789e-01" nType="-99"/>
        </Node>
      </Node>
    </BinaryTree>
    <BinaryTree type="DecisionTree" boostWeight="1.0000000000000000e+00" itree="60">
      <Node pos="s" depth="0" NCoef="0" IVar="7" Cut="1.7856141662597656e+02" cType="1" res="-1.8788826419040561e-03" rms="4.2705580592155457e-01" purity="4.9892729520797729e-01" nType="0">
        <Node pos="l" depth="1" NCoef="0" IVar="0" Cut="2.5246384143829346e+00" cType="1" res="-7.1815354749560356e-03" rms="4.2746648192405701e-01" purity="4.8309466242790222e-01" nType="0">
          <Node pos="l" depth="2" NCoef="0" IVar="-1" Cut="0.0000000000000000e+00" cType="1" res="-3.9792805910110474e-03" rms="4.2768904566764832e-01" purity="4.5796132087707520e-01" nType="-99"/>
          <Node pos="r" depth="2" NCoef="0" IVar="-1" Cut="0.0000000000000000e+00" cType="1" res="6.9827870465815067e-03" rms="4.2482781410217285e-01" purity="5.8676731586456299e-01" nType="-99"/>
        </Node>
        <Node pos="r" depth="1" NCoef="0" IVar="-1" Cut="0.0000000000000000e+00" cType="1" res="1.4004077762365341e-02" rms="4.1875904798507690e-01" purity="6.6414713859558105e-01" nType="-99"/>
      </Node>
    </BinaryTree>
    <BinaryTree type="DecisionTree" boostWeight="1.0000000000000000e+00" itree="61">
      <Node pos="s" depth="0" NCoef="0" IVar="7" Cut="1.4256250000000000e+02" cType="1" res="6.0495815705507994e-04" rms="4.2557856440544128e-01" purity="5.0322312116622925e-01" nType="0">
        <Node pos="l" depth="1" NCoef="0" IVar="8" Cut="2.3261401367187500e+03" cType="1" res="-7.1985288523137569e-03" rms="4.2472761869430542e-01" purity="4.8051205277442932e-01" nType="0">
          <Node pos="l" depth="2" NCoef="0" IVar="-1" Cut="0.0000000000000000e+00" cType="1" res="-3.1379754655063152e-03" rms="4.3271154165267944e-01" purity="4.4791826605796814e-01" nType="-99"/>
          <Node pos="r" depth="2" NCoef="0" IVar="-1" Cut="0.0000000000000000e+00" cType="1" res="2.1961454302072525e-02" rms="3.0000457167625427e-01" purity="8.8798350095748901e-01" nType="-99"/>
        </Node>
        <Node pos="r" depth="1" NCoef="0" IVar="4" Cut="1.6581765747070312e+02" cType="1" res="4.5870725065469742e-02" rms="4.2768222093582153e-01" purity="6.3496333360671997e-01" nType="0">
          <Node pos="l" depth="2" NCoef="0" IVar="-1" Cut="0.0000000000000000e+00" cType="1" res="1.8296482041478157e-02" rms="4.3216937780380249e-01" purity="6.1764347553253174e-01" nType="-99"/>
          <Node pos="r" depth="2" NCoef="0" IVar="-1" Cut="0.0000000000000000e+00" cType="1" res="6.7227515392005444e-03" rms="4.2295435070991516e-01" purity="6.4880579710006714e-01" nType="-99"/>
        </Node>
      </Node>
    </BinaryTree>
    <BinaryTree type="DecisionTree" boostWeight="1.0000000000000000e+00" itree="62">
      <Node pos="s" depth="0" NCoef="0" IVar="0" Cut="1.3761112689971924e+00" cType="1" res="-7.3305028490722179e-03" rms="4.2629143595695496e-01" purity="4.9291580915451050e-01" nType="0">
        <Node pos="l" depth="1" NCoef="0" IVar="0" Cut="-8.0577766895294189e-01" cType="1" res="-2.0710382610559464e-02" rms="4.2534565925598145e-01" purity="4.6049344539642334e-01" nType="0">
          <Node pos="l" depth="2" NCoef="0" IVar="-1" Cut="0.0000000000000000e+00" cType="1" res="8.8940003479365259e-05" rms="4.2868390679359436e-01" purity="5.1843529939651489e-01" nType="-99"/>
          <Node pos="r" depth="2" NCoef="0" IVar="-1" Cut="0.0000000000000000e+00" cType="1" res="-1.9360531121492386e-02" rms="4.1204482316970825e-01" purity="3.1426388025283813e-01" nType="-99"/>
        </Node>
        <Node pos="r" depth="1" NCoef="0" IVar="5" Cut="3.3624494075775146e-01" cType="1" res="1.4044417999684811e-02" rms="4.2692884802818298e-01" purity="5.4471188783645630e-01" nType="0">
          <Node pos="l" depth="2" NCoef="0" IVar="-1" Cut="0.0000000000000000e+00" cType="1" res="7.5797489844262600e-03" rms="4.2684328556060791e-01" purity="6.1245816946029663e-01" nType="-99"/>
          <Node pos="r" depth="2" NCoef="0" IVar="-1" Cut="0.0000000000000000e+00" cType="1" res="-5.7078516110777855e-03" rms="4.2490914463996887e-01" purity="3.8562136888504028e-01" nType="-99"/>
        </Node>
      </Node>
    </BinaryTree>
    <BinaryTree type="DecisionTree" boostWeight="1.0000000000000000e+00" itree="63">
      <Node pos="s" depth="0" NCoef="0" IVar="2" Cut="6.0788684844970703e+01" cType="1" res="-4.4393851421773434e-03" rms="4.2682275176048279e-01" purity="4.9516904354095459e-01" nType="0">
        <Node pos="l" depth="1" NCoef="0" IVar="0" Cut="1.0028488636016846e+00" cType="1" res="-4.0182091295719147e-02" rms="4.1945877671241760e-01" purity="3.1215855479240417e-01" nType="0">
          <Node pos="l" depth="2" NCoef="0" IVar="-1" Cut="0.0000000000000000e+00" cType="1" res="-1.5348521061241627e-02" rms="4.1112428903579712e-01" purity="2.8195464611053467e-01" nType="-99"/>
          <Node pos="r" depth="2" NCoef="0" IVar="-1" Cut="0.0000000000000000e+00" cType="1" res="-3.5741592291742563e-03" rms="4.3023794889450073e-01" purity="3.5711950063705444e-01" nType="-99"/>
        </Node>
        <Node pos="r" depth="1" NCoef="0" IVar="8" Cut="2.3830668945312500e+03" cType="1" res="3.3387606963515282e-03" rms="4.2801323533058167e-01" purity="5.3499484062194824e-01" nType="0">
          <Node pos="l" depth="2" NCoef="0" IVar="-1" Cut="0.0000000000000000e+00" cType="1" res="-4.5567683991976082e-04" rms="4.3832987546920776e-01" purity="5.0213885307312012e-01" nType="-99"/>
          <Node pos="r" depth="2" NCoef="0" IVar="-1" Cut="0.0000000000000000e+00" cType="1" res="2.5066453963518143e-02" rms="2.7823489904403687e-01" purity="9.0993416309356689e-01" nType="-99"/>
        </Node>
      </Node>
    </BinaryTree>
    <BinaryTree type="DecisionTree" boostWeight="1.0000000000000000e+00" itree="64">
      <Node pos="s" depth="0" NCoef="0" IVar="6" Cut="1.0385163128376007e-01" cType="1" res="-2.7041272260248661e-03" rms="4.2730313539505005e-01" purity="4.9717089533805847e-01" nType="0">
        <Node pos="l" depth="1" NCoef="0" IVar="9" Cut="3.5525572299957275e+00" cType="1" res="2.9100997373461723e-02" rms="4.2533406615257263e-01" purity="6.2066525220870972e-01" nType="0">
          <Node pos="l" depth="2" NCoef="0" IVar="-1" Cut="0.0000000000000000e+00" cType="1" res="-6.3738442258909345e-04" rms="4.5983231067657471e-01" purity="5.4123127460479736e-01" nType="-99"/>
          <Node pos="r" depth="2" NCoef="0" IVar="-1" Cut="0.0000000000000000e+00" cType="1" res="1.0653161443769932e-02" rms="4.1253763437271118e-01" purity="6.4737081527709961e-01" nType="-99"/>
        </Node>
        <Node pos="r" depth="1" NCoef="0" IVar="5" Cut="5.1216894388198853e-01" cType="1" res="-1.2242433615028858e-02" rms="4.2743083834648132e-01" purity="4.6013519167900085e-01" nType="0">
          <Node pos="l" depth="2" NCoef="0" IVar="-1" Cut="0.0000000000000000e+00" cType="1" res="-1.5446607721969485e-03" rms="4.3202096223831177e-01" purity="4.8578301072120667e-01" nType="-99"/>
          <Node pos="r" depth="2" NCoef="0" IVar="-1" Cut="0.0000000000000000e+00" cType="1" res="-1.8305711448192596e-02" rms="3.8209038972854614e-01" purity="2.4183604121208191e-01" nType="-99"/>
