<?xml version="1.0"?>
<MethodSetup Method="BDT::BDTG_v0_bdt_wlwx">
  <GeneralInfo>
    <Info name="TMVA Release" value="4.2.1 [262657]"/>
    <Info name="ROOT Release" value="6.12/07 [396295]"/>
    <Info name="Creator" value="ceballos"/>
    <Info name="Date" value="Wed May 27 04:48:08 2020"/>
    <Info name="Host" value="Linux vocms0315.cern.ch 2.6.32-696.30.1.el6.x86_64 #1 SMP Tue May 22 06:09:36 CEST 2018 x86_64 x86_64 x86_64 GNU/Linux"/>
    <Info name="Dir" value="/home/ceballos/cms/cmssw/051/CMSSW_10_3_2/src"/>
    <Info name="Training events" value="212197"/>
    <Info name="TrainingTime" value="2.32371875e+02"/>
    <Info name="AnalysisType" value="Classification"/>
  </GeneralInfo>
  <Options>
    <Option name="V" modified="Yes">False</Option>
    <Option name="VerbosityLevel" modified="No">Default</Option>
    <Option name="VarTransform" modified="No">None</Option>
    <Option name="H" modified="Yes">False</Option>
    <Option name="CreateMVAPdfs" modified="No">False</Option>
    <Option name="IgnoreNegWeightsInTraining" modified="No">False</Option>
    <Option name="NTrees" modified="Yes">1000</Option>
    <Option name="MaxDepth" modified="Yes">2</Option>
    <Option name="MinNodeSize" modified="Yes">5%</Option>
    <Option name="nCuts" modified="Yes">10000</Option>
    <Option name="BoostType" modified="Yes">Grad</Option>
    <Option name="AdaBoostR2Loss" modified="No">quadratic</Option>
    <Option name="UseBaggedBoost" modified="Yes">True</Option>
    <Option name="Shrinkage" modified="Yes">1.000000e-01</Option>
    <Option name="AdaBoostBeta" modified="No">5.000000e-01</Option>
    <Option name="UseRandomisedTrees" modified="No">False</Option>
    <Option name="UseNvars" modified="No">4</Option>
    <Option name="UsePoissonNvars" modified="No">True</Option>
    <Option name="BaggedSampleFraction" modified="No">5.000000e-01</Option>
    <Option name="UseYesNoLeaf" modified="No">True</Option>
    <Option name="NegWeightTreatment" modified="Yes">ignorenegweightsintraining</Option>
    <Option name="Css" modified="No">1.000000e+00</Option>
    <Option name="Cts_sb" modified="No">1.000000e+00</Option>
    <Option name="Ctb_ss" modified="No">1.000000e+00</Option>
    <Option name="Cbb" modified="No">1.000000e+00</Option>
    <Option name="NodePurityLimit" modified="No">5.000000e-01</Option>
    <Option name="SeparationType" modified="No">giniindex</Option>
    <Option name="RegressionLossFunctionBDTG" modified="No">huber</Option>
    <Option name="HuberQuantile" modified="No">7.000000e-01</Option>
    <Option name="DoBoostMonitor" modified="No">False</Option>
    <Option name="UseFisherCuts" modified="No">False</Option>
    <Option name="MinLinCorrForFisher" modified="No">8.000000e-01</Option>
    <Option name="UseExclusiveVars" modified="No">False</Option>
    <Option name="DoPreselection" modified="No">False</Option>
    <Option name="SigToBkgFraction" modified="No">1.000000e+00</Option>
    <Option name="PruneMethod" modified="No">nopruning</Option>
    <Option name="PruneStrength" modified="No">0.000000e+00</Option>
    <Option name="PruningValFraction" modified="No">5.000000e-01</Option>
    <Option name="SkipNormalization" modified="No">False</Option>
    <Option name="nEventsMin" modified="No">0</Option>
    <Option name="UseBaggedGrad" modified="No">False</Option>
    <Option name="GradBaggingFraction" modified="Yes">5.000000e-01</Option>
    <Option name="UseNTrainEvents" modified="No">0</Option>
    <Option name="NNodesMax" modified="No">0</Option>
  </Options>
  <Variables NVar="15">
    <Variable VarIndex="0" Expression="mvadphijj" Label="mvadphijj" Title="mvadphijj" Unit="" Internal="mvadphijj" Type="F" Min="-3.14157033e+00" Max="3.14158154e+00"/>
    <Variable VarIndex="1" Expression="mvajetpt1" Label="mvajetpt1" Title="mvajetpt1" Unit="" Internal="mvajetpt1" Type="F" Min="5.02487488e+01" Max="2.19191650e+03"/>
    <Variable VarIndex="2" Expression="mvajetpt2" Label="mvajetpt2" Title="mvajetpt2" Unit="" Internal="mvajetpt2" Type="F" Min="5.00003090e+01" Max="1.47258972e+03"/>
    <Variable VarIndex="3" Expression="mvaWpt" Label="mvaWpt" Title="mvaMet" Unit="" Internal="mvaWpt" Type="F" Min="3.00003586e+01" Max="1.91673596e+03"/>
    <Variable VarIndex="4" Expression="mvaZpt" Label="mvaZpt" Title="mvaZpt" Unit="" Internal="mvaZpt" Type="F" Min="1.22788265e-01" Max="1.18650903e+03"/>
    <Variable VarIndex="5" Expression="mvaVVmt" Label="mvaVVmt" Title="mvaVVmt" Unit="" Internal="mvaVVmt" Type="F" Min="3.27329355e-04" Max="1.88533789e+03"/>
    <Variable VarIndex="6" Expression="mvazep1" Label="mvazep1" Title="mvazep1" Unit="" Internal="mvazep1" Type="F" Min="7.60112130e-07" Max="7.49844074e-01"/>
    <Variable VarIndex="7" Expression="mvazep2" Label="mvazep2" Title="mvazep2" Unit="" Internal="mvazep2" Type="F" Min="1.39809080e-08" Max="7.49936819e-01"/>
    <Variable VarIndex="8" Expression="mvaj1Zdr" Label="mvaj1Zdr" Title="mvaj1Zdr" Unit="" Internal="mvaj1Zdr" Type="F" Min="2.10219249e-02" Max="9.72810459e+00"/>
    <Variable VarIndex="9" Expression="mvaj2Zdr" Label="mvaj2Zdr" Title="mvaj2Zdr" Unit="" Internal="mvaj2Zdr" Type="F" Min="2.36936635e-03" Max="1.06894875e+01"/>
    <Variable VarIndex="10" Expression="mvaleppt1" Label="mvaleppt1" Title="mvaleppt1" Unit="" Internal="mvaleppt1" Type="F" Min="2.00000534e+01" Max="1.20468457e+03"/>
    <Variable VarIndex="11" Expression="mvaleppt2" Label="mvaleppt2" Title="mvaleppt2" Unit="" Internal="mvaleppt2" Type="F" Min="2.00007553e+01" Max="1.39373596e+03"/>
    <Variable VarIndex="12" Expression="mvadphill" Label="mvadphill" Title="mvadphill" Unit="" Internal="mvadphill" Type="F" Min="1.84774399e-06" Max="3.14158487e+00"/>
    <Variable VarIndex="13" Expression="mvamll" Label="mvamll" Title="mvamll" Unit="" Internal="mvamll" Type="F" Min="2.00004139e+01" Max="2.11387598e+03"/>
    <Variable VarIndex="14" Expression="(mvaleppt1*mvaleppt2)/(mvajetpt1*mvajetpt2)" Label="(mvaleppt1*mvaleppt2)/(mvajetpt1*mvajetpt2)" Title="mvaptrel" Unit="" Internal="_mvaleppt1_T_mvaleppt2__D__mvajetpt1_T_mvajetpt2_" Type="F" Min="6.61546423e-04" Max="2.27966919e+02"/>
  </Variables>
  <Spectators NSpec="0"/>
  <Classes NClass="2">
    <Class Name="Signal" Index="0"/>
    <Class Name="Background" Index="1"/>
  </Classes>
  <Transformations NTransformations="0"/>
  <MVAPdfs/>
  <Weights NTrees="1000" AnalysisType="1">
    <BinaryTree type="DecisionTree" boostWeight="1.0000000000000000e+00" itree="0">
      <Node pos="s" depth="0" NCoef="0" IVar="12" Cut="1.7487397193908691e+00" cType="1" res="-7.3121301829814911e-04" rms="4.9999946355819702e-01" purity="4.9926882982254028e-01" nType="0">
        <Node pos="l" depth="1" NCoef="0" IVar="13" Cut="6.1227203369140625e+01" cType="1" res="9.2884123325347900e-02" rms="4.9129679799079895e-01" purity="5.9288412332534790e-01" nType="0">
          <Node pos="l" depth="2" NCoef="0" IVar="-1" Cut="0.0000000000000000e+00" cType="1" res="6.6094665089622140e-04" rms="4.9998909235000610e-01" purity="5.0330471992492676e-01" nType="-99"/>
          <Node pos="r" depth="2" NCoef="0" IVar="-1" Cut="0.0000000000000000e+00" cType="1" res="2.5453004986047745e-02" rms="4.8353242874145508e-01" purity="6.2726497650146484e-01" nType="-99"/>
        </Node>
        <Node pos="r" depth="1" NCoef="0" IVar="10" Cut="7.5200645446777344e+01" cType="1" res="-7.9756900668144226e-02" rms="4.9359783530235291e-01" purity="4.2024308443069458e-01" nType="0">
          <Node pos="l" depth="2" NCoef="0" IVar="-1" Cut="0.0000000000000000e+00" cType="1" res="3.5374891012907028e-03" rms="4.9968704581260681e-01" purity="5.1768743991851807e-01" nType="-99"/>
          <Node pos="r" depth="2" NCoef="0" IVar="-1" Cut="0.0000000000000000e+00" cType="1" res="-3.3478543162345886e-02" rms="4.7114717960357666e-01" purity="3.3260726928710938e-01" nType="-99"/>
        </Node>
      </Node>
    </BinaryTree>
    <BinaryTree type="DecisionTree" boostWeight="1.0000000000000000e+00" itree="1">
      <Node pos="s" depth="0" NCoef="0" IVar="10" Cut="9.0516471862792969e+01" cType="1" res="-1.3047670945525169e-03" rms="4.9754062294960022e-01" purity="4.9866220355033875e-01" nType="0">
        <Node pos="l" depth="1" NCoef="0" IVar="11" Cut="6.9677131652832031e+01" cType="1" res="6.3697263598442078e-02" rms="4.9433690309524536e-01" purity="5.6714874505996704e-01" nType="0">
          <Node pos="l" depth="2" NCoef="0" IVar="-1" Cut="0.0000000000000000e+00" cType="1" res="1.9696639850735664e-02" rms="4.8838844895362854e-01" purity="6.0180461406707764e-01" nType="-99"/>
          <Node pos="r" depth="2" NCoef="0" IVar="-1" Cut="0.0000000000000000e+00" cType="1" res="-8.0246496945619583e-03" rms="4.9743816256523132e-01" purity="4.6364217996597290e-01" nType="-99"/>
        </Node>
        <Node pos="r" depth="1" NCoef="0" IVar="12" Cut="1.4688518047332764e+00" cType="1" res="-1.1191476881504059e-01" rms="4.8324888944625854e-01" purity="3.8212278485298157e-01" nType="0">
          <Node pos="l" depth="2" NCoef="0" IVar="-1" Cut="0.0000000000000000e+00" cType="1" res="6.8772262893617153e-03" rms="4.9746194481849670e-01" purity="5.4534995555877686e-01" nType="-99"/>
          <Node pos="r" depth="2" NCoef="0" IVar="-1" Cut="0.0000000000000000e+00" cType="1" res="-3.5135883837938309e-02" rms="4.6274074912071228e-01" purity="3.1118044257164001e-01" nType="-99"/>
        </Node>
      </Node>
    </BinaryTree>
    <BinaryTree type="DecisionTree" boostWeight="1.0000000000000000e+00" itree="2">
      <Node pos="s" depth="0" NCoef="0" IVar="12" Cut="1.3218399286270142e+00" cType="1" res="-2.8255570214241743e-03" rms="4.9537220597267151e-01" purity="4.9672484397888184e-01" nType="0">
        <Node pos="l" depth="1" NCoef="0" IVar="13" Cut="6.3839305877685547e+01" cType="1" res="1.0502412915229797e-01" rms="4.8441317677497864e-01" purity="6.1952173709869385e-01" nType="0">
          <Node pos="l" depth="2" NCoef="0" IVar="-1" Cut="0.0000000000000000e+00" cType="1" res="2.7982473839074373e-03" rms="4.9914810061454773e-01" purity="5.2282136678695679e-01" nType="-99"/>
          <Node pos="r" depth="2" NCoef="0" IVar="-1" Cut="0.0000000000000000e+00" cType="1" res="3.1172240152955055e-02" rms="4.6842759847640991e-01" purity="6.7329752445220947e-01" nType="-99"/>
        </Node>
        <Node pos="r" depth="1" NCoef="0" IVar="11" Cut="5.6676898956298828e+01" cType="1" res="-5.2585169672966003e-02" rms="4.9244809150695801e-01" purity="4.4006890058517456e-01" nType="0">
          <Node pos="l" depth="2" NCoef="0" IVar="-1" Cut="0.0000000000000000e+00" cType="1" res="3.3485093154013157e-03" rms="4.9686175584793091e-01" purity="5.1548254489898682e-01" nType="-99"/>
          <Node pos="r" depth="2" NCoef="0" IVar="-1" Cut="0.0000000000000000e+00" cType="1" res="-2.7237087488174438e-02" rms="4.7386845946311951e-01" purity="3.4944149851799011e-01" nType="-99"/>
        </Node>
      </Node>
    </BinaryTree>
    <BinaryTree type="DecisionTree" boostWeight="1.0000000000000000e+00" itree="3">
      <Node pos="s" depth="0" NCoef="0" IVar="12" Cut="1.2829037904739380e+00" cType="1" res="4.5083151198923588e-03" rms="4.9301958084106445e-01" purity="5.0395166873931885e-01" nType="0">
        <Node pos="l" depth="1" NCoef="0" IVar="13" Cut="4.9754150390625000e+01" cType="1" res="1.0679680854082108e-01" rms="4.7998771071434021e-01" purity="6.3157987594604492e-01" nType="0">
          <Node pos="l" depth="2" NCoef="0" IVar="-1" Cut="0.0000000000000000e+00" cType="1" res="-6.1216386966407299e-03" rms="4.9915310740470886e-01" purity="4.7880232334136963e-01" nType="-99"/>
          <Node pos="r" depth="2" NCoef="0" IVar="-1" Cut="0.0000000000000000e+00" cType="1" res="3.0123582109808922e-02" rms="4.6548211574554443e-01" purity="6.7965638637542725e-01" nType="-99"/>
        </Node>
        <Node pos="r" depth="1" NCoef="0" IVar="11" Cut="6.0109813690185547e+01" cType="1" res="-4.1116733103990555e-02" rms="4.9191015958786011e-01" purity="4.4702404737472534e-01" nType="0">
          <Node pos="l" depth="2" NCoef="0" IVar="-1" Cut="0.0000000000000000e+00" cType="1" res="4.3824962340295315e-03" rms="4.9655649065971375e-01" purity="5.2182286977767944e-01" nType="-99"/>
          <Node pos="r" depth="2" NCoef="0" IVar="-1" Cut="0.0000000000000000e+00" cType="1" res="-2.6106758043169975e-02" rms="4.7119379043579102e-01" purity="3.4157854318618774e-01" nType="-99"/>
        </Node>
      </Node>
    </BinaryTree>
    <BinaryTree type="DecisionTree" boostWeight="1.0000000000000000e+00" itree="4">
      <Node pos="s" depth="0" NCoef="0" IVar="10" Cut="8.7919212341308594e+01" cType="1" res="3.3693548757582903e-03" rms="4.9129447340965271e-01" purity="5.0361883640289307e-01" nType="0">
        <Node pos="l" depth="1" NCoef="0" IVar="12" Cut="1.3944391012191772e+00" cType="1" res="5.4421260952949524e-02" rms="4.9038648605346680e-01" purity="5.6681740283966064e-01" nType="0">
          <Node pos="l" depth="2" NCoef="0" IVar="-1" Cut="0.0000000000000000e+00" cType="1" res="2.4217272177338600e-02" rms="4.7241601347923279e-01" purity="6.5206390619277954e-01" nType="-99"/>
          <Node pos="r" depth="2" NCoef="0" IVar="-1" Cut="0.0000000000000000e+00" cType="1" res="2.8184764087200165e-03" rms="4.9675914645195007e-01" purity="5.1468092203140259e-01" nType="-99"/>
        </Node>
        <Node pos="r" depth="1" NCoef="0" IVar="12" Cut="1.1935565471649170e+00" cType="1" res="-7.7170088887214661e-02" rms="4.8184868693351746e-01" purity="4.0391692519187927e-01" nType="0">
          <Node pos="l" depth="2" NCoef="0" IVar="-1" Cut="0.0000000000000000e+00" cType="1" res="9.5592802390456200e-03" rms="4.9005484580993652e-01" purity="5.8698016405105591e-01" nType="-99"/>
          <Node pos="r" depth="2" NCoef="0" IVar="-1" Cut="0.0000000000000000e+00" cType="1" res="-2.3302344605326653e-02" rms="4.7272321581840515e-01" purity="3.4754756093025208e-01" nType="-99"/>
        </Node>
      </Node>
    </BinaryTree>
    <BinaryTree type="DecisionTree" boostWeight="1.0000000000000000e+00" itree="5">
      <Node pos="s" depth="0" NCoef="0" IVar="5" Cut="1.8889225769042969e+02" cType="1" res="2.5224054697901011e-03" rms="4.8998469114303589e-01" purity="5.0266259908676147e-01" nType="0">
        <Node pos="l" depth="1" NCoef="0" IVar="14" Cut="5.9519380331039429e-01" cType="1" res="2.4774909019470215e-02" rms="4.8995542526245117e-01" purity="5.2759343385696411e-01" nType="0">
          <Node pos="l" depth="2" NCoef="0" IVar="-1" Cut="0.0000000000000000e+00" cType="1" res="9.7214858978986740e-03" rms="4.8998460173606873e-01" purity="5.5892044305801392e-01" nType="-99"/>
          <Node pos="r" depth="2" NCoef="0" IVar="-1" Cut="0.0000000000000000e+00" cType="1" res="-2.1976687014102936e-02" rms="4.6800038218498230e-01" purity="3.5041341185569763e-01" nType="-99"/>
        </Node>
        <Node pos="r" depth="1" NCoef="0" IVar="-1" Cut="0.0000000000000000e+00" cType="1" res="-3.4575928002595901e-02" rms="4.5415753126144409e-01" purity="3.0801737308502197e-01" nType="-99"/>
      </Node>
    </BinaryTree>
    <BinaryTree type="DecisionTree" boostWeight="1.0000000000000000e+00" itree="6">
      <Node pos="s" depth="0" NCoef="0" IVar="10" Cut="9.0004753112792969e+01" cType="1" res="7.7640834206249565e-06" rms="4.8839092254638672e-01" purity="5.0092995166778564e-01" nType="0">
        <Node pos="l" depth="1" NCoef="0" IVar="3" Cut="1.3375535583496094e+02" cType="1" res="4.6989988535642624e-02" rms="4.8891854286193848e-01" purity="5.6748068332672119e-01" nType="0">
          <Node pos="l" depth="2" NCoef="0" IVar="-1" Cut="0.0000000000000000e+00" cType="1" res="1.5614068135619164e-02" rms="4.8367735743522644e-01" purity="5.9920120239257812e-01" nType="-99"/>
          <Node pos="r" depth="2" NCoef="0" IVar="-1" Cut="0.0000000000000000e+00" cType="1" res="-7.6748942956328392e-03" rms="4.9330449104309082e-01" purity="4.7930616140365601e-01" nType="-99"/>
        </Node>
        <Node pos="r" depth="1" NCoef="0" IVar="12" Cut="9.0046423673629761e-01" cType="1" res="-7.6933987438678741e-02" rms="4.7764661908149719e-01" purity="3.9194139838218689e-01" nType="0">
          <Node pos="l" depth="2" NCoef="0" IVar="-1" Cut="0.0000000000000000e+00" cType="1" res="1.6622727736830711e-02" rms="4.8101520538330078e-01" purity="6.2491059303283691e-01" nType="-99"/>
          <Node pos="r" depth="2" NCoef="0" IVar="-1" Cut="0.0000000000000000e+00" cType="1" res="-2.2115018218755722e-02" rms="4.7050678730010986e-01" purity="3.4516414999961853e-01" nType="-99"/>
        </Node>
      </Node>
    </BinaryTree>
    <BinaryTree type="DecisionTree" boostWeight="1.0000000000000000e+00" itree="7">
      <Node pos="s" depth="0" NCoef="0" IVar="12" Cut="1.3673206567764282e+00" cType="1" res="1.0891490383073688e-03" rms="4.8742833733558655e-01" purity="5.0200873613357544e-01" nType="0">
        <Node pos="l" depth="1" NCoef="0" IVar="13" Cut="5.0257587432861328e+01" cType="1" res="8.0234639346599579e-02" rms="4.7813919186592102e-01" purity="6.2884193658828735e-01" nType="0">
          <Node pos="l" depth="2" NCoef="0" IVar="-1" Cut="0.0000000000000000e+00" cType="1" res="-7.3426463641226292e-03" rms="4.9870923161506653e-01" purity="4.9006795883178711e-01" nType="-99"/>
          <Node pos="r" depth="2" NCoef="0" IVar="-1" Cut="0.0000000000000000e+00" cType="1" res="2.3305200040340424e-02" rms="4.6626463532447815e-01" purity="6.7002063989639282e-01" nType="-99"/>
        </Node>
        <Node pos="r" depth="1" NCoef="0" IVar="5" Cut="1.2102689361572266e+02" cType="1" res="-3.8377929478883743e-02" rms="4.8721426725387573e-01" purity="4.3876150250434875e-01" nType="0">
          <Node pos="l" depth="2" NCoef="0" IVar="-1" Cut="0.0000000000000000e+00" cType="1" res="1.8125560600310564e-03" rms="4.9217730760574341e-01" purity="4.9559646844863892e-01" nType="-99"/>
          <Node pos="r" depth="2" NCoef="0" IVar="-1" Cut="0.0000000000000000e+00" cType="1" res="-2.6126656681299210e-02" rms="4.6438607573509216e-01" purity="3.3031544089317322e-01" nType="-99"/>
        </Node>
      </Node>
    </BinaryTree>
    <BinaryTree type="DecisionTree" boostWeight="1.0000000000000000e+00" itree="8">
      <Node pos="s" depth="0" NCoef="0" IVar="10" Cut="7.1589134216308594e+01" cType="1" res="-4.9846791662275791e-03" rms="4.8621171712875366e-01" purity="4.9547356367111206e-01" nType="0">
        <Node pos="l" depth="1" NCoef="0" IVar="3" Cut="1.2809260559082031e+02" cType="1" res="5.0497192889451981e-02" rms="4.8699405789375305e-01" purity="5.7781016826629639e-01" nType="0">
          <Node pos="l" depth="2" NCoef="0" IVar="-1" Cut="0.0000000000000000e+00" cType="1" res="1.5753298997879028e-02" rms="4.8140981793403625e-01" purity="6.1025989055633545e-01" nType="-99"/>
          <Node pos="r" depth="2" NCoef="0" IVar="-1" Cut="0.0000000000000000e+00" cType="1" res="-3.8163685239851475e-03" rms="4.9400517344474792e-01" purity="4.9608585238456726e-01" nType="-99"/>
        </Node>
        <Node pos="r" depth="1" NCoef="0" IVar="11" Cut="9.6839775085449219e+01" cType="1" res="-5.9058871120214462e-02" rms="4.7930741310119629e-01" purity="4.1522604227066040e-01" nType="0">
          <Node pos="l" depth="2" NCoef="0" IVar="-1" Cut="0.0000000000000000e+00" cType="1" res="-6.5805595368146896e-03" rms="4.8619800806045532e-01" purity="4.5154616236686707e-01" nType="-99"/>
          <Node pos="r" depth="2" NCoef="0" IVar="-1" Cut="0.0000000000000000e+00" cType="1" res="-3.3152032643556595e-02" rms="4.3734133243560791e-01" purity="2.7660050988197327e-01" nType="-99"/>
        </Node>
      </Node>
    </BinaryTree>
    <BinaryTree type="DecisionTree" boostWeight="1.0000000000000000e+00" itree="9">
      <Node pos="s" depth="0" NCoef="0" IVar="5" Cut="1.7117260742187500e+02" cType="1" res="-2.1105981431901455e-03" rms="4.8508882522583008e-01" purity="4.9853640794754028e-01" nType="0">
        <Node pos="l" depth="1" NCoef="0" IVar="11" Cut="7.5584541320800781e+01" cType="1" res="1.9272511824965477e-02" rms="4.8658585548400879e-01" purity="5.2703136205673218e-01" nType="0">
          <Node pos="l" depth="2" NCoef="0" IVar="-1" Cut="0.0000000000000000e+00" cType="1" res="9.5737772062420845e-03" rms="4.8739829659461975e-01" purity="5.6815642118453979e-01" nType="-99"/>
          <Node pos="r" depth="2" NCoef="0" IVar="-1" Cut="0.0000000000000000e+00" cType="1" res="-1.3629863038659096e-02" rms="4.7384896874427795e-01" purity="4.0102475881576538e-01" nType="-99"/>
        </Node>
        <Node pos="r" depth="1" NCoef="0" IVar="12" Cut="1.5053553581237793e+00" cType="1" res="-1.1891425400972366e-01" rms="4.5959177613258362e-01" purity="3.4288504719734192e-01" nType="0">
          <Node pos="l" depth="2" NCoef="0" IVar="-1" Cut="0.0000000000000000e+00" cType="1" res="-7.6383566483855247e-03" rms="4.9232947826385498e-01" purity="4.9501481652259827e-01" nType="-99"/>
          <Node pos="r" depth="2" NCoef="0" IVar="-1" Cut="0.0000000000000000e+00" cType="1" res="-3.4876875579357147e-02" rms="4.3071880936622620e-01" purity="2.4930261075496674e-01" nType="-99"/>
        </Node>
      </Node>
    </BinaryTree>
    <BinaryTree type="DecisionTree" boostWeight="1.0000000000000000e+00" itree="10">
      <Node pos="s" depth="0" NCoef="0" IVar="12" Cut="1.7088730335235596e+00" cType="1" res="-4.7202613204717636e-03" rms="4.8449137806892395e-01" purity="4.9598583579063416e-01" nType="0">
        <Node pos="l" depth="1" NCoef="0" IVar="13" Cut="9.1928092956542969e+01" cType="1" res="4.4227316975593567e-02" rms="4.8402503132820129e-01" purity="5.8813464641571045e-01" nType="0">
          <Node pos="l" depth="2" NCoef="0" IVar="-1" Cut="0.0000000000000000e+00" cType="1" res="-1.4538218965753913e-03" rms="4.9341356754302979e-01" purity="5.4112035036087036e-01" nType="-99"/>
          <Node pos="r" depth="2" NCoef="0" IVar="-1" Cut="0.0000000000000000e+00" cType="1" res="1.9370391964912415e-02" rms="4.6900171041488647e-01" purity="6.3475346565246582e-01" nType="-99"/>
        </Node>
        <Node pos="r" depth="1" NCoef="0" IVar="11" Cut="5.6815010070800781e+01" cType="1" res="-4.4160701334476471e-02" rms="4.8125854134559631e-01" purity="4.2173522710800171e-01" nType="0">
          <Node pos="l" depth="2" NCoef="0" IVar="-1" Cut="0.0000000000000000e+00" cType="1" res="1.4079752145335078e-03" rms="4.9227115511894226e-01" purity="5.0517463684082031e-01" nType="-99"/>
          <Node pos="r" depth="2" NCoef="0" IVar="-1" Cut="0.0000000000000000e+00" cType="1" res="-2.1622851490974426e-02" rms="4.6054571866989136e-01" purity="3.2271984219551086e-01" nType="-99"/>
        </Node>
      </Node>
    </BinaryTree>
    <BinaryTree type="DecisionTree" boostWeight="1.0000000000000000e+00" itree="11">
      <Node pos="s" depth="0" NCoef="0" IVar="10" Cut="7.1120315551757812e+01" cType="1" res="-3.8614326622337103e-03" rms="4.8349469900131226e-01" purity="4.9566864967346191e-01" nType="0">
        <Node pos="l" depth="1" NCoef="0" IVar="3" Cut="1.3348020935058594e+02" cType="1" res="4.3179586529731750e-02" rms="4.8561570048332214e-01" purity="5.7653796672821045e-01" nType="0">
          <Node pos="l" depth="2" NCoef="0" IVar="-1" Cut="0.0000000000000000e+00" cType="1" res="1.3931554742157459e-02" rms="4.8070177435874939e-01" purity="6.1025929450988770e-01" nType="-99"/>
          <Node pos="r" depth="2" NCoef="0" IVar="-1" Cut="0.0000000000000000e+00" cType="1" res="-5.5395374074578285e-03" rms="4.9210074543952942e-01" purity="4.8327150940895081e-01" nType="-99"/>
        </Node>
        <Node pos="r" depth="1" NCoef="0" IVar="12" Cut="2.1597070693969727e+00" cType="1" res="-4.9995046108961105e-02" rms="4.7692012786865234e-01" purity="4.1635924577713013e-01" nType="0">
          <Node pos="l" depth="2" NCoef="0" IVar="-1" Cut="0.0000000000000000e+00" cType="1" res="-1.2370365438982844e-03" rms="4.8757153749465942e-01" purity="5.0124830007553101e-01" nType="-99"/>
          <Node pos="r" depth="2" NCoef="0" IVar="-1" Cut="0.0000000000000000e+00" cType="1" res="-2.1036691963672638e-02" rms="4.5883649587631226e-01" purity="3.1701776385307312e-01" nType="-99"/>
        </Node>
      </Node>
    </BinaryTree>
    <BinaryTree type="DecisionTree" boostWeight="1.0000000000000000e+00" itree="12">
      <Node pos="s" depth="0" NCoef="0" IVar="12" Cut="7.9945915937423706e-01" cType="1" res="2.7212982531636953e-03" rms="4.8212021589279175e-01" purity="5.0181347131729126e-01" nType="0">
        <Node pos="l" depth="1" NCoef="0" IVar="13" Cut="6.7220474243164062e+01" cType="1" res="1.0053329914808273e-01" rms="4.6354967355728149e-01" purity="6.6594862937927246e-01" nType="0">
          <Node pos="l" depth="2" NCoef="0" IVar="-1" Cut="0.0000000000000000e+00" cType="1" res="9.9397439043968916e-04" rms="4.9464264512062073e-01" purity="5.4530560970306396e-01" nType="-99"/>
          <Node pos="r" depth="2" NCoef="0" IVar="-1" Cut="0.0000000000000000e+00" cType="1" res="3.7095401436090469e-02" rms="4.1999331116676331e-01" purity="7.6579505205154419e-01" nType="-99"/>
        </Node>
        <Node pos="r" depth="1" NCoef="0" IVar="5" Cut="1.6969158935546875e+02" cType="1" res="-1.8901618197560310e-02" rms="4.8346629738807678e-01" purity="4.6552875638008118e-01" nType="0">
          <Node pos="l" depth="2" NCoef="0" IVar="-1" Cut="0.0000000000000000e+00" cType="1" res="4.1061014053411782e-04" rms="4.8644265532493591e-01" purity="4.9773469567298889e-01" nType="-99"/>
          <Node pos="r" depth="2" NCoef="0" IVar="-1" Cut="0.0000000000000000e+00" cType="1" res="-2.6963112875819206e-02" rms="4.5174965262413025e-01" purity="2.9583853483200073e-01" nType="-99"/>
        </Node>
      </Node>
    </BinaryTree>
    <BinaryTree type="DecisionTree" boostWeight="1.0000000000000000e+00" itree="13">
      <Node pos="s" depth="0" NCoef="0" IVar="11" Cut="1.2003413391113281e+02" cType="1" res="1.1961513664573431e-03" rms="4.8236238956451416e-01" purity="5.0071942806243896e-01" nType="0">
        <Node pos="l" depth="1" NCoef="0" IVar="3" Cut="1.4048022460937500e+02" cType="1" res="1.7232788726687431e-02" rms="4.8449617624282837e-01" purity="5.2524065971374512e-01" nType="0">
          <Node pos="l" depth="2" NCoef="0" IVar="-1" Cut="0.0000000000000000e+00" cType="1" res="7.8336540609598160e-03" rms="4.8278051614761353e-01" purity="5.5346810817718506e-01" nType="-99"/>
          <Node pos="r" depth="2" NCoef="0" IVar="-1" Cut="0.0000000000000000e+00" cType="1" res="-9.7982035949826241e-03" rms="4.8398849368095398e-01" purity="4.3793970346450806e-01" nType="-99"/>
        </Node>
        <Node pos="r" depth="1" NCoef="0" IVar="-1" Cut="0.0000000000000000e+00" cType="1" res="-2.6091925799846649e-02" rms="4.4571590423583984e-01" purity="3.0842408537864685e-01" nType="-99"/>
      </Node>
    </BinaryTree>
    <BinaryTree type="DecisionTree" boostWeight="1.0000000000000000e+00" itree="14">
      <Node pos="s" depth="0" NCoef="0" IVar="11" Cut="8.3435714721679688e+01" cType="1" res="-2.1148852538317442e-03" rms="4.8214480280876160e-01" purity="4.9686956405639648e-01" nType="0">
        <Node pos="l" depth="1" NCoef="0" IVar="5" Cut="1.8687747192382812e+02" cType="1" res="1.8229996785521507e-02" rms="4.8560434579849243e-01" purity="5.3549259901046753e-01" nType="0">
          <Node pos="l" depth="2" NCoef="0" IVar="-1" Cut="0.0000000000000000e+00" cType="1" res="6.0087591409683228e-03" rms="4.8707199096679688e-01" purity="5.5534386634826660e-01" nType="-99"/>
          <Node pos="r" depth="2" NCoef="0" IVar="-1" Cut="0.0000000000000000e+00" cType="1" res="-1.9619759172201157e-02" rms="4.5586156845092773e-01" purity="3.3830577135086060e-01" nType="-99"/>
        </Node>
        <Node pos="r" depth="1" NCoef="0" IVar="12" Cut="1.6627222299575806e+00" cType="1" res="-6.9508217275142670e-02" rms="4.6417701244354248e-01" purity="3.6892881989479065e-01" nType="0">
          <Node pos="l" depth="2" NCoef="0" IVar="-1" Cut="0.0000000000000000e+00" cType="1" res="-9.6664245938882232e-04" rms="4.8955944180488586e-01" purity="5.2771836519241333e-01" nType="-99"/>
          <Node pos="r" depth="2" NCoef="0" IVar="-1" Cut="0.0000000000000000e+00" cType="1" res="-2.1470673382282257e-02" rms="4.4782343506813049e-01" purity="2.9116556048393250e-01" nType="-99"/>
        </Node>
      </Node>
    </BinaryTree>
    <BinaryTree type="DecisionTree" boostWeight="1.0000000000000000e+00" itree="15">
      <Node pos="s" depth="0" NCoef="0" IVar="10" Cut="6.5631095886230469e+01" cType="1" res="9.3808548990637064e-04" rms="4.8123541474342346e-01" purity="5.0012022256851196e-01" nType="0">
        <Node pos="l" depth="1" NCoef="0" IVar="7" Cut="3.0528500676155090e-01" cType="1" res="4.3944884091615677e-02" rms="4.8203596472740173e-01" purity="5.8478158712387085e-01" nType="0">
          <Node pos="l" depth="2" NCoef="0" IVar="-1" Cut="0.0000000000000000e+00" cType="1" res="4.3377117253839970e-03" rms="4.8612254858016968e-01" purity="5.6030631065368652e-01" nType="-99"/>
          <Node pos="r" depth="2" NCoef="0" IVar="-1" Cut="0.0000000000000000e+00" cType="1" res="2.1774230524897575e-02" rms="4.6482595801353455e-01" purity="6.5253329277038574e-01" nType="-99"/>
        </Node>
        <Node pos="r" depth="1" NCoef="0" IVar="12" Cut="2.1815946102142334e+00" cType="1" res="-3.2844893634319305e-02" rms="4.7789910435676575e-01" purity="4.3361642956733704e-01" nType="0">
          <Node pos="l" depth="2" NCoef="0" IVar="-1" Cut="0.0000000000000000e+00" cType="1" res="-5.6060828501358628e-04" rms="4.8569840192794800e-01" purity="5.0803518295288086e-01" nType="-99"/>
          <Node pos="r" depth="2" NCoef="0" IVar="-1" Cut="0.0000000000000000e+00" cType="1" res="-1.4924455434083939e-02" rms="4.6505376696586609e-01" purity="3.3942407369613647e-01" nType="-99"/>
        </Node>
      </Node>
    </BinaryTree>
    <BinaryTree type="DecisionTree" boostWeight="1.0000000000000000e+00" itree="16">
      <Node pos="s" depth="0" NCoef="0" IVar="12" Cut="9.6437138319015503e-01" cType="1" res="6.5668055322021246e-04" rms="4.8021283745765686e-01" purity="4.9981051683425903e-01" nType="0">
        <Node pos="l" depth="1" NCoef="0" IVar="13" Cut="6.8222656250000000e+01" cType="1" res="7.3224395513534546e-02" rms="4.6726027131080627e-01" purity="6.5126889944076538e-01" nType="0">
          <Node pos="l" depth="2" NCoef="0" IVar="-1" Cut="0.0000000000000000e+00" cType="1" res="-2.5920791085809469e-03" rms="4.9518147110939026e-01" purity="5.3625458478927612e-01" nType="-99"/>
          <Node pos="r" depth="2" NCoef="0" IVar="-1" Cut="0.0000000000000000e+00" cType="1" res="2.9198398813605309e-02" rms="4.3301111459732056e-01" purity="7.3997747898101807e-01" nType="-99"/>
        </Node>
        <Node pos="r" depth="1" NCoef="0" IVar="5" Cut="1.2807159423828125e+02" cType="1" res="-2.0191911607980728e-02" rms="4.8185324668884277e-01" purity="4.5629677176475525e-01" nType="0">
          <Node pos="l" depth="2" NCoef="0" IVar="-1" Cut="0.0000000000000000e+00" cType="1" res="1.6847699880599976e-03" rms="4.8750379681587219e-01" purity="5.0452327728271484e-01" nType="-99"/>
          <Node pos="r" depth="2" NCoef="0" IVar="-1" Cut="0.0000000000000000e+00" cType="1" res="-1.6678107902407646e-02" rms="4.6429145336151123e-01" purity="3.5576722025871277e-01" nType="-99"/>
        </Node>
      </Node>
    </BinaryTree>
    <BinaryTree type="DecisionTree" boostWeight="1.0000000000000000e+00" itree="17">
      <Node pos="s" depth="0" NCoef="0" IVar="6" Cut="3.6355456709861755e-01" cType="1" res="-2.7616017032414675e-03" rms="4.8059734702110291e-01" purity="4.9736642837524414e-01" nType="0">
        <Node pos="l" depth="1" NCoef="0" IVar="11" Cut="8.9231872558593750e+01" cType="1" res="-1.9827315583825111e-02" rms="4.8049265146255493e-01" purity="4.7825014591217041e-01" nType="0">
          <Node pos="l" depth="2" NCoef="0" IVar="-1" Cut="0.0000000000000000e+00" cType="1" res="-4.4706894550472498e-04" rms="4.8513877391815186e-01" purity="5.1463067531585693e-01" nType="-99"/>
          <Node pos="r" depth="2" NCoef="0" IVar="-1" Cut="0.0000000000000000e+00" cType="1" res="-1.9588299095630646e-02" rms="4.5384344458580017e-01" purity="3.2912728190422058e-01" nType="-99"/>
        </Node>
        <Node pos="r" depth="1" NCoef="0" IVar="14" Cut="1.3507944345474243e-01" cType="1" res="7.3523826897144318e-02" rms="4.7360563278198242e-01" purity="5.8281832933425903e-01" nType="0">
          <Node pos="l" depth="2" NCoef="0" IVar="-1" Cut="0.0000000000000000e+00" cType="1" res="2.8030272573232651e-02" rms="4.5546722412109375e-01" purity="6.7998033761978149e-01" nType="-99"/>
          <Node pos="r" depth="2" NCoef="0" IVar="-1" Cut="0.0000000000000000e+00" cType="1" res="6.3500506803393364e-03" rms="4.8087754845619202e-01" purity="5.1652479171752930e-01" nType="-99"/>
        </Node>
      </Node>
    </BinaryTree>
    <BinaryTree type="DecisionTree" boostWeight="1.0000000000000000e+00" itree="18">
      <Node pos="s" depth="0" NCoef="0" IVar="11" Cut="1.0286802673339844e+02" cType="1" res="-2.9099043458700180e-03" rms="4.7898498177528381e-01" purity="4.9592724442481995e-01" nType="0">
        <Node pos="l" depth="1" NCoef="0" IVar="5" Cut="1.8728260803222656e+02" cType="1" res="1.2479584664106369e-02" rms="4.8224669694900513e-01" purity="5.2715605497360229e-01" nType="0">
          <Node pos="l" depth="2" NCoef="0" IVar="-1" Cut="0.0000000000000000e+00" cType="1" res="5.0807432271540165e-03" rms="4.8383584618568420e-01" purity="5.4961794614791870e-01" nType="-99"/>
          <Node pos="r" depth="2" NCoef="0" IVar="-1" Cut="0.0000000000000000e+00" cType="1" res="-2.2500138729810715e-02" rms="4.4982531666755676e-01" purity="3.1130841374397278e-01" nType="-99"/>
        </Node>
        <Node pos="r" depth="1" NCoef="0" IVar="10" Cut="9.6881271362304688e+01" cType="1" res="-8.6559273302555084e-02" rms="4.5177486538887024e-01" purity="3.2618328928947449e-01" nType="0">
          <Node pos="l" depth="2" NCoef="0" IVar="-1" Cut="0.0000000000000000e+00" cType="1" res="-1.2076389044523239e-02" rms="4.7474899888038635e-01" purity="4.0267565846443176e-01" nType="-99"/>
          <Node pos="r" depth="2" NCoef="0" IVar="-1" Cut="0.0000000000000000e+00" cType="1" res="-2.6157975196838379e-02" rms="4.2327210307121277e-01" purity="2.4297648668289185e-01" nType="-99"/>
        </Node>
      </Node>
    </BinaryTree>
    <BinaryTree type="DecisionTree" boostWeight="1.0000000000000000e+00" itree="19">
      <Node pos="s" depth="0" NCoef="0" IVar="12" Cut="1.8222476243972778e+00" cType="1" res="3.4635381307452917e-03" rms="4.7819906473159790e-01" purity="5.0205582380294800e-01" nType="0">
        <Node pos="l" depth="1" NCoef="0" IVar="13" Cut="9.2693847656250000e+01" cType="1" res="3.9291188120841980e-02" rms="4.7827649116516113e-01" purity="5.9327256679534912e-01" nType="0">
          <Node pos="l" depth="2" NCoef="0" IVar="-1" Cut="0.0000000000000000e+00" cType="1" res="-9.9081266671419144e-04" rms="4.8908877372741699e-01" purity="5.5418342351913452e-01" nType="-99"/>
          <Node pos="r" depth="2" NCoef="0" IVar="-1" Cut="0.0000000000000000e+00" cType="1" res="1.6486935317516327e-02" rms="4.6457508206367493e-01" purity="6.2887829542160034e-01" nType="-99"/>
        </Node>
        <Node pos="r" depth="1" NCoef="0" IVar="5" Cut="1.0977259063720703e+02" cType="1" res="-2.9023990035057068e-02" rms="4.7580227255821228e-01" purity="4.1934302449226379e-01" nType="0">
          <Node pos="l" depth="2" NCoef="0" IVar="-1" Cut="0.0000000000000000e+00" cType="1" res="6.7573698470368981e-04" rms="4.8386245965957642e-01" purity="4.8351496458053589e-01" nType="-99"/>
          <Node pos="r" depth="2" NCoef="0" IVar="-1" Cut="0.0000000000000000e+00" cType="1" res="-1.7871364951133728e-02" rms="4.5689925551414490e-01" purity="3.1187883019447327e-01" nType="-99"/>
        </Node>
      </Node>
    </BinaryTree>
    <BinaryTree type="DecisionTree" boostWeight="1.0000000000000000e+00" itree="20">
      <Node pos="s" depth="0" NCoef="0" IVar="12" Cut="8.1390321254730225e-01" cType="1" res="-7.8083648986648768e-05" rms="4.7849339246749878e-01" purity="4.9994689226150513e-01" nType="0">
        <Node pos="l" depth="1" NCoef="0" IVar="13" Cut="4.7136730194091797e+01" cType="1" res="6.4189136028289795e-02" rms="4.6231439709663391e-01" purity="6.5564203262329102e-01" nType="0">
          <Node pos="l" depth="2" NCoef="0" IVar="-1" Cut="0.0000000000000000e+00" cType="1" res="-1.0970964096486568e-02" rms="4.9711847305297852e-01" purity="4.8129722476005554e-01" nType="-99"/>
          <Node pos="r" depth="2" NCoef="0" IVar="-1" Cut="0.0000000000000000e+00" cType="1" res="2.3056371137499809e-02" rms="4.4041901826858521e-01" purity="7.2099351882934570e-01" nType="-99"/>
        </Node>
        <Node pos="r" depth="1" NCoef="0" IVar="11" Cut="4.1428882598876953e+01" cType="1" res="-1.4664222486317158e-02" rms="4.8089542984962463e-01" purity="4.6461018919944763e-01" nType="0">
          <Node pos="l" depth="2" NCoef="0" IVar="-1" Cut="0.0000000000000000e+00" cType="1" res="6.6351057030260563e-03" rms="4.8566782474517822e-01" purity="5.5495619773864746e-01" nType="-99"/>
          <Node pos="r" depth="2" NCoef="0" IVar="-1" Cut="0.0000000000000000e+00" cType="1" res="-8.6811594665050507e-03" rms="4.7608968615531921e-01" purity="4.1328996419906616e-01" nType="-99"/>
        </Node>
      </Node>
    </BinaryTree>
    <BinaryTree type="DecisionTree" boostWeight="1.0000000000000000e+00" itree="21">
      <Node pos="s" depth="0" NCoef="0" IVar="10" Cut="7.8401847839355469e+01" cType="1" res="4.3443390168249607e-03" rms="4.7708246111869812e-01" purity="5.0402212142944336e-01" nType="0">
        <Node pos="l" depth="1" NCoef="0" IVar="13" Cut="6.9347351074218750e+01" cType="1" res="3.6200374364852905e-02" rms="4.8001131415367126e-01" purity="5.7994151115417480e-01" nType="0">
          <Node pos="l" depth="2" NCoef="0" IVar="-1" Cut="0.0000000000000000e+00" cType="1" res="-3.9441189728677273e-03" rms="4.9380272626876831e-01" purity="5.3587210178375244e-01" nType="-99"/>
          <Node pos="r" depth="2" NCoef="0" IVar="-1" Cut="0.0000000000000000e+00" cType="1" res="1.2075664475560188e-02" rms="4.7250771522521973e-01" purity="5.9767371416091919e-01" nType="-99"/>
        </Node>
        <Node pos="r" depth="1" NCoef="0" IVar="7" Cut="3.9818283915519714e-01" cType="1" res="-3.4290596842765808e-02" rms="4.7062143683433533e-01" purity="4.1194722056388855e-01" nType="0">
          <Node pos="l" depth="2" NCoef="0" IVar="-1" Cut="0.0000000000000000e+00" cType="1" res="-1.0165534913539886e-02" rms="4.6784171462059021e-01" purity="3.9435306191444397e-01" nType="-99"/>
          <Node pos="r" depth="2" NCoef="0" IVar="-1" Cut="0.0000000000000000e+00" cType="1" res="8.2592247053980827e-03" rms="4.7873443365097046e-01" purity="5.0711256265640259e-01" nType="-99"/>
        </Node>
      </Node>
    </BinaryTree>
    <BinaryTree type="DecisionTree" boostWeight="1.0000000000000000e+00" itree="22">
      <Node pos="s" depth="0" NCoef="0" IVar="3" Cut="2.2695596313476562e+02" cType="1" res="6.8762605078518391e-03" rms="4.7655546665191650e-01" purity="5.0631165504455566e-01" nType="0">
        <Node pos="l" depth="1" NCoef="0" IVar="12" Cut="1.8674886226654053e+00" cType="1" res="1.6991462558507919e-02" rms="4.7664606571197510e-01" purity="5.2020215988159180e-01" nType="0">
          <Node pos="l" depth="2" NCoef="0" IVar="-1" Cut="0.0000000000000000e+00" cType="1" res="1.0566223412752151e-02" rms="4.7310185432434082e-01" purity="6.1013513803482056e-01" nType="-99"/>
          <Node pos="r" depth="2" NCoef="0" IVar="-1" Cut="0.0000000000000000e+00" cType="1" res="-3.4219336230307817e-03" rms="4.7775211930274963e-01" purity="4.3209531903266907e-01" nType="-99"/>
        </Node>
        <Node pos="r" depth="1" NCoef="0" IVar="-1" Cut="0.0000000000000000e+00" cType="1" res="-2.1391982212662697e-02" rms="4.6191203594207764e-01" purity="3.5762944817543030e-01" nType="-99"/>
      </Node>
    </BinaryTree>
    <BinaryTree type="DecisionTree" boostWeight="1.0000000000000000e+00" itree="23">
      <Node pos="s" depth="0" NCoef="0" IVar="10" Cut="5.9922664642333984e+01" cType="1" res="-6.1297061620280147e-04" rms="4.7699871659278870e-01" purity="5.0025272369384766e-01" nType="0">
        <Node pos="l" depth="1" NCoef="0" IVar="13" Cut="8.0830268859863281e+01" cType="1" res="3.5501413047313690e-02" rms="4.7903287410736084e-01" purity="5.8651101589202881e-01" nType="0">
          <Node pos="l" depth="2" NCoef="0" IVar="-1" Cut="0.0000000000000000e+00" cType="1" res="-1.5820405678823590e-03" rms="4.9090766906738281e-01" purity="5.5267733335494995e-01" nType="-99"/>
          <Node pos="r" depth="2" NCoef="0" IVar="-1" Cut="0.0000000000000000e+00" cType="1" res="1.4272259548306465e-02" rms="4.6694818139076233e-01" purity="6.1259353160858154e-01" nType="-99"/>
        </Node>
        <Node pos="r" depth="1" NCoef="0" IVar="7" Cut="4.0545636415481567e-01" cType="1" res="-2.3424023762345314e-02" rms="4.7429448366165161e-01" purity="4.4576913118362427e-01" nType="0">
          <Node pos="l" depth="2" NCoef="0" IVar="-1" Cut="0.0000000000000000e+00" cType="1" res="-7.3922527953982353e-03" rms="4.7318935394287109e-01" purity="4.2980551719665527e-01" nType="-99"/>
          <Node pos="r" depth="2" NCoef="0" IVar="-1" Cut="0.0000000000000000e+00" cType="1" res="9.8746558651328087e-03" rms="4.7491392493247986e-01" purity="5.4279524087905884e-01" nType="-99"/>
        </Node>
      </Node>
    </BinaryTree>
    <BinaryTree type="DecisionTree" boostWeight="1.0000000000000000e+00" itree="24">
      <Node pos="s" depth="0" NCoef="0" IVar="10" Cut="1.2886833190917969e+02" cType="1" res="-2.7009602636098862e-03" rms="4.7680547833442688e-01" purity="4.9731898307800293e-01" nType="0">
        <Node pos="l" depth="1" NCoef="0" IVar="6" Cut="3.8360813260078430e-01" cType="1" res="1.2020852416753769e-02" rms="4.8091036081314087e-01" purity="5.3619980812072754e-01" nType="0">
          <Node pos="l" depth="2" NCoef="0" IVar="-1" Cut="0.0000000000000000e+00" cType="1" res="-4.7050413559190929e-04" rms="4.8259609937667847e-01" purity="5.1821476221084595e-01" nType="-99"/>
          <Node pos="r" depth="2" NCoef="0" IVar="-1" Cut="0.0000000000000000e+00" cType="1" res="1.8052186816930771e-02" rms="4.6491995453834534e-01" purity="6.3011693954467773e-01" nType="-99"/>
        </Node>
        <Node pos="r" depth="1" NCoef="0" IVar="2" Cut="9.7112098693847656e+01" cType="1" res="-5.9130102396011353e-02" rms="4.5635482668876648e-01" purity="3.4828764200210571e-01" nType="0">
          <Node pos="l" depth="2" NCoef="0" IVar="-1" Cut="0.0000000000000000e+00" cType="1" res="-5.3913687588647008e-04" rms="4.6578443050384521e-01" purity="3.8971194624900818e-01" nType="-99"/>
          <Node pos="r" depth="2" NCoef="0" IVar="-1" Cut="0.0000000000000000e+00" cType="1" res="-2.1803915500640869e-02" rms="4.4477975368499756e-01" purity="3.1798526644706726e-01" nType="-99"/>
        </Node>
      </Node>
    </BinaryTree>
    <BinaryTree type="DecisionTree" boostWeight="1.0000000000000000e+00" itree="25">
      <Node pos="s" depth="0" NCoef="0" IVar="11" Cut="5.6811305999755859e+01" cType="1" res="2.7855494990944862e-03" rms="4.7650140523910522e-01" purity="5.0212746858596802e-01" nType="0">
        <Node pos="l" depth="1" NCoef="0" IVar="13" Cut="1.5082823181152344e+02" cType="1" res="2.8078416362404823e-02" rms="4.8054426908493042e-01" purity="5.6389027833938599e-01" nType="0">
          <Node pos="l" depth="2" NCoef="0" IVar="-1" Cut="0.0000000000000000e+00" cType="1" res="1.3130862498655915e-03" rms="4.8359310626983643e-01" purity="5.5436944961547852e-01" nType="-99"/>
          <Node pos="r" depth="2" NCoef="0" IVar="-1" Cut="0.0000000000000000e+00" cType="1" res="2.0260652527213097e-02" rms="4.6419990062713623e-01" purity="5.9392267465591431e-01" nType="-99"/>
        </Node>
        <Node pos="r" depth="1" NCoef="0" IVar="12" Cut="7.5860548019409180e-01" cType="1" res="-3.1885094940662384e-02" rms="4.6869057416915894e-01" purity="4.1746494174003601e-01" nType="0">
          <Node pos="l" depth="2" NCoef="0" IVar="-1" Cut="0.0000000000000000e+00" cType="1" res="1.5405113808810711e-02" rms="4.6039393544197083e-01" purity="6.6641885042190552e-01" nType="-99"/>
          <Node pos="r" depth="2" NCoef="0" IVar="-1" Cut="0.0000000000000000e+00" cType="1" res="-1.0618389584124088e-02" rms="4.6774315834045410e-01" purity="3.7527698278427124e-01" nType="-99"/>
        </Node>
      </Node>
    </BinaryTree>
    <BinaryTree type="DecisionTree" boostWeight="1.0000000000000000e+00" itree="26">
      <Node pos="s" depth="0" NCoef="0" IVar="12" Cut="5.5695748329162598e-01" cType="1" res="-1.2781937839463353e-03" rms="4.7618854045867920e-01" purity="4.9865996837615967e-01" nType="0">
        <Node pos="l" depth="1" NCoef="0" IVar="13" Cut="6.3662254333496094e+01" cType="1" res="7.1297138929367065e-02" rms="4.5314520597457886e-01" purity="6.7241138219833374e-01" nType="0">
          <Node pos="l" depth="2" NCoef="0" IVar="-1" Cut="0.0000000000000000e+00" cType="1" res="-5.0830294640036300e-06" rms="4.9101904034614563e-01" purity="5.4303616285324097e-01" nType="-99"/>
          <Node pos="r" depth="2" NCoef="0" IVar="-1" Cut="0.0000000000000000e+00" cType="1" res="2.7936512604355812e-02" rms="4.1281315684318542e-01" purity="7.7324771881103516e-01" nType="-99"/>
        </Node>
        <Node pos="r" depth="1" NCoef="0" IVar="7" Cut="3.1254240870475769e-01" cType="1" res="-1.1002290062606335e-02" rms="4.7835609316825867e-01" purity="4.7537967562675476e-01" nType="0">
          <Node pos="l" depth="2" NCoef="0" IVar="-1" Cut="0.0000000000000000e+00" cType="1" res="-5.4929540492594242e-03" rms="4.7808426618576050e-01" purity="4.5530319213867188e-01" nType="-99"/>
          <Node pos="r" depth="2" NCoef="0" IVar="-1" Cut="0.0000000000000000e+00" cType="1" res="7.1464464999735355e-03" rms="4.7631624341011047e-01" purity="5.3491598367691040e-01" nType="-99"/>
        </Node>
      </Node>
    </BinaryTree>
    <BinaryTree type="DecisionTree" boostWeight="1.0000000000000000e+00" itree="27">
      <Node pos="s" depth="0" NCoef="0" IVar="12" Cut="2.0245399475097656e+00" cType="1" res="-1.4216569252312183e-04" rms="4.7470316290855408e-01" purity="4.9972406029701233e-01" nType="0">
        <Node pos="l" depth="1" NCoef="0" IVar="13" Cut="8.4032234191894531e+01" cType="1" res="2.6614727452397346e-02" rms="4.7491788864135742e-01" purity="5.7880365848541260e-01" nType="0">
          <Node pos="l" depth="2" NCoef="0" IVar="-1" Cut="0.0000000000000000e+00" cType="1" res="-3.2541349064558744e-03" rms="4.8963493108749390e-01" purity="5.4398077726364136e-01" nType="-99"/>
          <Node pos="r" depth="2" NCoef="0" IVar="-1" Cut="0.0000000000000000e+00" cType="1" res="1.1428085155785084e-02" rms="4.6306407451629639e-01" purity="6.0135203599929810e-01" nType="-99"/>
        </Node>
        <Node pos="r" depth="1" NCoef="0" IVar="5" Cut="7.1831550598144531e+01" cType="1" res="-3.1307671219110489e-02" rms="4.7254672646522522e-01" purity="4.0761485695838928e-01" nType="0">
          <Node pos="l" depth="2" NCoef="0" IVar="-1" Cut="0.0000000000000000e+00" cType="1" res="2.8981391806155443e-03" rms="4.8292207717895508e-01" purity="4.9465379118919373e-01" nType="-99"/>
          <Node pos="r" depth="2" NCoef="0" IVar="-1" Cut="0.0000000000000000e+00" cType="1" res="-1.4168242923915386e-02" rms="4.6157211065292358e-01" purity="3.4162744879722595e-01" nType="-99"/>
        </Node>
      </Node>
    </BinaryTree>
    <BinaryTree type="DecisionTree" boostWeight="1.0000000000000000e+00" itree="28">
      <Node pos="s" depth="0" NCoef="0" IVar="10" Cut="6.4187095642089844e+01" cType="1" res="5.7801995426416397e-03" rms="4.7615131735801697e-01" purity="5.0612759590148926e-01" nType="0">
        <Node pos="l" depth="1" NCoef="0" IVar="13" Cut="1.1306766510009766e+02" cType="1" res="3.2004531472921371e-02" rms="4.7788816690444946e-01" purity="5.8737534284591675e-01" nType="0">
          <Node pos="l" depth="2" NCoef="0" IVar="-1" Cut="0.0000000000000000e+00" cType="1" res="1.2693051248788834e-03" rms="4.8553052544593811e-01" purity="5.6725263595581055e-01" nType="-99"/>
          <Node pos="r" depth="2" NCoef="0" IVar="-1" Cut="0.0000000000000000e+00" cType="1" res="1.6990369185805321e-02" rms="4.5911306142807007e-01" purity="6.2546974420547485e-01" nType="-99"/>
        </Node>
        <Node pos="r" depth="1" NCoef="0" IVar="5" Cut="9.3693008422851562e+01" cType="1" res="-1.3774588704109192e-02" rms="4.7390848398208618e-01" purity="4.4554331898689270e-01" nType="0">
          <Node pos="l" depth="2" NCoef="0" IVar="-1" Cut="0.0000000000000000e+00" cType="1" res="4.2903483845293522e-03" rms="4.7954732179641724e-01" purity="5.0065219402313232e-01" nType="-99"/>
          <Node pos="r" depth="2" NCoef="0" IVar="-1" Cut="0.0000000000000000e+00" cType="1" res="-9.0036354959011078e-03" rms="4.6742710471153259e-01" purity="4.0074047446250916e-01" nType="-99"/>
        </Node>
      </Node>
    </BinaryTree>
    <BinaryTree type="DecisionTree" boostWeight="1.0000000000000000e+00" itree="29">
      <Node pos="s" depth="0" NCoef="0" IVar="11" Cut="8.9315628051757812e+01" cType="1" res="-1.1678858427330852e-03" rms="4.7505766153335571e-01" purity="4.9953758716583252e-01" nType="0">
        <Node pos="l" depth="1" NCoef="0" IVar="7" Cut="1.8057185411453247e-01" cType="1" res="1.2261302210390568e-02" rms="4.7887548804283142e-01" purity="5.3661704063415527e-01" nType="0">
          <Node pos="l" depth="2" NCoef="0" IVar="-1" Cut="0.0000000000000000e+00" cType="1" res="-3.7142429500818253e-03" rms="4.8189386725425720e-01" purity="4.9694564938545227e-01" nType="-99"/>
          <Node pos="r" depth="2" NCoef="0" IVar="-1" Cut="0.0000000000000000e+00" cType="1" res="8.0792903900146484e-03" rms="4.7465616464614868e-01" purity="5.7128465175628662e-01" nType="-99"/>
        </Node>
        <Node pos="r" depth="1" NCoef="0" IVar="2" Cut="8.0638610839843750e+01" cType="1" res="-5.4119195789098740e-02" rms="4.5585581660270691e-01" purity="3.5333320498466492e-01" nType="0">
          <Node pos="l" depth="2" NCoef="0" IVar="-1" Cut="0.0000000000000000e+00" cType="1" res="-2.9904530383646488e-03" rms="4.7240757942199707e-01" purity="3.8228926062583923e-01" nType="-99"/>
          <Node pos="r" depth="2" NCoef="0" IVar="-1" Cut="0.0000000000000000e+00" cType="1" res="-1.5676947310566902e-02" rms="4.4748818874359131e-01" purity="3.4098067879676819e-01" nType="-99"/>
        </Node>
      </Node>
    </BinaryTree>
    <BinaryTree type="DecisionTree" boostWeight="1.0000000000000000e+00" itree="30">
      <Node pos="s" depth="0" NCoef="0" IVar="12" Cut="4.2627203464508057e-01" cType="1" res="-6.2403507763519883e-04" rms="4.7494179010391235e-01" purity="4.9862766265869141e-01" nType="0">
        <Node pos="l" depth="1" NCoef="0" IVar="-1" Cut="0.0000000000000000e+00" cType="1" res="1.7937585711479187e-02" rms="4.4793981313705444e-01" purity="6.9349455833435059e-01" nType="-99"/>
        <Node pos="r" depth="1" NCoef="0" IVar="11" Cut="6.5466842651367188e+01" cType="1" res="-8.6177736520767212e-03" rms="4.7666326165199280e-01" purity="4.8007059097290039e-01" nType="0">
          <Node pos="l" depth="2" NCoef="0" IVar="-1" Cut="0.0000000000000000e+00" cType="1" res="2.2404955234378576e-03" rms="4.8269367218017578e-01" purity="5.3824675083160400e-01" nType="-99"/>
          <Node pos="r" depth="2" NCoef="0" IVar="-1" Cut="0.0000000000000000e+00" cType="1" res="-9.8114302381873131e-03" rms="4.6290937066078186e-01" purity="3.7069755792617798e-01" nType="-99"/>
        </Node>
      </Node>
    </BinaryTree>
    <BinaryTree type="DecisionTree" boostWeight="1.0000000000000000e+00" itree="31">
      <Node pos="s" depth="0" NCoef="0" IVar="10" Cut="7.2186492919921875e+01" cType="1" res="2.6588803157210350e-03" rms="4.7390815615653992e-01" purity="5.0221711397171021e-01" nType="0">
        <Node pos="l" depth="1" NCoef="0" IVar="12" Cut="7.7879506349563599e-01" cType="1" res="2.8770942240953445e-02" rms="4.7625115513801575e-01" purity="5.8586227893829346e-01" nType="0">
          <Node pos="l" depth="2" NCoef="0" IVar="-1" Cut="0.0000000000000000e+00" cType="1" res="1.9103135913610458e-02" rms="4.3992337584495544e-01" purity="7.0966702699661255e-01" nType="-99"/>
          <Node pos="r" depth="2" NCoef="0" IVar="-1" Cut="0.0000000000000000e+00" cType="1" res="2.8882480692118406e-03" rms="4.8377120494842529e-01" purity="5.5497068166732788e-01" nType="-99"/>
        </Node>
        <Node pos="r" depth="1" NCoef="0" IVar="12" Cut="5.9778457880020142e-01" cType="1" res="-2.3293470963835716e-02" rms="4.7013309597969055e-01" purity="4.1908356547355652e-01" nType="0">
          <Node pos="l" depth="2" NCoef="0" IVar="-1" Cut="0.0000000000000000e+00" cType="1" res="9.4890119507908821e-03" rms="4.6309459209442139e-01" purity="6.5056556463241577e-01" nType="-99"/>
          <Node pos="r" depth="2" NCoef="0" IVar="-1" Cut="0.0000000000000000e+00" cType="1" res="-6.8720337003469467e-03" rms="4.7032073140144348e-01" purity="3.8955631852149963e-01" nType="-99"/>
        </Node>
      </Node>
    </BinaryTree>
    <BinaryTree type="DecisionTree" boostWeight="1.0000000000000000e+00" itree="32">
      <Node pos="s" depth="0" NCoef="0" IVar="5" Cut="1.6306646728515625e+02" cType="1" res="-1.7962892306968570e-03" rms="4.7346565127372742e-01" purity="4.9890130758285522e-01" nType="0">
        <Node pos="l" depth="1" NCoef="0" IVar="12" Cut="2.3061943054199219e+00" cType="1" res="1.0395525023341179e-02" rms="4.7720471024513245e-01" purity="5.2934056520462036e-01" nType="0">
          <Node pos="l" depth="2" NCoef="0" IVar="-1" Cut="0.0000000000000000e+00" cType="1" res="6.1260955408215523e-03" rms="4.7592711448669434e-01" purity="5.8385068178176880e-01" nType="-99"/>
          <Node pos="r" depth="2" NCoef="0" IVar="-1" Cut="0.0000000000000000e+00" cType="1" res="-4.9205678515136242e-03" rms="4.7762966156005859e-01" purity="4.3154141306877136e-01" nType="-99"/>
        </Node>
        <Node pos="r" depth="1" NCoef="0" IVar="13" Cut="1.4273628234863281e+02" cType="1" res="-5.6670539081096649e-02" rms="4.5220631361007690e-01" purity="3.6189696192741394e-01" nType="0">
          <Node pos="l" depth="2" NCoef="0" IVar="-1" Cut="0.0000000000000000e+00" cType="1" res="-2.0493963733315468e-02" rms="4.6184375882148743e-01" purity="3.9039361476898193e-01" nType="-99"/>
          <Node pos="r" depth="2" NCoef="0" IVar="-1" Cut="0.0000000000000000e+00" cType="1" res="-6.0586119070649147e-03" rms="4.4258290529251099e-01" purity="3.4112179279327393e-01" nType="-99"/>
        </Node>
      </Node>
    </BinaryTree>
    <BinaryTree type="DecisionTree" boostWeight="1.0000000000000000e+00" itree="33">
      <Node pos="s" depth="0" NCoef="0" IVar="11" Cut="1.1038406372070312e+02" cType="1" res="-4.3125096708536148e-03" rms="4.7486022114753723e-01" purity="4.9711161851882935e-01" nType="0">
        <Node pos="l" depth="1" NCoef="0" IVar="3" Cut="1.4217446899414062e+02" cType="1" res="5.4511637426912785e-03" rms="4.7862181067466736e-01" purity="5.2405607700347900e-01" nType="0">
          <Node pos="l" depth="2" NCoef="0" IVar="-1" Cut="0.0000000000000000e+00" cType="1" res="4.0603736415505409e-03" rms="4.7768923640251160e-01" purity="5.5028647184371948e-01" nType="-99"/>
          <Node pos="r" depth="2" NCoef="0" IVar="-1" Cut="0.0000000000000000e+00" cType="1" res="-8.5015362128615379e-03" rms="4.7883284091949463e-01" purity="4.3739849328994751e-01" nType="-99"/>
        </Node>
        <Node pos="r" depth="1" NCoef="0" IVar="4" Cut="1.5612026977539062e+02" cType="1" res="-6.9642968475818634e-02" rms="4.4338199496269226e-01" purity="3.1682139635086060e-01" nType="0">
          <Node pos="l" depth="2" NCoef="0" IVar="-1" Cut="0.0000000000000000e+00" cType="1" res="-1.0435746982693672e-02" rms="4.4363757967948914e-01" purity="3.0495029687881470e-01" nType="-99"/>
          <Node pos="r" depth="2" NCoef="0" IVar="-1" Cut="0.0000000000000000e+00" cType="1" res="-2.0914154127240181e-02" rms="4.4172874093055725e-01" purity="3.2909384369850159e-01" nType="-99"/>
        </Node>
      </Node>
    </BinaryTree>
    <BinaryTree type="DecisionTree" boostWeight="1.0000000000000000e+00" itree="34">
      <Node pos="s" depth="0" NCoef="0" IVar="10" Cut="7.8009346008300781e+01" cType="1" res="3.5117543302476406e-04" rms="4.7340270876884460e-01" purity="4.9974098801612854e-01" nType="0">
        <Node pos="l" depth="1" NCoef="0" IVar="12" Cut="1.7060250043869019e+00" cType="1" res="2.0234454423189163e-02" rms="4.7748684883117676e-01" purity="5.7738608121871948e-01" nType="0">
          <Node pos="l" depth="2" NCoef="0" IVar="-1" Cut="0.0000000000000000e+00" cType="1" res="1.0390017181634903e-02" rms="4.6431422233581543e-01" purity="6.4804083108901978e-01" nType="-99"/>
          <Node pos="r" depth="2" NCoef="0" IVar="-1" Cut="0.0000000000000000e+00" cType="1" res="-1.4794922899454832e-03" rms="4.8819634318351746e-01" purity="5.0970637798309326e-01" nType="-99"/>
        </Node>
        <Node pos="r" depth="1" NCoef="0" IVar="13" Cut="9.2703521728515625e+01" cType="1" res="-2.2911988198757172e-02" rms="4.6750691533088684e-01" purity="4.0889731049537659e-01" nType="0">
          <Node pos="l" depth="2" NCoef="0" IVar="-1" Cut="0.0000000000000000e+00" cType="1" res="-2.2025743499398232e-02" rms="4.8474740982055664e-01" purity="4.3541187047958374e-01" nType="-99"/>
          <Node pos="r" depth="2" NCoef="0" IVar="-1" Cut="0.0000000000000000e+00" cType="1" res="-2.4026876781135798e-03" rms="4.6378475427627563e-01" purity="4.0516358613967896e-01" nType="-99"/>
        </Node>
      </Node>
    </BinaryTree>
    <BinaryTree type="DecisionTree" boostWeight="1.0000000000000000e+00" itree="35">
      <Node pos="s" depth="0" NCoef="0" IVar="13" Cut="4.4159961700439453e+01" cType="1" res="-6.5542059019207954e-04" rms="4.7463443875312805e-01" purity="4.9912211298942566e-01" nType="0">
        <Node pos="l" depth="1" NCoef="0" IVar="-1" Cut="0.0000000000000000e+00" cType="1" res="-1.9392834976315498e-02" rms="4.9335995316505432e-01" purity="4.5515561103820801e-01" nType="-99"/>
        <Node pos="r" depth="1" NCoef="0" IVar="12" Cut="8.2112956047058105e-01" cType="1" res="6.0079544782638550e-03" rms="4.7257497906684875e-01" purity="5.0221538543701172e-01" nType="0">
          <Node pos="l" depth="2" NCoef="0" IVar="-1" Cut="0.0000000000000000e+00" cType="1" res="1.5195549465715885e-02" rms="4.4179436564445496e-01" purity="7.1056783199310303e-01" nType="-99"/>
          <Node pos="r" depth="2" NCoef="0" IVar="-1" Cut="0.0000000000000000e+00" cType="1" res="-1.0068083647638559e-03" rms="4.7684267163276672e-01" purity="4.6637469530105591e-01" nType="-99"/>
        </Node>
      </Node>
    </BinaryTree>
    <BinaryTree type="DecisionTree" boostWeight="1.0000000000000000e+00" itree="36">
      <Node pos="s" depth="0" NCoef="0" IVar="13" Cut="5.0411457061767578e+01" cType="1" res="3.4505713847465813e-04" rms="4.7483119368553162e-01" purity="5.0110954046249390e-01" nType="0">
        <Node pos="l" depth="1" NCoef="0" IVar="-1" Cut="0.0000000000000000e+00" cType="1" res="-1.4121144078671932e-02" rms="4.9437087774276733e-01" purity="4.7395467758178711e-01" nType="-99"/>
        <Node pos="r" depth="1" NCoef="0" IVar="12" Cut="2.2032756805419922e+00" cType="1" res="6.9245556369423866e-03" rms="4.7241878509521484e-01" purity="5.0366437435150146e-01" nType="0">
          <Node pos="l" depth="2" NCoef="0" IVar="-1" Cut="0.0000000000000000e+00" cType="1" res="6.3079805113375187e-03" rms="4.7211587429046631e-01" purity="5.7847064733505249e-01" nType="-99"/>
          <Node pos="r" depth="2" NCoef="0" IVar="-1" Cut="0.0000000000000000e+00" cType="1" res="-4.9840998835861683e-03" rms="4.7113239765167236e-01" purity="4.0491828322410583e-01" nType="-99"/>
        </Node>
      </Node>
    </BinaryTree>
    <BinaryTree type="DecisionTree" boostWeight="1.0000000000000000e+00" itree="37">
      <Node pos="s" depth="0" NCoef="0" IVar="6" Cut="3.3132457733154297e-01" cType="1" res="-3.0229308176785707e-03" rms="4.7302278876304626e-01" purity="4.9741819500923157e-01" nType="0">
        <Node pos="l" depth="1" NCoef="0" IVar="7" Cut="3.1061246991157532e-01" cType="1" res="-1.5352526679635048e-02" rms="4.7466847300529480e-01" purity="4.7743901610374451e-01" nType="0">
          <Node pos="l" depth="2" NCoef="0" IVar="-1" Cut="0.0000000000000000e+00" cType="1" res="-6.7420941777527332e-03" rms="4.7616595029830933e-01" purity="4.4967737793922424e-01" nType="-99"/>
          <Node pos="r" depth="2" NCoef="0" IVar="-1" Cut="0.0000000000000000e+00" cType="1" res="7.2529134340584278e-03" rms="4.6673116087913513e-01" purity="5.6017631292343140e-01" nType="-99"/>
        </Node>
        <Node pos="r" depth="1" NCoef="0" IVar="10" Cut="7.0878845214843750e+01" cType="1" res="3.9685055613517761e-02" rms="4.6475571393966675e-01" purity="5.6662309169769287e-01" nType="0">
          <Node pos="l" depth="2" NCoef="0" IVar="-1" Cut="0.0000000000000000e+00" cType="1" res="1.7276294529438019e-02" rms="4.5541507005691528e-01" purity="6.6655534505844116e-01" nType="-99"/>
          <Node pos="r" depth="2" NCoef="0" IVar="-1" Cut="0.0000000000000000e+00" cType="1" res="-1.1702696792781353e-03" rms="4.7055310010910034e-01" purity="4.5813053846359253e-01" nType="-99"/>
        </Node>
      </Node>
    </BinaryTree>
    <BinaryTree type="DecisionTree" boostWeight="1.0000000000000000e+00" itree="38">
      <Node pos="s" depth="0" NCoef="0" IVar="14" Cut="2.8926026821136475e-01" cType="1" res="5.9248832985758781e-04" rms="4.7233989834785461e-01" purity="5.0014370679855347e-01" nType="0">
        <Node pos="l" depth="1" NCoef="0" IVar="13" Cut="5.1145820617675781e+01" cType="1" res="1.8483029678463936e-02" rms="4.7563064098358154e-01" purity="5.5727034807205200e-01" nType="0">
          <Node pos="l" depth="2" NCoef="0" IVar="-1" Cut="0.0000000000000000e+00" cType="1" res="-1.3683081604540348e-02" rms="4.9310192465782166e-01" purity="4.7114446759223938e-01" nType="-99"/>
          <Node pos="r" depth="2" NCoef="0" IVar="-1" Cut="0.0000000000000000e+00" cType="1" res="6.5439091995358467e-03" rms="4.7171357274055481e-01" purity="5.6985431909561157e-01" nType="-99"/>
        </Node>
        <Node pos="r" depth="1" NCoef="0" IVar="12" Cut="1.1415430307388306e+00" cType="1" res="-2.8732381761074066e-02" rms="4.6541067957878113e-01" purity="4.0650591254234314e-01" nType="0">
          <Node pos="l" depth="2" NCoef="0" IVar="-1" Cut="0.0000000000000000e+00" cType="1" res="7.1853855624794960e-03" rms="4.6728405356407166e-01" purity="6.3589501380920410e-01" nType="-99"/>
          <Node pos="r" depth="2" NCoef="0" IVar="-1" Cut="0.0000000000000000e+00" cType="1" res="-9.5258280634880066e-03" rms="4.6375912427902222e-01" purity="3.5277694463729858e-01" nType="-99"/>
        </Node>
      </Node>
    </BinaryTree>
    <BinaryTree type="DecisionTree" boostWeight="1.0000000000000000e+00" itree="39">
      <Node pos="s" depth="0" NCoef="0" IVar="5" Cut="1.5682868957519531e+02" cType="1" res="7.8341839835047722e-03" rms="4.7289466857910156e-01" purity="5.0745624303817749e-01" nType="0">
        <Node pos="l" depth="1" NCoef="0" IVar="14" Cut="5.0402605533599854e-01" cType="1" res="1.9422942772507668e-02" rms="4.7564041614532471e-01" purity="5.3967565298080444e-01" nType="0">
          <Node pos="l" depth="2" NCoef="0" IVar="-1" Cut="0.0000000000000000e+00" cType="1" res="6.3536511734127998e-03" rms="4.7771289944648743e-01" purity="5.7681322097778320e-01" nType="-99"/>
          <Node pos="r" depth="2" NCoef="0" IVar="-1" Cut="0.0000000000000000e+00" cType="1" res="-6.7684007808566093e-03" rms="4.6274572610855103e-01" purity="3.6966809630393982e-01" nType="-99"/>
        </Node>
        <Node pos="r" depth="1" NCoef="0" IVar="13" Cut="1.0819375610351562e+02" cType="1" res="-3.7562459707260132e-02" rms="4.5917320251464844e-01" purity="3.8124331831932068e-01" nType="0">
          <Node pos="l" depth="2" NCoef="0" IVar="-1" Cut="0.0000000000000000e+00" cType="1" res="-2.0106690004467964e-02" rms="4.7136142849922180e-01" purity="4.1350504755973816e-01" nType="-99"/>
          <Node pos="r" depth="2" NCoef="0" IVar="-1" Cut="0.0000000000000000e+00" cType="1" res="-3.1775112729519606e-03" rms="4.5205882191658020e-01" purity="3.6844298243522644e-01" nType="-99"/>
        </Node>
      </Node>
    </BinaryTree>
    <BinaryTree type="DecisionTree" boostWeight="1.0000000000000000e+00" itree="40">
      <Node pos="s" depth="0" NCoef="0" IVar="6" Cut="3.7284901738166809e-01" cType="1" res="7.1831716923043132e-04" rms="4.7293624281883240e-01" purity="5.0003749132156372e-01" nType="0">
        <Node pos="l" depth="1" NCoef="0" IVar="7" Cut="4.6530085802078247e-01" cType="1" res="-9.7869522869586945e-03" rms="4.7379064559936523e-01" purity="4.8170554637908936e-01" nType="0">
          <Node pos="l" depth="2" NCoef="0" IVar="-1" Cut="0.0000000000000000e+00" cType="1" res="-3.8665991742163897e-03" rms="4.7421476244926453e-01" purity="4.6781370043754578e-01" nType="-99"/>
          <Node pos="r" depth="2" NCoef="0" IVar="-1" Cut="0.0000000000000000e+00" cType="1" res="1.7338283360004425e-02" rms="4.5966765284538269e-01" purity="6.3142681121826172e-01" nType="-99"/>
        </Node>
        <Node pos="r" depth="1" NCoef="0" IVar="3" Cut="1.1017860412597656e+02" cType="1" res="5.0086416304111481e-02" rms="4.6573773026466370e-01" purity="5.8618587255477905e-01" nType="0">
          <Node pos="l" depth="2" NCoef="0" IVar="-1" Cut="0.0000000000000000e+00" cType="1" res="1.6451563686132431e-02" rms="4.5741289854049683e-01" purity="6.2966310977935791e-01" nType="-99"/>
          <Node pos="r" depth="2" NCoef="0" IVar="-1" Cut="0.0000000000000000e+00" cType="1" res="3.0240882188081741e-03" rms="4.7474113106727600e-01" purity="5.2567321062088013e-01" nType="-99"/>
        </Node>
      </Node>
    </BinaryTree>
    <BinaryTree type="DecisionTree" boostWeight="1.0000000000000000e+00" itree="41">
      <Node pos="s" depth="0" NCoef="0" IVar="11" Cut="9.1037391662597656e+01" cType="1" res="-6.2774796970188618e-03" rms="4.7091314196586609e-01" purity="4.9268355965614319e-01" nType="0">
        <Node pos="l" depth="1" NCoef="0" IVar="7" Cut="1.8731661140918732e-01" cType="1" res="4.2996583506464958e-03" rms="4.7621238231658936e-01" purity="5.3074949979782104e-01" nType="0">
          <Node pos="l" depth="2" NCoef="0" IVar="-1" Cut="0.0000000000000000e+00" cType="1" res="-3.9250385016202927e-03" rms="4.7848567366600037e-01" purity="4.9272793531417847e-01" nType="-99"/>
          <Node pos="r" depth="2" NCoef="0" IVar="-1" Cut="0.0000000000000000e+00" cType="1" res="5.5639259517192841e-03" rms="4.7299653291702271e-01" purity="5.6697005033493042e-01" nType="-99"/>
        </Node>
        <Node pos="r" depth="1" NCoef="0" IVar="2" Cut="1.2333753204345703e+02" cType="1" res="-4.8815052956342697e-02" rms="4.4644695520401001e-01" purity="3.3959558606147766e-01" nType="0">
          <Node pos="l" depth="2" NCoef="0" IVar="-1" Cut="0.0000000000000000e+00" cType="1" res="-6.3862469978630543e-03" rms="4.5241403579711914e-01" purity="3.5297691822052002e-01" nType="-99"/>
          <Node pos="r" depth="2" NCoef="0" IVar="-1" Cut="0.0000000000000000e+00" cType="1" res="-1.8197888508439064e-02" rms="4.3522989749908447e-01" purity="3.1911554932594299e-01" nType="-99"/>
        </Node>
      </Node>
    </BinaryTree>
    <BinaryTree type="DecisionTree" boostWeight="1.0000000000000000e+00" itree="42">
      <Node pos="s" depth="0" NCoef="0" IVar="5" Cut="2.0931434631347656e+02" cType="1" res="2.3807734251022339e-03" rms="4.7310054302215576e-01" purity="5.0341886281967163e-01" nType="0">
        <Node pos="l" depth="1" NCoef="0" IVar="6" Cut="1.6210691630840302e-01" cType="1" res="7.9060783609747887e-03" rms="4.7558608651161194e-01" purity="5.2198576927185059e-01" nType="0">
          <Node pos="l" depth="2" NCoef="0" IVar="-1" Cut="0.0000000000000000e+00" cType="1" res="-2.9770003166049719e-03" rms="4.7759267687797546e-01" purity="4.8824092745780945e-01" nType="-99"/>
          <Node pos="r" depth="2" NCoef="0" IVar="-1" Cut="0.0000000000000000e+00" cType="1" res="5.1795328035950661e-03" rms="4.7342056035995483e-01" purity="5.4715538024902344e-01" nType="-99"/>
        </Node>
        <Node pos="r" depth="1" NCoef="0" IVar="-1" Cut="0.0000000000000000e+00" cType="1" res="-1.4734975062310696e-02" rms="4.3741852045059204e-01" purity="2.8400963544845581e-01" nType="-99"/>
      </Node>
    </BinaryTree>
    <BinaryTree type="DecisionTree" boostWeight="1.0000000000000000e+00" itree="43">
      <Node pos="s" depth="0" NCoef="0" IVar="10" Cut="9.0389457702636719e+01" cType="1" res="2.9159248806536198e-03" rms="4.7149300575256348e-01" purity="5.0341272354125977e-01" nType="0">
        <Node pos="l" depth="1" NCoef="0" IVar="13" Cut="1.4388616943359375e+02" cType="1" res="1.8360333517193794e-02" rms="4.7606396675109863e-01" purity="5.7107973098754883e-01" nType="0">
          <Node pos="l" depth="2" NCoef="0" IVar="-1" Cut="0.0000000000000000e+00" cType="1" res="8.2677428144961596e-04" rms="4.8043143749237061e-01" purity="5.6801897287368774e-01" nType="-99"/>
          <Node pos="r" depth="2" NCoef="0" IVar="-1" Cut="0.0000000000000000e+00" cType="1" res="1.2264278717339039e-02" rms="4.6189215779304504e-01" purity="5.7931202650070190e-01" nType="-99"/>
        </Node>
        <Node pos="r" depth="1" NCoef="0" IVar="13" Cut="1.1009850311279297e+02" cType="1" res="-2.2946652024984360e-02" rms="4.6258452534675598e-01" purity="3.9010041952133179e-01" nType="0">
          <Node pos="l" depth="2" NCoef="0" IVar="-1" Cut="0.0000000000000000e+00" cType="1" res="-1.9522173330187798e-02" rms="4.8255863785743713e-01" purity="4.2795404791831970e-01" nType="-99"/>
          <Node pos="r" depth="2" NCoef="0" IVar="-1" Cut="0.0000000000000000e+00" cType="1" res="-2.3288975935429335e-03" rms="4.5783758163452148e-01" purity="3.8346722722053528e-01" nType="-99"/>
        </Node>
      </Node>
    </BinaryTree>
    <BinaryTree type="DecisionTree" boostWeight="1.0000000000000000e+00" itree="44">
      <Node pos="s" depth="0" NCoef="0" IVar="12" Cut="8.2050561904907227e-01" cType="1" res="-3.3655809238553047e-03" rms="4.7192186117172241e-01" purity="4.9609622359275818e-01" nType="0">
        <Node pos="l" depth="1" NCoef="0" IVar="13" Cut="7.3997772216796875e+01" cType="1" res="4.1813757270574570e-02" rms="4.5415294170379639e-01" purity="6.6476804018020630e-01" nType="0">
          <Node pos="l" depth="2" NCoef="0" IVar="-1" Cut="0.0000000000000000e+00" cType="1" res="-4.3923311750404537e-04" rms="4.8783957958221436e-01" purity="5.5639451742172241e-01" nType="-99"/>
          <Node pos="r" depth="2" NCoef="0" IVar="-1" Cut="0.0000000000000000e+00" cType="1" res="1.9620686769485474e-02" rms="4.1546294093132019e-01" purity="7.6749962568283081e-01" nType="-99"/>
        </Node>
        <Node pos="r" depth="1" NCoef="0" IVar="5" Cut="1.1397946166992188e+02" cType="1" res="-1.3534639962017536e-02" rms="4.7523805499076843e-01" purity="4.5813122391700745e-01" nType="0">
          <Node pos="l" depth="2" NCoef="0" IVar="-1" Cut="0.0000000000000000e+00" cType="1" res="6.2038755277171731e-04" rms="4.8130008578300476e-01" purity="5.0717103481292725e-01" nType="-99"/>
          <Node pos="r" depth="2" NCoef="0" IVar="-1" Cut="0.0000000000000000e+00" cType="1" res="-8.5702715441584587e-03" rms="4.6460297703742981e-01" purity="3.8260325789451599e-01" nType="-99"/>
        </Node>
      </Node>
    </BinaryTree>
    <BinaryTree type="DecisionTree" boostWeight="1.0000000000000000e+00" itree="45">
      <Node pos="s" depth="0" NCoef="0" IVar="3" Cut="1.3602429199218750e+02" cType="1" res="-1.9058356701862067e-04" rms="4.7445908188819885e-01" purity="4.9982041120529175e-01" nType="0">
        <Node pos="l" depth="1" NCoef="0" IVar="6" Cut="7.7076941728591919e-02" cType="1" res="1.2022051960229874e-02" rms="4.7402796149253845e-01" purity="5.2805238962173462e-01" nType="0">
          <Node pos="l" depth="2" NCoef="0" IVar="-1" Cut="0.0000000000000000e+00" cType="1" res="-5.2413917146623135e-03" rms="4.7850611805915833e-01" purity="4.7515669465065002e-01" nType="-99"/>
          <Node pos="r" depth="2" NCoef="0" IVar="-1" Cut="0.0000000000000000e+00" cType="1" res="4.7067240811884403e-03" rms="4.7231885790824890e-01" purity="5.4239362478256226e-01" nType="-99"/>
        </Node>
        <Node pos="r" depth="1" NCoef="0" IVar="2" Cut="1.4217509460449219e+02" cType="1" res="-3.3014301210641861e-02" rms="4.7405922412872314e-01" purity="4.2394185066223145e-01" nType="0">
          <Node pos="l" depth="2" NCoef="0" IVar="-1" Cut="0.0000000000000000e+00" cType="1" res="-3.5369812976568937e-03" rms="4.7666567564010620e-01" purity="4.3594038486480713e-01" nType="-99"/>
          <Node pos="r" depth="2" NCoef="0" IVar="-1" Cut="0.0000000000000000e+00" cType="1" res="-1.3857878744602203e-02" rms="4.6748808026313782e-01" purity="4.0132170915603638e-01" nType="-99"/>
        </Node>
      </Node>
    </BinaryTree>
    <BinaryTree type="DecisionTree" boostWeight="1.0000000000000000e+00" itree="46">
      <Node pos="s" depth="0" NCoef="0" IVar="3" Cut="1.7545323181152344e+02" cType="1" res="-2.2711893543601036e-03" rms="4.7323071956634521e-01" purity="4.9830424785614014e-01" nType="0">
        <Node pos="l" depth="1" NCoef="0" IVar="14" Cut="2.2957284748554230e-01" cType="1" res="6.4115012064576149e-03" rms="4.7353684902191162e-01" purity="5.1610857248306274e-01" nType="0">
          <Node pos="l" depth="2" NCoef="0" IVar="-1" Cut="0.0000000000000000e+00" cType="1" res="5.9258593246340752e-03" rms="4.7217151522636414e-01" purity="5.8973288536071777e-01" nType="-99"/>
          <Node pos="r" depth="2" NCoef="0" IVar="-1" Cut="0.0000000000000000e+00" cType="1" res="-3.3618584275245667e-03" rms="4.7390785813331604e-01" purity="4.4182261824607849e-01" nType="-99"/>
        </Node>
        <Node pos="r" depth="1" NCoef="0" IVar="2" Cut="1.0824147033691406e+02" cType="1" res="-4.7394312918186188e-02" rms="4.6905574202537537e-01" purity="4.0577706694602966e-01" nType="0">
          <Node pos="l" depth="2" NCoef="0" IVar="-1" Cut="0.0000000000000000e+00" cType="1" res="-2.5630632881075144e-03" rms="4.7747203707695007e-01" purity="4.3483829498291016e-01" nType="-99"/>
          <Node pos="r" depth="2" NCoef="0" IVar="-1" Cut="0.0000000000000000e+00" cType="1" res="-1.6444806009531021e-02" rms="4.6018958091735840e-01" purity="3.8244083523750305e-01" nType="-99"/>
        </Node>
      </Node>
    </BinaryTree>
    <BinaryTree type="DecisionTree" boostWeight="1.0000000000000000e+00" itree="47">
      <Node pos="s" depth="0" NCoef="0" IVar="12" Cut="3.1727531552314758e-01" cType="1" res="-5.5685243569314480e-03" rms="4.7200646996498108e-01" purity="4.9492669105529785e-01" nType="0">
        <Node pos="l" depth="1" NCoef="0" IVar="-1" Cut="0.0000000000000000e+00" cType="1" res="1.5000144951045513e-02" rms="4.3886694312095642e-01" purity="7.0379185676574707e-01" nType="-99"/>
        <Node pos="r" depth="1" NCoef="0" IVar="13" Cut="7.4170173645019531e+01" cType="1" res="-1.0464030317962170e-02" rms="4.7377967834472656e-01" purity="4.8071879148483276e-01" nType="0">
          <Node pos="l" depth="2" NCoef="0" IVar="-1" Cut="0.0000000000000000e+00" cType="1" res="-9.8340241238474846e-03" rms="4.9326086044311523e-01" purity="5.0880938768386841e-01" nType="-99"/>
          <Node pos="r" depth="2" NCoef="0" IVar="-1" Cut="0.0000000000000000e+00" cType="1" res="-2.8576914337463677e-04" rms="4.6843773126602173e-01" purity="4.7384819388389587e-01" nType="-99"/>
        </Node>
      </Node>
    </BinaryTree>
    <BinaryTree type="DecisionTree" boostWeight="1.0000000000000000e+00" itree="48">
      <Node pos="s" depth="0" NCoef="0" IVar="11" Cut="1.2229882812500000e+02" cType="1" res="1.9068777328357100e-03" rms="4.7120383381843567e-01" purity="5.0153070688247681e-01" nType="0">
        <Node pos="l" depth="1" NCoef="0" IVar="13" Cut="7.7470306396484375e+01" cType="1" res="8.7136654183268547e-03" rms="4.7416496276855469e-01" purity="5.2545255422592163e-01" nType="0">
          <Node pos="l" depth="2" NCoef="0" IVar="-1" Cut="0.0000000000000000e+00" cType="1" res="-5.4877260699868202e-03" rms="4.8853942751884460e-01" purity="5.3118455410003662e-01" nType="-99"/>
          <Node pos="r" depth="2" NCoef="0" IVar="-1" Cut="0.0000000000000000e+00" cType="1" res="4.5328675769269466e-03" rms="4.6843457221984863e-01" purity="5.2345782518386841e-01" nType="-99"/>
        </Node>
        <Node pos="r" depth="1" NCoef="0" IVar="-1" Cut="0.0000000000000000e+00" cType="1" res="-1.2355373241007328e-02" rms="4.4291487336158752e-01" purity="3.0929931998252869e-01" nType="-99"/>
      </Node>
    </BinaryTree>
    <BinaryTree type="DecisionTree" boostWeight="1.0000000000000000e+00" itree="49">
      <Node pos="s" depth="0" NCoef="0" IVar="10" Cut="5.3407566070556641e+01" cType="1" res="1.5549396630376577e-03" rms="4.7103565931320190e-01" purity="5.0110495090484619e-01" nType="0">
        <Node pos="l" depth="1" NCoef="0" IVar="0" Cut="-2.3807721138000488e+00" cType="1" res="3.0241910368204117e-02" rms="4.7180175781250000e-01" purity="5.9188389778137207e-01" nType="0">
          <Node pos="l" depth="2" NCoef="0" IVar="-1" Cut="0.0000000000000000e+00" cType="1" res="1.6431298106908798e-02" rms="4.5807400345802307e-01" purity="6.4990121126174927e-01" nType="-99"/>
          <Node pos="r" depth="2" NCoef="0" IVar="-1" Cut="0.0000000000000000e+00" cType="1" res="2.0790796261280775e-03" rms="4.7609764337539673e-01" purity="5.6708389520645142e-01" nType="-99"/>
        </Node>
        <Node pos="r" depth="1" NCoef="0" IVar="7" Cut="4.5575088262557983e-01" cType="1" res="-1.1998707428574562e-02" rms="4.7006469964981079e-01" purity="4.5821487903594971e-01" nType="0">
          <Node pos="l" depth="2" NCoef="0" IVar="-1" Cut="0.0000000000000000e+00" cType="1" res="-4.2441799305379391e-03" rms="4.6996736526489258e-01" purity="4.4430038332939148e-01" nType="-99"/>
          <Node pos="r" depth="2" NCoef="0" IVar="-1" Cut="0.0000000000000000e+00" cType="1" res="1.2831484898924828e-02" rms="4.6504223346710205e-01" purity="5.8952558040618896e-01" nType="-99"/>
        </Node>
      </Node>
    </BinaryTree>
    <BinaryTree type="DecisionTree" boostWeight="1.0000000000000000e+00" itree="50">
      <Node pos="s" depth="0" NCoef="0" IVar="3" Cut="2.0639309692382812e+02" cType="1" res="-3.4735891968011856e-03" rms="4.7218301892280579e-01" purity="4.9586519598960876e-01" nType="0">
        <Node pos="l" depth="1" NCoef="0" IVar="4" Cut="1.8933247375488281e+02" cType="1" res="3.4274521749466658e-03" rms="4.7268575429916382e-01" purity="5.1001459360122681e-01" nType="0">
          <Node pos="l" depth="2" NCoef="0" IVar="-1" Cut="0.0000000000000000e+00" cType="1" res="2.0260843448340893e-03" rms="4.7432318329811096e-01" purity="5.2224475145339966e-01" nType="-99"/>
          <Node pos="r" depth="2" NCoef="0" IVar="-1" Cut="0.0000000000000000e+00" cType="1" res="-1.0776778683066368e-02" rms="4.5496335625648499e-01" purity="4.0429794788360596e-01" nType="-99"/>
        </Node>
        <Node pos="r" depth="1" NCoef="0" IVar="-1" Cut="0.0000000000000000e+00" cType="1" res="-1.3196466490626335e-02" rms="4.6414649486541748e-01" purity="3.7943810224533081e-01" nType="-99"/>
      </Node>
    </BinaryTree>
    <BinaryTree type="DecisionTree" boostWeight="1.0000000000000000e+00" itree="51">
      <Node pos="s" depth="0" NCoef="0" IVar="12" Cut="2.2770934104919434e+00" cType="1" res="3.5419168416410685e-03" rms="4.7114792466163635e-01" purity="5.0268185138702393e-01" nType="0">
        <Node pos="l" depth="1" NCoef="0" IVar="13" Cut="9.1894004821777344e+01" cType="1" res="1.8493428826332092e-02" rms="4.7128742933273315e-01" purity="5.6139868497848511e-01" nType="0">
          <Node pos="l" depth="2" NCoef="0" IVar="-1" Cut="0.0000000000000000e+00" cType="1" res="-2.2589410655200481e-03" rms="4.8508018255233765e-01" purity="5.4988598823547363e-01" nType="-99"/>
          <Node pos="r" depth="2" NCoef="0" IVar="-1" Cut="0.0000000000000000e+00" cType="1" res="8.4492415189743042e-03" rms="4.6044746041297913e-01" purity="5.6933611631393433e-01" nType="-99"/>
        </Node>
        <Node pos="r" depth="1" NCoef="0" IVar="10" Cut="3.9668972015380859e+01" cType="1" res="-2.2803125903010368e-02" rms="4.6974542737007141e-01" purity="3.9922082424163818e-01" nType="0">
          <Node pos="l" depth="2" NCoef="0" IVar="-1" Cut="0.0000000000000000e+00" cType="1" res="5.6566293351352215e-03" rms="4.8180437088012695e-01" purity="5.4615741968154907e-01" nType="-99"/>
          <Node pos="r" depth="2" NCoef="0" IVar="-1" Cut="0.0000000000000000e+00" cType="1" res="-7.0130527019500732e-03" rms="4.6702817082405090e-01" purity="3.7333256006240845e-01" nType="-99"/>
        </Node>
      </Node>
    </BinaryTree>
    <BinaryTree type="DecisionTree" boostWeight="1.0000000000000000e+00" itree="52">
      <Node pos="s" depth="0" NCoef="0" IVar="11" Cut="8.3491767883300781e+01" cType="1" res="6.1009335331618786e-04" rms="4.7148555517196655e-01" purity="5.0099474191665649e-01" nType="0">
        <Node pos="l" depth="1" NCoef="0" IVar="13" Cut="1.5088958740234375e+02" cType="1" res="1.0664225555956364e-02" rms="4.7635141015052795e-01" purity="5.4456782341003418e-01" nType="0">
          <Node pos="l" depth="2" NCoef="0" IVar="-1" Cut="0.0000000000000000e+00" cType="1" res="-1.1966455494984984e-03" rms="4.8013618588447571e-01" purity="5.4858374595642090e-01" nType="-99"/>
          <Node pos="r" depth="2" NCoef="0" IVar="-1" Cut="0.0000000000000000e+00" cType="1" res="1.0498226620256901e-02" rms="4.6548336744308472e-01" purity="5.3542912006378174e-01" nType="-99"/>
        </Node>
        <Node pos="r" depth="1" NCoef="0" IVar="2" Cut="8.0014160156250000e+01" cType="1" res="-3.1775619834661484e-02" rms="4.5394739508628845e-01" purity="3.6063998937606812e-01" nType="0">
          <Node pos="l" depth="2" NCoef="0" IVar="-1" Cut="0.0000000000000000e+00" cType="1" res="1.6012052074074745e-03" rms="4.7211140394210815e-01" purity="3.8677069544792175e-01" nType="-99"/>
          <Node pos="r" depth="2" NCoef="0" IVar="-1" Cut="0.0000000000000000e+00" cType="1" res="-1.0852952487766743e-02" rms="4.4534668326377869e-01" purity="3.4996595978736877e-01" nType="-99"/>
        </Node>
      </Node>
    </BinaryTree>
    <BinaryTree type="DecisionTree" boostWeight="1.0000000000000000e+00" itree="53">
      <Node pos="s" depth="0" NCoef="0" IVar="10" Cut="1.4081272888183594e+02" cType="1" res="7.2246609488502145e-04" rms="4.7215643525123596e-01" purity="5.0113213062286377e-01" nType="0">
        <Node pos="l" depth="1" NCoef="0" IVar="13" Cut="1.4960404968261719e+02" cType="1" res="9.2485528439283371e-03" rms="4.7603866457939148e-01" purity="5.3599667549133301e-01" nType="0">
          <Node pos="l" depth="2" NCoef="0" IVar="-1" Cut="0.0000000000000000e+00" cType="1" res="-6.0018053045496345e-04" rms="4.8154747486114502e-01" purity="5.4775953292846680e-01" nType="-99"/>
          <Node pos="r" depth="2" NCoef="0" IVar="-1" Cut="0.0000000000000000e+00" cType="1" res="7.7337403781712055e-03" rms="4.6301084756851196e-01" purity="5.1090502738952637e-01" nType="-99"/>
        </Node>
        <Node pos="r" depth="1" NCoef="0" IVar="2" Cut="1.0423577880859375e+02" cType="1" res="-3.8442905992269516e-02" rms="4.5183441042900085e-01" purity="3.4097835421562195e-01" nType="0">
          <Node pos="l" depth="2" NCoef="0" IVar="-1" Cut="0.0000000000000000e+00" cType="1" res="-4.6641967492178082e-04" rms="4.5980158448219299e-01" purity="3.6451205611228943e-01" nType="-99"/>
          <Node pos="r" depth="2" NCoef="0" IVar="-1" Cut="0.0000000000000000e+00" cType="1" res="-1.6661418601870537e-02" rms="4.4139501452445984e-01" purity="3.1869459152221680e-01" nType="-99"/>
        </Node>
      </Node>
    </BinaryTree>
    <BinaryTree type="DecisionTree" boostWeight="1.0000000000000000e+00" itree="54">
      <Node pos="s" depth="0" NCoef="0" IVar="7" Cut="3.1326338648796082e-01" cType="1" res="-2.2377902641892433e-03" rms="4.7122365236282349e-01" purity="4.9795648455619812e-01" nType="0">
        <Node pos="l" depth="1" NCoef="0" IVar="6" Cut="2.6082724332809448e-01" cType="1" res="-1.2697969563305378e-02" rms="4.7313046455383301e-01" purity="4.7441828250885010e-01" nType="0">
          <Node pos="l" depth="2" NCoef="0" IVar="-1" Cut="0.0000000000000000e+00" cType="1" res="-6.0141142457723618e-03" rms="4.7723755240440369e-01" purity="4.4224393367767334e-01" nType="-99"/>
          <Node pos="r" depth="2" NCoef="0" IVar="-1" Cut="0.0000000000000000e+00" cType="1" res="3.8400087505578995e-03" rms="4.6350696682929993e-01" purity="5.3729492425918579e-01" nType="-99"/>
        </Node>
        <Node pos="r" depth="1" NCoef="0" IVar="13" Cut="8.7749206542968750e+01" cType="1" res="2.8210118412971497e-02" rms="4.6428930759429932e-01" purity="5.6647253036499023e-01" nType="0">
          <Node pos="l" depth="2" NCoef="0" IVar="-1" Cut="0.0000000000000000e+00" cType="1" res="-9.1369664296507835e-03" rms="4.8493656516075134e-01" purity="5.4756426811218262e-01" nType="-99"/>
          <Node pos="r" depth="2" NCoef="0" IVar="-1" Cut="0.0000000000000000e+00" cType="1" res="1.0624071583151817e-02" rms="4.5635870099067688e-01" purity="5.7175153493881226e-01" nType="-99"/>
        </Node>
      </Node>
    </BinaryTree>
    <BinaryTree type="DecisionTree" boostWeight="1.0000000000000000e+00" itree="55">
      <Node pos="s" depth="0" NCoef="0" IVar="12" Cut="8.5600394010543823e-01" cType="1" res="8.9471228420734406e-04" rms="4.7051542997360229e-01" purity="5.0064432621002197e-01" nType="0">
        <Node pos="l" depth="1" NCoef="0" IVar="13" Cut="6.4692481994628906e+01" cType="1" res="4.1974905878305435e-02" rms="4.5191431045532227e-01" purity="6.6306829452514648e-01" nType="0">
          <Node pos="l" depth="2" NCoef="0" IVar="-1" Cut="0.0000000000000000e+00" cType="1" res="-2.3030608426779509e-03" rms="4.9463549256324768e-01" purity="5.2509313821792603e-01" nType="-99"/>
          <Node pos="r" depth="2" NCoef="0" IVar="-1" Cut="0.0000000000000000e+00" cType="1" res="1.9509473815560341e-02" rms="4.1228032112121582e-01" purity="7.6713979244232178e-01" nType="-99"/>
        </Node>
        <Node pos="r" depth="1" NCoef="0" IVar="5" Cut="9.7086593627929688e+01" cType="1" res="-8.8941575959324837e-03" rms="4.7431570291519165e-01" purity="4.6194079518318176e-01" nType="0">
          <Node pos="l" depth="2" NCoef="0" IVar="-1" Cut="0.0000000000000000e+00" cType="1" res="2.5674989446997643e-03" rms="4.8039951920509338e-01" purity="5.1753306388854980e-01" nType="-99"/>
          <Node pos="r" depth="2" NCoef="0" IVar="-1" Cut="0.0000000000000000e+00" cType="1" res="-7.0115728303790092e-03" rms="4.6649387478828430e-01" purity="4.0125417709350586e-01" nType="-99"/>
        </Node>
      </Node>
    </BinaryTree>
    <BinaryTree type="DecisionTree" boostWeight="1.0000000000000000e+00" itree="56">
      <Node pos="s" depth="0" NCoef="0" IVar="12" Cut="4.1276198625564575e-01" cType="1" res="-2.6651299558579922e-03" rms="4.7152334451675415e-01" purity="4.9911493062973022e-01" nType="0">
        <Node pos="l" depth="1" NCoef="0" IVar="-1" Cut="0.0000000000000000e+00" cType="1" res="1.2035221792757511e-02" rms="4.4073683023452759e-01" purity="6.9290620088577271e-01" nType="-99"/>
        <Node pos="r" depth="1" NCoef="0" IVar="13" Cut="1.4227554321289062e+02" cType="1" res="-7.7500860206782818e-03" rms="4.7393339872360229e-01" purity="4.8127582669258118e-01" nType="0">
          <Node pos="l" depth="2" NCoef="0" IVar="-1" Cut="0.0000000000000000e+00" cType="1" res="-5.4584736935794353e-03" rms="4.8478409647941589e-01" purity="5.1474344730377197e-01" nType="-99"/>
          <Node pos="r" depth="2" NCoef="0" IVar="-1" Cut="0.0000000000000000e+00" cType="1" res="3.2072735484689474e-03" rms="4.5971226692199707e-01" purity="4.4143173098564148e-01" nType="-99"/>
        </Node>
      </Node>
    </BinaryTree>
    <BinaryTree type="DecisionTree" boostWeight="1.0000000000000000e+00" itree="57">
      <Node pos="s" depth="0" NCoef="0" IVar="3" Cut="2.4355827331542969e+02" cType="1" res="6.1135482974350452e-03" rms="4.7097495198249817e-01" purity="5.0504785776138306e-01" nType="0">
        <Node pos="l" depth="1" NCoef="0" IVar="14" Cut="2.8535422682762146e-01" cType="1" res="1.0757442563772202e-02" rms="4.7171348333358765e-01" purity="5.1507794857025146e-01" nType="0">
          <Node pos="l" depth="2" NCoef="0" IVar="-1" Cut="0.0000000000000000e+00" cType="1" res="5.4888972081243992e-03" rms="4.7343713045120239e-01" purity="5.7752048969268799e-01" nType="-99"/>
          <Node pos="r" depth="2" NCoef="0" IVar="-1" Cut="0.0000000000000000e+00" cType="1" res="-2.6670875959098339e-03" rms="4.6818083524703979e-01" purity="4.2089983820915222e-01" nType="-99"/>
        </Node>
        <Node pos="r" depth="1" NCoef="0" IVar="-1" Cut="0.0000000000000000e+00" cType="1" res="-1.2192432768642902e-02" rms="4.5683097839355469e-01" purity="3.7350544333457947e-01" nType="-99"/>
      </Node>
    </BinaryTree>
    <BinaryTree type="DecisionTree" boostWeight="1.0000000000000000e+00" itree="58">
      <Node pos="s" depth="0" NCoef="0" IVar="13" Cut="1.0498712921142578e+02" cType="1" res="-1.1620451550697908e-04" rms="4.7096490859985352e-01" purity="4.9988982081413269e-01" nType="0">
        <Node pos="l" depth="1" NCoef="0" IVar="10" Cut="6.0749378204345703e+01" cType="1" res="-2.1176068112254143e-02" rms="4.8352596163749695e-01" purity="5.3421735763549805e-01" nType="0">
          <Node pos="l" depth="2" NCoef="0" IVar="-1" Cut="0.0000000000000000e+00" cType="1" res="-6.5017718588933349e-04" rms="4.8281326889991760e-01" purity="5.6355851888656616e-01" nType="-99"/>
          <Node pos="r" depth="2" NCoef="0" IVar="-1" Cut="0.0000000000000000e+00" cType="1" res="-1.1248546652495861e-02" rms="4.8308119177818298e-01" purity="4.8044919967651367e-01" nType="-99"/>
        </Node>
        <Node pos="r" depth="1" NCoef="0" IVar="11" Cut="4.7611915588378906e+01" cType="1" res="1.2372096069157124e-02" rms="4.6290320158004761e-01" purity="4.7953397035598755e-01" nType="0">
          <Node pos="l" depth="2" NCoef="0" IVar="-1" Cut="0.0000000000000000e+00" cType="1" res="1.1211279779672623e-02" rms="4.6051177382469177e-01" purity="5.8806318044662476e-01" nType="-99"/>
          <Node pos="r" depth="2" NCoef="0" IVar="-1" Cut="0.0000000000000000e+00" cType="1" res="-1.5611973358318210e-03" rms="4.6286323666572571e-01" purity="4.2582607269287109e-01" nType="-99"/>
        </Node>
      </Node>
    </BinaryTree>
    <BinaryTree type="DecisionTree" boostWeight="1.0000000000000000e+00" itree="59">
      <Node pos="s" depth="0" NCoef="0" IVar="11" Cut="4.5137596130371094e+01" cType="1" res="-2.5427597574889660e-03" rms="4.6873471140861511e-01" purity="4.9679464101791382e-01" nType="0">
        <Node pos="l" depth="1" NCoef="0" IVar="13" Cut="1.0739178466796875e+02" cType="1" res="1.9800841808319092e-02" rms="4.7259598970413208e-01" purity="5.6906121969223022e-01" nType="0">
          <Node pos="l" depth="2" NCoef="0" IVar="-1" Cut="0.0000000000000000e+00" cType="1" res="-6.6874996991828084e-04" rms="4.8195073008537292e-01" purity="5.5225604772567749e-01" nType="-99"/>
          <Node pos="r" depth="2" NCoef="0" IVar="-1" Cut="0.0000000000000000e+00" cType="1" res="1.1959094554185867e-02" rms="4.5591217279434204e-01" purity="5.9443593025207520e-01" nType="-99"/>
        </Node>
        <Node pos="r" depth="1" NCoef="0" IVar="12" Cut="8.2085472345352173e-01" cType="1" res="-1.9360534846782684e-02" rms="4.6509975194931030e-01" purity="4.4240039587020874e-01" nType="0">
          <Node pos="l" depth="2" NCoef="0" IVar="-1" Cut="0.0000000000000000e+00" cType="1" res="8.3893192932009697e-03" rms="4.5030120015144348e-01" purity="6.7107689380645752e-01" nType="-99"/>
          <Node pos="r" depth="2" NCoef="0" IVar="-1" Cut="0.0000000000000000e+00" cType="1" res="-6.7604747600853443e-03" rms="4.6720901131629944e-01" purity="3.9608979225158691e-01" nType="-99"/>
        </Node>
      </Node>
    </BinaryTree>
    <BinaryTree type="DecisionTree" boostWeight="1.0000000000000000e+00" itree="60">
      <Node pos="s" depth="0" NCoef="0" IVar="11" Cut="8.7804122924804688e+01" cType="1" res="2.5039000902324915e-03" rms="4.6972233057022095e-01" purity="5.0202172994613647e-01" nType="0">
        <Node pos="l" depth="1" NCoef="0" IVar="9" Cut="1.3173729181289673e+00" cType="1" res="1.0629811324179173e-02" rms="4.7386434674263000e-01" purity="5.4159635305404663e-01" nType="0">
          <Node pos="l" depth="2" NCoef="0" IVar="-1" Cut="0.0000000000000000e+00" cType="1" res="-9.5569323748350143e-03" rms="4.7514370083808899e-01" purity="4.8209676146507263e-01" nType="-99"/>
          <Node pos="r" depth="2" NCoef="0" IVar="-1" Cut="0.0000000000000000e+00" cType="1" res="3.3256714232265949e-03" rms="4.7343459725379944e-01" purity="5.4687148332595825e-01" nType="-99"/>
        </Node>
        <Node pos="r" depth="1" NCoef="0" IVar="3" Cut="6.7551979064941406e+01" cType="1" res="-2.7337130159139633e-02" rms="4.5293858647346497e-01" purity="3.5669058561325073e-01" nType="0">
          <Node pos="l" depth="2" NCoef="0" IVar="-1" Cut="0.0000000000000000e+00" cType="1" res="-1.4115885831415653e-02" rms="4.4360613822937012e-01" purity="3.4079077839851379e-01" nType="-99"/>
          <Node pos="r" depth="2" NCoef="0" IVar="-1" Cut="0.0000000000000000e+00" cType="1" res="-3.0162134207785130e-03" rms="4.5596039295196533e-01" purity="3.6326193809509277e-01" nType="-99"/>
        </Node>
      </Node>
    </BinaryTree>
    <BinaryTree type="DecisionTree" boostWeight="1.0000000000000000e+00" itree="61">
      <Node pos="s" depth="0" NCoef="0" IVar="12" Cut="1.3020613193511963e+00" cType="1" res="-2.3386725224554539e-03" rms="4.7030055522918701e-01" purity="4.9719467759132385e-01" nType="0">
        <Node pos="l" depth="1" NCoef="0" IVar="13" Cut="9.2276458740234375e+01" cType="1" res="2.6241824030876160e-02" rms="4.6174347400665283e-01" purity="6.3316893577575684e-01" nType="0">
          <Node pos="l" depth="2" NCoef="0" IVar="-1" Cut="0.0000000000000000e+00" cType="1" res="1.1073204223066568e-04" rms="4.8209929466247559e-01" purity="5.6323134899139404e-01" nType="-99"/>
          <Node pos="r" depth="2" NCoef="0" IVar="-1" Cut="0.0000000000000000e+00" cType="1" res="1.3553368858993053e-02" rms="4.3321248888969421e-01" purity="7.1948176622390747e-01" nType="-99"/>
        </Node>
        <Node pos="r" depth="1" NCoef="0" IVar="11" Cut="3.8140693664550781e+01" cType="1" res="-1.5336507931351662e-02" rms="4.7357079386711121e-01" purity="4.3535628914833069e-01" nType="0">
          <Node pos="l" depth="2" NCoef="0" IVar="-1" Cut="0.0000000000000000e+00" cType="1" res="2.5939873885363340e-03" rms="4.8180687427520752e-01" purity="5.3084266185760498e-01" nType="-99"/>
          <Node pos="r" depth="2" NCoef="0" IVar="-1" Cut="0.0000000000000000e+00" cType="1" res="-6.0848044231534004e-03" rms="4.6932414174079895e-01" purity="3.9280527830123901e-01" nType="-99"/>
        </Node>
      </Node>
    </BinaryTree>
    <BinaryTree type="DecisionTree" boostWeight="1.0000000000000000e+00" itree="62">
      <Node pos="s" depth="0" NCoef="0" IVar="5" Cut="1.5628022766113281e+02" cType="1" res="1.5540927415713668e-04" rms="4.6856722235679626e-01" purity="5.0125700235366821e-01" nType="0">
        <Node pos="l" depth="1" NCoef="0" IVar="11" Cut="4.7476829528808594e+01" cType="1" res="9.8598273470997810e-03" rms="4.7276136279106140e-01" purity="5.3655409812927246e-01" nType="0">
          <Node pos="l" depth="2" NCoef="0" IVar="-1" Cut="0.0000000000000000e+00" cType="1" res="6.2584788538515568e-03" rms="4.7379830479621887e-01" purity="6.0341340303421021e-01" nType="-99"/>
          <Node pos="r" depth="2" NCoef="0" IVar="-1" Cut="0.0000000000000000e+00" cType="1" res="-1.9851324614137411e-03" rms="4.7097906470298767e-01" purity="4.7206220030784607e-01" nType="-99"/>
        </Node>
        <Node pos="r" depth="1" NCoef="0" IVar="9" Cut="3.0697569847106934e+00" cType="1" res="-3.6349285393953323e-02" rms="4.5057421922683716e-01" purity="3.6848163604736328e-01" nType="0">
          <Node pos="l" depth="2" NCoef="0" IVar="-1" Cut="0.0000000000000000e+00" cType="1" res="-1.6371531412005424e-02" rms="4.3454357981681824e-01" purity="3.3964979648590088e-01" nType="-99"/>
          <Node pos="r" depth="2" NCoef="0" IVar="-1" Cut="0.0000000000000000e+00" cType="1" res="8.8426005095243454e-04" rms="4.6487623453140259e-01" purity="4.0124884247779846e-01" nType="-99"/>
        </Node>
      </Node>
    </BinaryTree>
    <BinaryTree type="DecisionTree" boostWeight="1.0000000000000000e+00" itree="63">
      <Node pos="s" depth="0" NCoef="0" IVar="13" Cut="8.1120185852050781e+01" cType="1" res="1.7816610634326935e-03" rms="4.7042888402938843e-01" purity="5.0205290317535400e-01" nType="0">
        <Node pos="l" depth="1" NCoef="0" IVar="0" Cut="-2.5195300579071045e+00" cType="1" res="-2.6694932952523232e-02" rms="4.8622089624404907e-01" purity="5.2517801523208618e-01" nType="0">
          <Node pos="l" depth="2" NCoef="0" IVar="-1" Cut="0.0000000000000000e+00" cType="1" res="5.2008782513439655e-03" rms="4.7839638590812683e-01" purity="5.8765333890914917e-01" nType="-99"/>
          <Node pos="r" depth="2" NCoef="0" IVar="-1" Cut="0.0000000000000000e+00" cType="1" res="-9.0105924755334854e-03" rms="4.8756596446037292e-01" purity="5.0463134050369263e-01" nType="-99"/>
        </Node>
        <Node pos="r" depth="1" NCoef="0" IVar="10" Cut="6.5253196716308594e+01" cType="1" res="1.1233509518206120e-02" rms="4.6468317508697510e-01" purity="4.9437725543975830e-01" nType="0">
          <Node pos="l" depth="2" NCoef="0" IVar="-1" Cut="0.0000000000000000e+00" cType="1" res="8.5933702066540718e-03" rms="4.5940491557121277e-01" purity="6.1212384700775146e-01" nType="-99"/>
          <Node pos="r" depth="2" NCoef="0" IVar="-1" Cut="0.0000000000000000e+00" cType="1" res="-7.5998291140422225e-04" rms="4.6674302220344543e-01" purity="4.3297418951988220e-01" nType="-99"/>
        </Node>
      </Node>
    </BinaryTree>
    <BinaryTree type="DecisionTree" boostWeight="1.0000000000000000e+00" itree="64">
      <Node pos="s" depth="0" NCoef="0" IVar="5" Cut="2.1371492004394531e+02" cType="1" res="1.8049596110358834e-03" rms="4.6817019581794739e-01" purity="5.0156897306442261e-01" nType="0">
        <Node pos="l" depth="1" NCoef="0" IVar="11" Cut="6.6741668701171875e+01" cType="1" res="6.5256478264927864e-03" rms="4.7155252099037170e-01" purity="5.2098941802978516e-01" nType="0">
          <Node pos="l" depth="2" NCoef="0" IVar="-1" Cut="0.0000000000000000e+00" cType="1" res="3.7986391689628363e-03" rms="4.7488749027252197e-01" purity="5.7277977466583252e-01" nType="-99"/>
          <Node pos="r" depth="2" NCoef="0" IVar="-1" Cut="0.0000000000000000e+00" cType="1" res="-4.1069420985877514e-03" rms="4.6317911148071289e-01" purity="4.0736392140388489e-01" nType="-99"/>
        </Node>
        <Node pos="r" depth="1" NCoef="0" IVar="-1" Cut="0.0000000000000000e+00" cType="1" res="-1.4292789623141289e-02" rms="4.1882711648941040e-01" purity="2.5738686323165894e-01" nType="-99"/>
      </Node>
    </BinaryTree>
    <BinaryTree type="DecisionTree" boostWeight="1.0000000000000000e+00" itree="65">
      <Node pos="s" depth="0" NCoef="0" IVar="13" Cut="1.8227204895019531e+02" cType="1" res="4.7191884368658066e-04" rms="4.7061434388160706e-01" purity="5.0068849325180054e-01" nType="0">
        <Node pos="l" depth="1" NCoef="0" IVar="10" Cut="1.1517634582519531e+02" cType="1" res="-1.0022566653788090e-02" rms="4.7628942131996155e-01" purity="5.2833312749862671e-01" nType="0">
