<?xml version="1.0"?>
<MethodSetup Method="DNN::DNN">
  <GeneralInfo>
    <Info name="TMVA Release" value="4.2.1 [262657]"/>
    <Info name="ROOT Release" value="6.10/09 [395785]"/>
    <Info name="Creator" value="arapyan"/>
    <Info name="Date" value="Mon Feb 17 20:45:40 2020"/>
    <Info name="Host" value="Linux cmsbuild76.cern.ch 2.6.32-696.30.1.el6.x86_64 #1 SMP Tue May 22 06:09:36 CEST 2018 x86_64 x86_64 x86_64 GNU/Linux"/>
    <Info name="Dir" value="/afs/cern.ch/work/a/arapyan/Run2/test/CMSSW_9_4_12/src/MitAnalysisRunII_mva/panda/macros/9x"/>
    <Info name="Training events" value="368256"/>
    <Info name="TrainingTime" value="1.95213028e+04"/>
    <Info name="AnalysisType" value="Multiclass"/>
  </GeneralInfo>
  <Options>
    <Option name="V" modified="Yes">True</Option>
    <Option name="VerbosityLevel" modified="No">Verbose</Option>
    <Option name="VarTransform" modified="Yes">N</Option>
    <Option name="H" modified="Yes">False</Option>
    <Option name="CreateMVAPdfs" modified="No">False</Option>
    <Option name="IgnoreNegWeightsInTraining" modified="No">False</Option>
    <Option name="Layout" modified="Yes">TANH|100,TANH|50,TANH|10,LINEAR</Option>
    <Option name="ErrorStrategy" modified="Yes">CROSSENTROPY</Option>
    <Option name="WeightInitialization" modified="Yes">XAVIERUNIFORM</Option>
    <Option name="Architecture" modified="Yes">CPU</Option>
    <Option name="TrainingStrategy" modified="Yes">LearningRate=1e-1,Momentum=0.0,Repetitions=1,ConvergenceSteps=300,BatchSize=20,TestRepetitions=15,WeightDecay=0.001,Regularization=NONE,DropConfig=0.0+0.5+0.5+0.5,DropRepetitions=1,Multithreading=True|LearningRate=1e-2,Momentum=0.5,Repetitions=1,ConvergenceSteps=300,BatchSize=30,TestRepetitions=7,WeightDecay=0.001,Regularization=L2,Multithreading=True,DropConfig=0.0+0.1+0.1+0.1,DropRepetitions=1|LearningRate=1e-2,Momentum=0.3,Repetitions=1,ConvergenceSteps=300,BatchSize=40,TestRepetitions=7,WeightDecay=0.0001,Regularization=L2,Multithreading=True</Option>
  </Options>
  <Variables NVar="25">
    <Variable VarIndex="0" Expression="mvadetajj" Label="mvadetajj" Title="mvadetajj" Unit="" Internal="mvadetajj" Type="F" Min="2.50000525e+00" Max="9.15853310e+00"/>
    <Variable VarIndex="1" Expression="mvadphijj" Label="mvadphijj" Title="mvadphijj" Unit="" Internal="mvadphijj" Type="F" Min="-3.14158773e+00" Max="3.14158821e+00"/>
    <Variable VarIndex="2" Expression="mvajetpt1" Label="mvajetpt1" Title="mvajetpt1" Unit="" Internal="mvajetpt1" Type="F" Min="5.00363159e+01" Max="2.27259277e+03"/>
    <Variable VarIndex="3" Expression="mvajetpt2" Label="mvajetpt2" Title="mvajetpt2" Unit="" Internal="mvajetpt2" Type="F" Min="5.00000725e+01" Max="1.40093030e+03"/>
    <Variable VarIndex="4" Expression="mvajeteta1" Label="mvajeteta1" Title="mvajeteta1" Unit="" Internal="mvajeteta1" Type="F" Min="-4.68938351e+00" Max="4.69285107e+00"/>
    <Variable VarIndex="5" Expression="mvajeteta2" Label="mvajeteta2" Title="mvajeteta2" Unit="" Internal="mvajeteta2" Type="F" Min="-4.69805908e+00" Max="4.69961834e+00"/>
    <Variable VarIndex="6" Expression="mvaWpt" Label="mvaWpt" Title="mvaMet" Unit="" Internal="mvaWpt" Type="F" Min="3.00001774e+01" Max="2.33687012e+03"/>
    <Variable VarIndex="7" Expression="mvaZpt" Label="mvaZpt" Title="mvaZpt" Unit="" Internal="mvaZpt" Type="F" Min="2.31378078e-01" Max="1.71788208e+03"/>
    <Variable VarIndex="8" Expression="mvaVVmt" Label="mvaVVmt" Title="mvaVVmt" Unit="" Internal="mvaVVmt" Type="F" Min="9.23130370e-04" Max="1.70929480e+03"/>
    <Variable VarIndex="9" Expression="mvazstar" Label="mvazstar" Title="mvazstar" Unit="" Internal="mvazstar" Type="F" Min="3.18882456e-07" Max="2.46958852e+00"/>
    <Variable VarIndex="10" Expression="mvazep1" Label="mvazep1" Title="mvazep1" Unit="" Internal="mvazep1" Type="F" Min="1.57259421e-06" Max="7.49936759e-01"/>
    <Variable VarIndex="11" Expression="mvazep2" Label="mvazep2" Title="mvazep2" Unit="" Internal="mvazep2" Type="F" Min="6.10486438e-07" Max="7.49979258e-01"/>
    <Variable VarIndex="12" Expression="mvamaxzep" Label="mvamaxzep" Title="mvamaxzep" Unit="" Internal="mvamaxzep" Type="F" Min="3.57390410e-04" Max="7.49979258e-01"/>
    <Variable VarIndex="13" Expression="mvaj1Zdr" Label="mvaj1Zdr" Title="mvaj1Zdr" Unit="" Internal="mvaj1Zdr" Type="F" Min="1.47960661e-02" Max="1.04582834e+01"/>
    <Variable VarIndex="14" Expression="mvaj2Zdr" Label="mvaj2Zdr" Title="mvaj2Zdr" Unit="" Internal="mvaj2Zdr" Type="F" Min="7.96650164e-03" Max="1.08471994e+01"/>
    <Variable VarIndex="15" Expression="mvapttot" Label="mvapttot" Title="mvapttot" Unit="" Internal="mvapttot" Type="F" Min="6.11768290e-02" Max="1.33147339e+03"/>
    <Variable VarIndex="16" Expression="mvasumpttot" Label="mvasumpttot" Title="mvasumpttot" Unit="" Internal="mvasumpttot" Type="F" Min="1.86992462e+02" Max="4.97982910e+03"/>
    <Variable VarIndex="17" Expression="mvaleppt1" Label="mvaleppt1" Title="mvaleppt1" Unit="" Internal="mvaleppt1" Type="F" Min="2.00001831e+01" Max="1.68633154e+03"/>
    <Variable VarIndex="18" Expression="mvaleppt2" Label="mvaleppt2" Title="mvaleppt2" Unit="" Internal="mvaleppt2" Type="F" Min="2.00001373e+01" Max="1.29047327e+03"/>
    <Variable VarIndex="19" Expression="mvalepeta1" Label="mvalepeta1" Title="mvalepeta1" Unit="" Internal="mvalepeta1" Type="F" Min="-2.49804616e+00" Max="2.49923539e+00"/>
    <Variable VarIndex="20" Expression="mvalepeta2" Label="mvalepeta2" Title="mvalepeta2" Unit="" Internal="mvalepeta2" Type="F" Min="-2.49945045e+00" Max="2.49994516e+00"/>
    <Variable VarIndex="21" Expression="mvadphill" Label="mvadphill" Title="mvadphill" Unit="" Internal="mvadphill" Type="F" Min="9.53674316e-07" Max="3.14158416e+00"/>
    <Variable VarIndex="22" Expression="mvadrll" Label="mvadrll" Title="mvadrll" Unit="" Internal="mvadrll" Type="F" Min="1.52032018e-01" Max="5.59629154e+00"/>
    <Variable VarIndex="23" Expression="mvamll" Label="mvamll" Title="mvamll" Unit="" Internal="mvamll" Type="F" Min="2.00003128e+01" Max="3.33824365e+03"/>
    <Variable VarIndex="24" Expression="(mvaleppt1*mvaleppt2)/(mvajetpt1*mvajetpt2)" Label="(mvaleppt1*mvaleppt2)/(mvajetpt1*mvajetpt2)" Title="mvaptrel" Unit="" Internal="_mvaleppt1_T_mvaleppt2__D__mvajetpt1_T_mvajetpt2_" Type="F" Min="1.29400170e-03" Max="1.15134636e+02"/>
  </Variables>
  <Spectators NSpec="0"/>
  <Classes NClass="3">
    <Class Name="Background" Index="0"/>
    <Class Name="Background1" Index="1"/>
    <Class Name="Signal" Index="2"/>
  </Classes>
  <Transformations NTransformations="1">
    <Transform Name="Normalize">
      <Selection>
        <Input NInputs="25">
          <Input Type="Variable" Label="mvadetajj" Expression="mvadetajj"/>
          <Input Type="Variable" Label="mvadphijj" Expression="mvadphijj"/>
          <Input Type="Variable" Label="mvajetpt1" Expression="mvajetpt1"/>
          <Input Type="Variable" Label="mvajetpt2" Expression="mvajetpt2"/>
          <Input Type="Variable" Label="mvajeteta1" Expression="mvajeteta1"/>
          <Input Type="Variable" Label="mvajeteta2" Expression="mvajeteta2"/>
          <Input Type="Variable" Label="mvaWpt" Expression="mvaWpt"/>
          <Input Type="Variable" Label="mvaZpt" Expression="mvaZpt"/>
          <Input Type="Variable" Label="mvaVVmt" Expression="mvaVVmt"/>
          <Input Type="Variable" Label="mvazstar" Expression="mvazstar"/>
          <Input Type="Variable" Label="mvazep1" Expression="mvazep1"/>
          <Input Type="Variable" Label="mvazep2" Expression="mvazep2"/>
          <Input Type="Variable" Label="mvamaxzep" Expression="mvamaxzep"/>
          <Input Type="Variable" Label="mvaj1Zdr" Expression="mvaj1Zdr"/>
          <Input Type="Variable" Label="mvaj2Zdr" Expression="mvaj2Zdr"/>
          <Input Type="Variable" Label="mvapttot" Expression="mvapttot"/>
          <Input Type="Variable" Label="mvasumpttot" Expression="mvasumpttot"/>
          <Input Type="Variable" Label="mvaleppt1" Expression="mvaleppt1"/>
          <Input Type="Variable" Label="mvaleppt2" Expression="mvaleppt2"/>
          <Input Type="Variable" Label="mvalepeta1" Expression="mvalepeta1"/>
          <Input Type="Variable" Label="mvalepeta2" Expression="mvalepeta2"/>
          <Input Type="Variable" Label="mvadphill" Expression="mvadphill"/>
          <Input Type="Variable" Label="mvadrll" Expression="mvadrll"/>
          <Input Type="Variable" Label="mvamll" Expression="mvamll"/>
          <Input Type="Variable" Label="(mvaleppt1*mvaleppt2)/(mvajetpt1*mvajetpt2)" Expression="(mvaleppt1*mvaleppt2)/(mvajetpt1*mvajetpt2)"/>
        </Input>
        <Output NOutputs="25">
          <Output Type="Variable" Label="mvadetajj" Expression="mvadetajj"/>
          <Output Type="Variable" Label="mvadphijj" Expression="mvadphijj"/>
          <Output Type="Variable" Label="mvajetpt1" Expression="mvajetpt1"/>
          <Output Type="Variable" Label="mvajetpt2" Expression="mvajetpt2"/>
          <Output Type="Variable" Label="mvajeteta1" Expression="mvajeteta1"/>
          <Output Type="Variable" Label="mvajeteta2" Expression="mvajeteta2"/>
          <Output Type="Variable" Label="mvaWpt" Expression="mvaWpt"/>
          <Output Type="Variable" Label="mvaZpt" Expression="mvaZpt"/>
          <Output Type="Variable" Label="mvaVVmt" Expression="mvaVVmt"/>
          <Output Type="Variable" Label="mvazstar" Expression="mvazstar"/>
          <Output Type="Variable" Label="mvazep1" Expression="mvazep1"/>
          <Output Type="Variable" Label="mvazep2" Expression="mvazep2"/>
          <Output Type="Variable" Label="mvamaxzep" Expression="mvamaxzep"/>
          <Output Type="Variable" Label="mvaj1Zdr" Expression="mvaj1Zdr"/>
          <Output Type="Variable" Label="mvaj2Zdr" Expression="mvaj2Zdr"/>
          <Output Type="Variable" Label="mvapttot" Expression="mvapttot"/>
          <Output Type="Variable" Label="mvasumpttot" Expression="mvasumpttot"/>
          <Output Type="Variable" Label="mvaleppt1" Expression="mvaleppt1"/>
          <Output Type="Variable" Label="mvaleppt2" Expression="mvaleppt2"/>
          <Output Type="Variable" Label="mvalepeta1" Expression="mvalepeta1"/>
          <Output Type="Variable" Label="mvalepeta2" Expression="mvalepeta2"/>
          <Output Type="Variable" Label="mvadphill" Expression="mvadphill"/>
          <Output Type="Variable" Label="mvadrll" Expression="mvadrll"/>
          <Output Type="Variable" Label="mvamll" Expression="mvamll"/>
          <Output Type="Variable" Label="(mvaleppt1*mvaleppt2)/(mvajetpt1*mvajetpt2)" Expression="(mvaleppt1*mvaleppt2)/(mvajetpt1*mvajetpt2)"/>
        </Output>
      </Selection>
      <Class ClassIndex="0">
        <Ranges>
          <Range Index="0" Min="2.5000052452087402e+00" Max="9.1585330963134766e+00"/>
          <Range Index="1" Min="-3.1415810585021973e+00" Max="3.1415832042694092e+00"/>
          <Range Index="2" Min="5.0036315917968750e+01" Max="2.2725927734375000e+03"/>
          <Range Index="3" Min="5.0000072479248047e+01" Max="1.4009302978515625e+03"/>
          <Range Index="4" Min="-4.6672806739807129e+00" Max="4.6792550086975098e+00"/>
          <Range Index="5" Min="-4.6972541809082031e+00" Max="4.6973977088928223e+00"/>
          <Range Index="6" Min="3.0000431060791016e+01" Max="2.3368701171875000e+03"/>
          <Range Index="7" Min="2.3137807846069336e-01" Max="1.4263326416015625e+03"/>
          <Range Index="8" Min="5.6434255093336105e-03" Max="1.7092947998046875e+03"/>
          <Range Index="9" Min="3.1888245644040580e-07" Max="2.0273301601409912e+00"/>
          <Range Index="10" Min="1.5725942148492322e-06" Max="7.4993675947189331e-01"/>
          <Range Index="11" Min="6.1048643829053617e-07" Max="7.4997031688690186e-01"/>
          <Range Index="12" Min="3.5739041049964726e-04" Max="7.4997031688690186e-01"/>
          <Range Index="13" Min="3.3448453992605209e-02" Max="1.0458283424377441e+01"/>
          <Range Index="14" Min="7.9665016382932663e-03" Max="1.0847199440002441e+01"/>
          <Range Index="15" Min="6.1176829040050507e-02" Max="8.4833221435546875e+02"/>
          <Range Index="16" Min="1.9146255493164062e+02" Max="4.9798291015625000e+03"/>
          <Range Index="17" Min="2.0000183105468750e+01" Max="1.4157204589843750e+03"/>
          <Range Index="18" Min="2.0000314712524414e+01" Max="1.2904732666015625e+03"/>
          <Range Index="19" Min="-2.4975910186767578e+00" Max="2.4975786209106445e+00"/>
          <Range Index="20" Min="-2.4994504451751709e+00" Max="2.4992055892944336e+00"/>
          <Range Index="21" Min="9.5367431640625000e-07" Max="3.1415841579437256e+00"/>
          <Range Index="22" Min="1.5203201770782471e-01" Max="5.5625309944152832e+00"/>
          <Range Index="23" Min="2.0000312805175781e+01" Max="3.3382436523437500e+03"/>
          <Range Index="24" Min="1.2940017040818930e-03" Max="8.1095802307128906e+01"/>
        </Ranges>
      </Class>
      <Class ClassIndex="1">
        <Ranges>
          <Range Index="0" Min="2.5001525878906250e+00" Max="8.7859821319580078e+00"/>
          <Range Index="1" Min="-3.1415374279022217e+00" Max="3.1415333747863770e+00"/>
          <Range Index="2" Min="5.0183158874511719e+01" Max="1.3940391845703125e+03"/>
          <Range Index="3" Min="5.0001502990722656e+01" Max="7.2773968505859375e+02"/>
          <Range Index="4" Min="-4.6893835067749023e+00" Max="4.6823992729187012e+00"/>
          <Range Index="5" Min="-4.6858983039855957e+00" Max="4.6963734626770020e+00"/>
          <Range Index="6" Min="3.0001945495605469e+01" Max="8.2017321777343750e+02"/>
          <Range Index="7" Min="4.2235451936721802e-01" Max="9.5771112060546875e+02"/>
          <Range Index="8" Min="9.2313037021085620e-04" Max="1.0684208984375000e+03"/>
          <Range Index="9" Min="3.6334736250864808e-06" Max="2.4695885181427002e+00"/>
          <Range Index="10" Min="6.1478986026486382e-06" Max="7.4989414215087891e-01"/>
          <Range Index="11" Min="3.9098845263652038e-06" Max="7.4997925758361816e-01"/>
          <Range Index="12" Min="2.8790992219001055e-03" Max="7.4997925758361816e-01"/>
          <Range Index="13" Min="1.4796066097915173e-02" Max="8.8988504409790039e+00"/>
          <Range Index="14" Min="1.3565408065915108e-02" Max="1.0633263587951660e+01"/>
          <Range Index="15" Min="4.7077745199203491e-01" Max="6.6987567138671875e+02"/>
          <Range Index="16" Min="1.8699246215820312e+02" Max="2.7831076660156250e+03"/>
          <Range Index="17" Min="2.0004423141479492e+01" Max="8.9714031982421875e+02"/>
          <Range Index="18" Min="2.0000740051269531e+01" Max="8.5376287841796875e+02"/>
          <Range Index="19" Min="-2.4964604377746582e+00" Max="2.4909994602203369e+00"/>
          <Range Index="20" Min="-2.4993076324462891e+00" Max="2.4999451637268066e+00"/>
          <Range Index="21" Min="3.3378601074218750e-05" Max="3.1415519714355469e+00"/>
          <Range Index="22" Min="1.6768637299537659e-01" Max="5.5203785896301270e+00"/>
          <Range Index="23" Min="2.0013961791992188e+01" Max="1.9751954345703125e+03"/>
          <Range Index="24" Min="2.2882597986608744e-03" Max="3.7424453735351562e+01"/>
        </Ranges>
      </Class>
      <Class ClassIndex="2">
        <Ranges>
          <Range Index="0" Min="2.5001206398010254e+00" Max="9.0655994415283203e+00"/>
          <Range Index="1" Min="-3.1415877342224121e+00" Max="3.1415882110595703e+00"/>
          <Range Index="2" Min="5.0426460266113281e+01" Max="1.3145500488281250e+03"/>
          <Range Index="3" Min="5.0001033782958984e+01" Max="9.4037628173828125e+02"/>
          <Range Index="4" Min="-4.6780447959899902e+00" Max="4.6928510665893555e+00"/>
          <Range Index="5" Min="-4.6980590820312500e+00" Max="4.6996183395385742e+00"/>
          <Range Index="6" Min="3.0000177383422852e+01" Max="1.2724842529296875e+03"/>
          <Range Index="7" Min="2.3313674330711365e-01" Max="1.7178820800781250e+03"/>
          <Range Index="8" Min="3.3277953043580055e-03" Max="8.8074969482421875e+02"/>
          <Range Index="9" Min="1.4186439329932909e-05" Max="2.2197735309600830e+00"/>
          <Range Index="10" Min="5.1262900342408102e-06" Max="7.4990916252136230e-01"/>
          <Range Index="11" Min="8.9869690782506950e-06" Max="7.4993795156478882e-01"/>
          <Range Index="12" Min="1.1076467344537377e-03" Max="7.4993795156478882e-01"/>
          <Range Index="13" Min="3.7038978189229965e-02" Max="9.9194498062133789e+00"/>
          <Range Index="14" Min="1.7209395766258240e-02" Max="1.0014172554016113e+01"/>
          <Range Index="15" Min="2.0242393016815186e-01" Max="1.3314733886718750e+03"/>
          <Range Index="16" Min="1.8919131469726562e+02" Max="2.8403122558593750e+03"/>
          <Range Index="17" Min="2.0001277923583984e+01" Max="1.6863315429687500e+03"/>
          <Range Index="18" Min="2.0000137329101562e+01" Max="7.9048913574218750e+02"/>
          <Range Index="19" Min="-2.4980461597442627e+00" Max="2.4992353916168213e+00"/>
          <Range Index="20" Min="-2.4991307258605957e+00" Max="2.4963386058807373e+00"/>
          <Range Index="21" Min="2.9325485229492188e-05" Max="3.1415333747863770e+00"/>
          <Range Index="22" Min="1.9440340995788574e-01" Max="5.5962915420532227e+00"/>
          <Range Index="23" Min="2.0007772445678711e+01" Max="1.8327023925781250e+03"/>
          <Range Index="24" Min="1.6470934497192502e-03" Max="1.1513463592529297e+02"/>
        </Ranges>
      </Class>
      <Class ClassIndex="3">
        <Ranges>
          <Range Index="0" Min="2.5000052452087402e+00" Max="9.1585330963134766e+00"/>
          <Range Index="1" Min="-3.1415877342224121e+00" Max="3.1415882110595703e+00"/>
          <Range Index="2" Min="5.0036315917968750e+01" Max="2.2725927734375000e+03"/>
          <Range Index="3" Min="5.0000072479248047e+01" Max="1.4009302978515625e+03"/>
          <Range Index="4" Min="-4.6893835067749023e+00" Max="4.6928510665893555e+00"/>
          <Range Index="5" Min="-4.6980590820312500e+00" Max="4.6996183395385742e+00"/>
          <Range Index="6" Min="3.0000177383422852e+01" Max="2.3368701171875000e+03"/>
          <Range Index="7" Min="2.3137807846069336e-01" Max="1.7178820800781250e+03"/>
          <Range Index="8" Min="9.2313037021085620e-04" Max="1.7092947998046875e+03"/>
          <Range Index="9" Min="3.1888245644040580e-07" Max="2.4695885181427002e+00"/>
          <Range Index="10" Min="1.5725942148492322e-06" Max="7.4993675947189331e-01"/>
          <Range Index="11" Min="6.1048643829053617e-07" Max="7.4997925758361816e-01"/>
          <Range Index="12" Min="3.5739041049964726e-04" Max="7.4997925758361816e-01"/>
          <Range Index="13" Min="1.4796066097915173e-02" Max="1.0458283424377441e+01"/>
          <Range Index="14" Min="7.9665016382932663e-03" Max="1.0847199440002441e+01"/>
          <Range Index="15" Min="6.1176829040050507e-02" Max="1.3314733886718750e+03"/>
          <Range Index="16" Min="1.8699246215820312e+02" Max="4.9798291015625000e+03"/>
          <Range Index="17" Min="2.0000183105468750e+01" Max="1.6863315429687500e+03"/>
          <Range Index="18" Min="2.0000137329101562e+01" Max="1.2904732666015625e+03"/>
          <Range Index="19" Min="-2.4980461597442627e+00" Max="2.4992353916168213e+00"/>
          <Range Index="20" Min="-2.4994504451751709e+00" Max="2.4999451637268066e+00"/>
          <Range Index="21" Min="9.5367431640625000e-07" Max="3.1415841579437256e+00"/>
          <Range Index="22" Min="1.5203201770782471e-01" Max="5.5962915420532227e+00"/>
          <Range Index="23" Min="2.0000312805175781e+01" Max="3.3382436523437500e+03"/>
          <Range Index="24" Min="1.2940017040818930e-03" Max="1.1513463592529297e+02"/>
        </Ranges>
      </Class>
    </Transform>
  </Transformations>
  <MVAPdfs/>
  <Weights InputWidth="25" Depth="4" LossFunction="C" OutputFunction="M">
    <Layer ActivationFunction="3">
      <Weights rows="100" cols="25">
        -6.3583818264305592e-03 6.8219630047678947e-03 2.9822163283824921e-02 -3.4123879671096802e-01 3.5558264702558517e-02 -2.2851827088743448e-03 1.5560196340084076e-01 1.3203306496143341e-01 -1.6362119466066360e-02 -1.1652502231299877e-02 5.0799410790205002e-02 8.3200028166174889e-03 9.7668156027793884e-02 6.6642276942729950e-03 -6.7739434540271759e-02 2.3148785531520844e-01 9.7401797771453857e-02 1.9762714207172394e-01 1.4620901644229889e-01 -1.5315401367843151e-02 -2.9949892312288284e-02 1.1860177665948868e-01 6.9624692201614380e-02 4.8289772123098373e-02 8.6346231400966644e-02 1.2122070044279099e-01 -5.2952445112168789e-03 -1.8765317508950830e-03 1.8311977386474609e-01 -4.5963618904352188e-03 -6.9686654023826122e-03 1.3564266264438629e-01 9.8561868071556091e-02 4.3309056200087070e-03 -5.0441458821296692e-02 -7.6205894351005554e-02 -1.1959654837846756e-01 -3.7426431663334370e-03 7.8976992517709732e-03 5.6368995457887650e-02 -3.4708520770072937e-01 1.2751948833465576e-01 3.9310056716203690e-02 2.3210057988762856e-02 9.9332742393016815e-03 1.4763466082513332e-02 -1.0358192771673203e-01 7.6819680631160736e-02 9.4029769301414490e-02 -2.8236668556928635e-02 4.5783273875713348e-02 5.0299549475312233e-03 8.7165378034114838e-02 -1.7782911658287048e-01 2.3276390507817268e-02 -1.8232071306556463e-03 1.8853682279586792e-01 1.7994453012943268e-01 -4.0549706667661667e-02 -3.4723699092864990e-02 1.1936171911656857e-02 8.9412350207567215e-03 9.4171367585659027e-02 -1.5344163402915001e-02 1.3504774309694767e-02 -2.2542234510183334e-02 1.7535308003425598e-01 1.8399447202682495e-01 1.3304990530014038e-01 -8.1438692286610603e-03 -1.8428927287459373e-02 7.3429226875305176e-02 6.4159393310546875e-02 7.7322885394096375e-02 4.8931878060102463e-02 5.6127146817743778e-03 2.3080300539731979e-02 8.0127418041229248e-02 -1.8425622582435608e-01 3.6391649395227432e-02 -2.0139209926128387e-02 2.3138605058193207e-01 2.0163005590438843e-01 -6.4437828958034515e-02 -3.9182987064123154e-02 1.7940141260623932e-02 2.0202271640300751e-02 1.1895330995321274e-01 -3.3164653927087784e-02 -2.3623161017894745e-02 2.3656979203224182e-02 2.1312458813190460e-01 2.2483946382999420e-01 1.6070552170276642e-01 -9.9203083664178848e-03 -4.9476489424705505e-02 1.1453156918287277e-01 8.1647470593452454e-02 1.0550073534250259e-01 4.6609986573457718e-02 5.5443742312490940e-03 1.0568906145635992e-04 1.0953930206596851e-02 1.2939296662807465e-02 2.3192721710074693e-04 -2.5739645934663713e-04 1.3677643612027168e-02 1.2424070388078690e-02 1.1810098774731159e-02 1.0451572015881538e-02 5.0608487799763680e-03 4.6938243322074413e-03 2.2556919138878584e-03 4.8434697091579437e-03 4.8087267205119133e-03 1.2498695403337479e-02 1.2341659516096115e-02 1.3332694768905640e-02 1.3209103606641293e-02 -4.7667825128883123e-05 -5.6163809495046735e-04 -7.3878391413018107e-04 3.6488813348114491e-03 1.3530410826206207e-02 1.3092566281557083e-02 8.6714210920035839e-04 1.6388794392696582e-05 1.7224203329533339e-03 2.0414311438798904e-03 3.3714593882905319e-05 -3.2922609534580261e-05 2.1537975408136845e-03 1.9512956496328115e-03 1.8631875282153487e-03 1.6519443597644567e-03 7.9550995724275708e-04 7.2870176518335938e-04 3.5262596793472767e-04 7.6466769678518176e-04 7.5640104478225112e-04 1.9718278199434280e-03 1.9402354955673218e-03 2.0962383132427931e-03 2.0777243189513683e-03 -7.7772219810867682e-06 -8.6210297013167292e-05 -1.0125045810127631e-04 5.8348220773041248e-04 2.1316555794328451e-03 2.0614857785403728e-03 7.1526652574539185e-01 7.7170063741505146e-03 1.1638238094747066e-02 2.4361905455589294e-01 -1.2882636487483978e-01 -7.8398147597908974e-03 1.8542450666427612e-01 2.3301301896572113e-01 5.1604837179183960e-02 1.0263599455356598e-02 -9.9500045180320740e-02 1.1956048756837845e-01 2.2544451057910919e-01 2.0014168322086334e-01 6.3162183761596680e-01 -8.6663824319839478e-01 2.1761855483055115e-01 7.8609772026538849e-02 2.5940500199794769e-02 1.4724998176097870e-01 1.0352563858032227e-01 1.7614345997571945e-02 -2.9664871096611023e-01 3.5771805793046951e-02 -8.2469657063484192e-02 2.2212918847799301e-02 1.4541941927745938e-03 9.4103030860424042e-02 -1.9633589684963226e-01 1.2236116454005241e-02 2.9619517736136913e-03 1.3263207674026489e-01 1.3693535327911377e-01 -5.1263410598039627e-02 -3.6118641495704651e-02 -1.5842207940295339e-03 -2.6802965439856052e-03 6.2871657311916351e-02 -9.6135344356298447e-03 3.2418280839920044e-02 8.3326511085033417e-03 1.2303125858306885e-01 1.3515883684158325e-01 9.6904568374156952e-02 -1.1535540223121643e-02 -6.7887697368860245e-03 5.9208992868661880e-02 3.5058464854955673e-02 2.7618492022156715e-02 4.7273762524127960e-02 -7.4721723794937134e-02 3.7493007257580757e-03 1.5095722628757358e-03 -1.0672597587108612e-01 6.0301860794425011e-03 2.9939846135675907e-03 -7.2967343032360077e-02 -5.2530836313962936e-02 -3.0696741305291653e-03 3.2757159322500229e-02 5.2474424242973328e-02 7.9963214695453644e-02 8.8369790464639664e-03 -7.4128117412328720e-03 -3.6761593073606491e-02 2.1292807161808014e-01 -6.6333837807178497e-02 -1.4390973374247551e-02 -5.7913949713110924e-03 -6.5201767720282078e-03 -1.3559370301663876e-02 6.9986030459403992e-02 -4.9478005617856979e-02 -4.8849973827600479e-02 1.6839504241943359e-02 6.2602716498076916e-03 1.1956287198700011e-04 1.2358581647276878e-02 1.4591331593692303e-02 2.6544748106971383e-04 -2.9905635165050626e-04 1.5433630906045437e-02 1.4023154042661190e-02 1.3317842036485672e-02 1.1783063411712646e-02 5.7112956419587135e-03 5.3067156113684177e-03 2.5498047471046448e-03 5.4605216719210148e-03 5.4237698204815388e-03 1.4094402082264423e-02 1.3929061591625214e-02 1.5047526918351650e-02 1.4905663207173347e-02 -5.3495958127314225e-05 -6.3768244581297040e-04 -8.4711896488443017e-04 4.1074063628911972e-03 1.5264540910720825e-02 1.4768877997994423e-02 7.2674867697060108e-03 7.8197633847594261e-03 1.3470628857612610e-01 -2.1207864582538605e-01 1.6866046935319901e-02 -2.0307181403040886e-03 2.1072193980216980e-01 2.0452073216438293e-01 -9.2619664967060089e-02 -5.6445721536874771e-02 -8.5719069465994835e-03 -2.3897255305200815e-03 9.3288004398345947e-02 -3.2545257359743118e-02 4.2158525437116623e-02 -2.8921134769916534e-02 2.0777009427547455e-01 1.9796538352966309e-01 1.3850225508213043e-01 -1.4140676707029343e-02 -2.2006521001458168e-02 9.1147840023040771e-02 4.9266111105680466e-02 6.0621038079261780e-02 4.6778377145528793e-02 6.4086314523592591e-04 1.2107667316740844e-05 1.2732705799862742e-03 1.5093494439497590e-03 2.4847409804351628e-05 -2.4072398446151055e-05 1.5925199259072542e-03 1.4425112167373300e-03 1.3775683473795652e-03 1.2215132592245936e-03 5.8811821509152651e-04 5.3836149163544178e-04 2.6068856823258102e-04 5.6537491036579013e-04 5.5914162658154964e-04 1.4579052804037929e-03 1.4344308292493224e-03 1.5497850254178047e-03 1.5361052937805653e-03 -5.7633278629509732e-06 -6.3708983361721039e-05 -7.4212199251633137e-05 4.3173736776225269e-04 1.5760771930217743e-03 1.5240641077980399e-03 3.0626079533249140e-03 5.8072659157915041e-05 6.0677789151668549e-03 7.1801459416747093e-03 1.2278334179427475e-04 -1.2825813610106707e-04 7.5781433843076229e-03 6.8749687634408474e-03 6.5534659661352634e-03 5.8047506026923656e-03 2.8018876910209656e-03 2.5819092988967896e-03 1.2436179677024484e-03 2.6890458539128304e-03 2.6652929373085499e-03 6.9351387210190296e-03 6.8321037106215954e-03 7.3812780901789665e-03 7.3154293932020664e-03 -2.6860849175136536e-05 -3.0591094400733709e-04 -3.8356965524144471e-04 2.0383188966661692e-03 7.4995863251388073e-03 7.2570331394672394e-03 1.4660418964922428e-02 2.9120920225977898e-04 2.8679020702838898e-02 3.3664014190435410e-02 7.4825988849624991e-04 -9.4981427537277341e-04 3.6045119166374207e-02 3.2830994576215744e-02 3.0720526352524757e-02 2.7118546888232231e-02 1.3326023705303669e-02 1.2647199444472790e-02 6.1196405440568924e-03 1.2544305063784122e-02 1.2489299289882183e-02 3.2528713345527649e-02 3.2619666308164597e-02 3.5217132419347763e-02 3.4782499074935913e-02 -1.0586723510641605e-04 -1.6483746003359556e-03 -2.2675674408674240e-03 9.3013755977153778e-03 3.5529538989067078e-02 3.4222893416881561e-02 7.1125432848930359e-02 -2.0845474209636450e-03 2.9126305133104324e-02 3.0714504420757294e-02 -3.6668779794126749e-03 -8.5276179015636444e-04 9.1355554759502411e-02 7.9362116754055023e-02 -1.1546986177563667e-02 -3.8501132279634476e-02 -4.8700459301471710e-02 -7.1319058537483215e-02 3.7102729547768831e-03 6.3598700799047947e-03 4.5961201190948486e-02 -1.7850908637046814e-01 8.3773344755172729e-02 4.3658513575792313e-02 2.7711914852261543e-02 1.8080885056406260e-03 1.2790435925126076e-02 -4.7747485339641571e-02 4.6958841383457184e-02 4.1347317397594452e-02 8.9096598094329238e-04 -2.0606232807040215e-02 1.9740855786949396e-03 7.1598999202251434e-02 -2.6708444952964783e-01 1.0535307228565216e-02 1.0182914324104786e-02 1.5025240369141102e-02 4.4218380004167557e-02 -2.4822307750582695e-02 -6.7666231188923120e-04 2.6638347655534744e-02 3.5451177507638931e-02 2.5438863784074783e-02 8.2863261923193932e-03 1.1780882254242897e-02 1.8307870626449585e-01 4.9316436052322388e-03 6.9036357104778290e-02 5.5627327412366867e-02 -1.6794964671134949e-02 1.8918959540314972e-04 7.5387068092823029e-02 -3.0200021341443062e-02 -4.6470358967781067e-02 6.3050135970115662e-02 -1.0451674461364746e-03 -1.9756898836931214e-05 -2.0755641162395477e-03 -2.4596506264060736e-03 -4.0726903534960002e-05 4.0009250369621441e-05 -2.5951131246984005e-03 -2.3513438645750284e-03 -2.2449649404734373e-03 -1.9902279600501060e-03 -9.5859600696712732e-04 -8.7850168347358704e-04 -4.2491336353123188e-04 -9.2133617727085948e-04 -9.1154855908825994e-04 -2.3757936432957649e-03 -2.3378962650895119e-03 -2.5258127134293318e-03 -2.5036039296537638e-03 9.3536937129101716e-06 1.0391762043582276e-04 1.2281641829758883e-04 -7.0259277708828449e-04 -2.5684137362986803e-03 -2.4839893449097872e-03 3.9298590272665024e-02 -1.4784681843593717e-03 1.1726302094757557e-02 8.4525495767593384e-03 -3.7215306656435132e-04 -4.0218132198788226e-04 5.1548741757869720e-02 4.3533015996217728e-02 -3.4071849659085274e-03 -1.9095525145530701e-02 -2.2683896124362946e-02 -3.5832442343235016e-02 5.7699764147400856e-03 4.0244674310088158e-03 1.8768543377518654e-02 -8.5854142904281616e-02 4.4688489288091660e-02 2.8166733682155609e-02 1.8515439704060555e-02 1.2414035154506564e-03 5.9182797558605671e-03 -2.0916804671287537e-02 2.9906721785664558e-02 2.5044916197657585e-02 2.7679265476763248e-03 2.1663920581340790e-01 6.1591807752847672e-03 4.5388668775558472e-01 4.3086603283882141e-01 1.4272894710302353e-02 7.4606738053262234e-03 -1.7576536536216736e-01 -3.4302970767021179e-01 -6.0808068513870239e-01 6.8669244647026062e-02 -3.8071595132350922e-02 2.1605303511023521e-02 2.6709523051977158e-02 -2.3581390082836151e-01 -9.9918924272060394e-02 -2.3999583721160889e-01 -1.6859802603721619e-01 -6.5233182907104492e-01 -4.9628382921218872e-01 2.5181561708450317e-02 6.1326026916503906e-02 6.3604569435119629e-01 3.9770641922950745e-01 -4.5355108380317688e-01 -1.0963382571935654e-01 5.0988372415304184e-02 -1.0090081486850977e-03 6.9627150893211365e-02 -9.3874432146549225e-02 3.0216418672353029e-03 3.2756596338003874e-03 9.1201484203338623e-02 9.8586432635784149e-02 -2.6278482750058174e-02 -3.3361129462718964e-02 -2.2400552406907082e-02 -2.8676155954599380e-02 2.5696072727441788e-02 3.3547629136592150e-03 4.8354197293519974e-02 -7.7005229890346527e-02 8.7231390178203583e-02 7.6460845768451691e-02 5.4405152797698975e-02 -3.9816168136894703e-03 8.4920786321163177e-03 1.7291523981839418e-03 2.7059735730290413e-02 1.9339501857757568e-02 2.7866981923580170e-02 -5.9257183223962784e-02 6.3051492907106876e-04 -1.1156407743692398e-01 1.0332562029361725e-01 -1.1356937466189265e-03 -1.1085396399721503e-03 -1.6135779023170471e-01 -1.6332793235778809e-01 6.0780148953199387e-02 5.9041019529104233e-02 4.4240247458219528e-02 4.7313541173934937e-02 -4.5917004346847534e-02 9.3705216422677040e-03 -7.4502788484096527e-02 1.5085294842720032e-01 -1.6135209798812866e-01 -1.2439424544572830e-01 -8.5438728332519531e-02 6.2348870560526848e-03 -3.5486302804201841e-03 -6.8347859196364880e-03 -4.7095078974962234e-02 -4.4090762734413147e-02 -2.8639396652579308e-02 -1.4784319326281548e-02 -2.3507734294980764e-03 -9.3388386070728302e-02 2.2120869159698486e-01 -1.4874468557536602e-02 -2.7850777842104435e-03 -1.3724692165851593e-01 -1.3976529240608215e-01 5.2463144063949585e-02 3.4425832331180573e-02 -4.7848862595856190e-03 -2.0874082110822201e-03 -6.8920388817787170e-02 1.0337372310459614e-02 -2.3499635979533195e-02 -3.8712766021490097e-02 -1.2388553470373154e-01 -1.4562475681304932e-01 -1.0480347275733948e-01 1.3273598626255989e-02 9.9686067551374435e-03 -7.0980437099933624e-02 -3.6654651165008545e-02 -2.8164077550172806e-02 -5.2705232053995132e-02 -2.0037214457988739e-01 1.8298132419586182e+00 5.8444552123546600e-03 -3.4480094909667969e-02 -2.0708911120891571e-02 -7.3056598193943501e-03 4.4676309823989868e-01 -1.5813799202442169e-01 -5.2568662166595459e-01 4.1482534259557724e-02 -7.8774213790893555e-02 -6.2319811433553696e-02 1.9443908333778381e-01 1.3395652174949646e-01 4.1465561836957932e-02 1.3905870914459229e-01 2.4103625118732452e-01 3.8775470107793808e-02 4.5989319682121277e-02 2.2201478481292725e-02 -1.9746430218219757e-02 -6.0849536210298538e-02 -1.7094802856445312e-01 -1.3398599624633789e-01 2.9442617669701576e-02 7.2394800372421741e-03 1.3868405949324369e-04 1.4276010915637016e-02 1.6844037920236588e-02 3.1296769157052040e-04 -3.5932048922404647e-04 1.7834136262536049e-02 1.6210265457630157e-02 1.5373566187918186e-02 1.3597874902188778e-02 6.6003925167024136e-03 6.1479606665670872e-03 2.9540695250034332e-03 6.3013257458806038e-03 6.2618670053780079e-03 1.6270585358142853e-02 1.6100753098726273e-02 1.7392508685588837e-02 1.7224662005901337e-02 -6.1276681663002819e-05 -7.4374797986820340e-04 -9.9893787410110235e-04 4.7303256578743458e-03 1.7634015530347824e-02 1.7056886106729507e-02 -1.9536290317773819e-02 -3.6765506956726313e-03 -1.1763537675142288e-01 2.0377841591835022e-01 -1.4079049229621887e-02 -1.0275241220369935e-03 -1.7744837701320648e-01 -1.7658832669258118e-01 7.2488784790039062e-02 4.8180829733610153e-02 6.9935685023665428e-03 4.7571402974426746e-03 -7.9758279025554657e-02 2.0917840301990509e-02 -4.0725056082010269e-02 2.0996520295739174e-02 -1.7129461467266083e-01 -1.7006555199623108e-01 -1.2005762755870819e-01 1.2772222980856895e-02 1.3657957315444946e-02 -7.3035359382629395e-02 -4.4882271438837051e-02 -4.6759128570556641e-02 -4.7396004199981689e-02 -7.4730299413204193e-02 1.7453624168410897e-03 -3.9425350725650787e-02 -1.8061144277453423e-02 3.0775137711316347e-03 1.0124839609488845e-03 -1.0663460195064545e-01 -9.4816096127033234e-02 1.7681336030364037e-02 4.3375160545110703e-02 5.1043912768363953e-02 7.3446460068225861e-02 -9.5041813328862190e-03 -4.9008098430931568e-03 -5.1140565425157547e-02 1.8683588504791260e-01 -9.8937936127185822e-02 -5.6784581393003464e-02 -3.6961648613214493e-02 -8.9784956071525812e-04 -1.2178202159702778e-02 4.4526271522045135e-02 -5.1339354366064072e-02 -4.5710247009992599e-02 -4.1538486257195473e-03 -8.3428435027599335e-02 2.6533119380474091e-03 -2.5638619437813759e-02 -6.4573198556900024e-02 5.2551189437508583e-03 1.9871203694492579e-03 -1.0078074783086777e-01 -8.4505841135978699e-02 1.0164057835936546e-02 4.3743625283241272e-02 5.8556489646434784e-02 8.6381308734416962e-02 1.8364550487603992e-04 -7.0274309255182743e-03 -5.2836820483207703e-02 2.2375395894050598e-01 -9.3690015375614166e-02 -4.0629658848047256e-02 -2.4664541706442833e-02 -3.3423944842070341e-03 -1.5046618878841400e-02 6.4433865249156952e-02 -5.3684450685977936e-02 -5.0630662590265274e-02 5.8940039016306400e-03 -3.8859270513057709e-02 -5.4181997256819159e-05 -8.6476370692253113e-02 1.3726267218589783e-01 -7.2655756957828999e-03 -2.1308958530426025e-03 -1.2785328924655914e-01 -1.3048021495342255e-01 4.5509681105613708e-02 3.9825551211833954e-02 1.6450386494398117e-02 1.9143596291542053e-02 -5.0154045224189758e-02 7.0177330635488033e-03 -4.3741405010223389e-02 5.5760029703378677e-02 -1.2180199474096298e-01 -1.1513412743806839e-01 -8.1412792205810547e-02 7.6489895582199097e-03 1.2300917878746986e-03 -3.1764976680278778e-02 -3.8886476308107376e-02 -3.2356061041355133e-02 -3.5082329064607620e-02 2.9206775128841400e-02 1.4155240496620536e-03 1.0414616018533707e-01 -1.7985011637210846e-01 1.0989193804562092e-02 2.2153372410684824e-03 1.5110348165035248e-01 1.5376123785972595e-01 -5.8777466416358948e-02 -4.3324865400791168e-02 -9.7647309303283691e-03 -9.3517210334539413e-03 6.6067792475223541e-02 -1.3317630626261234e-02 4.2727284133434296e-02 -3.1317263841629028e-02 1.4491266012191772e-01 1.4366635680198669e-01 1.0183051228523254e-01 -1.0643508285284042e-02 -7.0812879130244255e-03 5.4642472416162491e-02 4.0586963295936584e-02 3.7232689559459686e-02 4.3412830680608749e-02 -1.1083740741014481e-01 5.2245315164327621e-03 1.7064023762941360e-02 -1.7706495523452759e-01 4.2777168564498425e-03 6.9439080543816090e-03 -1.2978868186473846e-01 -8.6962938308715820e-02 -6.7252200096845627e-03 4.6118743717670441e-02 7.2808407247066498e-02 1.1837586015462875e-01 2.7433261275291443e-03 -7.8676063567399979e-03 -4.0777366608381271e-02 3.1911650300025940e-01 -1.1548279970884323e-01 -3.7071567028760910e-02 -2.0983187481760979e-02 -8.8412156328558922e-03 -1.1319977231323719e-02 9.4554066658020020e-02 -8.2650251686573029e-02 -9.3312874436378479e-02 2.8311381116509438e-02 -2.9261831659823656e-03 1.3197544030845165e-02 -3.4879040718078613e-01 5.3475332260131836e-01 -8.9810667559504509e-03 6.9410414434969425e-03 -4.8058584332466125e-01 -9.7672931849956512e-02 1.1338163614273071e+00 2.0790134370326996e-01 2.3206183314323425e-01 2.3511700332164764e-01 -8.5595510900020599e-02 -4.9257677048444748e-02 4.7169747948646545e-01 -6.3523173332214355e-01 -2.5747802853584290e-01 -1.0924802720546722e-01 -2.6304842904210091e-02 5.0796382129192352e-02 1.6741581261157990e-02 6.0538297891616821e-01 1.7776288092136383e-01 1.8460486829280853e-01 -6.1700578778982162e-02 5.6511890143156052e-02 -3.5444628447294235e-03 -1.1442331224679947e-01 3.9181208610534668e-01 -8.1730233505368233e-03 -1.5725221484899521e-02 1.8841151148080826e-02 -3.4244332462549210e-02 4.6662043780088425e-02 1.7955375369638205e-04 -2.8898302465677261e-02 -5.0503950566053391e-02 -1.3351989910006523e-02 -1.1375177651643753e-02 -2.8741221874952316e-02 -2.9280576109886169e-01 2.5549178943037987e-02 -6.6380172967910767e-02 -5.5477932095527649e-02 2.7181113138794899e-02 -2.7356676291674376e-03 -1.0360856354236603e-01 7.2076074779033661e-02 1.0188914090394974e-01 -8.8333278894424438e-02 -1.8536573275923729e-02 1.1043525300920010e-03 -7.1139610372483730e-03 -4.4187348335981369e-02 7.4256593361496925e-03 -1.3158652000129223e-03 2.1476349793374538e-03 2.4995527928695083e-04 4.7563001862727106e-04 9.4606736674904823e-03 2.4623660370707512e-02 2.8224289417266846e-02 2.1371265873312950e-02 -4.8652016557753086e-03 -2.5528466328978539e-02 7.2463378310203552e-02 -2.3823149967938662e-03 1.9480064511299133e-02 1.5584514476358891e-02 -1.7405276885256171e-03 -9.7129084169864655e-03 3.3820193260908127e-02 4.4116992503404617e-03 4.0600113570690155e-03 8.2835657522082329e-03 -4.1656728833913803e-02 2.7393260970711708e-03 1.0257725417613983e-01 -3.5003119707107544e-01 7.7242497354745865e-03 1.5149719081819057e-02 -1.8978817388415337e-02 3.1047016382217407e-02 -3.6447394639253616e-02 1.3442202471196651e-03 2.8185592964291573e-02 4.7560032457113266e-02 1.2085635215044022e-02 1.2895781546831131e-02 2.9044825583696365e-02 2.5508189201354980e-01 -2.4303905665874481e-02 5.8323334902524948e-02 4.9618527293205261e-02 -2.2952500730752945e-02 5.0716809928417206e-03 8.9750759303569794e-02 -6.5703690052032471e-02 -9.0989872813224792e-02 8.0294176936149597e-02 -4.9656383693218231e-02 5.2880845032632351e-04 -8.3634927868843079e-02 1.0357096791267395e-01 -3.6421611439436674e-03 -1.5701324446126819e-03 -1.2857240438461304e-01 -1.2929981946945190e-01 4.3591342866420746e-02 4.4337499886751175e-02 2.9108172282576561e-02 3.4743268042802811e-02 -4.0766641497612000e-02 4.7974996268749237e-03 -5.2362468093633652e-02 9.8128803074359894e-02 -1.2351396679878235e-01 -1.0460918396711349e-01 -7.2890721261501312e-02 5.7921549305319786e-03 -2.7981607709079981e-03 -1.2380182743072510e-02 -4.2095549404621124e-02 -3.5147015005350113e-02 -2.8509933501482010e-02 -2.8305553132668138e-04 -5.3454050430445932e-06 -5.6263880105689168e-04 -6.6712382249534130e-04 -1.0929504242085386e-05 1.0455126357555855e-05 -7.0393149508163333e-04 -6.3746166415512562e-04 -6.0888112057000399e-04 -5.4001162061467767e-04 -2.5990777066908777e-04 -2.3768242681398988e-04 -1.1521829583216459e-04 -2.4988930090330541e-04 -2.4704250972718000e-04 -6.4439279958605766e-04 -6.3396041514351964e-04 -6.8493874277919531e-04 -6.7888706689700484e-04 2.5585281946405303e-06 2.8145712349214591e-05 3.2335196010535583e-05 -1.9105804676655680e-04 -6.9663656176999211e-04 -6.7353737540543079e-04 1.0794327594339848e-02 1.1822754750028253e-03 9.5459327101707458e-02 -2.6792037487030029e-01 1.5616542659699917e-02 6.1110085807740688e-03 1.1945748329162598e-01 1.2895578145980835e-01 -4.6701408922672272e-02 -2.9124934226274490e-02 1.0766665451228619e-02 5.8973175473511219e-03 6.3277482986450195e-02 -2.5591757148504257e-03 2.1532228216528893e-02 8.7181366980075836e-02 1.0166065394878387e-01 1.4183016121387482e-01 1.0373008251190186e-01 -1.6104225069284439e-02 -5.8881095610558987e-03 7.5537733733654022e-02 2.4542797356843948e-02 9.6977632492780685e-03 6.4623795449733734e-02 -4.9786847084760666e-02 2.4452668149024248e-03 2.1324809640645981e-02 -7.0151433348655701e-02 -1.2865066528320312e-03 4.6077622100710869e-03 -6.8170756101608276e-02 -4.1871692985296249e-02 -8.5107311606407166e-03 1.8421446904540062e-02 2.6145672425627708e-02 4.9984231591224670e-02 -9.9852522835135460e-03 -2.7634766884148121e-03 9.5939385937526822e-04 1.2496024370193481e-01 -5.3894434124231339e-02 -2.8835348784923553e-02 -1.7608264461159706e-02 -5.1232413388788700e-03 -1.5950883971527219e-03 3.3289834856987000e-02 -5.5843610316514969e-02 -5.3785923868417740e-02 1.0119359008967876e-02 6.7175112664699554e-02 -7.3162169428542256e-04 1.5460632741451263e-01 -9.1824792325496674e-02 -4.4559687376022339e-03 -3.1721775303594768e-04 2.0429824292659760e-01 2.0963618159294128e-01 -8.9554615318775177e-02 -8.1568598747253418e-02 -6.8984381854534149e-02 -6.6115595400333405e-02 4.9672719091176987e-02 -1.8090600147843361e-02 1.0948128253221512e-01 -2.3202468454837799e-01 2.1535399556159973e-01 1.4731039106845856e-01 9.9086262285709381e-02 -6.6725583747029305e-03 4.2320727370679379e-03 -4.7418042086064816e-03 4.8985201865434647e-02 5.4256327450275421e-02 2.5255782529711723e-02 -2.6525678113102913e-02 -5.8699393412098289e-04 -8.9790828526020050e-02 1.8445590138435364e-01 -1.0421321727335453e-02 -3.7436890415847301e-03 -1.1868853867053986e-01 -1.2576214969158173e-01 4.5425590127706528e-02 3.4033939242362976e-02 3.7214602343738079e-03 4.9433331005275249e-03 -5.4720174521207809e-02 5.9620663523674011e-03 -3.5645093768835068e-02 -1.5486819902434945e-03 -1.1016402393579483e-01 -1.2121312320232391e-01 -8.7207727134227753e-02 1.0458579286932945e-02 3.0730357393622398e-03 -4.9585577100515366e-02 -3.0366981402039528e-02 -2.1373076364398003e-02 -4.5240595936775208e-02 3.6854586005210876e-01 -6.4247183036059141e-04 4.7845786809921265e-01 -5.9308117628097534e-01 -2.0396348088979721e-02 -2.8704875148832798e-03 -6.6235631704330444e-01 -1.9338798522949219e-01 -3.6179214715957642e-01 -2.2729136049747467e-01 1.5087169408798218e-01 6.6204950213432312e-02 -4.4239116832613945e-03 9.2141097784042358e-01 -4.3972092866897583e-01 -2.2379462420940399e-01 -5.7337236404418945e-01 -5.8099639415740967e-01 -4.3219393491744995e-01 3.5043254494667053e-02 -1.7472102772444487e-03 -3.7983983755111694e-01 1.5020750463008881e-01 -5.1683360338211060e-01 5.5307820439338684e-02 4.3599281460046768e-02 -1.7152511281892657e-03 9.4995312392711639e-03 2.0941080525517464e-02 -1.1816857149824500e-03 -7.1564753307029605e-04 5.3987622261047363e-02 4.4202033430337906e-02 -2.3464933037757874e-03 -2.0734833553433418e-02 -2.6688907295465469e-02 -4.1775971651077271e-02 3.5767231602221727e-03 4.5955395326018333e-03 2.0527036860585213e-02 -1.0133273899555206e-01 4.6858649700880051e-02 2.6158301159739494e-02 1.6674038022756577e-02 1.9195005297660828e-03 6.9079105742275715e-03 -2.7256369590759277e-02 3.2664563506841660e-02 2.7977550402283669e-02 3.2984273275360465e-04 -7.7842669270467013e-06 -1.4694761318878591e-07 -1.5477671695407480e-05 -1.8356126020080410e-05 -2.9961722702864790e-07 2.8363641035866749e-07 -1.9370161680853926e-05 -1.7537238818476908e-05 -1.6753469026298262e-05 -1.4860833289276343e-05 -7.1508816290588584e-06 -6.5339959292032290e-06 -3.1703073091193801e-06 -6.8758713496208657e-06 -6.7953956204291899e-06 -1.7731286789057776e-05 -1.7443189790355973e-05 -1.8845859813154675e-05 -1.8678547348827124e-05 7.0653705108725262e-08 7.7425528388630482e-07 8.7931795178519678e-07 -5.2623040573962498e-06 -1.9169434381183237e-05 -1.8531205569161102e-05 1.6520540157216601e-05 3.1291327218241349e-07 3.2843858207343146e-05 3.8951464375713840e-05 6.3489540025329916e-07 -6.0077877606090624e-07 4.1102044633589685e-05 3.7214587791822851e-05 3.5551100154407322e-05 3.1530471460428089e-05 1.5169204743870068e-05 1.3862622836313676e-05 6.7220926212030463e-06 1.4590358659916092e-05 1.4419210856431164e-05 3.7625701224897057e-05 3.7013633118476719e-05 3.9990227378439158e-05 3.9636684959987178e-05 -1.5132626174363395e-07 -1.6408406509071938e-06 -1.8660938394532423e-06 1.1165456271555740e-05 4.0676506614545360e-05 3.9322785596596077e-05 -1.3477455079555511e-01 3.8655630778521299e-03 1.7913799732923508e-02 -6.6146224737167358e-02 -2.6564034633338451e-03 2.8728344477713108e-03 -1.7312677204608917e-01 -1.2393618375062943e-01 -1.3128588907420635e-02 5.3254038095474243e-02 6.9624386727809906e-02 1.3250327110290527e-01 -2.1411864086985588e-02 -2.0367654040455818e-02 -2.5709209963679314e-02 2.7380898594856262e-01 -1.3236910104751587e-01 -9.0034849941730499e-02 -5.9505671262741089e-02 -3.7548886612057686e-03 -1.4803010039031506e-02 7.9262264072895050e-02 -1.1908463388681412e-01 -1.0409459471702576e-01 -2.4694257881492376e-03 1.3054127991199493e-01 4.0034890174865723e-02 -2.3946204781532288e-01 3.0439522862434387e-01 -4.3362732976675034e-03 1.9026858732104301e-02 4.0927281975746155e-01 1.2910933792591095e-01 1.4068457484245300e-01 4.2836077511310577e-02 2.2640512883663177e-01 3.1246574595570564e-02 2.8346997499465942e-01 -8.1685945391654968e-02 -1.0048928111791611e-01 -1.9569279253482819e-01 2.7238929271697998e-01 1.8606734275817871e-01 1.1522486805915833e-01 3.3487588167190552e-02 -1.2769075110554695e-02 1.1330088227987289e-01 4.6567186713218689e-01 3.6523953080177307e-01 -1.0192125290632248e-01 1.2708565009234007e-05 2.3990577346921782e-07 2.5268864192184992e-05 2.9967757654958405e-05 4.8912022521108156e-07 -4.6303830458782613e-07 3.1623330869479105e-05 2.8631668101297691e-05 2.7351557946531102e-05 2.4261256839963607e-05 1.1674561392283067e-05 1.0667063179425895e-05 5.1758020163106266e-06 1.1225583875784650e-05 1.1094379260612186e-05 2.8947864848305471e-05 2.8477199521148577e-05 3.0767485441174358e-05 3.0495411920128390e-05 -1.1532754484733232e-07 -1.2640374507100205e-06 -1.4355726989379036e-06 8.5909850895404816e-06 3.1295850931201130e-05 3.0253686418291181e-05 3.1265324354171753e-01 1.3153122738003731e-02 -2.2084193229675293e+00 -1.5115953683853149e+00 4.3438941240310669e-02 1.3711402192711830e-02 -1.4389660954475403e-01 -5.7086867094039917e-01 6.5256398916244507e-01 3.6312453448772430e-02 3.4220941364765167e-02 1.6163639724254608e-02 9.5761723816394806e-02 -1.8239377439022064e-01 2.5258791446685791e-01 9.7010535001754761e-01 -1.3652223348617554e+00 3.0185166001319885e-01 1.7083404958248138e-01 -5.7261712849140167e-02 -1.7561400309205055e-02 1.0796737670898438e-01 1.2439975887537003e-01 8.9460248127579689e-03 4.1856598854064941e-01 -4.5337257906794548e-03 -8.6213643953669816e-05 -8.9674321934580803e-03 -1.0600266046822071e-02 -1.8623111827764660e-04 2.0199993741698563e-04 -1.1196885257959366e-02 -1.0165436193346977e-02 -9.6750380471348763e-03 -8.5650701075792313e-03 -4.1417777538299561e-03 -3.8313502445816994e-03 -1.8423601286485791e-03 -3.9687408134341240e-03 -3.9378898218274117e-03 -1.0238825343549252e-02 -1.0099267587065697e-02 -1.0911024175584316e-02 -1.0811839252710342e-02 3.9294307498494163e-05 4.5616933493874967e-04 5.9011590201407671e-04 -2.9970975592732430e-03 -1.1078218929469585e-02 -1.0720585472881794e-02 5.6656196713447571e-02 -1.5915884869173169e-03 3.0951660126447678e-02 -3.7383302114903927e-03 -1.1582780862227082e-03 1.8730490410234779e-05 8.1304416060447693e-02 7.3233678936958313e-02 -1.2541245669126511e-02 -3.1766276806592941e-02 -3.5612527281045914e-02 -5.2400175482034683e-02 9.8641384392976761e-03 4.7792410477995872e-03 3.6368455737829208e-02 -1.2711766362190247e-01 7.3440402746200562e-02 4.7603633254766464e-02 3.1670484691858292e-02 2.6616663672029972e-04 9.1862464323639870e-03 -2.7743766084313393e-02 3.9910476654767990e-02 3.3017929643392563e-02 7.4499500915408134e-03 -7.3784664273262024e-02 2.1785295102745295e-03 -3.0754297971725464e-02 -3.6761261522769928e-02 4.5791794545948505e-03 7.7753112418577075e-04 -9.0978786349296570e-02 -7.9637780785560608e-02 1.1870387941598892e-02 4.0026050060987473e-02 5.1809523254632950e-02 7.5021825730800629e-02 -1.0403809137642384e-03 -6.9150002673268318e-03 -5.0159826874732971e-02 1.8917404115200043e-01 -8.4421180188655853e-02 -4.0937263518571854e-02 -2.5572195649147034e-02 -1.9933115690946579e-03 -1.4267859980463982e-02 5.2781417965888977e-02 -4.5951940119266510e-02 -4.0636871010065079e-02 3.3781176898628473e-04 -5.0087627023458481e-02 4.0661012753844261e-03 6.6059477627277374e-02 -2.5971081852912903e-01 8.7185902521014214e-03 9.8095173016190529e-03 -2.3000178858637810e-02 1.2615593150258064e-02 -2.5659771636128426e-02 1.0923973284661770e-02 3.8061823695898056e-02 5.8834660798311234e-02 1.8089907243847847e-02 3.6160910967737436e-03 2.1502654999494553e-03 2.3082146048545837e-01 -2.5311112403869629e-02 4.4293627142906189e-02 3.8384947925806046e-02 -1.7117928713560104e-02 -3.8959397934377193e-03 8.6644805967807770e-02 -5.1640160381793976e-02 -6.4739100635051727e-02 5.7586763054132462e-02 -4.5299419760704041e-01 -3.8911602459847927e-03 -3.2120905816555023e-02 -2.1852239966392517e-01 1.6110617434605956e-03 -1.7353806470055133e-05 -2.4589978158473969e-01 -3.9069929718971252e-01 -4.1021112352609634e-02 2.3830945789813995e-01 2.8573939204216003e-01 1.9878411293029785e-01 5.5269420146942139e-01 1.6234776377677917e-01 4.4872850179672241e-02 3.5515320301055908e-01 -4.3290233612060547e-01 -4.6492004394531250e-01 -3.5974735021591187e-01 -4.3948903679847717e-02 -1.5667490661144257e-02 -2.8995856642723083e-01 3.2449418306350708e-01 -2.9407024383544922e-01 -2.9471911489963531e-02 1.4761326834559441e-02 1.3563735410571098e-04 3.7420663982629776e-02 -9.0586937963962555e-02 4.8836814239621162e-03 2.4170093238353729e-03 4.5546654611825943e-02 5.0809193402528763e-02 -1.6128230839967728e-02 -1.3206241652369499e-02 -7.5009309512097389e-05 -1.3848814414814115e-03 2.2042861208319664e-02 5.5833836086094379e-04 1.5469204634428024e-02 1.0037134401500225e-02 4.0236484259366989e-02 5.0215765833854675e-02 3.6923743784427643e-02 -4.7628306783735752e-03 5.7846773415803909e-04 2.1849285811185837e-02 1.2018314562737942e-02 4.8534153029322624e-03 2.2908043116331100e-02 -4.5050535845803097e-05 -8.4831646063321386e-07 -8.9572247816249728e-05 -1.0622527770465240e-04 -1.7322788607998518e-06 1.6410689340773388e-06 -1.1209152580704540e-04 -1.0148873116122559e-04 -9.6952819149009883e-05 -8.5997111455071718e-05 -4.1380328184459358e-05 -3.7813064409419894e-05 -1.8345777789363638e-05 -3.9789494621800259e-05 -3.9326190744759515e-05 -1.0261029819957912e-04 -1.0094066965393722e-04 -1.0905934323091060e-04 -1.0809284140123054e-04 4.1134404682452441e-07 4.4785938371205702e-06 5.0929356802953407e-06 -3.0450622944044881e-05 -1.1093136708950624e-04 -1.0723956802394241e-04 -8.5414629429578781e-03 2.2068436373956501e-04 -7.5243636965751648e-03 1.0645702481269836e-02 -3.2752624247223139e-04 -3.6646830267272890e-04 -1.3942594639956951e-02 -1.3661936856806278e-02 2.9642987065017223e-03 5.1261871121823788e-03 4.3871309608221054e-03 6.6019096411764622e-03 -3.1096721068024635e-03 -8.8291917927563190e-04 -6.0694785788655281e-03 1.3610944151878357e-02 -1.2310418300330639e-02 -1.0594229213893414e-02 -7.4213161133229733e-03 4.6923448098823428e-04 -1.3580855447798967e-03 1.0851772967725992e-03 -5.9137083590030670e-03 -3.9919023402035236e-03 -3.4967234823852777e-03 -2.4250075221061707e-02 5.1552493823692203e-04 -1.9688043743371964e-02 3.9603576064109802e-02 -3.8993572816252708e-03 1.0938425839412957e-04 -5.2783686667680740e-02 -4.8391155898571014e-02 9.4259027391672134e-03 1.4766846783459187e-02 7.1456711739301682e-03 1.4354819431900978e-02 -1.9775029271841049e-02 -1.0639600077411160e-04 -9.8088812083005905e-03 3.1343281269073486e-02 -4.5454788953065872e-02 -4.4014651328325272e-02 -3.1147670000791550e-02 1.4941255794838071e-03 -2.4512663367204368e-04 -6.1727175489068031e-03 -2.6172390207648277e-02 -2.0739957690238953e-02 -1.1999041773378849e-02 -2.9815487563610077e-02 1.4621405862271786e-03 1.2237622588872910e-01 -4.0726050734519958e-01 8.9956913143396378e-03 1.7821928486227989e-02 -2.1557337604463100e-03 5.2166327834129333e-02 -4.1302736848592758e-02 -6.5724281594157219e-03 2.1087180823087692e-02 3.4896824508905411e-02 1.3590766116976738e-02 1.9579427316784859e-02 4.2609635740518570e-02 2.6132729649543762e-01 -1.3636476360261440e-02 7.7510416507720947e-02 6.3912995159626007e-02 -2.6592178270220757e-02 1.0040110908448696e-02 8.9786455035209656e-02 -6.5409384667873383e-02 -9.8033279180526733e-02 9.5924444496631622e-02 -2.3047001659870148e-01 -1.8457611799240112e+00 1.2610167264938354e-01 -8.2222022116184235e-02 2.2075318265706301e-03 -1.7901886254549026e-02 4.2553880810737610e-01 -1.4020916819572449e-01 -5.5127018690109253e-01 9.9586695432662964e-04 -4.6648010611534119e-02 -4.8120006918907166e-02 1.7896209657192230e-01 9.7275853157043457e-02 -2.1295877173542976e-02 2.4616588652133942e-01 2.5777068734169006e-01 3.4200131893157959e-02 2.1238688379526138e-02 1.3733087107539177e-02 -3.1576376408338547e-02 -6.5873958170413971e-02 -2.0596089959144592e-01 -1.6997848451137543e-01 4.2887154966592789e-02 9.2484112828969955e-03 1.1095885420218110e-03 7.3706187307834625e-02 -1.2548787891864777e-01 -4.5808093273080885e-04 5.8531998656690121e-03 4.0070571005344391e-02 5.9108633548021317e-02 -3.4354671835899353e-02 -2.1457416936755180e-02 -1.2702767737209797e-02 -5.6387046352028847e-03 1.0401288047432899e-02 8.9086871594190598e-04 4.5696500688791275e-02 7.1475831791758537e-03 4.3003782629966736e-02 4.7248192131519318e-02 3.4721881151199341e-02 -8.7407492101192474e-03 5.8650122955441475e-03 2.1126894280314445e-02 -1.1423514224588871e-02 -1.9416058436036110e-02 2.9876869171857834e-02 3.1627878546714783e-02 -2.1288846619427204e-03 -1.0012222081422806e-01 3.4202340245246887e-01 -8.5917599499225616e-03 -1.4758708886802197e-02 4.7296746633946896e-03 -4.0911775082349777e-02 3.4657489508390427e-02 1.6536099137738347e-03 -2.5041997432708740e-02 -3.9976246654987335e-02 -1.5480081550776958e-02 -1.3713386841118336e-02 -2.9311934486031532e-02 -2.3428001999855042e-01 1.2842191383242607e-02 -6.6297486424446106e-02 -5.5052366107702255e-02 2.2344188764691353e-02 -5.5153914727270603e-03 -8.5033722221851349e-02 5.6500636041164398e-02 8.0829612910747528e-02 -7.9788826406002045e-02 -3.8104381412267685e-02 1.5096232527866960e-03 -1.2165810912847519e-02 -2.0681561902165413e-02 2.7571721002459526e-03 -1.1271325638517737e-04 -4.0898602455854416e-02 -3.5230726003646851e-02 2.9778049793094397e-03 1.8762502819299698e-02 2.6591395959258080e-02 3.8604054600000381e-02 2.5062132626771927e-03 -5.0064013339579105e-03 -2.3974100127816200e-02 9.3402579426765442e-02 -3.6829236894845963e-02 -1.6302332282066345e-02 -9.8012499511241913e-03 -1.5523150796070695e-03 -8.1890113651752472e-03 2.8365768492221832e-02 -2.2648494690656662e-02 -1.8596213310956955e-02 3.2537133665755391e-04 6.0311328619718552e-02 -1.3608126901090145e-03 4.4215433299541473e-02 -1.8406316637992859e-02 -1.5605364460498095e-03 5.4830498993396759e-04 9.1569297015666962e-02 8.6092665791511536e-02 -1.9075585529208183e-02 -3.6937531083822250e-02 -3.9595320820808411e-02 -5.5524088442325592e-02 1.2085338123142719e-02 4.3772566132247448e-03 4.5668777078390121e-02 -1.3608080148696899e-01 8.4765709936618805e-02 5.6400269269943237e-02 3.7821244448423386e-02 -8.1400718772783875e-04 1.0370337404310703e-02 -2.7057457715272903e-02 4.0058568120002747e-02 3.2396391034126282e-02 1.1086112819612026e-02 -8.0232664942741394e-02 6.1152066336944699e-04 -1.1856023967266083e-01 5.4000478237867355e-02 4.1073006577789783e-03 1.4035024214535952e-03 -1.8544279038906097e-01 -1.8306446075439453e-01 6.6697336733341217e-02 7.4388243257999420e-02 6.8721838295459747e-02 7.8029222786426544e-02 -3.8756031543016434e-02 9.4951596111059189e-03 -9.3911156058311462e-02 2.3675994575023651e-01 -1.8786673247814178e-01 -1.2498438358306885e-01 -8.3807721734046936e-02 4.5462199486792088e-03 -8.1123122945427895e-03 2.4844413623213768e-02 -5.9489000588655472e-02 -5.8387614786624908e-02 -1.9410179927945137e-02 -6.3012093305587769e-02 3.0955546535551548e-03 -5.9483521617949009e-03 -7.8369535505771637e-02 6.3220895826816559e-03 1.3170504244044423e-03 -5.6958843022584915e-02 -4.3925758451223373e-02 -6.5313250524923205e-04 2.8767917305231094e-02 4.6505853533744812e-02 6.8239308893680573e-02 1.1108989827334881e-02 -7.6989931985735893e-03 -3.7145785987377167e-02 1.7642714083194733e-01 -5.2524622529745102e-02 -9.7624044865369797e-03 -3.2161974813789129e-03 -4.7694570384919643e-03 -1.3900269754230976e-02 6.0150675475597382e-02 -3.6651618778705597e-02 -3.3790126442909241e-02 1.1442896910011768e-02 -5.1975745707750320e-02 4.9348373431712389e-04 -9.0479113161563873e-02 1.0576760768890381e-01 -3.9611966349184513e-03 -1.1826353147625923e-03 -1.4191338419914246e-01 -1.4160832762718201e-01 4.8587989062070847e-02 4.8110745847225189e-02 3.1325101852416992e-02 3.6301080137491226e-02 -4.5721895992755890e-02 7.0512429811060429e-03 -5.5790238082408905e-02 1.1005375534296036e-01 -1.3748380541801453e-01 -1.1465535312891006e-01 -7.9688116908073425e-02 6.0164639726281166e-03 -1.5696040354669094e-03 -1.4536259695887566e-02 -4.6165965497493744e-02 -4.0947176516056061e-02 -2.9015382751822472e-02 1.1998425237834454e-02 3.8556749932467937e-03 1.0237836837768555e-01 -2.3141239583492279e-01 1.6876209527254105e-02 1.4456211356446147e-03 1.6156375408172607e-01 1.5980646014213562e-01 -6.1963453888893127e-02 -3.9759851992130280e-02 4.1301022283732891e-03 1.1867078719660640e-03 7.9280517995357513e-02 -1.5615900047123432e-02 2.2886222228407860e-02 3.4192882478237152e-02 1.4757522940635681e-01 1.6639819741249084e-01 1.1883365362882614e-01 -1.4266528189182281e-02 -1.4533484354615211e-02 8.0415010452270508e-02 4.4091902673244476e-02 3.9132125675678253e-02 5.4472066462039948e-02 -8.6310459300875664e-03 -1.6616846551187336e-04 -1.6994699835777283e-02 -2.0032366737723351e-02 -3.8407018291763961e-04 4.5171260717324913e-04 -2.1244468167424202e-02 -1.9320055842399597e-02 -1.8283981829881668e-02 -1.6165163367986679e-02 -7.8631369397044182e-03 -7.3499353602528572e-03 -3.5334487911313772e-03 -7.4899438768625259e-03 -7.4473558925092220e-03 -1.9352018833160400e-02 -1.9188972190022469e-02 -2.0726304501295090e-02 -2.0518155768513680e-02 7.1881651820149273e-05 8.9906202629208565e-04 1.2216684408485889e-03 -5.6077172048389912e-03 -2.0996823906898499e-02 -2.0299887284636497e-02 1.2789589818567038e-03 2.4184215362765826e-05 2.5391879025846720e-03 3.0085272155702114e-03 4.9985574150923640e-05 -4.9487796786706895e-05 3.1741685234010220e-03 2.8765134047716856e-03 2.7458616532385349e-03 2.4340625386685133e-03 1.1726384982466698e-03 1.0753691894933581e-03 5.1981006981804967e-04 1.1269202223047614e-03 1.1152145452797413e-03 2.9059301596134901e-03 2.8597991913557053e-03 3.0897329561412334e-03 3.0624903738498688e-03 -1.1413438187446445e-05 -1.2718468497041613e-04 -1.5152042033150792e-04 8.5873395437374711e-04 3.1414597760885954e-03 3.0386357102543116e-03 6.3206396996974945e-02 -3.4777848049998283e-03 -1.8407039344310760e-02 1.1619858443737030e-01 -4.3135518208146095e-03 -4.1406680829823017e-03 6.1387069523334503e-02 3.7128120660781860e-02 9.5490049570798874e-03 -2.4268105626106262e-02 -4.2414356023073196e-02 -6.8313971161842346e-02 -6.4311460591852665e-03 5.5475467815995216e-03 1.8571652472019196e-02 -1.8463237583637238e-01 5.3061272948980331e-02 8.4126517176628113e-03 1.7808926058933139e-03 7.5605479069054127e-03 8.9314831420779228e-03 -6.1546970158815384e-02 5.0359509885311127e-02 5.0877392292022705e-02 -2.0090537145733833e-02 -2.4333887267857790e-05 -4.6001272835383133e-07 -4.8384194087702781e-05 -5.7380708312848583e-05 -9.3599419415113516e-07 8.8585846924615907e-07 -6.0549697082024068e-05 -5.4821928642923012e-05 -5.2372215577634051e-05 -4.6454464609269053e-05 -2.2352449377649464e-05 -2.0424968170118518e-05 -9.9090011644875631e-06 -2.1494057364179753e-05 -2.1241761714918539e-05 -5.5427248298656195e-05 -5.4526604799320921e-05 -5.8911522501148283e-05 -5.8390109188621864e-05 2.2156554280172713e-07 2.4193891476897988e-06 2.7480632525112014e-06 -1.6449384929728694e-05 -5.9923440858256072e-05 -5.7928573369281366e-05 -1.5152259729802608e-02 -1.2929966032970697e-04 -9.7607396543025970e-02 2.4921259284019470e-01 -1.0791662149131298e-02 -8.2802530378103256e-03 -8.7263979017734528e-02 -1.0712005198001862e-01 4.1170120239257812e-02 2.5896849110722542e-02 -4.9666170962154865e-03 -5.5071366950869560e-03 -4.4612936675548553e-02 -2.8798817656934261e-03 -3.6595243960618973e-02 -7.3221921920776367e-02 -7.6396971940994263e-02 -1.1135210096836090e-01 -8.2620844244956970e-02 1.4788348227739334e-02 -1.8378748791292310e-03 -5.8985095471143723e-02 -5.6121540255844593e-03 9.9353296682238579e-03 -6.0821503400802612e-02 -3.4326013177633286e-02 -8.8889600010588765e-04 -1.5034562349319458e-01 1.8036183714866638e-01 -6.3483081758022308e-03 -3.0211783014237881e-03 -1.9090765714645386e-01 -1.9838570058345795e-01 8.8244549930095673e-02 6.3379831612110138e-02 3.0619898810982704e-02 2.2126574069261551e-02 -7.0562690496444702e-02 2.2404169663786888e-02 -7.9247832298278809e-02 1.0329487919807434e-01 -1.9645470380783081e-01 -1.6703715920448303e-01 -1.1578300595283508e-01 1.1047787964344025e-02 5.8764861896634102e-03 -5.1194980740547180e-02 -3.7465982139110565e-02 -4.3119728565216064e-02 -4.1746564209461212e-02 -1.0095369070768356e-01 3.5344474017620087e-03 -1.0551462881267071e-02 -1.1657100915908813e-01 4.9148662947118282e-03 4.7019734047353268e-03 -1.2628552317619324e-01 -9.6423640847206116e-02 5.9852302074432373e-03 4.9579031765460968e-02 6.9112911820411682e-02 1.0711716860532761e-01 -1.5691330190747976e-03 -6.6138673573732376e-03 -5.1503524184226990e-02 2.8353813290596008e-01 -1.1534284055233002e-01 -4.6573199331760406e-02 -2.7941860258579254e-02 -5.4795295000076294e-03 -1.3473892584443092e-02 8.1076309084892273e-02 -7.2748459875583649e-02 -7.5597606599330902e-02 1.5914998948574066e-02 -8.0210081068798900e-04 -1.5157606867433060e-05 -1.5933348331600428e-03 -1.8885083263739944e-03 -3.1160259823082015e-05 3.0359269658220001e-05 -1.9924845546483994e-03 -1.8050624057650566e-03 -1.7236554995179176e-03 -1.5282644890248775e-03 -7.3591258842498064e-04 -6.7397981183603406e-04 -3.2620338606648147e-04 -7.0740684168413281e-04 -6.9972086930647492e-04 -1.8241491634398699e-03 -1.7948704771697521e-03 -1.9391590030863881e-03 -1.9220870453864336e-03 7.1995632424659561e-06 7.9742741945665330e-05 9.3433212896343321e-05 -5.3989572916179895e-04 -1.9719693809747696e-03 -1.9070301204919815e-03 4.3560080230236053e-02 3.0089505016803741e-03 1.1767864227294922e-01 -1.9457818567752838e-01 1.8315007910132408e-02 1.4989520423114300e-03 1.8909148871898651e-01 1.9075378775596619e-01 -5.7219646871089935e-02 -4.3868981301784515e-02 1.3223858550190926e-03 3.7459442391991615e-03 8.7459966540336609e-02 -1.7215354368090630e-02 4.0523502975702286e-02 -4.3867290019989014e-02 1.8440532684326172e-01 1.8223239481449127e-01 1.3054613769054413e-01 -9.5837777480483055e-03 -1.2698693200945854e-02 6.9412834942340851e-02 4.9723155796527863e-02 6.2217600643634796e-02 5.0395023077726364e-02 2.0501413941383362e-01 -1.0765234939754009e-02 1.9949823617935181e-01 4.9985095858573914e-01 4.5420348644256592e-01 1.3470631837844849e-01 -8.2041829824447632e-02 3.4515742212533951e-02 -4.1023526340723038e-02 4.9790784716606140e-02 -3.9178930222988129e-02 4.2238749563694000e-02 9.0821288526058197e-02 3.7247065454721451e-02 1.6685755550861359e-01 -4.3265575170516968e-01 1.1921987682580948e-01 -1.2595207989215851e-01 -1.1175056546926498e-01 -6.2469160556793213e-01 -4.2594027519226074e-01 -1.1200988292694092e-01 -6.5853156149387360e-02 2.3282403126358986e-03 -1.0606572777032852e-01 -1.7492415383458138e-02 -2.7571176178753376e-03 -1.8824727833271027e-01 2.1832787990570068e-01 -8.4552653133869171e-03 -3.7316023372113705e-03 -2.2669981420040131e-01 -2.3617641627788544e-01 1.1687269806861877e-01 7.3929421603679657e-02 3.0767787247896194e-02 1.4804900623857975e-02 -8.5401102900505066e-02 3.5427749156951904e-02 -9.3169808387756348e-02 1.0438004136085510e-01 -2.4001568555831909e-01 -2.0229898393154144e-01 -1.3933499157428741e-01 1.3243223540484905e-02 1.1746920645236969e-02 -7.6301172375679016e-02 -2.9837742447853088e-02 -4.7954089939594269e-02 -4.6539258211851120e-02 2.4216420948505402e-02 1.3644831255078316e-02 9.6852846443653107e-02 -1.9335363805294037e-01 2.9062591493129730e-02 -8.4483111277222633e-03 2.2360202670097351e-01 2.0523019134998322e-01 -6.0292776674032211e-02 -4.0566969662904739e-02 1.3482457026839256e-02 1.4708157628774643e-02 1.1053633689880371e-01 -2.7704793959856033e-02 2.1246436517685652e-03 -4.7819837927818298e-03 2.0987895131111145e-01 2.1694168448448181e-01 1.5553347766399384e-01 -1.0687148198485374e-02 -3.3192321658134460e-02 9.9954575300216675e-02 7.0378556847572327e-02 9.3771077692508698e-02 5.0310816615819931e-02 -3.1020191311836243e-01 1.1052359826862812e-02 -9.7768478095531464e-02 3.7134745717048645e-01 -2.2507965564727783e-02 1.3436940498650074e-02 5.5465281009674072e-01 1.4500375092029572e-01 -1.1925373226404190e-01 2.0448893308639526e-01 3.7251237779855728e-02 6.2408678233623505e-02 1.0760784149169922e-01 6.0455298423767090e-01 -1.0853563547134399e+00 -2.4894498288631439e-01 4.8018163442611694e-01 2.7912658452987671e-01 2.2117948532104492e-01 -4.4024609029293060e-02 -3.3034426160156727e-03 8.9735537767410278e-02 -3.1443449854850769e-01 3.2866951823234558e-01 -1.1356878280639648e-01 -4.4450037181377411e-02 1.3114797184243798e-04 -8.9540898799896240e-02 1.2465304136276245e-01 -6.1540510505437851e-03 -1.5951005043461919e-03 -1.3729391992092133e-01 -1.3823689520359039e-01 4.8093359917402267e-02 4.3980736285448074e-02 2.2627221420407295e-02 2.5920206680893898e-02 -5.0139997154474258e-02 7.9073216766119003e-03 -4.9002926796674728e-02 8.0499015748500824e-02 -1.3210526108741760e-01 -1.1788808554410934e-01 -8.2709938287734985e-02 7.0120315067470074e-03 7.0602307096123695e-04 -2.6034036651253700e-02 -4.3156132102012634e-02 -3.7837777286767960e-02 -3.2572541385889053e-02 -3.0148519203066826e-02 -6.0111749917268753e-04 -7.8312106430530548e-02 1.5164542198181152e-01 -9.7328443080186844e-03 -2.0701098255813122e-03 -1.1862478405237198e-01 -1.2095083296298981e-01 4.1360910981893539e-02 3.3501792699098587e-02 6.2962067313492298e-03 8.9222379028797150e-03 -5.3136847913265228e-02 6.8950937129557133e-03 -3.1726773828268051e-02 1.9668651744723320e-02 -1.1017707735300064e-01 -1.1460427939891815e-01 -8.1939496099948883e-02 8.4180245175957680e-03 3.8412883877754211e-03 -4.2171917855739594e-02 -3.6754827946424484e-02 -2.9358567669987679e-02 -3.7823092192411423e-02 6.9026060402393341e-02 -4.6566892415285110e-03 -3.6672789603471756e-02 1.6751950979232788e-01 -5.8035911060869694e-03 -5.8521437458693981e-03 5.7707164436578751e-02 2.6389984413981438e-02 1.7158888280391693e-02 -2.3158140480518341e-02 -4.6858776360750198e-02 -7.6723009347915649e-02 -1.1669984087347984e-02 5.3996522910892963e-03 1.4290242455899715e-02 -2.1780940890312195e-01 4.9459725618362427e-02 -5.5679869838058949e-03 -9.2188902199268341e-03 1.0861550457775593e-02 9.2210378497838974e-03 -7.6853968203067780e-02 5.6867185980081558e-02 6.0297589749097824e-02 -3.2000921666622162e-02 6.5976984798908234e-02 -6.4079463481903076e-04 1.0701146721839905e-01 -8.4754295647144318e-02 -1.5015488024801016e-03 1.0611456818878651e-03 1.5197215974330902e-01 1.5467080473899841e-01 -5.6143391877412796e-02 -6.0347575694322586e-02 -5.1729500293731689e-02 -5.8288943022489548e-02 3.5314518958330154e-02 -5.3152148611843586e-03 7.9602703452110291e-02 -1.6931743919849396e-01 1.5195581316947937e-01 1.1047713458538055e-01 7.5209513306617737e-02 -5.3188661113381386e-03 8.1828646361827850e-03 -9.4839697703719139e-03 4.5611750334501266e-02 3.9928767830133438e-02 2.5430353358387947e-02 -4.2906630784273148e-02 9.7096042009070516e-04 -1.2882131338119507e-01 2.1932543814182281e-01 -4.7307629138231277e-03 -9.1857193037867546e-03 -1.0025575757026672e-01 -1.2981633841991425e-01 4.9051962792873383e-02 4.0716275572776794e-02 1.8076168373227119e-02 1.4043355360627174e-02 -3.4116875380277634e-02 -5.3266622126102448e-03 -7.6599687337875366e-02 2.1337749436497688e-02 -1.0063931345939636e-01 -1.0660628974437714e-01 -7.7721111476421356e-02 1.1532523669302464e-02 -1.2136343866586685e-02 -2.7938028797507286e-02 -1.3046396197751164e-03 1.0798286646604538e-02 -5.6348487734794617e-02 -9.2388443648815155e-02 7.0466282777488232e-03 4.3822504580020905e-02 -2.1775482594966888e-01 7.5712567195296288e-03 7.0696417242288589e-03 -7.3497906327247620e-02 -3.4689512103796005e-02 -2.1402059122920036e-02 3.0305547639727592e-02 6.0953579843044281e-02 9.8980963230133057e-02 1.6201991587877274e-02 -7.4591170996427536e-03 -2.5300826877355576e-02 2.8800413012504578e-01 -6.4847715198993683e-02 9.0588312596082687e-03 1.2653761543333530e-02 -1.4145328663289547e-02 -1.3084352947771549e-02 1.0084657371044159e-01 -6.7933388054370880e-02 -7.5628690421581268e-02 4.1740339249372482e-02 5.9883892536163330e-03 1.1428463767515495e-04 1.1825074441730976e-02 1.3964104466140270e-02 2.5259837275370955e-04 -2.8298873803578317e-04 1.4766726642847061e-02 1.3415792956948280e-02 1.2745688669383526e-02 1.1277924291789532e-02 5.4643149487674236e-03 5.0735874101519585e-03 2.4379233364015818e-03 5.2263280376791954e-03 5.1902215927839279e-03 1.3488653115928173e-02 1.3326276093721390e-02 1.4396128244698048e-02 1.4261380769312382e-02 -5.1291313866386190e-05 -6.0864456463605165e-04 -8.0567738041281700e-04 3.9335074834525585e-03 1.4606097713112831e-02 1.4132342301309109e-02 6.1848729848861694e-02 -6.7221815697848797e-04 1.1137992143630981e-01 -9.7450137138366699e-02 -3.4230659366585314e-05 1.1069708270952106e-03 1.5932646393775940e-01 1.6166108846664429e-01 -6.0133524239063263e-02 -6.0307871550321579e-02 -4.7845084220170975e-02 -5.2032135426998138e-02 4.2230281978845596e-02 -8.0778002738952637e-03 7.7451772987842560e-02 -1.5932610630989075e-01 1.5944080054759979e-01 1.2020607292652130e-01 8.2242503762245178e-02 -5.9838597662746906e-03 5.3000366315245628e-03 7.1810686495155096e-04 4.6754784882068634e-02 4.2602170258760452e-02 2.7629617601633072e-02 -3.5198697787564015e-06 -6.6447171320760390e-08 -6.9987740971555468e-06 -8.3004952102783136e-06 -1.3548570620969258e-07 1.2825158535179071e-07 -8.7586731751798652e-06 -7.9300380093627609e-06 -7.5757748163596261e-06 -6.7197579483035952e-06 -3.2334812658518786e-06 -2.9544710287154885e-06 -1.4335654441310908e-06 -3.1091626624402124e-06 -3.0727248940820573e-06 -8.0177233030553907e-06 -7.8874845712562092e-06 -8.5218989624991082e-06 -8.4462290033116005e-06 3.1948438561357762e-08 3.5009890098081087e-07 3.9761965808793320e-07 -2.3795334982423810e-06 -8.6681111497455277e-06 -8.3794211604981683e-06 -3.4594845492392778e-03 -1.2525890488177538e-03 1.1729417741298676e-01 -4.5825222134590149e-01 2.1293465048074722e-02 1.5926405787467957e-02 8.8764742016792297e-02 1.1925824731588364e-01 -3.7788629531860352e-02 -1.8242737278342247e-02 2.5355910882353783e-02 1.1214383877813816e-02 5.2891686558723450e-02 2.2743418812751770e-02 1.7363369464874268e-02 2.5117576122283936e-01 5.2025225013494492e-02 1.5657970309257507e-01 1.1934623122215271e-01 -2.9783463105559349e-02 6.3123116269707680e-03 9.9699452519416809e-02 -1.3027464970946312e-02 -4.5727055519819260e-02 1.1302500963211060e-01 2.9445727705024183e-06 5.5583932123681734e-08 5.8548425840854179e-06 6.9435368459380697e-06 1.1333207794450573e-07 -1.0728806643101052e-07 7.3270798566227313e-06 6.6338566284684930e-06 6.3374304772878531e-06 5.6212611525552347e-06 2.7048918127547950e-06 2.4715334348002216e-06 1.1992121926596155e-06 2.6009643079305533e-06 2.5704425752337556e-06 6.7071055127598811e-06 6.5981548686977476e-06 7.1286149250227027e-06 7.0656710704497527e-06 -2.6724418233925462e-08 -2.9286547942319885e-07 -3.3262173815273854e-07 1.9905287444998976e-06 7.2511520556872711e-06 7.0097580646688584e-06 1.1701239645481110e-01 -6.2882592901587486e-03 -2.2098200395703316e-02 1.8796788156032562e-01 -4.9320450052618980e-03 -6.7460839636623859e-03 1.2954743206501007e-01 8.4593698382377625e-02 9.9433567374944687e-03 -4.7186970710754395e-02 -7.6739378273487091e-02 -1.2620234489440918e-01 -6.1552529223263264e-03 1.0253660380840302e-02 4.3048568069934845e-02 -3.3318713307380676e-01 1.1368146538734436e-01 3.2573878765106201e-02 1.7589028924703598e-02 9.5191169530153275e-03 1.3514780439436436e-02 -1.0240043699741364e-01 8.4443084895610809e-02 9.4353519380092621e-02 -3.0399836599826813e-02 1.4123031869530678e-02 -1.0083983215736225e-04 3.1748402863740921e-02 -3.8309402298182249e-03 -7.7171041630208492e-03 3.5783909261226654e-03 2.7284319512546062e-03 1.2953059747815132e-02 -1.2714759446680546e-02 -1.3868094421923161e-02 -2.5583865121006966e-02 -2.4301134049892426e-02 -1.9341707229614258e-02 4.5182062312960625e-03 3.8725234568119049e-02 -5.3001388907432556e-02 9.3675404787063599e-03 -7.6412404887378216e-03 -6.4595616422593594e-03 -1.9449788378551602e-03 1.0745695792138577e-02 -2.1919775754213333e-02 -1.4321796596050262e-02 -1.6251804307103157e-02 2.2611899767071009e-03 4.9923602491617203e-02 -4.4439572957344353e-04 1.0248410701751709e-01 -2.0581954717636108e-01 1.6009362414479256e-02 4.3444745242595673e-03 1.5621359646320343e-01 1.6254788637161255e-01 -4.1759695857763290e-02 -3.8253106176853180e-02 1.2041865848004818e-03 -3.2481488306075335e-03 7.3262020945549011e-02 -4.9871266819536686e-03 3.8265895098447800e-02 -2.0869839936494827e-02 1.4510171115398407e-01 1.5642763674259186e-01 1.1297981441020966e-01 -9.3802260234951973e-03 -3.7268400192260742e-03 5.3753525018692017e-02 4.5990429818630219e-02 4.2862094938755035e-02 5.4335352033376694e-02 -1.0811617970466614e-01 8.3353687077760696e-03 6.8652063608169556e-02 -2.4800431728363037e-01 5.0402618944644928e-03 8.5630007088184357e-03 -9.7908422350883484e-02 -4.1989013552665710e-02 -3.1409546732902527e-02 3.1174814328551292e-02 6.7112036049365997e-02 1.1859865486621857e-01 1.3744450174272060e-02 -1.0859957896173000e-02 -1.2486035935580730e-02 3.1769165396690369e-01 -7.8382641077041626e-02 -1.7455364577472210e-03 4.9226540140807629e-03 -1.4883618801832199e-02 -1.0276868008077145e-02 1.0620453208684921e-01 -8.8090978562831879e-02 -9.9440112709999084e-02 4.5846752822399139e-02 -1.6799521108623594e-04 -3.1688889521319652e-06 -3.3397271181456745e-04 -3.9602222386747599e-04 -6.4784076130308677e-06 6.1701070990238804e-06 -4.1788251837715507e-04 -3.7839365541003644e-04 -3.6144428304396570e-04 -3.2057764474302530e-04 -1.5428435290232301e-04 -1.4104523870628327e-04 -6.8398963776417077e-05 -1.4834414469078183e-04 -1.4663604088127613e-04 -3.8254313403740525e-04 -3.7633083411492407e-04 -4.0659427759237587e-04 -4.0300167165696621e-04 1.5193553508652258e-06 1.6705005691619590e-05 1.9104956663795747e-05 -1.1346308019710705e-04 -4.1356170549988747e-04 -3.9982059388421476e-04 -1.0277558118104935e-01 -1.9970729947090149e-02 -1.9942417740821838e-01 -7.0347225666046143e-01 3.8715697824954987e-02 4.5429207384586334e-02 5.3711706399917603e-01 3.6691480875015259e-01 3.6455792188644409e-01 1.7126921564340591e-02 -2.7226284146308899e-01 -9.8928391933441162e-02 -1.8501274287700653e-01 1.7984023690223694e-01 -4.1986489295959473e-01 -3.6242257803678513e-02 3.1417047977447510e-01 6.1915403604507446e-01 4.1047781705856323e-01 -7.2783663868904114e-02 1.2710900977253914e-02 6.2499463558197021e-01 -2.9999139904975891e-01 2.4737963080406189e-01 1.4037655293941498e-01 -1.5399814401462208e-06 -2.9070145401988157e-08 -3.0620226425526198e-06 -3.6313731470727362e-06 -5.9272839081359052e-08 5.6110703638978521e-08 -3.8319885788951069e-06 -3.4694605801632861e-06 -3.3143762721010717e-06 -2.9398431706795236e-06 -1.4146580724627711e-06 -1.2925960390930413e-06 -6.2718964954910916e-07 -1.3602968920167768e-06 -1.3443450370687060e-06 -3.5077257507509785e-06 -3.4507984310039319e-06 -3.7282254652382107e-06 -3.6952833397663198e-06 1.3976139356941530e-08 1.5317036172746157e-07 1.7395949214460416e-07 -1.0410659569970449e-06 -3.7923337004031055e-06 -3.6660414934885921e-06 -3.5030147955694702e-06 -6.6125600994837441e-08 -6.9652237471018452e-06 -8.2603128248592839e-06 -1.3482835470313148e-07 1.2763730694587139e-07 -8.7168300524353981e-06 -7.8920693340478465e-06 -7.5392854341771454e-06 -6.6874995354737621e-06 -3.2178916171687888e-06 -2.9403231565083843e-06 -1.4266504422266735e-06 -3.0941832847020123e-06 -3.0580238217225997e-06 -7.9789951996644959e-06 -7.8494949775631540e-06 -8.4805733422399499e-06 -8.4057774074608460e-06 3.1793899069043619e-08 3.4841829688048165e-07 3.9570394960719568e-07 -2.3680861431785161e-06 -8.6264317360473797e-06 -8.3391923908493482e-06 1.3659907877445221e-01 -2.0754167344421148e-03 1.7179168760776520e-02 3.0275179073214531e-02 5.3860354237258434e-03 -6.2784901820123196e-03 2.3223191499710083e-01 1.8091429769992828e-01 -1.3319700025022030e-02 -6.6413983702659607e-02 -7.3009595274925232e-02 -1.2518410384654999e-01 4.9093782901763916e-02 7.5270649977028370e-03 3.3809136599302292e-02 -2.8711819648742676e-01 1.9385471940040588e-01 1.4390546083450317e-01 9.8275512456893921e-02 -2.2880244068801403e-04 3.5271430388092995e-03 -5.3804051131010056e-02 1.3423213362693787e-01 1.2721726298332214e-01 1.1688135564327240e-02 
      </Weights>
      <Biases rows="100" cols="1">
        7.3047745227813721e-01 3.4258073568344116e-01 8.1676739454269409e-01 9.9731892347335815e-01 2.4333763122558594e+00 3.2616722583770752e+00 1.3066860437393188e+00 5.2864342927932739e-01 -1.4745277166366577e-01 2.3870229721069336e+00 8.1786417961120605e-01 3.4075176715850830e+00 2.6786360740661621e+00 2.1099667549133301e+00 2.2761580348014832e-01 1.5563146770000458e-01 -3.1722741127014160e+00 1.4269094169139862e-01 -2.9947865009307861e+00 3.1507888436317444e-01 -5.1981008052825928e-01 -5.6258916854858398e-01 1.0080476999282837e+00 2.3335258960723877e+00 -6.9162994623184204e-01 -2.7959761023521423e-01 -2.3822870850563049e-01 -4.6695721149444580e-01 5.7983607053756714e-01 -3.1521999835968018e-01 1.1075797080993652e+00 -4.1953664273023605e-02 7.0059575140476227e-02 4.1402313858270645e-02 -4.3147581815719604e-01 -3.8085005283355713e+00 5.1290345191955566e-01 -1.8804346024990082e-01 6.2200927734375000e-01 -4.6956011652946472e-01 -2.3375737667083740e+00 1.4083397388458252e-01 -5.5986657142639160e+00 5.2232513427734375e+00 -4.6488860249519348e-01 1.0833952426910400e+00 5.3541550636291504e+00 -3.1540079116821289e+00 -2.5133941173553467e+00 2.2444805502891541e-01 -2.1875199675559998e-01 3.1275928020477295e-02 -1.0036798715591431e+00 1.8603846430778503e-01 -4.7220730781555176e+00 -4.4298622757196426e-02 -1.8919782340526581e-01 9.8790079355239868e-02 9.7512722015380859e-01 1.3608835637569427e-01 -8.7611973285675049e-02 -9.1833673417568207e-02 2.5439852476119995e-01 -5.3932929039001465e-01 -1.0186740010976791e-01 -4.7806009650230408e-01 6.5602821111679077e-01 -2.2719388008117676e+00 3.0765264034271240e+00 1.2467525154352188e-01 -5.0295572280883789e+00 -3.7825509905815125e-01 -6.8319773674011230e-01 -3.0642727017402649e-01 -3.2991504669189453e+00 7.9047530889511108e-01 8.3629024028778076e-01 -8.2767468690872192e-01 9.5920056104660034e-01 1.1154417991638184e+00 -4.8593869805335999e-01 -4.5845934748649597e-01 9.5853522419929504e-02 4.5982843637466431e-01 -3.7991145253181458e-01 -1.2577202916145325e-01 2.4037697315216064e+00 5.0053369998931885e-01 -5.9946255683898926e+00 4.5277383923530579e-01 6.0848789215087891e+00 3.0486893653869629e-01 -5.0615273416042328e-02 6.5113878250122070e-01 -2.0296905934810638e-01 -4.0670299530029297e+00 1.0063370466232300e+00 -6.4103779792785645e+00 -5.9986166954040527e+00 6.7764812707901001e-01 
      </Biases>
    </Layer>
    <Layer ActivationFunction="3">
      <Weights rows="50" cols="100">
